network "unnamedBN" {
// written by aGrUM 1.8.3
}

variable HypoxiaInO2 {
   type discrete[4] {0, 1, 2, 3};
}

variable CO2 {
   type discrete[4] {0, 1, 2, 3};
}

variable Disease {
   type discrete[4] {0, 1, 2, 3};
}

variable ChestXray {
   type discrete[4] {0, 1, 2, 3};
}

variable LungFlow {
   type discrete[4] {0, 1, 2, 3};
}

variable HypDistrib {
   type discrete[4] {0, 1, 2, 3};
}

variable Grunting {
   type discrete[4] {0, 1, 2, 3};
}

variable LungParench {
   type discrete[4] {0, 1, 2, 3};
}

variable DuctFlow {
   type discrete[4] {0, 1, 2, 3};
}

variable Sick {
   type discrete[4] {0, 1, 2, 3};
}

variable BirthAsphyxia {
   type discrete[4] {0, 1, 2, 3};
}

variable CardiacMixing {
   type discrete[4] {0, 1, 2, 3};
}

probability (HypoxiaInO2 | CardiacMixing, LungParench) {
   (0, 0) 0.115177 0.369548 0.0187503 0.496525;
   (1, 0) 0.25527 0.290507 0.173855 0.280367;
   (2, 0) 0.28678 0.22136 0.419294 0.0725658;
   (3, 0) 0.12673 0.418344 0.388591 0.0663354;
   (0, 1) 0.343256 0.130599 0.224324 0.30182;
   (1, 1) 0.300827 0.238425 0.424515 0.0362335;
   (2, 1) 0.472845 0.0227911 0.252993 0.251371;
   (3, 1) 0.233167 0.316751 0.218683 0.231398;
   (0, 2) 0.0239614 0.149475 0.227914 0.59865;
   (1, 2) 0.576788 0.227309 0.166378 0.0295255;
   (2, 2) 0.343255 0.432392 0.14593 0.0784229;
   (3, 2) 0.148281 0.336164 0.0462874 0.469268;
   (0, 3) 0.290026 0.0788995 0.274491 0.356583;
   (1, 3) 0.35751 0.291268 0.33691 0.0143114;
   (2, 3) 0.319426 0.0563992 0.396636 0.227539;
   (3, 3) 0.0144249 0.446295 0.12212 0.41716;
}
probability (CO2 | LungParench) {
   (0) 0.392189 0.0866129 0.256656 0.264542;
   (1) 0.254794 0.269458 0.113358 0.36239;
   (2) 0.143727 0.252424 0.431924 0.171926;
   (3) 0.0575455 0.213752 0.34091 0.387793;
}
probability (Disease | BirthAsphyxia) {
   (0) 0.240622 0.271325 0.237862 0.250191;
   (1) 0.48842 0.0575536 0.0930489 0.360978;
   (2) 0.0719011 0.331191 0.260971 0.335937;
   (3) 0.175597 0.313794 0.230799 0.279809;
}
probability (ChestXray | LungFlow, LungParench) {
   (0, 0) 0.0942469 0.187132 0.371117 0.347504;
   (1, 0) 0.400046 0.339863 0.223627 0.0364642;
   (2, 0) 0.177634 0.231393 0.12584 0.465133;
   (3, 0) 0.360626 0.0790211 0.372333 0.18802;
   (0, 1) 0.0183556 0.237101 0.475171 0.269373;
   (1, 1) 0.309946 0.281184 0.246872 0.161998;
   (2, 1) 0.39668 0.398995 0.114281 0.0900439;
   (3, 1) 0.416784 0.18971 0.0466792 0.346827;
   (0, 2) 0.23003 0.193365 0.17759 0.399015;
   (1, 2) 0.358946 0.012507 0.0718335 0.556713;
   (2, 2) 0.111041 0.549092 0.216397 0.12347;
   (3, 2) 0.335477 0.262035 0.0881284 0.31436;
   (0, 3) 0.248178 0.44485 0.191483 0.115489;
   (1, 3) 0.280287 0.255429 0.0903949 0.373889;
   (2, 3) 0.246118 0.0839884 0.346741 0.323152;
   (3, 3) 0.19891 0.226789 0.367075 0.207226;
}
probability (LungFlow | Disease) {
   (0) 0.117749 0.304013 0.301406 0.276831;
   (1) 0.315273 0.309426 0.142633 0.232668;
   (2) 0.198763 0.107193 0.306153 0.387891;
   (3) 0.466733 0.204175 0.168602 0.16049;
}
probability (HypDistrib | DuctFlow, CardiacMixing) {
   (0, 0) 0.228573 0.141569 0.28532 0.344538;
   (1, 0) 0.529 0.178259 0.0749199 0.217821;
   (2, 0) 0.328348 0.220528 0.425055 0.0260685;
   (3, 0) 0.140128 0.0849275 0.411099 0.363846;
   (0, 1) 0.142159 0.332257 0.211436 0.314148;
   (1, 1) 0.00606239 0.685838 0.108365 0.199735;
   (2, 1) 0.400664 0.0854986 0.309245 0.204592;
   (3, 1) 0.111255 0.144917 0.449604 0.294224;
   (0, 2) 0.0342786 0.289885 0.0720604 0.603776;
   (1, 2) 0.448054 0.0413986 0.393395 0.117153;
   (2, 2) 0.214259 0.186589 0.308468 0.290684;
   (3, 2) 0.223426 0.307124 0.279334 0.190117;
   (0, 3) 0.292796 0.143725 0.270146 0.293333;
   (1, 3) 0.434149 0.0671421 0.425518 0.0731908;
   (2, 3) 0.299617 0.0813148 0.293735 0.325333;
   (3, 3) 0.392872 0.114371 0.259706 0.233051;
}
probability (Grunting | LungParench, Sick) {
   (0, 0) 0.393613 0.249684 0.160725 0.195977;
   (1, 0) 0.350348 0.358149 0.0782526 0.213251;
   (2, 0) 0.48086 0.269945 0.13491 0.114285;
   (3, 0) 0.0960095 0.0773309 0.583014 0.243646;
   (0, 1) 0.156891 0.0902623 0.23489 0.517957;
   (1, 1) 0.129821 0.330777 0.354723 0.184679;
   (2, 1) 0.0911225 0.305541 0.321921 0.281416;
   (3, 1) 0.455252 0.137109 0.00326988 0.404369;
   (0, 2) 0.303287 0.53775 0.0795722 0.0793913;
   (1, 2) 0.293198 0.201056 0.250528 0.255219;
   (2, 2) 0.327351 0.268131 0.0645206 0.339998;
   (3, 2) 0.287916 0.0262169 0.0712027 0.614665;
   (0, 3) 0.31618 0.219905 0.342018 0.121897;
   (1, 3) 0.157704 0.0977649 0.672046 0.0724844;
   (2, 3) 0.110446 0.0904541 0.312604 0.486496;
   (3, 3) 0.245267 0.0953587 0.285833 0.373541;
}
probability (LungParench | Disease) {
   (0) 0.205013 0.319429 0.357265 0.118293;
   (1) 0.308184 0.425734 0.129503 0.136578;
   (2) 0.158437 0.251737 0.346157 0.243669;
   (3) 0.11726 0.144628 0.41664 0.321473;
}
probability (DuctFlow | Disease) {
   (0) 0.225521 0.138976 0.318975 0.316529;
   (1) 0.181724 0.06321 0.420495 0.33457;
   (2) 0.333686 0.152659 0.235039 0.278616;
   (3) 0.245863 0.338392 0.0851865 0.330559;
}
probability (Sick | Disease) {
   (0) 0.281081 0.241741 0.252791 0.224387;
   (1) 0.254913 0.154086 0.16304 0.427961;
   (2) 0.669086 0.155085 0.138283 0.0375455;
   (3) 0.247139 0.197124 0.21404 0.341696;
}
probability (BirthAsphyxia) {
   table 0.283732 0.415491 0.293795 0.00698224;
}
probability (CardiacMixing | Disease) {
   (0) 0.201599 0.279648 0.305159 0.213593;
   (1) 0.203596 0.271689 0.489444 0.0352713;
   (2) 0.208253 0.410828 0.0278277 0.353091;
   (3) 0.363596 0.279149 0.248725 0.10853;
}

