
net {
  name = Alarm;
  software = "aGrUM 1.9.0";
  node_size = (50 50);
}

node HISTORY {
   states = (TRUE FALSE );
   label = "HISTORY";
   ID = "HISTORY";
}

node CVP {
   states = (LOW NORMAL HIGH );
   label = "CVP";
   ID = "CVP";
}

node PCWP {
   states = (LOW NORMAL HIGH );
   label = "PCWP";
   ID = "PCWP";
}

node HYPOVOLEMIA {
   states = (TRUE FALSE );
   label = "HYPOVOLEMIA";
   ID = "HYPOVOLEMIA";
}

node LVEDVOLUME {
   states = (LOW NORMAL HIGH );
   label = "LVEDVOLUME";
   ID = "LVEDVOLUME";
}

node LVFAILURE {
   states = (TRUE FALSE );
   label = "LVFAILURE";
   ID = "LVFAILURE";
}

node STROKEVOLUME {
   states = (LOW NORMAL HIGH );
   label = "STROKEVOLUME";
   ID = "STROKEVOLUME";
}

node ERRLOWOUTPUT {
   states = (TRUE FALSE );
   label = "ERRLOWOUTPUT";
   ID = "ERRLOWOUTPUT";
}

node HRBP {
   states = (LOW NORMAL HIGH );
   label = "HRBP";
   ID = "HRBP";
}

node HREKG {
   states = (LOW NORMAL HIGH );
   label = "HREKG";
   ID = "HREKG";
}

node ERRCAUTER {
   states = (TRUE FALSE );
   label = "ERRCAUTER";
   ID = "ERRCAUTER";
}

node HRSAT {
   states = (LOW NORMAL HIGH );
   label = "HRSAT";
   ID = "HRSAT";
}

node INSUFFANESTH {
   states = (TRUE FALSE );
   label = "INSUFFANESTH";
   ID = "INSUFFANESTH";
}

node ANAPHYLAXIS {
   states = (TRUE FALSE );
   label = "ANAPHYLAXIS";
   ID = "ANAPHYLAXIS";
}

node TPR {
   states = (LOW NORMAL HIGH );
   label = "TPR";
   ID = "TPR";
}

node EXPCO2 {
   states = (ZERO LOW NORMAL HIGH );
   label = "EXPCO2";
   ID = "EXPCO2";
}

node KINKEDTUBE {
   states = (TRUE FALSE );
   label = "KINKEDTUBE";
   ID = "KINKEDTUBE";
}

node MINVOL {
   states = (ZERO LOW NORMAL HIGH );
   label = "MINVOL";
   ID = "MINVOL";
}

node FIO2 {
   states = (LOW NORMAL );
   label = "FIO2";
   ID = "FIO2";
}

node PVSAT {
   states = (LOW NORMAL HIGH );
   label = "PVSAT";
   ID = "PVSAT";
}

node SAO2 {
   states = (LOW NORMAL HIGH );
   label = "SAO2";
   ID = "SAO2";
}

node PAP {
   states = (LOW NORMAL HIGH );
   label = "PAP";
   ID = "PAP";
}

node PULMEMBOLUS {
   states = (TRUE FALSE );
   label = "PULMEMBOLUS";
   ID = "PULMEMBOLUS";
}

node SHUNT {
   states = (NORMAL HIGH );
   label = "SHUNT";
   ID = "SHUNT";
}

node INTUBATION {
   states = (NORMAL ESOPHAGEAL ONESIDED );
   label = "INTUBATION";
   ID = "INTUBATION";
}

node PRESS {
   states = (ZERO LOW NORMAL HIGH );
   label = "PRESS";
   ID = "PRESS";
}

node DISCONNECT {
   states = (TRUE FALSE );
   label = "DISCONNECT";
   ID = "DISCONNECT";
}

node MINVOLSET {
   states = (LOW NORMAL HIGH );
   label = "MINVOLSET";
   ID = "MINVOLSET";
}

node VENTMACH {
   states = (ZERO LOW NORMAL HIGH );
   label = "VENTMACH";
   ID = "VENTMACH";
}

node VENTTUBE {
   states = (ZERO LOW NORMAL HIGH );
   label = "VENTTUBE";
   ID = "VENTTUBE";
}

node VENTLUNG {
   states = (ZERO LOW NORMAL HIGH );
   label = "VENTLUNG";
   ID = "VENTLUNG";
}

node VENTALV {
   states = (ZERO LOW NORMAL HIGH );
   label = "VENTALV";
   ID = "VENTALV";
}

node ARTCO2 {
   states = (LOW NORMAL HIGH );
   label = "ARTCO2";
   ID = "ARTCO2";
}

node CATECHOL {
   states = (NORMAL HIGH );
   label = "CATECHOL";
   ID = "CATECHOL";
}

node HR {
   states = (LOW NORMAL HIGH );
   label = "HR";
   ID = "HR";
}

node CO {
   states = (LOW NORMAL HIGH );
   label = "CO";
   ID = "CO";
}

node BP {
   states = (LOW NORMAL HIGH );
   label = "BP";
   ID = "BP";
}

potential ( HISTORY | LVFAILURE   ) {
   data = 
   ((   0.9   0.1)   % LVFAILURE=TRUE   
   (   0.01   0.99));   % LVFAILURE=FALSE   
}

potential ( CVP | LVEDVOLUME   ) {
   data = 
   ((   0.95   0.04   0.01)   % LVEDVOLUME=LOW   
   (   0.04   0.95   0.01)   % LVEDVOLUME=NORMAL   
   (   0.01   0.29   0.7));   % LVEDVOLUME=HIGH   
}

potential ( PCWP | LVEDVOLUME   ) {
   data = 
   ((   0.95   0.04   0.01)   % LVEDVOLUME=LOW   
   (   0.04   0.95   0.01)   % LVEDVOLUME=NORMAL   
   (   0.01   0.04   0.95));   % LVEDVOLUME=HIGH   
}

potential (HYPOVOLEMIA) {
   data = (  0.2 0.8);
}

potential ( LVEDVOLUME | HYPOVOLEMIA   LVFAILURE   ) {
   data = 
   (((   0.95   0.04   0.01)   % LVFAILURE=TRUE   HYPOVOLEMIA=TRUE   
   (   0.01   0.09   0.9))   % LVFAILURE=FALSE   HYPOVOLEMIA=TRUE   
   ((   0.98   0.01   0.01)   % LVFAILURE=TRUE   HYPOVOLEMIA=FALSE   
   (   0.05   0.9   0.05)));   % LVFAILURE=FALSE   HYPOVOLEMIA=FALSE   
}

potential (LVFAILURE) {
   data = (  0.05 0.95);
}

potential ( STROKEVOLUME | HYPOVOLEMIA   LVFAILURE   ) {
   data = 
   (((   0.98   0.01   0.01)   % LVFAILURE=TRUE   HYPOVOLEMIA=TRUE   
   (   0.5   0.49   0.01))   % LVFAILURE=FALSE   HYPOVOLEMIA=TRUE   
   ((   0.95   0.04   0.01)   % LVFAILURE=TRUE   HYPOVOLEMIA=FALSE   
   (   0.05   0.9   0.05)));   % LVFAILURE=FALSE   HYPOVOLEMIA=FALSE   
}

potential (ERRLOWOUTPUT) {
   data = (  0.05 0.95);
}

potential ( HRBP | ERRLOWOUTPUT   HR   ) {
   data = 
   (((   0.98   0.01   0.01)   % HR=LOW   ERRLOWOUTPUT=TRUE   
   (   0.3   0.4   0.3)   % HR=NORMAL   ERRLOWOUTPUT=TRUE   
   (   0.01   0.98   0.01))   % HR=HIGH   ERRLOWOUTPUT=TRUE   
   ((   0.4   0.59   0.01)   % HR=LOW   ERRLOWOUTPUT=FALSE   
   (   0.98   0.01   0.01)   % HR=NORMAL   ERRLOWOUTPUT=FALSE   
   (   0.01   0.01   0.98)));   % HR=HIGH   ERRLOWOUTPUT=FALSE   
}

potential ( HREKG | ERRCAUTER   HR   ) {
   data = 
   (((   0.333333   0.333333   0.333333)   % HR=LOW   ERRCAUTER=TRUE   
   (   0.333333   0.333333   0.333333)   % HR=NORMAL   ERRCAUTER=TRUE   
   (   0.01   0.98   0.01))   % HR=HIGH   ERRCAUTER=TRUE   
   ((   0.333333   0.333333   0.333333)   % HR=LOW   ERRCAUTER=FALSE   
   (   0.98   0.01   0.01)   % HR=NORMAL   ERRCAUTER=FALSE   
   (   0.01   0.01   0.98)));   % HR=HIGH   ERRCAUTER=FALSE   
}

potential (ERRCAUTER) {
   data = (  0.1 0.9);
}

potential ( HRSAT | ERRCAUTER   HR   ) {
   data = 
   (((   0.333333   0.333333   0.333333)   % HR=LOW   ERRCAUTER=TRUE   
   (   0.333333   0.333333   0.333333)   % HR=NORMAL   ERRCAUTER=TRUE   
   (   0.01   0.98   0.01))   % HR=HIGH   ERRCAUTER=TRUE   
   ((   0.333333   0.333333   0.333333)   % HR=LOW   ERRCAUTER=FALSE   
   (   0.98   0.01   0.01)   % HR=NORMAL   ERRCAUTER=FALSE   
   (   0.01   0.01   0.98)));   % HR=HIGH   ERRCAUTER=FALSE   
}

potential (INSUFFANESTH) {
   data = (  0.1 0.9);
}

potential (ANAPHYLAXIS) {
   data = (  0.01 0.99);
}

potential ( TPR | ANAPHYLAXIS   ) {
   data = 
   ((   0.98   0.01   0.01)   % ANAPHYLAXIS=TRUE   
   (   0.3   0.4   0.3));   % ANAPHYLAXIS=FALSE   
}

potential ( EXPCO2 | ARTCO2   VENTLUNG   ) {
   data = 
   (((   0.97   0.01   0.01   0.01)   % VENTLUNG=ZERO   ARTCO2=LOW   
   (   0.01   0.97   0.01   0.01)   % VENTLUNG=LOW   ARTCO2=LOW   
   (   0.01   0.01   0.97   0.01)   % VENTLUNG=NORMAL   ARTCO2=LOW   
   (   0.01   0.01   0.01   0.97))   % VENTLUNG=HIGH   ARTCO2=LOW   
   ((   0.01   0.97   0.01   0.01)   % VENTLUNG=ZERO   ARTCO2=NORMAL   
   (   0.97   0.01   0.01   0.01)   % VENTLUNG=LOW   ARTCO2=NORMAL   
   (   0.01   0.01   0.97   0.01)   % VENTLUNG=NORMAL   ARTCO2=NORMAL   
   (   0.01   0.01   0.01   0.97))   % VENTLUNG=HIGH   ARTCO2=NORMAL   
   ((   0.01   0.97   0.01   0.01)   % VENTLUNG=ZERO   ARTCO2=HIGH   
   (   0.01   0.01   0.97   0.01)   % VENTLUNG=LOW   ARTCO2=HIGH   
   (   0.97   0.01   0.01   0.01)   % VENTLUNG=NORMAL   ARTCO2=HIGH   
   (   0.01   0.01   0.01   0.97)));   % VENTLUNG=HIGH   ARTCO2=HIGH   
}

potential (KINKEDTUBE) {
   data = (  0.04 0.96);
}

potential ( MINVOL | INTUBATION   VENTLUNG   ) {
   data = 
   (((   0.97   0.01   0.01   0.01)   % VENTLUNG=ZERO   INTUBATION=NORMAL   
   (   0.01   0.01   0.01   0.97)   % VENTLUNG=LOW   INTUBATION=NORMAL   
   (   0.5   0.48   0.01   0.01)   % VENTLUNG=NORMAL   INTUBATION=NORMAL   
   (   0.01   0.97   0.01   0.01))   % VENTLUNG=HIGH   INTUBATION=NORMAL   
   ((   0.01   0.97   0.01   0.01)   % VENTLUNG=ZERO   INTUBATION=ESOPHAGEAL   
   (   0.97   0.01   0.01   0.01)   % VENTLUNG=LOW   INTUBATION=ESOPHAGEAL   
   (   0.5   0.48   0.01   0.01)   % VENTLUNG=NORMAL   INTUBATION=ESOPHAGEAL   
   (   0.01   0.01   0.97   0.01))   % VENTLUNG=HIGH   INTUBATION=ESOPHAGEAL   
   ((   0.01   0.01   0.97   0.01)   % VENTLUNG=ZERO   INTUBATION=ONESIDED   
   (   0.6   0.38   0.01   0.01)   % VENTLUNG=LOW   INTUBATION=ONESIDED   
   (   0.97   0.01   0.01   0.01)   % VENTLUNG=NORMAL   INTUBATION=ONESIDED   
   (   0.01   0.01   0.01   0.97)));   % VENTLUNG=HIGH   INTUBATION=ONESIDED   
}

potential (FIO2) {
   data = (  0.05 0.95);
}

potential ( PVSAT | FIO2   VENTALV   ) {
   data = 
   (((   1   0   0)   % VENTALV=ZERO   FIO2=LOW   
   (   0.95   0.04   0.01)   % VENTALV=LOW   FIO2=LOW   
   (   1   0   0)   % VENTALV=NORMAL   FIO2=LOW   
   (   0.01   0.95   0.04))   % VENTALV=HIGH   FIO2=LOW   
   ((   0.99   0.01   0)   % VENTALV=ZERO   FIO2=NORMAL   
   (   0.95   0.04   0.01)   % VENTALV=LOW   FIO2=NORMAL   
   (   0.95   0.04   0.01)   % VENTALV=NORMAL   FIO2=NORMAL   
   (   0.01   0.01   0.98)));   % VENTALV=HIGH   FIO2=NORMAL   
}

potential ( SAO2 | PVSAT   SHUNT   ) {
   data = 
   (((   0.98   0.01   0.01)   % SHUNT=NORMAL   PVSAT=LOW   
   (   0.98   0.01   0.01))   % SHUNT=HIGH   PVSAT=LOW   
   ((   0.01   0.98   0.01)   % SHUNT=NORMAL   PVSAT=NORMAL   
   (   0.98   0.01   0.01))   % SHUNT=HIGH   PVSAT=NORMAL   
   ((   0.01   0.01   0.98)   % SHUNT=NORMAL   PVSAT=HIGH   
   (   0.69   0.3   0.01)));   % SHUNT=HIGH   PVSAT=HIGH   
}

potential ( PAP | PULMEMBOLUS   ) {
   data = 
   ((   0.01   0.19   0.8)   % PULMEMBOLUS=TRUE   
   (   0.05   0.9   0.05));   % PULMEMBOLUS=FALSE   
}

potential (PULMEMBOLUS) {
   data = (  0.01 0.99);
}

potential ( SHUNT | INTUBATION   PULMEMBOLUS   ) {
   data = 
   (((   0.1   0.9)   % PULMEMBOLUS=TRUE   INTUBATION=NORMAL   
   (   0.95   0.05))   % PULMEMBOLUS=FALSE   INTUBATION=NORMAL   
   ((   0.1   0.9)   % PULMEMBOLUS=TRUE   INTUBATION=ESOPHAGEAL   
   (   0.95   0.05))   % PULMEMBOLUS=FALSE   INTUBATION=ESOPHAGEAL   
   ((   0.01   0.99)   % PULMEMBOLUS=TRUE   INTUBATION=ONESIDED   
   (   0.05   0.95)));   % PULMEMBOLUS=FALSE   INTUBATION=ONESIDED   
}

potential (INTUBATION) {
   data = (  0.92 0.03 0.05);
}

potential ( PRESS | INTUBATION   KINKEDTUBE   VENTTUBE   ) {
   data = 
   ((((   0.97   0.01   0.01   0.01)   % VENTTUBE=ZERO   KINKEDTUBE=TRUE   INTUBATION=NORMAL   
   (   0.05   0.25   0.25   0.45)   % VENTTUBE=LOW   KINKEDTUBE=TRUE   INTUBATION=NORMAL   
   (   0.97   0.01   0.01   0.01)   % VENTTUBE=NORMAL   KINKEDTUBE=TRUE   INTUBATION=NORMAL   
   (   0.2   0.75   0.04   0.01))   % VENTTUBE=HIGH   KINKEDTUBE=TRUE   INTUBATION=NORMAL   
   ((   0.01   0.01   0.01   0.97)   % VENTTUBE=ZERO   KINKEDTUBE=FALSE   INTUBATION=NORMAL   
   (   0.01   0.29   0.3   0.4)   % VENTTUBE=LOW   KINKEDTUBE=FALSE   INTUBATION=NORMAL   
   (   0.01   0.01   0.01   0.97)   % VENTTUBE=NORMAL   KINKEDTUBE=FALSE   INTUBATION=NORMAL   
   (   0.01   0.9   0.08   0.01)))   % VENTTUBE=HIGH   KINKEDTUBE=FALSE   INTUBATION=NORMAL   
   (((   0.01   0.3   0.49   0.2)   % VENTTUBE=ZERO   KINKEDTUBE=TRUE   INTUBATION=ESOPHAGEAL   
   (   0.01   0.15   0.25   0.59)   % VENTTUBE=LOW   KINKEDTUBE=TRUE   INTUBATION=ESOPHAGEAL   
   (   0.01   0.97   0.01   0.01)   % VENTTUBE=NORMAL   KINKEDTUBE=TRUE   INTUBATION=ESOPHAGEAL   
   (   0.2   0.7   0.09   0.01))   % VENTTUBE=HIGH   KINKEDTUBE=TRUE   INTUBATION=ESOPHAGEAL   
   ((   0.97   0.01   0.01   0.01)   % VENTTUBE=ZERO   KINKEDTUBE=FALSE   INTUBATION=ESOPHAGEAL   
   (   0.01   0.01   0.08   0.9)   % VENTTUBE=LOW   KINKEDTUBE=FALSE   INTUBATION=ESOPHAGEAL   
   (   0.97   0.01   0.01   0.01)   % VENTTUBE=NORMAL   KINKEDTUBE=FALSE   INTUBATION=ESOPHAGEAL   
   (   0.01   0.01   0.38   0.6)))   % VENTTUBE=HIGH   KINKEDTUBE=FALSE   INTUBATION=ESOPHAGEAL   
   (((   0.01   0.01   0.08   0.9)   % VENTTUBE=ZERO   KINKEDTUBE=TRUE   INTUBATION=ONESIDED   
   (   0.97   0.01   0.01   0.01)   % VENTTUBE=LOW   KINKEDTUBE=TRUE   INTUBATION=ONESIDED   
   (   0.01   0.01   0.97   0.01)   % VENTTUBE=NORMAL   KINKEDTUBE=TRUE   INTUBATION=ONESIDED   
   (   0.97   0.01   0.01   0.01))   % VENTTUBE=HIGH   KINKEDTUBE=TRUE   INTUBATION=ONESIDED   
   ((   0.1   0.84   0.05   0.01)   % VENTTUBE=ZERO   KINKEDTUBE=FALSE   INTUBATION=ONESIDED   
   (   0.01   0.01   0.01   0.97)   % VENTTUBE=LOW   KINKEDTUBE=FALSE   INTUBATION=ONESIDED   
   (   0.4   0.58   0.01   0.01)   % VENTTUBE=NORMAL   KINKEDTUBE=FALSE   INTUBATION=ONESIDED   
   (   0.01   0.01   0.01   0.97))));   % VENTTUBE=HIGH   KINKEDTUBE=FALSE   INTUBATION=ONESIDED   
}

potential (DISCONNECT) {
   data = (  0.1 0.9);
}

potential (MINVOLSET) {
   data = (  0.05 0.9 0.05);
}

potential ( VENTMACH | MINVOLSET   ) {
   data = 
   ((   0.05   0.93   0.01   0.01)   % MINVOLSET=LOW   
   (   0.05   0.01   0.93   0.01)   % MINVOLSET=NORMAL   
   (   0.05   0.01   0.01   0.93));   % MINVOLSET=HIGH   
}

potential ( VENTTUBE | DISCONNECT   VENTMACH   ) {
   data = 
   (((   0.97   0.01   0.01   0.01)   % VENTMACH=ZERO   DISCONNECT=TRUE   
   (   0.97   0.01   0.01   0.01)   % VENTMACH=LOW   DISCONNECT=TRUE   
   (   0.97   0.01   0.01   0.01)   % VENTMACH=NORMAL   DISCONNECT=TRUE   
   (   0.01   0.01   0.97   0.01))   % VENTMACH=HIGH   DISCONNECT=TRUE   
   ((   0.97   0.01   0.01   0.01)   % VENTMACH=ZERO   DISCONNECT=FALSE   
   (   0.97   0.01   0.01   0.01)   % VENTMACH=LOW   DISCONNECT=FALSE   
   (   0.01   0.97   0.01   0.01)   % VENTMACH=NORMAL   DISCONNECT=FALSE   
   (   0.01   0.01   0.01   0.97)));   % VENTMACH=HIGH   DISCONNECT=FALSE   
}

potential ( VENTLUNG | INTUBATION   KINKEDTUBE   VENTTUBE   ) {
   data = 
   ((((   0.97   0.01   0.01   0.01)   % VENTTUBE=ZERO   KINKEDTUBE=TRUE   INTUBATION=NORMAL   
   (   0.97   0.01   0.01   0.01)   % VENTTUBE=LOW   KINKEDTUBE=TRUE   INTUBATION=NORMAL   
   (   0.97   0.01   0.01   0.01)   % VENTTUBE=NORMAL   KINKEDTUBE=TRUE   INTUBATION=NORMAL   
   (   0.97   0.01   0.01   0.01))   % VENTTUBE=HIGH   KINKEDTUBE=TRUE   INTUBATION=NORMAL   
   ((   0.3   0.68   0.01   0.01)   % VENTTUBE=ZERO   KINKEDTUBE=FALSE   INTUBATION=NORMAL   
   (   0.95   0.03   0.01   0.01)   % VENTTUBE=LOW   KINKEDTUBE=FALSE   INTUBATION=NORMAL   
   (   0.01   0.01   0.01   0.97)   % VENTTUBE=NORMAL   KINKEDTUBE=FALSE   INTUBATION=NORMAL   
   (   0.01   0.97   0.01   0.01)))   % VENTTUBE=HIGH   KINKEDTUBE=FALSE   INTUBATION=NORMAL   
   (((   0.95   0.03   0.01   0.01)   % VENTTUBE=ZERO   KINKEDTUBE=TRUE   INTUBATION=ESOPHAGEAL   
   (   0.97   0.01   0.01   0.01)   % VENTTUBE=LOW   KINKEDTUBE=TRUE   INTUBATION=ESOPHAGEAL   
   (   0.01   0.97   0.01   0.01)   % VENTTUBE=NORMAL   KINKEDTUBE=TRUE   INTUBATION=ESOPHAGEAL   
   (   0.97   0.01   0.01   0.01))   % VENTTUBE=HIGH   KINKEDTUBE=TRUE   INTUBATION=ESOPHAGEAL   
   ((   0.97   0.01   0.01   0.01)   % VENTTUBE=ZERO   KINKEDTUBE=FALSE   INTUBATION=ESOPHAGEAL   
   (   0.5   0.48   0.01   0.01)   % VENTTUBE=LOW   KINKEDTUBE=FALSE   INTUBATION=ESOPHAGEAL   
   (   0.97   0.01   0.01   0.01)   % VENTTUBE=NORMAL   KINKEDTUBE=FALSE   INTUBATION=ESOPHAGEAL   
   (   0.01   0.01   0.97   0.01)))   % VENTTUBE=HIGH   KINKEDTUBE=FALSE   INTUBATION=ESOPHAGEAL   
   (((   0.4   0.58   0.01   0.01)   % VENTTUBE=ZERO   KINKEDTUBE=TRUE   INTUBATION=ONESIDED   
   (   0.97   0.01   0.01   0.01)   % VENTTUBE=LOW   KINKEDTUBE=TRUE   INTUBATION=ONESIDED   
   (   0.01   0.01   0.97   0.01)   % VENTTUBE=NORMAL   KINKEDTUBE=TRUE   INTUBATION=ONESIDED   
   (   0.97   0.01   0.01   0.01))   % VENTTUBE=HIGH   KINKEDTUBE=TRUE   INTUBATION=ONESIDED   
   ((   0.97   0.01   0.01   0.01)   % VENTTUBE=ZERO   KINKEDTUBE=FALSE   INTUBATION=ONESIDED   
   (   0.3   0.68   0.01   0.01)   % VENTTUBE=LOW   KINKEDTUBE=FALSE   INTUBATION=ONESIDED   
   (   0.97   0.01   0.01   0.01)   % VENTTUBE=NORMAL   KINKEDTUBE=FALSE   INTUBATION=ONESIDED   
   (   0.01   0.01   0.01   0.97))));   % VENTTUBE=HIGH   KINKEDTUBE=FALSE   INTUBATION=ONESIDED   
}

potential ( VENTALV | INTUBATION   VENTLUNG   ) {
   data = 
   (((   0.97   0.01   0.01   0.01)   % VENTLUNG=ZERO   INTUBATION=NORMAL   
   (   0.01   0.01   0.01   0.97)   % VENTLUNG=LOW   INTUBATION=NORMAL   
   (   0.01   0.01   0.97   0.01)   % VENTLUNG=NORMAL   INTUBATION=NORMAL   
   (   0.03   0.95   0.01   0.01))   % VENTLUNG=HIGH   INTUBATION=NORMAL   
   ((   0.01   0.97   0.01   0.01)   % VENTLUNG=ZERO   INTUBATION=ESOPHAGEAL   
   (   0.97   0.01   0.01   0.01)   % VENTLUNG=LOW   INTUBATION=ESOPHAGEAL   
   (   0.01   0.01   0.01   0.97)   % VENTLUNG=NORMAL   INTUBATION=ESOPHAGEAL   
   (   0.01   0.94   0.04   0.01))   % VENTLUNG=HIGH   INTUBATION=ESOPHAGEAL   
   ((   0.01   0.01   0.97   0.01)   % VENTLUNG=ZERO   INTUBATION=ONESIDED   
   (   0.01   0.97   0.01   0.01)   % VENTLUNG=LOW   INTUBATION=ONESIDED   
   (   0.97   0.01   0.01   0.01)   % VENTLUNG=NORMAL   INTUBATION=ONESIDED   
   (   0.01   0.88   0.1   0.01)));   % VENTLUNG=HIGH   INTUBATION=ONESIDED   
}

potential ( ARTCO2 | VENTALV   ) {
   data = 
   ((   0.01   0.01   0.98)   % VENTALV=ZERO   
   (   0.01   0.01   0.98)   % VENTALV=LOW   
   (   0.04   0.92   0.04)   % VENTALV=NORMAL   
   (   0.9   0.09   0.01));   % VENTALV=HIGH   
}

potential ( CATECHOL | ARTCO2   INSUFFANESTH   SAO2   TPR   ) {
   data = 
   (((((   0.01   0.99)   % TPR=LOW   SAO2=LOW   INSUFFANESTH=TRUE   ARTCO2=LOW   
   (   0.01   0.99)   % TPR=NORMAL   SAO2=LOW   INSUFFANESTH=TRUE   ARTCO2=LOW   
   (   0.7   0.3))   % TPR=HIGH   SAO2=LOW   INSUFFANESTH=TRUE   ARTCO2=LOW   
   ((   0.01   0.99)   % TPR=LOW   SAO2=NORMAL   INSUFFANESTH=TRUE   ARTCO2=LOW   
   (   0.05   0.95)   % TPR=NORMAL   SAO2=NORMAL   INSUFFANESTH=TRUE   ARTCO2=LOW   
   (   0.7   0.3))   % TPR=HIGH   SAO2=NORMAL   INSUFFANESTH=TRUE   ARTCO2=LOW   
   ((   0.01   0.99)   % TPR=LOW   SAO2=HIGH   INSUFFANESTH=TRUE   ARTCO2=LOW   
   (   0.05   0.95)   % TPR=NORMAL   SAO2=HIGH   INSUFFANESTH=TRUE   ARTCO2=LOW   
   (   0.95   0.05)))   % TPR=HIGH   SAO2=HIGH   INSUFFANESTH=TRUE   ARTCO2=LOW   
   (((   0.01   0.99)   % TPR=LOW   SAO2=LOW   INSUFFANESTH=FALSE   ARTCO2=LOW   
   (   0.05   0.95)   % TPR=NORMAL   SAO2=LOW   INSUFFANESTH=FALSE   ARTCO2=LOW   
   (   0.7   0.3))   % TPR=HIGH   SAO2=LOW   INSUFFANESTH=FALSE   ARTCO2=LOW   
   ((   0.01   0.99)   % TPR=LOW   SAO2=NORMAL   INSUFFANESTH=FALSE   ARTCO2=LOW   
   (   0.05   0.95)   % TPR=NORMAL   SAO2=NORMAL   INSUFFANESTH=FALSE   ARTCO2=LOW   
   (   0.95   0.05))   % TPR=HIGH   SAO2=NORMAL   INSUFFANESTH=FALSE   ARTCO2=LOW   
   ((   0.05   0.95)   % TPR=LOW   SAO2=HIGH   INSUFFANESTH=FALSE   ARTCO2=LOW   
   (   0.05   0.95)   % TPR=NORMAL   SAO2=HIGH   INSUFFANESTH=FALSE   ARTCO2=LOW   
   (   0.95   0.05))))   % TPR=HIGH   SAO2=HIGH   INSUFFANESTH=FALSE   ARTCO2=LOW   
   ((((   0.01   0.99)   % TPR=LOW   SAO2=LOW   INSUFFANESTH=TRUE   ARTCO2=NORMAL   
   (   0.01   0.99)   % TPR=NORMAL   SAO2=LOW   INSUFFANESTH=TRUE   ARTCO2=NORMAL   
   (   0.7   0.3))   % TPR=HIGH   SAO2=LOW   INSUFFANESTH=TRUE   ARTCO2=NORMAL   
   ((   0.01   0.99)   % TPR=LOW   SAO2=NORMAL   INSUFFANESTH=TRUE   ARTCO2=NORMAL   
   (   0.05   0.95)   % TPR=NORMAL   SAO2=NORMAL   INSUFFANESTH=TRUE   ARTCO2=NORMAL   
   (   0.7   0.3))   % TPR=HIGH   SAO2=NORMAL   INSUFFANESTH=TRUE   ARTCO2=NORMAL   
   ((   0.01   0.99)   % TPR=LOW   SAO2=HIGH   INSUFFANESTH=TRUE   ARTCO2=NORMAL   
   (   0.05   0.95)   % TPR=NORMAL   SAO2=HIGH   INSUFFANESTH=TRUE   ARTCO2=NORMAL   
   (   0.99   0.01)))   % TPR=HIGH   SAO2=HIGH   INSUFFANESTH=TRUE   ARTCO2=NORMAL   
   (((   0.01   0.99)   % TPR=LOW   SAO2=LOW   INSUFFANESTH=FALSE   ARTCO2=NORMAL   
   (   0.05   0.95)   % TPR=NORMAL   SAO2=LOW   INSUFFANESTH=FALSE   ARTCO2=NORMAL   
   (   0.7   0.3))   % TPR=HIGH   SAO2=LOW   INSUFFANESTH=FALSE   ARTCO2=NORMAL   
   ((   0.01   0.99)   % TPR=LOW   SAO2=NORMAL   INSUFFANESTH=FALSE   ARTCO2=NORMAL   
   (   0.05   0.95)   % TPR=NORMAL   SAO2=NORMAL   INSUFFANESTH=FALSE   ARTCO2=NORMAL   
   (   0.99   0.01))   % TPR=HIGH   SAO2=NORMAL   INSUFFANESTH=FALSE   ARTCO2=NORMAL   
   ((   0.05   0.95)   % TPR=LOW   SAO2=HIGH   INSUFFANESTH=FALSE   ARTCO2=NORMAL   
   (   0.05   0.95)   % TPR=NORMAL   SAO2=HIGH   INSUFFANESTH=FALSE   ARTCO2=NORMAL   
   (   0.99   0.01))))   % TPR=HIGH   SAO2=HIGH   INSUFFANESTH=FALSE   ARTCO2=NORMAL   
   ((((   0.01   0.99)   % TPR=LOW   SAO2=LOW   INSUFFANESTH=TRUE   ARTCO2=HIGH   
   (   0.01   0.99)   % TPR=NORMAL   SAO2=LOW   INSUFFANESTH=TRUE   ARTCO2=HIGH   
   (   0.1   0.9))   % TPR=HIGH   SAO2=LOW   INSUFFANESTH=TRUE   ARTCO2=HIGH   
   ((   0.01   0.99)   % TPR=LOW   SAO2=NORMAL   INSUFFANESTH=TRUE   ARTCO2=HIGH   
   (   0.01   0.99)   % TPR=NORMAL   SAO2=NORMAL   INSUFFANESTH=TRUE   ARTCO2=HIGH   
   (   0.1   0.9))   % TPR=HIGH   SAO2=NORMAL   INSUFFANESTH=TRUE   ARTCO2=HIGH   
   ((   0.01   0.99)   % TPR=LOW   SAO2=HIGH   INSUFFANESTH=TRUE   ARTCO2=HIGH   
   (   0.01   0.99)   % TPR=NORMAL   SAO2=HIGH   INSUFFANESTH=TRUE   ARTCO2=HIGH   
   (   0.3   0.7)))   % TPR=HIGH   SAO2=HIGH   INSUFFANESTH=TRUE   ARTCO2=HIGH   
   (((   0.01   0.99)   % TPR=LOW   SAO2=LOW   INSUFFANESTH=FALSE   ARTCO2=HIGH   
   (   0.01   0.99)   % TPR=NORMAL   SAO2=LOW   INSUFFANESTH=FALSE   ARTCO2=HIGH   
   (   0.1   0.9))   % TPR=HIGH   SAO2=LOW   INSUFFANESTH=FALSE   ARTCO2=HIGH   
   ((   0.01   0.99)   % TPR=LOW   SAO2=NORMAL   INSUFFANESTH=FALSE   ARTCO2=HIGH   
   (   0.01   0.99)   % TPR=NORMAL   SAO2=NORMAL   INSUFFANESTH=FALSE   ARTCO2=HIGH   
   (   0.3   0.7))   % TPR=HIGH   SAO2=NORMAL   INSUFFANESTH=FALSE   ARTCO2=HIGH   
   ((   0.01   0.99)   % TPR=LOW   SAO2=HIGH   INSUFFANESTH=FALSE   ARTCO2=HIGH   
   (   0.01   0.99)   % TPR=NORMAL   SAO2=HIGH   INSUFFANESTH=FALSE   ARTCO2=HIGH   
   (   0.3   0.7)))));   % TPR=HIGH   SAO2=HIGH   INSUFFANESTH=FALSE   ARTCO2=HIGH   
}

potential ( HR | CATECHOL   ) {
   data = 
   ((   0.05   0.9   0.05)   % CATECHOL=NORMAL   
   (   0.01   0.09   0.9));   % CATECHOL=HIGH   
}

potential ( CO | HR   STROKEVOLUME   ) {
   data = 
   (((   0.98   0.01   0.01)   % STROKEVOLUME=LOW   HR=LOW   
   (   0.95   0.04   0.01)   % STROKEVOLUME=NORMAL   HR=LOW   
   (   0.3   0.69   0.01))   % STROKEVOLUME=HIGH   HR=LOW   
   ((   0.95   0.04   0.01)   % STROKEVOLUME=LOW   HR=NORMAL   
   (   0.04   0.95   0.01)   % STROKEVOLUME=NORMAL   HR=NORMAL   
   (   0.01   0.3   0.69))   % STROKEVOLUME=HIGH   HR=NORMAL   
   ((   0.8   0.19   0.01)   % STROKEVOLUME=LOW   HR=HIGH   
   (   0.01   0.04   0.95)   % STROKEVOLUME=NORMAL   HR=HIGH   
   (   0.01   0.01   0.98)));   % STROKEVOLUME=HIGH   HR=HIGH   
}

potential ( BP | CO   TPR   ) {
   data = 
   (((   0.98   0.01   0.01)   % TPR=LOW   CO=LOW   
   (   0.98   0.01   0.01)   % TPR=NORMAL   CO=LOW   
   (   0.3   0.6   0.1))   % TPR=HIGH   CO=LOW   
   ((   0.98   0.01   0.01)   % TPR=LOW   CO=NORMAL   
   (   0.1   0.85   0.05)   % TPR=NORMAL   CO=NORMAL   
   (   0.05   0.4   0.55))   % TPR=HIGH   CO=NORMAL   
   ((   0.9   0.09   0.01)   % TPR=LOW   CO=HIGH   
   (   0.05   0.2   0.75)   % TPR=NORMAL   CO=HIGH   
   (   0.01   0.09   0.9)));   % TPR=HIGH   CO=HIGH   
}


