
net {
  name = Insurance;
  software = "aGrUM 1.9.0";
  node_size = (50 50);
}

node GoodStudent {
   states = (True False );
   label = "GoodStudent";
   ID = "GoodStudent";
}

node Age {
   states = (Adolescent Adult Senior );
   label = "Age";
   ID = "Age";
}

node SocioEcon {
   states = (Prole Middle UpperMiddle Wealthy );
   label = "SocioEcon";
   ID = "SocioEcon";
}

node RiskAversion {
   states = (Psychopath Adventurous Normal Cautious );
   label = "RiskAversion";
   ID = "RiskAversion";
}

node VehicleYear {
   states = (Current Older );
   label = "VehicleYear";
   ID = "VehicleYear";
}

node ThisCarDam {
   states = (None Mild Moderate Severe );
   label = "ThisCarDam";
   ID = "ThisCarDam";
}

node RuggedAuto {
   states = (EggShell Football Tank );
   label = "RuggedAuto";
   ID = "RuggedAuto";
}

node Accident {
   states = (None Mild Moderate Severe );
   label = "Accident";
   ID = "Accident";
}

node MakeModel {
   states = (SportsCar Economy FamilySedan Luxury SuperLuxury );
   label = "MakeModel";
   ID = "MakeModel";
}

node DrivQuality {
   states = (Poor Normal Excellent );
   label = "DrivQuality";
   ID = "DrivQuality";
}

node Mileage {
   states = (FiveThou TwentyThou FiftyThou Domino );
   label = "Mileage";
   ID = "Mileage";
}

node Antilock {
   states = (True False );
   label = "Antilock";
   ID = "Antilock";
}

node DrivingSkill {
   states = (SubStandard Normal Expert );
   label = "DrivingSkill";
   ID = "DrivingSkill";
}

node SeniorTrain {
   states = (True False );
   label = "SeniorTrain";
   ID = "SeniorTrain";
}

node ThisCarCost {
   states = (Thousand TenThou HundredThou Million );
   label = "ThisCarCost";
   ID = "ThisCarCost";
}

node Theft {
   states = (True False );
   label = "Theft";
   ID = "Theft";
}

node CarValue {
   states = (FiveThou TenThou TwentyThou FiftyThou Million );
   label = "CarValue";
   ID = "CarValue";
}

node HomeBase {
   states = (Secure City Suburb Rural );
   label = "HomeBase";
   ID = "HomeBase";
}

node AntiTheft {
   states = (True False );
   label = "AntiTheft";
   ID = "AntiTheft";
}

node PropCost {
   states = (Thousand TenThou HundredThou Million );
   label = "PropCost";
   ID = "PropCost";
}

node OtherCarCost {
   states = (Thousand TenThou HundredThou Million );
   label = "OtherCarCost";
   ID = "OtherCarCost";
}

node OtherCar {
   states = (True False );
   label = "OtherCar";
   ID = "OtherCar";
}

node MedCost {
   states = (Thousand TenThou HundredThou Million );
   label = "MedCost";
   ID = "MedCost";
}

node Cushioning {
   states = (Poor Fair Good Excellent );
   label = "Cushioning";
   ID = "Cushioning";
}

node Airbag {
   states = (True False );
   label = "Airbag";
   ID = "Airbag";
}

node ILiCost {
   states = (Thousand TenThou HundredThou Million );
   label = "ILiCost";
   ID = "ILiCost";
}

node DrivHist {
   states = (Zero One Many );
   label = "DrivHist";
   ID = "DrivHist";
}

potential ( GoodStudent | SocioEcon   Age   ) {
   data = 
   (((   0.1   0.9)   % Age=Adolescent   SocioEcon=Prole   
   (   0   1)   % Age=Adult   SocioEcon=Prole   
   (   0   1))   % Age=Senior   SocioEcon=Prole   
   ((   0.2   0.8)   % Age=Adolescent   SocioEcon=Middle   
   (   0   1)   % Age=Adult   SocioEcon=Middle   
   (   0   1))   % Age=Senior   SocioEcon=Middle   
   ((   0.5   0.5)   % Age=Adolescent   SocioEcon=UpperMiddle   
   (   0   1)   % Age=Adult   SocioEcon=UpperMiddle   
   (   0   1))   % Age=Senior   SocioEcon=UpperMiddle   
   ((   0.4   0.6)   % Age=Adolescent   SocioEcon=Wealthy   
   (   0   1)   % Age=Adult   SocioEcon=Wealthy   
   (   0   1)));   % Age=Senior   SocioEcon=Wealthy   
}

potential (Age) {
   data = (  0.2 0.6 0.2);
}

potential ( SocioEcon | Age   ) {
   data = 
   ((   0.4   0.4   0.19   0.01)   % Age=Adolescent   
   (   0.4   0.4   0.19   0.01)   % Age=Adult   
   (   0.5   0.2   0.29   0.01));   % Age=Senior   
}

potential ( RiskAversion | Age   SocioEcon   ) {
   data = 
   (((   0.02   0.58   0.3   0.1)   % SocioEcon=Prole   Age=Adolescent   
   (   0.02   0.38   0.5   0.1)   % SocioEcon=Middle   Age=Adolescent   
   (   0.02   0.48   0.4   0.1)   % SocioEcon=UpperMiddle   Age=Adolescent   
   (   0.02   0.58   0.3   0.1))   % SocioEcon=Wealthy   Age=Adolescent   
   ((   0.015   0.285   0.5   0.2)   % SocioEcon=Prole   Age=Adult   
   (   0.015   0.185   0.6   0.2)   % SocioEcon=Middle   Age=Adult   
   (   0.015   0.285   0.5   0.2)   % SocioEcon=UpperMiddle   Age=Adult   
   (   0.015   0.285   0.4   0.3))   % SocioEcon=Wealthy   Age=Adult   
   ((   0.01   0.09   0.4   0.5)   % SocioEcon=Prole   Age=Senior   
   (   0.01   0.04   0.35   0.6)   % SocioEcon=Middle   Age=Senior   
   (   0.01   0.09   0.4   0.5)   % SocioEcon=UpperMiddle   Age=Senior   
   (   0.01   0.09   0.4   0.5)));   % SocioEcon=Wealthy   Age=Senior   
}

potential ( VehicleYear | SocioEcon   RiskAversion   ) {
   data = 
   (((   0.15   0.85)   % RiskAversion=Psychopath   SocioEcon=Prole   
   (   0.15   0.85)   % RiskAversion=Adventurous   SocioEcon=Prole   
   (   0.15   0.85)   % RiskAversion=Normal   SocioEcon=Prole   
   (   0.15   0.85))   % RiskAversion=Cautious   SocioEcon=Prole   
   ((   0.3   0.7)   % RiskAversion=Psychopath   SocioEcon=Middle   
   (   0.3   0.7)   % RiskAversion=Adventurous   SocioEcon=Middle   
   (   0.3   0.7)   % RiskAversion=Normal   SocioEcon=Middle   
   (   0.3   0.7))   % RiskAversion=Cautious   SocioEcon=Middle   
   ((   0.8   0.2)   % RiskAversion=Psychopath   SocioEcon=UpperMiddle   
   (   0.8   0.2)   % RiskAversion=Adventurous   SocioEcon=UpperMiddle   
   (   0.8   0.2)   % RiskAversion=Normal   SocioEcon=UpperMiddle   
   (   0.8   0.2))   % RiskAversion=Cautious   SocioEcon=UpperMiddle   
   ((   0.9   0.1)   % RiskAversion=Psychopath   SocioEcon=Wealthy   
   (   0.9   0.1)   % RiskAversion=Adventurous   SocioEcon=Wealthy   
   (   0.9   0.1)   % RiskAversion=Normal   SocioEcon=Wealthy   
   (   0.9   0.1)));   % RiskAversion=Cautious   SocioEcon=Wealthy   
}

potential ( ThisCarDam | Accident   RuggedAuto   ) {
   data = 
   (((   1   0   0   0)   % RuggedAuto=EggShell   Accident=None   
   (   1   0   0   0)   % RuggedAuto=Football   Accident=None   
   (   1   0   0   0))   % RuggedAuto=Tank   Accident=None   
   ((   0.001   0.9   0.098   0.001)   % RuggedAuto=EggShell   Accident=Mild   
   (   0.2   0.75   0.049999   1e-06)   % RuggedAuto=Football   Accident=Mild   
   (   0.7   0.29   0.009999   1e-06))   % RuggedAuto=Tank   Accident=Mild   
   ((   1e-06   0.000999   0.7   0.299)   % RuggedAuto=EggShell   Accident=Moderate   
   (   0.001   0.099   0.8   0.1)   % RuggedAuto=Football   Accident=Moderate   
   (   0.05   0.6   0.3   0.05))   % RuggedAuto=Tank   Accident=Moderate   
   ((   1e-06   9e-06   9e-05   0.9999)   % RuggedAuto=EggShell   Accident=Severe   
   (   1e-06   0.000999   0.009   0.99)   % RuggedAuto=Football   Accident=Severe   
   (   0.05   0.2   0.2   0.55)));   % RuggedAuto=Tank   Accident=Severe   
}

potential ( RuggedAuto | MakeModel   VehicleYear   ) {
   data = 
   (((   0.95   0.04   0.01)   % VehicleYear=Current   MakeModel=SportsCar   
   (   0.95   0.04   0.01))   % VehicleYear=Older   MakeModel=SportsCar   
   ((   0.5   0.5   0)   % VehicleYear=Current   MakeModel=Economy   
   (   0.9   0.1   0))   % VehicleYear=Older   MakeModel=Economy   
   ((   0.2   0.6   0.2)   % VehicleYear=Current   MakeModel=FamilySedan   
   (   0.05   0.55   0.4))   % VehicleYear=Older   MakeModel=FamilySedan   
   ((   0.1   0.6   0.3)   % VehicleYear=Current   MakeModel=Luxury   
   (   0.1   0.6   0.3))   % VehicleYear=Older   MakeModel=Luxury   
   ((   0.05   0.55   0.4)   % VehicleYear=Current   MakeModel=SuperLuxury   
   (   0.05   0.55   0.4)));   % VehicleYear=Older   MakeModel=SuperLuxury   
}

potential ( Accident | Antilock   Mileage   DrivQuality   ) {
   data = 
   ((((   0.7   0.2   0.07   0.03)   % DrivQuality=Poor   Mileage=FiveThou   Antilock=True   
   (   0.99   0.007   0.002   0.001)   % DrivQuality=Normal   Mileage=FiveThou   Antilock=True   
   (   0.999   0.0007   0.0002   0.0001))   % DrivQuality=Excellent   Mileage=FiveThou   Antilock=True   
   ((   0.4   0.3   0.2   0.1)   % DrivQuality=Poor   Mileage=TwentyThou   Antilock=True   
   (   0.98   0.01   0.005   0.005)   % DrivQuality=Normal   Mileage=TwentyThou   Antilock=True   
   (   0.995   0.003   0.001   0.001))   % DrivQuality=Excellent   Mileage=TwentyThou   Antilock=True   
   ((   0.3   0.3   0.2   0.2)   % DrivQuality=Poor   Mileage=FiftyThou   Antilock=True   
   (   0.97   0.02   0.007   0.003)   % DrivQuality=Normal   Mileage=FiftyThou   Antilock=True   
   (   0.99   0.007   0.002   0.001))   % DrivQuality=Excellent   Mileage=FiftyThou   Antilock=True   
   ((   0.2   0.2   0.3   0.3)   % DrivQuality=Poor   Mileage=Domino   Antilock=True   
   (   0.95   0.03   0.01   0.01)   % DrivQuality=Normal   Mileage=Domino   Antilock=True   
   (   0.985   0.01   0.003   0.002)))   % DrivQuality=Excellent   Mileage=Domino   Antilock=True   
   (((   0.6   0.2   0.1   0.1)   % DrivQuality=Poor   Mileage=FiveThou   Antilock=False   
   (   0.98   0.01   0.005   0.005)   % DrivQuality=Normal   Mileage=FiveThou   Antilock=False   
   (   0.995   0.003   0.001   0.001))   % DrivQuality=Excellent   Mileage=FiveThou   Antilock=False   
   ((   0.3   0.2   0.2   0.3)   % DrivQuality=Poor   Mileage=TwentyThou   Antilock=False   
   (   0.96   0.02   0.015   0.005)   % DrivQuality=Normal   Mileage=TwentyThou   Antilock=False   
   (   0.99   0.007   0.002   0.001))   % DrivQuality=Excellent   Mileage=TwentyThou   Antilock=False   
   ((   0.2   0.2   0.2   0.4)   % DrivQuality=Poor   Mileage=FiftyThou   Antilock=False   
   (   0.95   0.03   0.015   0.005)   % DrivQuality=Normal   Mileage=FiftyThou   Antilock=False   
   (   0.98   0.01   0.005   0.005))   % DrivQuality=Excellent   Mileage=FiftyThou   Antilock=False   
   ((   0.1   0.1   0.3   0.5)   % DrivQuality=Poor   Mileage=Domino   Antilock=False   
   (   0.94   0.03   0.02   0.01)   % DrivQuality=Normal   Mileage=Domino   Antilock=False   
   (   0.98   0.01   0.007   0.003))));   % DrivQuality=Excellent   Mileage=Domino   Antilock=False   
}

potential ( MakeModel | SocioEcon   RiskAversion   ) {
   data = 
   (((   0.1   0.7   0.2   0   0)   % RiskAversion=Psychopath   SocioEcon=Prole   
   (   0.1   0.7   0.2   0   0)   % RiskAversion=Adventurous   SocioEcon=Prole   
   (   0.1   0.7   0.2   0   0)   % RiskAversion=Normal   SocioEcon=Prole   
   (   0.1   0.7   0.2   0   0))   % RiskAversion=Cautious   SocioEcon=Prole   
   ((   0.15   0.2   0.65   0   0)   % RiskAversion=Psychopath   SocioEcon=Middle   
   (   0.15   0.2   0.65   0   0)   % RiskAversion=Adventurous   SocioEcon=Middle   
   (   0.15   0.2   0.65   0   0)   % RiskAversion=Normal   SocioEcon=Middle   
   (   0.15   0.2   0.65   0   0))   % RiskAversion=Cautious   SocioEcon=Middle   
   ((   0.2   0.05   0.3   0.45   0)   % RiskAversion=Psychopath   SocioEcon=UpperMiddle   
   (   0.2   0.05   0.3   0.45   0)   % RiskAversion=Adventurous   SocioEcon=UpperMiddle   
   (   0.2   0.05   0.3   0.45   0)   % RiskAversion=Normal   SocioEcon=UpperMiddle   
   (   0.2   0.05   0.3   0.45   0))   % RiskAversion=Cautious   SocioEcon=UpperMiddle   
   ((   0.3   0.01   0.09   0.4   0.2)   % RiskAversion=Psychopath   SocioEcon=Wealthy   
   (   0.3   0.01   0.09   0.4   0.2)   % RiskAversion=Adventurous   SocioEcon=Wealthy   
   (   0.3   0.01   0.09   0.4   0.2)   % RiskAversion=Normal   SocioEcon=Wealthy   
   (   0.3   0.01   0.09   0.4   0.2)));   % RiskAversion=Cautious   SocioEcon=Wealthy   
}

potential ( DrivQuality | DrivingSkill   RiskAversion   ) {
   data = 
   (((   1   0   0)   % RiskAversion=Psychopath   DrivingSkill=SubStandard   
   (   1   0   0)   % RiskAversion=Adventurous   DrivingSkill=SubStandard   
   (   1   0   0)   % RiskAversion=Normal   DrivingSkill=SubStandard   
   (   1   0   0))   % RiskAversion=Cautious   DrivingSkill=SubStandard   
   ((   0.5   0.2   0.3)   % RiskAversion=Psychopath   DrivingSkill=Normal   
   (   0.3   0.4   0.3)   % RiskAversion=Adventurous   DrivingSkill=Normal   
   (   0   1   0)   % RiskAversion=Normal   DrivingSkill=Normal   
   (   0   0.8   0.2))   % RiskAversion=Cautious   DrivingSkill=Normal   
   ((   0.3   0.2   0.5)   % RiskAversion=Psychopath   DrivingSkill=Expert   
   (   0.01   0.01   0.98)   % RiskAversion=Adventurous   DrivingSkill=Expert   
   (   0   0   1)   % RiskAversion=Normal   DrivingSkill=Expert   
   (   0   0   1)));   % RiskAversion=Cautious   DrivingSkill=Expert   
}

potential (Mileage) {
   data = (  0.1 0.4 0.4 0.1);
}

potential ( Antilock | MakeModel   VehicleYear   ) {
   data = 
   (((   0.9   0.1)   % VehicleYear=Current   MakeModel=SportsCar   
   (   0.1   0.9))   % VehicleYear=Older   MakeModel=SportsCar   
   ((   0.001   0.999)   % VehicleYear=Current   MakeModel=Economy   
   (   0   1))   % VehicleYear=Older   MakeModel=Economy   
   ((   0.4   0.6)   % VehicleYear=Current   MakeModel=FamilySedan   
   (   0   1))   % VehicleYear=Older   MakeModel=FamilySedan   
   ((   0.99   0.01)   % VehicleYear=Current   MakeModel=Luxury   
   (   0.3   0.7))   % VehicleYear=Older   MakeModel=Luxury   
   ((   0.99   0.01)   % VehicleYear=Current   MakeModel=SuperLuxury   
   (   0.15   0.85)));   % VehicleYear=Older   MakeModel=SuperLuxury   
}

potential ( DrivingSkill | Age   SeniorTrain   ) {
   data = 
   (((   0.5   0.45   0.05)   % SeniorTrain=True   Age=Adolescent   
   (   0.5   0.45   0.05))   % SeniorTrain=False   Age=Adolescent   
   ((   0.3   0.6   0.1)   % SeniorTrain=True   Age=Adult   
   (   0.3   0.6   0.1))   % SeniorTrain=False   Age=Adult   
   ((   0.1   0.6   0.3)   % SeniorTrain=True   Age=Senior   
   (   0.4   0.5   0.1)));   % SeniorTrain=False   Age=Senior   
}

potential ( SeniorTrain | Age   RiskAversion   ) {
   data = 
   (((   0   1)   % RiskAversion=Psychopath   Age=Adolescent   
   (   0   1)   % RiskAversion=Adventurous   Age=Adolescent   
   (   0   1)   % RiskAversion=Normal   Age=Adolescent   
   (   0   1))   % RiskAversion=Cautious   Age=Adolescent   
   ((   0   1)   % RiskAversion=Psychopath   Age=Adult   
   (   0   1)   % RiskAversion=Adventurous   Age=Adult   
   (   0   1)   % RiskAversion=Normal   Age=Adult   
   (   0   1))   % RiskAversion=Cautious   Age=Adult   
   ((   1e-06   0.999999)   % RiskAversion=Psychopath   Age=Senior   
   (   1e-06   0.999999)   % RiskAversion=Adventurous   Age=Senior   
   (   0.3   0.7)   % RiskAversion=Normal   Age=Senior   
   (   0.9   0.1)));   % RiskAversion=Cautious   Age=Senior   
}

potential ( ThisCarCost | ThisCarDam   CarValue   Theft   ) {
   data = 
   ((((   0.2   0.8   0   0)   % Theft=True   CarValue=FiveThou   ThisCarDam=None   
   (   1   0   0   0))   % Theft=False   CarValue=FiveThou   ThisCarDam=None   
   ((   0.05   0.95   0   0)   % Theft=True   CarValue=TenThou   ThisCarDam=None   
   (   1   0   0   0))   % Theft=False   CarValue=TenThou   ThisCarDam=None   
   ((   0.04   0.01   0.95   0)   % Theft=True   CarValue=TwentyThou   ThisCarDam=None   
   (   1   0   0   0))   % Theft=False   CarValue=TwentyThou   ThisCarDam=None   
   ((   0.04   0.01   0.95   0)   % Theft=True   CarValue=FiftyThou   ThisCarDam=None   
   (   1   0   0   0))   % Theft=False   CarValue=FiftyThou   ThisCarDam=None   
   ((   0.04   0.01   0.2   0.75)   % Theft=True   CarValue=Million   ThisCarDam=None   
   (   1   0   0   0)))   % Theft=False   CarValue=Million   ThisCarDam=None   
   (((   0.15   0.85   0   0)   % Theft=True   CarValue=FiveThou   ThisCarDam=Mild   
   (   0.95   0.05   0   0))   % Theft=False   CarValue=FiveThou   ThisCarDam=Mild   
   ((   0.03   0.97   0   0)   % Theft=True   CarValue=TenThou   ThisCarDam=Mild   
   (   0.95   0.05   0   0))   % Theft=False   CarValue=TenThou   ThisCarDam=Mild   
   ((   0.03   0.02   0.95   0)   % Theft=True   CarValue=TwentyThou   ThisCarDam=Mild   
   (   0.99   0.01   0   0))   % Theft=False   CarValue=TwentyThou   ThisCarDam=Mild   
   ((   0.03   0.02   0.95   0)   % Theft=True   CarValue=FiftyThou   ThisCarDam=Mild   
   (   0.99   0.01   0   0))   % Theft=False   CarValue=FiftyThou   ThisCarDam=Mild   
   ((   0.02   0.03   0.25   0.7)   % Theft=True   CarValue=Million   ThisCarDam=Mild   
   (   0.98   0.01   0.01   0)))   % Theft=False   CarValue=Million   ThisCarDam=Mild   
   (((   0.05   0.95   0   0)   % Theft=True   CarValue=FiveThou   ThisCarDam=Moderate   
   (   0.25   0.75   0   0))   % Theft=False   CarValue=FiveThou   ThisCarDam=Moderate   
   ((   0.01   0.99   0   0)   % Theft=True   CarValue=TenThou   ThisCarDam=Moderate   
   (   0.15   0.85   0   0))   % Theft=False   CarValue=TenThou   ThisCarDam=Moderate   
   ((   0.001   0.001   0.998   0)   % Theft=True   CarValue=TwentyThou   ThisCarDam=Moderate   
   (   0.01   0.01   0.98   0))   % Theft=False   CarValue=TwentyThou   ThisCarDam=Moderate   
   ((   0.001   0.001   0.998   0)   % Theft=True   CarValue=FiftyThou   ThisCarDam=Moderate   
   (   0.005   0.005   0.99   0))   % Theft=False   CarValue=FiftyThou   ThisCarDam=Moderate   
   ((   0.001   0.001   0.018   0.98)   % Theft=True   CarValue=Million   ThisCarDam=Moderate   
   (   0.003   0.003   0.044   0.95)))   % Theft=False   CarValue=Million   ThisCarDam=Moderate   
   (((   0.03   0.97   0   0)   % Theft=True   CarValue=FiveThou   ThisCarDam=Severe   
   (   0.05   0.95   0   0))   % Theft=False   CarValue=FiveThou   ThisCarDam=Severe   
   ((   1e-06   0.999999   0   0)   % Theft=True   CarValue=TenThou   ThisCarDam=Severe   
   (   0.01   0.99   0   0))   % Theft=False   CarValue=TenThou   ThisCarDam=Severe   
   ((   1e-06   1e-06   0.999998   0)   % Theft=True   CarValue=TwentyThou   ThisCarDam=Severe   
   (   0.005   0.005   0.99   0))   % Theft=False   CarValue=TwentyThou   ThisCarDam=Severe   
   ((   1e-06   1e-06   0.999998   0)   % Theft=True   CarValue=FiftyThou   ThisCarDam=Severe   
   (   0.001   0.001   0.998   0))   % Theft=False   CarValue=FiftyThou   ThisCarDam=Severe   
   ((   1e-06   1e-06   0.009998   0.99)   % Theft=True   CarValue=Million   ThisCarDam=Severe   
   (   1e-06   1e-06   0.029998   0.97))));   % Theft=False   CarValue=Million   ThisCarDam=Severe   
}

potential ( Theft | AntiTheft   HomeBase   CarValue   ) {
   data = 
   ((((   1e-06   0.999999)   % CarValue=FiveThou   HomeBase=Secure   AntiTheft=True   
   (   2e-06   0.999998)   % CarValue=TenThou   HomeBase=Secure   AntiTheft=True   
   (   3e-06   0.999997)   % CarValue=TwentyThou   HomeBase=Secure   AntiTheft=True   
   (   2e-06   0.999998)   % CarValue=FiftyThou   HomeBase=Secure   AntiTheft=True   
   (   1e-06   0.999999))   % CarValue=Million   HomeBase=Secure   AntiTheft=True   
   ((   0.0005   0.9995)   % CarValue=FiveThou   HomeBase=City   AntiTheft=True   
   (   0.002   0.998)   % CarValue=TenThou   HomeBase=City   AntiTheft=True   
   (   0.005   0.995)   % CarValue=TwentyThou   HomeBase=City   AntiTheft=True   
   (   0.005   0.995)   % CarValue=FiftyThou   HomeBase=City   AntiTheft=True   
   (   1e-06   0.999999))   % CarValue=Million   HomeBase=City   AntiTheft=True   
   ((   1e-05   0.99999)   % CarValue=FiveThou   HomeBase=Suburb   AntiTheft=True   
   (   0.0001   0.9999)   % CarValue=TenThou   HomeBase=Suburb   AntiTheft=True   
   (   0.0003   0.9997)   % CarValue=TwentyThou   HomeBase=Suburb   AntiTheft=True   
   (   0.0003   0.9997)   % CarValue=FiftyThou   HomeBase=Suburb   AntiTheft=True   
   (   1e-06   0.999999))   % CarValue=Million   HomeBase=Suburb   AntiTheft=True   
   ((   1e-05   0.99999)   % CarValue=FiveThou   HomeBase=Rural   AntiTheft=True   
   (   2e-05   0.99998)   % CarValue=TenThou   HomeBase=Rural   AntiTheft=True   
   (   5e-05   0.99995)   % CarValue=TwentyThou   HomeBase=Rural   AntiTheft=True   
   (   5e-05   0.99995)   % CarValue=FiftyThou   HomeBase=Rural   AntiTheft=True   
   (   1e-06   0.999999)))   % CarValue=Million   HomeBase=Rural   AntiTheft=True   
   (((   1e-06   0.999999)   % CarValue=FiveThou   HomeBase=Secure   AntiTheft=False   
   (   2e-06   0.999998)   % CarValue=TenThou   HomeBase=Secure   AntiTheft=False   
   (   3e-06   0.999997)   % CarValue=TwentyThou   HomeBase=Secure   AntiTheft=False   
   (   2e-06   0.999998)   % CarValue=FiftyThou   HomeBase=Secure   AntiTheft=False   
   (   1e-06   0.999999))   % CarValue=Million   HomeBase=Secure   AntiTheft=False   
   ((   0.001   0.999)   % CarValue=FiveThou   HomeBase=City   AntiTheft=False   
   (   0.005   0.995)   % CarValue=TenThou   HomeBase=City   AntiTheft=False   
   (   0.01   0.99)   % CarValue=TwentyThou   HomeBase=City   AntiTheft=False   
   (   0.01   0.99)   % CarValue=FiftyThou   HomeBase=City   AntiTheft=False   
   (   1e-06   0.999999))   % CarValue=Million   HomeBase=City   AntiTheft=False   
   ((   1e-05   0.99999)   % CarValue=FiveThou   HomeBase=Suburb   AntiTheft=False   
   (   0.0002   0.9998)   % CarValue=TenThou   HomeBase=Suburb   AntiTheft=False   
   (   0.0005   0.9995)   % CarValue=TwentyThou   HomeBase=Suburb   AntiTheft=False   
   (   0.0005   0.9995)   % CarValue=FiftyThou   HomeBase=Suburb   AntiTheft=False   
   (   1e-06   0.999999))   % CarValue=Million   HomeBase=Suburb   AntiTheft=False   
   ((   1e-05   0.99999)   % CarValue=FiveThou   HomeBase=Rural   AntiTheft=False   
   (   0.0001   0.9999)   % CarValue=TenThou   HomeBase=Rural   AntiTheft=False   
   (   0.0002   0.9998)   % CarValue=TwentyThou   HomeBase=Rural   AntiTheft=False   
   (   0.0002   0.9998)   % CarValue=FiftyThou   HomeBase=Rural   AntiTheft=False   
   (   1e-06   0.999999))));   % CarValue=Million   HomeBase=Rural   AntiTheft=False   
}

potential ( CarValue | MakeModel   VehicleYear   Mileage   ) {
   data = 
   ((((   0   0.1   0.8   0.09   0.01)   % Mileage=FiveThou   VehicleYear=Current   MakeModel=SportsCar   
   (   0   0.1   0.8   0.09   0.01)   % Mileage=TwentyThou   VehicleYear=Current   MakeModel=SportsCar   
   (   0   0.1   0.8   0.09   0.01)   % Mileage=FiftyThou   VehicleYear=Current   MakeModel=SportsCar   
   (   0   0.1   0.8   0.09   0.01))   % Mileage=Domino   VehicleYear=Current   MakeModel=SportsCar   
   ((   0.03   0.3   0.6   0.06   0.01)   % Mileage=FiveThou   VehicleYear=Older   MakeModel=SportsCar   
   (   0.16   0.5   0.3   0.03   0.01)   % Mileage=TwentyThou   VehicleYear=Older   MakeModel=SportsCar   
   (   0.4   0.47   0.1   0.02   0.01)   % Mileage=FiftyThou   VehicleYear=Older   MakeModel=SportsCar   
   (   0.9   0.06   0.02   0.01   0.01)))   % Mileage=Domino   VehicleYear=Older   MakeModel=SportsCar   
   (((   0.1   0.8   0.1   0   0)   % Mileage=FiveThou   VehicleYear=Current   MakeModel=Economy   
   (   0.1   0.8   0.1   0   0)   % Mileage=TwentyThou   VehicleYear=Current   MakeModel=Economy   
   (   0.1   0.8   0.1   0   0)   % Mileage=FiftyThou   VehicleYear=Current   MakeModel=Economy   
   (   0.1   0.8   0.1   0   0))   % Mileage=Domino   VehicleYear=Current   MakeModel=Economy   
   ((   0.25   0.7   0.05   0   0)   % Mileage=FiveThou   VehicleYear=Older   MakeModel=Economy   
   (   0.7   0.2999   0.0001   0   0)   % Mileage=TwentyThou   VehicleYear=Older   MakeModel=Economy   
   (   0.99   0.009999   1e-06   0   0)   % Mileage=FiftyThou   VehicleYear=Older   MakeModel=Economy   
   (   0.999998   1e-06   1e-06   0   0)))   % Mileage=Domino   VehicleYear=Older   MakeModel=Economy   
   (((   0   0.1   0.9   0   0)   % Mileage=FiveThou   VehicleYear=Current   MakeModel=FamilySedan   
   (   0   0.1   0.9   0   0)   % Mileage=TwentyThou   VehicleYear=Current   MakeModel=FamilySedan   
   (   0   0.1   0.9   0   0)   % Mileage=FiftyThou   VehicleYear=Current   MakeModel=FamilySedan   
   (   0   0.1   0.9   0   0))   % Mileage=Domino   VehicleYear=Current   MakeModel=FamilySedan   
   ((   0.2   0.3   0.5   0   0)   % Mileage=FiveThou   VehicleYear=Older   MakeModel=FamilySedan   
   (   0.5   0.3   0.2   0   0)   % Mileage=TwentyThou   VehicleYear=Older   MakeModel=FamilySedan   
   (   0.7   0.2   0.1   0   0)   % Mileage=FiftyThou   VehicleYear=Older   MakeModel=FamilySedan   
   (   0.99   0.009999   1e-06   0   0)))   % Mileage=Domino   VehicleYear=Older   MakeModel=FamilySedan   
   (((   0   0   0   1   0)   % Mileage=FiveThou   VehicleYear=Current   MakeModel=Luxury   
   (   0   0   0   1   0)   % Mileage=TwentyThou   VehicleYear=Current   MakeModel=Luxury   
   (   0   0   0   1   0)   % Mileage=FiftyThou   VehicleYear=Current   MakeModel=Luxury   
   (   0   0   0   1   0))   % Mileage=Domino   VehicleYear=Current   MakeModel=Luxury   
   ((   0.01   0.09   0.2   0.7   0)   % Mileage=FiveThou   VehicleYear=Older   MakeModel=Luxury   
   (   0.05   0.15   0.3   0.5   0)   % Mileage=TwentyThou   VehicleYear=Older   MakeModel=Luxury   
   (   0.1   0.3   0.3   0.3   0)   % Mileage=FiftyThou   VehicleYear=Older   MakeModel=Luxury   
   (   0.2   0.2   0.3   0.3   0)))   % Mileage=Domino   VehicleYear=Older   MakeModel=Luxury   
   (((   0   0   0   0   1)   % Mileage=FiveThou   VehicleYear=Current   MakeModel=SuperLuxury   
   (   0   0   0   0   1)   % Mileage=TwentyThou   VehicleYear=Current   MakeModel=SuperLuxury   
   (   0   0   0   0   1)   % Mileage=FiftyThou   VehicleYear=Current   MakeModel=SuperLuxury   
   (   0   0   0   0   1))   % Mileage=Domino   VehicleYear=Current   MakeModel=SuperLuxury   
   ((   1e-06   1e-06   1e-06   1e-06   0.999996)   % Mileage=FiveThou   VehicleYear=Older   MakeModel=SuperLuxury   
   (   1e-06   1e-06   1e-06   1e-06   0.999996)   % Mileage=TwentyThou   VehicleYear=Older   MakeModel=SuperLuxury   
   (   1e-06   1e-06   1e-06   1e-06   0.999996)   % Mileage=FiftyThou   VehicleYear=Older   MakeModel=SuperLuxury   
   (   1e-06   1e-06   1e-06   1e-06   0.999996))));   % Mileage=Domino   VehicleYear=Older   MakeModel=SuperLuxury   
}

potential ( HomeBase | RiskAversion   SocioEcon   ) {
   data = 
   (((   1e-06   0.8   0.049999   0.15)   % SocioEcon=Prole   RiskAversion=Psychopath   
   (   0.15   0.8   0.04   0.01)   % SocioEcon=Middle   RiskAversion=Psychopath   
   (   0.35   0.6   0.04   0.01)   % SocioEcon=UpperMiddle   RiskAversion=Psychopath   
   (   0.489999   0.5   1e-06   0.01))   % SocioEcon=Wealthy   RiskAversion=Psychopath   
   ((   1e-06   0.8   0.05   0.149999)   % SocioEcon=Prole   RiskAversion=Adventurous   
   (   0.01   0.25   0.6   0.14)   % SocioEcon=Middle   RiskAversion=Adventurous   
   (   0.2   0.4   0.3   0.1)   % SocioEcon=UpperMiddle   RiskAversion=Adventurous   
   (   0.95   1e-06   1e-06   0.049998))   % SocioEcon=Wealthy   RiskAversion=Adventurous   
   ((   1e-06   0.8   0.05   0.149999)   % SocioEcon=Prole   RiskAversion=Normal   
   (   0.299999   1e-06   0.6   0.1)   % SocioEcon=Middle   RiskAversion=Normal   
   (   0.5   1e-06   0.4   0.099999)   % SocioEcon=UpperMiddle   RiskAversion=Normal   
   (   0.85   1e-06   0.001   0.148999))   % SocioEcon=Wealthy   RiskAversion=Normal   
   ((   1e-06   0.8   0.05   0.149999)   % SocioEcon=Prole   RiskAversion=Cautious   
   (   0.95   1e-06   0.024445   0.025554)   % SocioEcon=Middle   RiskAversion=Cautious   
   (   0.999997   1e-06   1e-06   1e-06)   % SocioEcon=UpperMiddle   RiskAversion=Cautious   
   (   0.999997   1e-06   1e-06   1e-06)));   % SocioEcon=Wealthy   RiskAversion=Cautious   
}

potential ( AntiTheft | RiskAversion   SocioEcon   ) {
   data = 
   (((   1e-06   0.999999)   % SocioEcon=Prole   RiskAversion=Psychopath   
   (   1e-06   0.999999)   % SocioEcon=Middle   RiskAversion=Psychopath   
   (   0.05   0.95)   % SocioEcon=UpperMiddle   RiskAversion=Psychopath   
   (   0.5   0.5))   % SocioEcon=Wealthy   RiskAversion=Psychopath   
   ((   1e-06   0.999999)   % SocioEcon=Prole   RiskAversion=Adventurous   
   (   1e-06   0.999999)   % SocioEcon=Middle   RiskAversion=Adventurous   
   (   0.2   0.8)   % SocioEcon=UpperMiddle   RiskAversion=Adventurous   
   (   0.5   0.5))   % SocioEcon=Wealthy   RiskAversion=Adventurous   
   ((   0.1   0.9)   % SocioEcon=Prole   RiskAversion=Normal   
   (   0.3   0.7)   % SocioEcon=Middle   RiskAversion=Normal   
   (   0.9   0.1)   % SocioEcon=UpperMiddle   RiskAversion=Normal   
   (   0.8   0.2))   % SocioEcon=Wealthy   RiskAversion=Normal   
   ((   0.95   0.05)   % SocioEcon=Prole   RiskAversion=Cautious   
   (   0.999999   1e-06)   % SocioEcon=Middle   RiskAversion=Cautious   
   (   0.999999   1e-06)   % SocioEcon=UpperMiddle   RiskAversion=Cautious   
   (   0.999999   1e-06)));   % SocioEcon=Wealthy   RiskAversion=Cautious   
}

potential ( PropCost | OtherCarCost   ThisCarCost   ) {
   data = 
   (((   0.7   0.3   0   0)   % ThisCarCost=Thousand   OtherCarCost=Thousand   
   (   0   0.95   0.05   0)   % ThisCarCost=TenThou   OtherCarCost=Thousand   
   (   0   0   0.98   0.02)   % ThisCarCost=HundredThou   OtherCarCost=Thousand   
   (   0   0   0   1))   % ThisCarCost=Million   OtherCarCost=Thousand   
   ((   0   0.95   0.05   0)   % ThisCarCost=Thousand   OtherCarCost=TenThou   
   (   0   0.6   0.4   0)   % ThisCarCost=TenThou   OtherCarCost=TenThou   
   (   0   0   0.95   0.05)   % ThisCarCost=HundredThou   OtherCarCost=TenThou   
   (   0   0   0   1))   % ThisCarCost=Million   OtherCarCost=TenThou   
   ((   0   0   0.98   0.02)   % ThisCarCost=Thousand   OtherCarCost=HundredThou   
   (   0   0   0.8   0.2)   % ThisCarCost=TenThou   OtherCarCost=HundredThou   
   (   0   0   0.6   0.4)   % ThisCarCost=HundredThou   OtherCarCost=HundredThou   
   (   0   0   0   1))   % ThisCarCost=Million   OtherCarCost=HundredThou   
   ((   0   0   0   1)   % ThisCarCost=Thousand   OtherCarCost=Million   
   (   0   0   0   1)   % ThisCarCost=TenThou   OtherCarCost=Million   
   (   0   0   0   1)   % ThisCarCost=HundredThou   OtherCarCost=Million   
   (   0   0   0   1)));   % ThisCarCost=Million   OtherCarCost=Million   
}

potential ( OtherCarCost | Accident   RuggedAuto   ) {
   data = 
   (((   1   0   0   0)   % RuggedAuto=EggShell   Accident=None   
   (   1   0   0   0)   % RuggedAuto=Football   Accident=None   
   (   1   0   0   0))   % RuggedAuto=Tank   Accident=None   
   ((   0.99   0.005   0.00499   1e-05)   % RuggedAuto=EggShell   Accident=Mild   
   (   0.979966   0.00999965   0.00998465   4.99982e-05)   % RuggedAuto=Football   Accident=Mild   
   (   0.95   0.03   0.01998   2e-05))   % RuggedAuto=Tank   Accident=Mild   
   ((   0.6   0.2   0.19998   2e-05)   % RuggedAuto=EggShell   Accident=Moderate   
   (   0.5   0.2   0.29997   3e-05)   % RuggedAuto=Football   Accident=Moderate   
   (   0.4   0.3   0.29996   4e-05))   % RuggedAuto=Tank   Accident=Moderate   
   ((   0.2   0.4   0.39996   4e-05)   % RuggedAuto=EggShell   Accident=Severe   
   (   0.1   0.5   0.39994   6e-05)   % RuggedAuto=Football   Accident=Severe   
   (   0.005   0.55   0.4449   0.0001)));   % RuggedAuto=Tank   Accident=Severe   
}

potential ( OtherCar | SocioEcon   ) {
   data = 
   ((   0.5   0.5)   % SocioEcon=Prole   
   (   0.8   0.2)   % SocioEcon=Middle   
   (   0.9   0.1)   % SocioEcon=UpperMiddle   
   (   0.95   0.05));   % SocioEcon=Wealthy   
}

potential ( MedCost | Accident   Age   Cushioning   ) {
   data = 
   ((((   1   0   0   0)   % Cushioning=Poor   Age=Adolescent   Accident=None   
   (   1   0   0   0)   % Cushioning=Fair   Age=Adolescent   Accident=None   
   (   1   0   0   0)   % Cushioning=Good   Age=Adolescent   Accident=None   
   (   1   0   0   0))   % Cushioning=Excellent   Age=Adolescent   Accident=None   
   ((   1   0   0   0)   % Cushioning=Poor   Age=Adult   Accident=None   
   (   1   0   0   0)   % Cushioning=Fair   Age=Adult   Accident=None   
   (   1   0   0   0)   % Cushioning=Good   Age=Adult   Accident=None   
   (   1   0   0   0))   % Cushioning=Excellent   Age=Adult   Accident=None   
   ((   1   0   0   0)   % Cushioning=Poor   Age=Senior   Accident=None   
   (   1   0   0   0)   % Cushioning=Fair   Age=Senior   Accident=None   
   (   1   0   0   0)   % Cushioning=Good   Age=Senior   Accident=None   
   (   1   0   0   0)))   % Cushioning=Excellent   Age=Senior   Accident=None   
   (((   0.96   0.03   0.009   0.001)   % Cushioning=Poor   Age=Adolescent   Accident=Mild   
   (   0.98   0.019   0.0009   0.0001)   % Cushioning=Fair   Age=Adolescent   Accident=Mild   
   (   0.99   0.0099   9e-05   1e-05)   % Cushioning=Good   Age=Adolescent   Accident=Mild   
   (   0.999   0.00099   9e-06   1e-06))   % Cushioning=Excellent   Age=Adolescent   Accident=Mild   
   ((   0.96   0.03   0.009   0.001)   % Cushioning=Poor   Age=Adult   Accident=Mild   
   (   0.98   0.019   0.0009   0.0001)   % Cushioning=Fair   Age=Adult   Accident=Mild   
   (   0.99   0.0099   9e-05   1e-05)   % Cushioning=Good   Age=Adult   Accident=Mild   
   (   0.999   0.00099   9e-06   1e-06))   % Cushioning=Excellent   Age=Adult   Accident=Mild   
   ((   0.9   0.07   0.02   0.01)   % Cushioning=Poor   Age=Senior   Accident=Mild   
   (   0.95   0.04   0.007   0.003)   % Cushioning=Fair   Age=Senior   Accident=Mild   
   (   0.97   0.025   0.003   0.002)   % Cushioning=Good   Age=Senior   Accident=Mild   
   (   0.99   0.007   0.002   0.001)))   % Cushioning=Excellent   Age=Senior   Accident=Mild   
   (((   0.5   0.2   0.2   0.1)   % Cushioning=Poor   Age=Adolescent   Accident=Moderate   
   (   0.8   0.15   0.03   0.02)   % Cushioning=Fair   Age=Adolescent   Accident=Moderate   
   (   0.95   0.02   0.02   0.01)   % Cushioning=Good   Age=Adolescent   Accident=Moderate   
   (   0.99   0.007   0.002   0.001))   % Cushioning=Excellent   Age=Adolescent   Accident=Moderate   
   ((   0.5   0.2   0.2   0.1)   % Cushioning=Poor   Age=Adult   Accident=Moderate   
   (   0.8   0.15   0.03   0.02)   % Cushioning=Fair   Age=Adult   Accident=Moderate   
   (   0.95   0.02   0.02   0.01)   % Cushioning=Good   Age=Adult   Accident=Moderate   
   (   0.99   0.007   0.002   0.001))   % Cushioning=Excellent   Age=Adult   Accident=Moderate   
   ((   0.3   0.3   0.2   0.2)   % Cushioning=Poor   Age=Senior   Accident=Moderate   
   (   0.5   0.2   0.2   0.1)   % Cushioning=Fair   Age=Senior   Accident=Moderate   
   (   0.9   0.07   0.02   0.01)   % Cushioning=Good   Age=Senior   Accident=Moderate   
   (   0.95   0.03   0.01   0.01)))   % Cushioning=Excellent   Age=Senior   Accident=Moderate   
   (((   0.3   0.3   0.2   0.2)   % Cushioning=Poor   Age=Adolescent   Accident=Severe   
   (   0.5   0.2   0.2   0.1)   % Cushioning=Fair   Age=Adolescent   Accident=Severe   
   (   0.9   0.07   0.02   0.01)   % Cushioning=Good   Age=Adolescent   Accident=Severe   
   (   0.95   0.03   0.01   0.01))   % Cushioning=Excellent   Age=Adolescent   Accident=Severe   
   ((   0.3   0.3   0.2   0.2)   % Cushioning=Poor   Age=Adult   Accident=Severe   
   (   0.5   0.2   0.2   0.1)   % Cushioning=Fair   Age=Adult   Accident=Severe   
   (   0.9   0.07   0.02   0.01)   % Cushioning=Good   Age=Adult   Accident=Severe   
   (   0.95   0.03   0.01   0.01))   % Cushioning=Excellent   Age=Adult   Accident=Severe   
   ((   0.2   0.2   0.3   0.3)   % Cushioning=Poor   Age=Senior   Accident=Severe   
   (   0.3   0.3   0.2   0.2)   % Cushioning=Fair   Age=Senior   Accident=Severe   
   (   0.6   0.3   0.07   0.03)   % Cushioning=Good   Age=Senior   Accident=Severe   
   (   0.9   0.05   0.03   0.02))));   % Cushioning=Excellent   Age=Senior   Accident=Severe   
}

potential ( Cushioning | RuggedAuto   Airbag   ) {
   data = 
   (((   0.5   0.3   0.2   0)   % Airbag=True   RuggedAuto=EggShell   
   (   0.7   0.3   0   0))   % Airbag=False   RuggedAuto=EggShell   
   ((   0   0.1   0.6   0.3)   % Airbag=True   RuggedAuto=Football   
   (   0.1   0.6   0.3   0))   % Airbag=False   RuggedAuto=Football   
   ((   0   0   0   1)   % Airbag=True   RuggedAuto=Tank   
   (   0   0   0.7   0.3)));   % Airbag=False   RuggedAuto=Tank   
}

potential ( Airbag | MakeModel   VehicleYear   ) {
   data = 
   (((   1   0)   % VehicleYear=Current   MakeModel=SportsCar   
   (   0.1   0.9))   % VehicleYear=Older   MakeModel=SportsCar   
   ((   1   0)   % VehicleYear=Current   MakeModel=Economy   
   (   0.05   0.95))   % VehicleYear=Older   MakeModel=Economy   
   ((   1   0)   % VehicleYear=Current   MakeModel=FamilySedan   
   (   0.2   0.8))   % VehicleYear=Older   MakeModel=FamilySedan   
   ((   1   0)   % VehicleYear=Current   MakeModel=Luxury   
   (   0.6   0.4))   % VehicleYear=Older   MakeModel=Luxury   
   ((   1   0)   % VehicleYear=Current   MakeModel=SuperLuxury   
   (   0.1   0.9)));   % VehicleYear=Older   MakeModel=SuperLuxury   
}

potential ( ILiCost | Accident   ) {
   data = 
   ((   1   0   0   0)   % Accident=None   
   (   0.999   0.000998   1e-06   1e-06)   % Accident=Mild   
   (   0.9   0.05   0.03   0.02)   % Accident=Moderate   
   (   0.8   0.1   0.06   0.04));   % Accident=Severe   
}

potential ( DrivHist | DrivingSkill   RiskAversion   ) {
   data = 
   (((   0.001   0.004   0.995)   % RiskAversion=Psychopath   DrivingSkill=SubStandard   
   (   0.002   0.008   0.99)   % RiskAversion=Adventurous   DrivingSkill=SubStandard   
   (   0.03   0.15   0.82)   % RiskAversion=Normal   DrivingSkill=SubStandard   
   (   0.3   0.3   0.4))   % RiskAversion=Cautious   DrivingSkill=SubStandard   
   ((   0.1   0.3   0.6)   % RiskAversion=Psychopath   DrivingSkill=Normal   
   (   0.5   0.3   0.2)   % RiskAversion=Adventurous   DrivingSkill=Normal   
   (   0.9   0.07   0.03)   % RiskAversion=Normal   DrivingSkill=Normal   
   (   0.95   0.04   0.01))   % RiskAversion=Cautious   DrivingSkill=Normal   
   ((   0.3   0.3   0.4)   % RiskAversion=Psychopath   DrivingSkill=Expert   
   (   0.6   0.3   0.1)   % RiskAversion=Adventurous   DrivingSkill=Expert   
   (   0.99   0.009999   1e-06)   % RiskAversion=Normal   DrivingSkill=Expert   
   (   0.999998   1e-06   1e-06)));   % RiskAversion=Cautious   DrivingSkill=Expert   
}


