
net {
  name = data\water.bif;
  software = "aGrUM 1.9.0";
  node_size = (50 50);
}

node C_NI_12_00 {
   states = (3 4 5 6 );
   label = "C_NI_12_00";
   ID = "C_NI_12_00";
}

node CKNI_12_00 {
   states = (20_MG_L 30_MG_L 40_MG_L );
   label = "CKNI_12_00";
   ID = "CKNI_12_00";
}

node CBODD_12_00 {
   states = (15_MG_L 20_MG_L 25_MG_L 30_MG_L );
   label = "CBODD_12_00";
   ID = "CBODD_12_00";
}

node CKND_12_00 {
   states = (2_MG_L 4_MG_L 6_MG_L );
   label = "CKND_12_00";
   ID = "CKND_12_00";
}

node CNOD_12_00 {
   states = (0_5_MG_L 1_MG_L 2_MG_L 4_MG_L );
   label = "CNOD_12_00";
   ID = "CNOD_12_00";
}

node CBODN_12_00 {
   states = (5_MG_L 10_MG_L 15_MG_L 20_MG_L );
   label = "CBODN_12_00";
   ID = "CBODN_12_00";
}

node CKNN_12_00 {
   states = (0_5_MG_L 1_MG_L 2_MG_L );
   label = "CKNN_12_00";
   ID = "CKNN_12_00";
}

node CNON_12_00 {
   states = (2_MG_L 4_MG_L 6_MG_L 10_MG_L );
   label = "CNON_12_00";
   ID = "CNON_12_00";
}

node C_NI_12_15 {
   states = (3 4 5 6 );
   label = "C_NI_12_15";
   ID = "C_NI_12_15";
}

node CKNI_12_15 {
   states = (20_MG_L 30_MG_L 40_MG_L );
   label = "CKNI_12_15";
   ID = "CKNI_12_15";
}

node CBODD_12_15 {
   states = (15_MG_L 20_MG_L 25_MG_L 30_MG_L );
   label = "CBODD_12_15";
   ID = "CBODD_12_15";
}

node CKND_12_15 {
   states = (2_MG_L 4_MG_L 6_MG_L );
   label = "CKND_12_15";
   ID = "CKND_12_15";
}

node CNOD_12_15 {
   states = (0_5_MG_L 1_MG_L 2_MG_L 4_MG_L );
   label = "CNOD_12_15";
   ID = "CNOD_12_15";
}

node CBODN_12_15 {
   states = (5_MG_L 10_MG_L 15_MG_L 20_MG_L );
   label = "CBODN_12_15";
   ID = "CBODN_12_15";
}

node CKNN_12_15 {
   states = (0_5_MG_L 1_MG_L 2_MG_L );
   label = "CKNN_12_15";
   ID = "CKNN_12_15";
}

node CNON_12_15 {
   states = (2_MG_L 4_MG_L 6_MG_L 10_MG_L );
   label = "CNON_12_15";
   ID = "CNON_12_15";
}

node C_NI_12_30 {
   states = (3 4 5 6 );
   label = "C_NI_12_30";
   ID = "C_NI_12_30";
}

node CKNI_12_30 {
   states = (20_MG_L 30_MG_L 40_MG_L );
   label = "CKNI_12_30";
   ID = "CKNI_12_30";
}

node CBODD_12_30 {
   states = (15_MG_L 20_MG_L 25_MG_L 30_MG_L );
   label = "CBODD_12_30";
   ID = "CBODD_12_30";
}

node CKND_12_30 {
   states = (2_MG_L 4_MG_L 6_MG_L );
   label = "CKND_12_30";
   ID = "CKND_12_30";
}

node CNOD_12_30 {
   states = (0_5_MG_L 1_MG_L 2_MG_L 4_MG_L );
   label = "CNOD_12_30";
   ID = "CNOD_12_30";
}

node CBODN_12_30 {
   states = (5_MG_L 10_MG_L 15_MG_L 20_MG_L );
   label = "CBODN_12_30";
   ID = "CBODN_12_30";
}

node CKNN_12_30 {
   states = (0_5_MG_L 1_MG_L 2_MG_L );
   label = "CKNN_12_30";
   ID = "CKNN_12_30";
}

node CNON_12_30 {
   states = (2_MG_L 4_MG_L 6_MG_L 10_MG_L );
   label = "CNON_12_30";
   ID = "CNON_12_30";
}

node C_NI_12_45 {
   states = (3 4 5 6 );
   label = "C_NI_12_45";
   ID = "C_NI_12_45";
}

node CKNI_12_45 {
   states = (20_MG_L 30_MG_L 40_MG_L );
   label = "CKNI_12_45";
   ID = "CKNI_12_45";
}

node CBODD_12_45 {
   states = (15_MG_L 20_MG_L 25_MG_L 30_MG_L );
   label = "CBODD_12_45";
   ID = "CBODD_12_45";
}

node CKND_12_45 {
   states = (2_MG_L 4_MG_L 6_MG_L );
   label = "CKND_12_45";
   ID = "CKND_12_45";
}

node CNOD_12_45 {
   states = (0_5_MG_L 1_MG_L 2_MG_L 4_MG_L );
   label = "CNOD_12_45";
   ID = "CNOD_12_45";
}

node CBODN_12_45 {
   states = (5_MG_L 10_MG_L 15_MG_L 20_MG_L );
   label = "CBODN_12_45";
   ID = "CBODN_12_45";
}

node CKNN_12_45 {
   states = (0_5_MG_L 1_MG_L 2_MG_L );
   label = "CKNN_12_45";
   ID = "CKNN_12_45";
}

node CNON_12_45 {
   states = (2_MG_L 4_MG_L 6_MG_L 10_MG_L );
   label = "CNON_12_45";
   ID = "CNON_12_45";
}

potential (C_NI_12_00) {
   data = (  0.25 0.25 0.25 0.25);
}

potential (CKNI_12_00) {
   data = (  0.333333 0.333333 0.333333);
}

potential (CBODD_12_00) {
   data = (  0 1 0 0);
}

potential (CKND_12_00) {
   data = (  0 1 0);
}

potential (CNOD_12_00) {
   data = (  0 1 0 0);
}

potential (CBODN_12_00) {
   data = (  0 1 0 0);
}

potential (CKNN_12_00) {
   data = (  0 1 0);
}

potential (CNON_12_00) {
   data = (  0 1 0 0);
}

potential ( C_NI_12_15 | C_NI_12_00   ) {
   data = 
   ((   0.5   0.4   0.1   0)   % C_NI_12_00=3   
   (   0.2   0.55   0.2   0.05)   % C_NI_12_00=4   
   (   0.1   0.3   0.5   0.1)   % C_NI_12_00=5   
   (   0   0.15   0.25   0.6));   % C_NI_12_00=6   
}

potential ( CKNI_12_15 | CKNI_12_00   ) {
   data = 
   ((   0.48   0.48   0.04)   % CKNI_12_00=20_MG_L   
   (   0.2   0.6   0.2)   % CKNI_12_00=30_MG_L   
   (   0.04   0.48   0.48));   % CKNI_12_00=40_MG_L   
}

potential ( CBODD_12_15 | C_NI_12_00   CKNI_12_00   CBODD_12_00   CNOD_12_00   CBODN_12_00   ) {
   data = 
   ((((((   1   0   0   0)   % CBODN_12_00=5_MG_L   CNOD_12_00=0_5_MG_L   CBODD_12_00=15_MG_L   CKNI_12_00=20_MG_L   C_NI_12_00=3   
   (   1   0   0   0)   % CBODN_12_00=10_MG_L   CNOD_12_00=0_5_MG_L   CBODD_12_00=15_MG_L   CKNI_12_00=20_MG_L   C_NI_12_00=3   
   (   0.9791   0.0209   0   0)   % CBODN_12_00=15_MG_L   CNOD_12_00=0_5_MG_L   CBODD_12_00=15_MG_L   CKNI_12_00=20_MG_L   C_NI_12_00=3   
   (   0.9473   0.0527   0   0))   % CBODN_12_00=20_MG_L   CNOD_12_00=0_5_MG_L   CBODD_12_00=15_MG_L   CKNI_12_00=20_MG_L   C_NI_12_00=3   
   ((   1   0   0   0)   % CBODN_12_00=5_MG_L   CNOD_12_00=1_MG_L   CBODD_12_00=15_MG_L   CKNI_12_00=20_MG_L   C_NI_12_00=3   
   (   1   0   0   0)   % CBODN_12_00=10_MG_L   CNOD_12_00=1_MG_L   CBODD_12_00=15_MG_L   CKNI_12_00=20_MG_L   C_NI_12_00=3   
   (   0.9951   0.0049   0   0)   % CBODN_12_00=15_MG_L   CNOD_12_00=1_MG_L   CBODD_12_00=15_MG_L   CKNI_12_00=20_MG_L   C_NI_12_00=3   
   (   0.9634   0.0366   0   0))   % CBODN_12_00=20_MG_L   CNOD_12_00=1_MG_L   CBODD_12_00=15_MG_L   CKNI_12_00=20_MG_L   C_NI_12_00=3   
   ((   1   0   0   0)   % CBODN_12_00=5_MG_L   CNOD_12_00=2_MG_L   CBODD_12_00=15_MG_L   CKNI_12_00=20_MG_L   C_NI_12_00=3   
   (   1   0   0   0)   % CBODN_12_00=10_MG_L   CNOD_12_00=2_MG_L   CBODD_12_00=15_MG_L   CKNI_12_00=20_MG_L   C_NI_12_00=3   
   (   1   0   0   0)   % CBODN_12_00=15_MG_L   CNOD_12_00=2_MG_L   CBODD_12_00=15_MG_L   CKNI_12_00=20_MG_L   C_NI_12_00=3   
   (   0.9762   0.0238   0   0))   % CBODN_12_00=20_MG_L   CNOD_12_00=2_MG_L   CBODD_12_00=15_MG_L   CKNI_12_00=20_MG_L   C_NI_12_00=3   
   ((   1   0   0   0)   % CBODN_12_00=5_MG_L   CNOD_12_00=4_MG_L   CBODD_12_00=15_MG_L   CKNI_12_00=20_MG_L   C_NI_12_00=3   
   (   1   0   0   0)   % CBODN_12_00=10_MG_L   CNOD_12_00=4_MG_L   CBODD_12_00=15_MG_L   CKNI_12_00=20_MG_L   C_NI_12_00=3   
   (   1   0   0   0)   % CBODN_12_00=15_MG_L   CNOD_12_00=4_MG_L   CBODD_12_00=15_MG_L   CKNI_12_00=20_MG_L   C_NI_12_00=3   
   (   0.9848   0.0152   0   0)))   % CBODN_12_00=20_MG_L   CNOD_12_00=4_MG_L   CBODD_12_00=15_MG_L   CKNI_12_00=20_MG_L   C_NI_12_00=3   
   (((   0.0903   0.9097   0   0)   % CBODN_12_00=5_MG_L   CNOD_12_00=0_5_MG_L   CBODD_12_00=20_MG_L   CKNI_12_00=20_MG_L   C_NI_12_00=3   
   (   0.0585   0.9415   0   0)   % CBODN_12_00=10_MG_L   CNOD_12_00=0_5_MG_L   CBODD_12_00=20_MG_L   CKNI_12_00=20_MG_L   C_NI_12_00=3   
   (   0.0268   0.9732   0   0)   % CBODN_12_00=15_MG_L   CNOD_12_00=0_5_MG_L   CBODD_12_00=20_MG_L   CKNI_12_00=20_MG_L   C_NI_12_00=3   
   (   0   0.995   0.005   0))   % CBODN_12_00=20_MG_L   CNOD_12_00=0_5_MG_L   CBODD_12_00=20_MG_L   CKNI_12_00=20_MG_L   C_NI_12_00=3   
   ((   0.109   0.891   0   0)   % CBODN_12_00=5_MG_L   CNOD_12_00=1_MG_L   CBODD_12_00=20_MG_L   CKNI_12_00=20_MG_L   C_NI_12_00=3   
   (   0.0773   0.9227   0   0)   % CBODN_12_00=10_MG_L   CNOD_12_00=1_MG_L   CBODD_12_00=20_MG_L   CKNI_12_00=20_MG_L   C_NI_12_00=3   
   (   0.0455   0.9545   0   0)   % CBODN_12_00=15_MG_L   CNOD_12_00=1_MG_L   CBODD_12_00=20_MG_L   CKNI_12_00=20_MG_L   C_NI_12_00=3   
   (   0.0138   0.9862   0   0))   % CBODN_12_00=20_MG_L   CNOD_12_00=1_MG_L   CBODD_12_00=20_MG_L   CKNI_12_00=20_MG_L   C_NI_12_00=3   
   ((   0.124   0.876   0   0)   % CBODN_12_00=5_MG_L   CNOD_12_00=2_MG_L   CBODD_12_00=20_MG_L   CKNI_12_00=20_MG_L   C_NI_12_00=3   
   (   0.0923   0.9077   0   0)   % CBODN_12_00=10_MG_L   CNOD_12_00=2_MG_L   CBODD_12_00=20_MG_L   CKNI_12_00=20_MG_L   C_NI_12_00=3   
   (   0.0605   0.9395   0   0)   % CBODN_12_00=15_MG_L   CNOD_12_00=2_MG_L   CBODD_12_00=20_MG_L   CKNI_12_00=20_MG_L   C_NI_12_00=3   
   (   0.0288   0.9712   0   0))   % CBODN_12_00=20_MG_L   CNOD_12_00=2_MG_L   CBODD_12_00=20_MG_L   CKNI_12_00=20_MG_L   C_NI_12_00=3   
   ((   0.134   0.866   0   0)   % CBODN_12_00=5_MG_L   CNOD_12_00=4_MG_L   CBODD_12_00=20_MG_L   CKNI_12_00=20_MG_L   C_NI_12_00=3   
   (   0.1023   0.8977   0   0)   % CBODN_12_00=10_MG_L   CNOD_12_00=4_MG_L   CBODD_12_00=20_MG_L   CKNI_12_00=20_MG_L   C_NI_12_00=3   
   (   0.0705   0.9295   0   0)   % CBODN_12_00=15_MG_L   CNOD_12_00=4_MG_L   CBODD_12_00=20_MG_L   CKNI_12_00=20_MG_L   C_NI_12_00=3   
   (   0.0388   0.9612   0   0)))   % CBODN_12_00=20_MG_L   CNOD_12_00=4_MG_L   CBODD_12_00=20_MG_L   CKNI_12_00=20_MG_L   C_NI_12_00=3   
   (((   0   0.1362   0.8638   0)   % CBODN_12_00=5_MG_L   CNOD_12_00=0_5_MG_L   CBODD_12_00=25_MG_L   CKNI_12_00=20_MG_L   C_NI_12_00=3   
   (   0   0.1045   0.8955   0)   % CBODN_12_00=10_MG_L   CNOD_12_00=0_5_MG_L   CBODD_12_00=25_MG_L   CKNI_12_00=20_MG_L   C_NI_12_00=3   
   (   0   0.0727   0.9273   0)   % CBODN_12_00=15_MG_L   CNOD_12_00=0_5_MG_L   CBODD_12_00=25_MG_L   CKNI_12_00=20_MG_L   C_NI_12_00=3   
   (   0   0.041   0.959   0))   % CBODN_12_00=20_MG_L   CNOD_12_00=0_5_MG_L   CBODD_12_00=25_MG_L   CKNI_12_00=20_MG_L   C_NI_12_00=3   
   ((   0   0.157   0.843   0)   % CBODN_12_00=5_MG_L   CNOD_12_00=1_MG_L   CBODD_12_00=25_MG_L   CKNI_12_00=20_MG_L   C_NI_12_00=3   
   (   0   0.1253   0.8747   0)   % CBODN_12_00=10_MG_L   CNOD_12_00=1_MG_L   CBODD_12_00=25_MG_L   CKNI_12_00=20_MG_L   C_NI_12_00=3   
   (   0   0.0935   0.9065   0)   % CBODN_12_00=15_MG_L   CNOD_12_00=1_MG_L   CBODD_12_00=25_MG_L   CKNI_12_00=20_MG_L   C_NI_12_00=3   
   (   0   0.0618   0.9382   0))   % CBODN_12_00=20_MG_L   CNOD_12_00=1_MG_L   CBODD_12_00=25_MG_L   CKNI_12_00=20_MG_L   C_NI_12_00=3   
   ((   0   0.1737   0.8263   0)   % CBODN_12_00=5_MG_L   CNOD_12_00=2_MG_L   CBODD_12_00=25_MG_L   CKNI_12_00=20_MG_L   C_NI_12_00=3   
   (   0   0.142   0.858   0)   % CBODN_12_00=10_MG_L   CNOD_12_00=2_MG_L   CBODD_12_00=25_MG_L   CKNI_12_00=20_MG_L   C_NI_12_00=3   
   (   0   0.1102   0.8898   0)   % CBODN_12_00=15_MG_L   CNOD_12_00=2_MG_L   CBODD_12_00=25_MG_L   CKNI_12_00=20_MG_L   C_NI_12_00=3   
   (   0   0.0785   0.9215   0))   % CBODN_12_00=20_MG_L   CNOD_12_00=2_MG_L   CBODD_12_00=25_MG_L   CKNI_12_00=20_MG_L   C_NI_12_00=3   
   ((   0   0.1848   0.8152   0)   % CBODN_12_00=5_MG_L   CNOD_12_00=4_MG_L   CBODD_12_00=25_MG_L   CKNI_12_00=20_MG_L   C_NI_12_00=3   
   (   0   0.1531   0.8469   0)   % CBODN_12_00=10_MG_L   CNOD_12_00=4_MG_L   CBODD_12_00=25_MG_L   CKNI_12_00=20_MG_L   C_NI_12_00=3   
   (   0   0.1213   0.8787   0)   % CBODN_12_00=15_MG_L   CNOD_12_00=4_MG_L   CBODD_12_00=25_MG_L   CKNI_12_00=20_MG_L   C_NI_12_00=3   
   (   0   0.0896   0.9104   0)))   % CBODN_12_00=20_MG_L   CNOD_12_00=4_MG_L   CBODD_12_00=25_MG_L   CKNI_12_00=20_MG_L   C_NI_12_00=3   
   (((   0   0   0.1809   0.8191)   % CBODN_12_00=5_MG_L   CNOD_12_00=0_5_MG_L   CBODD_12_00=30_MG_L   CKNI_12_00=20_MG_L   C_NI_12_00=3   
   (   0   0   0.1491   0.8509)   % CBODN_12_00=10_MG_L   CNOD_12_00=0_5_MG_L   CBODD_12_00=30_MG_L   CKNI_12_00=20_MG_L   C_NI_12_00=3   
   (   0   0   0.1174   0.8826)   % CBODN_12_00=15_MG_L   CNOD_12_00=0_5_MG_L   CBODD_12_00=30_MG_L   CKNI_12_00=20_MG_L   C_NI_12_00=3   
   (   0   0   0.0856   0.9144))   % CBODN_12_00=20_MG_L   CNOD_12_00=0_5_MG_L   CBODD_12_00=30_MG_L   CKNI_12_00=20_MG_L   C_NI_12_00=3   
   ((   0   0   0.2034   0.7966)   % CBODN_12_00=5_MG_L   CNOD_12_00=1_MG_L   CBODD_12_00=30_MG_L   CKNI_12_00=20_MG_L   C_NI_12_00=3   
   (   0   0   0.1716   0.8284)   % CBODN_12_00=10_MG_L   CNOD_12_00=1_MG_L   CBODD_12_00=30_MG_L   CKNI_12_00=20_MG_L   C_NI_12_00=3   
   (   0   0   0.1399   0.8601)   % CBODN_12_00=15_MG_L   CNOD_12_00=1_MG_L   CBODD_12_00=30_MG_L   CKNI_12_00=20_MG_L   C_NI_12_00=3   
   (   0   0   0.1081   0.8919))   % CBODN_12_00=20_MG_L   CNOD_12_00=1_MG_L   CBODD_12_00=30_MG_L   CKNI_12_00=20_MG_L   C_NI_12_00=3   
   ((   0   0   0.2214   0.7786)   % CBODN_12_00=5_MG_L   CNOD_12_00=2_MG_L   CBODD_12_00=30_MG_L   CKNI_12_00=20_MG_L   C_NI_12_00=3   
   (   0   0   0.1896   0.8104)   % CBODN_12_00=10_MG_L   CNOD_12_00=2_MG_L   CBODD_12_00=30_MG_L   CKNI_12_00=20_MG_L   C_NI_12_00=3   
   (   0   0   0.1579   0.8421)   % CBODN_12_00=15_MG_L   CNOD_12_00=2_MG_L   CBODD_12_00=30_MG_L   CKNI_12_00=20_MG_L   C_NI_12_00=3   
   (   0   0   0.1261   0.8739))   % CBODN_12_00=20_MG_L   CNOD_12_00=2_MG_L   CBODD_12_00=30_MG_L   CKNI_12_00=20_MG_L   C_NI_12_00=3   
   ((   0   0   0.2334   0.7666)   % CBODN_12_00=5_MG_L   CNOD_12_00=4_MG_L   CBODD_12_00=30_MG_L   CKNI_12_00=20_MG_L   C_NI_12_00=3   
   (   0   0   0.2016   0.7984)   % CBODN_12_00=10_MG_L   CNOD_12_00=4_MG_L   CBODD_12_00=30_MG_L   CKNI_12_00=20_MG_L   C_NI_12_00=3   
   (   0   0   0.1699   0.8301)   % CBODN_12_00=15_MG_L   CNOD_12_00=4_MG_L   CBODD_12_00=30_MG_L   CKNI_12_00=20_MG_L   C_NI_12_00=3   
   (   0   0   0.1381   0.8619))))   % CBODN_12_00=20_MG_L   CNOD_12_00=4_MG_L   CBODD_12_00=30_MG_L   CKNI_12_00=20_MG_L   C_NI_12_00=3   
   ((((   0.9949   0.0051   0   0)   % CBODN_12_00=5_MG_L   CNOD_12_00=0_5_MG_L   CBODD_12_00=15_MG_L   CKNI_12_00=30_MG_L   C_NI_12_00=3   
   (   0.9632   0.0368   0   0)   % CBODN_12_00=10_MG_L   CNOD_12_00=0_5_MG_L   CBODD_12_00=15_MG_L   CKNI_12_00=30_MG_L   C_NI_12_00=3   
   (   0.9314   0.0686   0   0)   % CBODN_12_00=15_MG_L   CNOD_12_00=0_5_MG_L   CBODD_12_00=15_MG_L   CKNI_12_00=30_MG_L   C_NI_12_00=3   
   (   0.8997   0.1003   0   0))   % CBODN_12_00=20_MG_L   CNOD_12_00=0_5_MG_L   CBODD_12_00=15_MG_L   CKNI_12_00=30_MG_L   C_NI_12_00=3   
   ((   1   0   0   0)   % CBODN_12_00=5_MG_L   CNOD_12_00=1_MG_L   CBODD_12_00=15_MG_L   CKNI_12_00=30_MG_L   C_NI_12_00=3   
   (   0.9793   0.0207   0   0)   % CBODN_12_00=10_MG_L   CNOD_12_00=1_MG_L   CBODD_12_00=15_MG_L   CKNI_12_00=30_MG_L   C_NI_12_00=3   
   (   0.9475   0.0525   0   0)   % CBODN_12_00=15_MG_L   CNOD_12_00=1_MG_L   CBODD_12_00=15_MG_L   CKNI_12_00=30_MG_L   C_NI_12_00=3   
   (   0.9158   0.0842   0   0))   % CBODN_12_00=20_MG_L   CNOD_12_00=1_MG_L   CBODD_12_00=15_MG_L   CKNI_12_00=30_MG_L   C_NI_12_00=3   
   ((   1   0   0   0)   % CBODN_12_00=5_MG_L   CNOD_12_00=2_MG_L   CBODD_12_00=15_MG_L   CKNI_12_00=30_MG_L   C_NI_12_00=3   
   (   0.9921   0.0079   0   0)   % CBODN_12_00=10_MG_L   CNOD_12_00=2_MG_L   CBODD_12_00=15_MG_L   CKNI_12_00=30_MG_L   C_NI_12_00=3   
   (   0.9604   0.0396   0   0)   % CBODN_12_00=15_MG_L   CNOD_12_00=2_MG_L   CBODD_12_00=15_MG_L   CKNI_12_00=30_MG_L   C_NI_12_00=3   
   (   0.9286   0.0714   0   0))   % CBODN_12_00=20_MG_L   CNOD_12_00=2_MG_L   CBODD_12_00=15_MG_L   CKNI_12_00=30_MG_L   C_NI_12_00=3   
   ((   1   0   0   0)   % CBODN_12_00=5_MG_L   CNOD_12_00=4_MG_L   CBODD_12_00=15_MG_L   CKNI_12_00=30_MG_L   C_NI_12_00=3   
   (   1   0   0   0)   % CBODN_12_00=10_MG_L   CNOD_12_00=4_MG_L   CBODD_12_00=15_MG_L   CKNI_12_00=30_MG_L   C_NI_12_00=3   
   (   0.9689   0.0311   0   0)   % CBODN_12_00=15_MG_L   CNOD_12_00=4_MG_L   CBODD_12_00=15_MG_L   CKNI_12_00=30_MG_L   C_NI_12_00=3   
   (   0.9372   0.0628   0   0)))   % CBODN_12_00=20_MG_L   CNOD_12_00=4_MG_L   CBODD_12_00=15_MG_L   CKNI_12_00=30_MG_L   C_NI_12_00=3   
   (((   0.0426   0.9574   0   0)   % CBODN_12_00=5_MG_L   CNOD_12_00=0_5_MG_L   CBODD_12_00=20_MG_L   CKNI_12_00=30_MG_L   C_NI_12_00=3   
   (   0.0109   0.9891   0   0)   % CBODN_12_00=10_MG_L   CNOD_12_00=0_5_MG_L   CBODD_12_00=20_MG_L   CKNI_12_00=30_MG_L   C_NI_12_00=3   
   (   0   0.9792   0.0208   0)   % CBODN_12_00=15_MG_L   CNOD_12_00=0_5_MG_L   CBODD_12_00=20_MG_L   CKNI_12_00=30_MG_L   C_NI_12_00=3   
   (   0   0.9474   0.0526   0))   % CBODN_12_00=20_MG_L   CNOD_12_00=0_5_MG_L   CBODD_12_00=20_MG_L   CKNI_12_00=30_MG_L   C_NI_12_00=3   
   ((   0.0614   0.9386   0   0)   % CBODN_12_00=5_MG_L   CNOD_12_00=1_MG_L   CBODD_12_00=20_MG_L   CKNI_12_00=30_MG_L   C_NI_12_00=3   
   (   0.0296   0.9704   0   0)   % CBODN_12_00=10_MG_L   CNOD_12_00=1_MG_L   CBODD_12_00=20_MG_L   CKNI_12_00=30_MG_L   C_NI_12_00=3   
   (   0   0.9979   0.0021   0)   % CBODN_12_00=15_MG_L   CNOD_12_00=1_MG_L   CBODD_12_00=20_MG_L   CKNI_12_00=30_MG_L   C_NI_12_00=3   
   (   0   0.9662   0.0338   0))   % CBODN_12_00=20_MG_L   CNOD_12_00=1_MG_L   CBODD_12_00=20_MG_L   CKNI_12_00=30_MG_L   C_NI_12_00=3   
   ((   0.0764   0.9236   0   0)   % CBODN_12_00=5_MG_L   CNOD_12_00=2_MG_L   CBODD_12_00=20_MG_L   CKNI_12_00=30_MG_L   C_NI_12_00=3   
   (   0.0446   0.9554   0   0)   % CBODN_12_00=10_MG_L   CNOD_12_00=2_MG_L   CBODD_12_00=20_MG_L   CKNI_12_00=30_MG_L   C_NI_12_00=3   
   (   0.0129   0.9871   0   0)   % CBODN_12_00=15_MG_L   CNOD_12_00=2_MG_L   CBODD_12_00=20_MG_L   CKNI_12_00=30_MG_L   C_NI_12_00=3   
   (   0   0.9812   0.0188   0))   % CBODN_12_00=20_MG_L   CNOD_12_00=2_MG_L   CBODD_12_00=20_MG_L   CKNI_12_00=30_MG_L   C_NI_12_00=3   
   ((   0.0864   0.9136   0   0)   % CBODN_12_00=5_MG_L   CNOD_12_00=4_MG_L   CBODD_12_00=20_MG_L   CKNI_12_00=30_MG_L   C_NI_12_00=3   
   (   0.0546   0.9454   0   0)   % CBODN_12_00=10_MG_L   CNOD_12_00=4_MG_L   CBODD_12_00=20_MG_L   CKNI_12_00=30_MG_L   C_NI_12_00=3   
   (   0.0229   0.9771   0   0)   % CBODN_12_00=15_MG_L   CNOD_12_00=4_MG_L   CBODD_12_00=20_MG_L   CKNI_12_00=30_MG_L   C_NI_12_00=3   
   (   0   0.9912   0.0088   0)))   % CBODN_12_00=20_MG_L   CNOD_12_00=4_MG_L   CBODD_12_00=20_MG_L   CKNI_12_00=30_MG_L   C_NI_12_00=3   
   (((   0   0.0886   0.9114   0)   % CBODN_12_00=5_MG_L   CNOD_12_00=0_5_MG_L   CBODD_12_00=25_MG_L   CKNI_12_00=30_MG_L   C_NI_12_00=3   
   (   0   0.0568   0.9432   0)   % CBODN_12_00=10_MG_L   CNOD_12_00=0_5_MG_L   CBODD_12_00=25_MG_L   CKNI_12_00=30_MG_L   C_NI_12_00=3   
   (   0   0.0251   0.9749   0)   % CBODN_12_00=15_MG_L   CNOD_12_00=0_5_MG_L   CBODD_12_00=25_MG_L   CKNI_12_00=30_MG_L   C_NI_12_00=3   
   (   0   0   0.9933   0.0067))   % CBODN_12_00=20_MG_L   CNOD_12_00=0_5_MG_L   CBODD_12_00=25_MG_L   CKNI_12_00=30_MG_L   C_NI_12_00=3   
   ((   0   0.1094   0.8906   0)   % CBODN_12_00=5_MG_L   CNOD_12_00=1_MG_L   CBODD_12_00=25_MG_L   CKNI_12_00=30_MG_L   C_NI_12_00=3   
   (   0   0.0777   0.9223   0)   % CBODN_12_00=10_MG_L   CNOD_12_00=1_MG_L   CBODD_12_00=25_MG_L   CKNI_12_00=30_MG_L   C_NI_12_00=3   
   (   0   0.0459   0.9541   0)   % CBODN_12_00=15_MG_L   CNOD_12_00=1_MG_L   CBODD_12_00=25_MG_L   CKNI_12_00=30_MG_L   C_NI_12_00=3   
   (   0   0.0142   0.9858   0))   % CBODN_12_00=20_MG_L   CNOD_12_00=1_MG_L   CBODD_12_00=25_MG_L   CKNI_12_00=30_MG_L   C_NI_12_00=3   
   ((   0   0.1261   0.8739   0)   % CBODN_12_00=5_MG_L   CNOD_12_00=2_MG_L   CBODD_12_00=25_MG_L   CKNI_12_00=30_MG_L   C_NI_12_00=3   
   (   0   0.0943   0.9057   0)   % CBODN_12_00=10_MG_L   CNOD_12_00=2_MG_L   CBODD_12_00=25_MG_L   CKNI_12_00=30_MG_L   C_NI_12_00=3   
   (   0   0.0626   0.9374   0)   % CBODN_12_00=15_MG_L   CNOD_12_00=2_MG_L   CBODD_12_00=25_MG_L   CKNI_12_00=30_MG_L   C_NI_12_00=3   
   (   0   0.0308   0.9692   0))   % CBODN_12_00=20_MG_L   CNOD_12_00=2_MG_L   CBODD_12_00=25_MG_L   CKNI_12_00=30_MG_L   C_NI_12_00=3   
   ((   0   0.1372   0.8628   0)   % CBODN_12_00=5_MG_L   CNOD_12_00=4_MG_L   CBODD_12_00=25_MG_L   CKNI_12_00=30_MG_L   C_NI_12_00=3   
   (   0   0.1054   0.8946   0)   % CBODN_12_00=10_MG_L   CNOD_12_00=4_MG_L   CBODD_12_00=25_MG_L   CKNI_12_00=30_MG_L   C_NI_12_00=3   
   (   0   0.0737   0.9263   0)   % CBODN_12_00=15_MG_L   CNOD_12_00=4_MG_L   CBODD_12_00=25_MG_L   CKNI_12_00=30_MG_L   C_NI_12_00=3   
   (   0   0.042   0.958   0)))   % CBODN_12_00=20_MG_L   CNOD_12_00=4_MG_L   CBODD_12_00=25_MG_L   CKNI_12_00=30_MG_L   C_NI_12_00=3   
   (((   0   0   0.1333   0.8667)   % CBODN_12_00=5_MG_L   CNOD_12_00=0_5_MG_L   CBODD_12_00=30_MG_L   CKNI_12_00=30_MG_L   C_NI_12_00=3   
   (   0   0   0.1015   0.8985)   % CBODN_12_00=10_MG_L   CNOD_12_00=0_5_MG_L   CBODD_12_00=30_MG_L   CKNI_12_00=30_MG_L   C_NI_12_00=3   
   (   0   0   0.0698   0.9302)   % CBODN_12_00=15_MG_L   CNOD_12_00=0_5_MG_L   CBODD_12_00=30_MG_L   CKNI_12_00=30_MG_L   C_NI_12_00=3   
   (   0   0   0.038   0.962))   % CBODN_12_00=20_MG_L   CNOD_12_00=0_5_MG_L   CBODD_12_00=30_MG_L   CKNI_12_00=30_MG_L   C_NI_12_00=3   
   ((   0   0   0.1558   0.8442)   % CBODN_12_00=5_MG_L   CNOD_12_00=1_MG_L   CBODD_12_00=30_MG_L   CKNI_12_00=30_MG_L   C_NI_12_00=3   
   (   0   0   0.124   0.876)   % CBODN_12_00=10_MG_L   CNOD_12_00=1_MG_L   CBODD_12_00=30_MG_L   CKNI_12_00=30_MG_L   C_NI_12_00=3   
   (   0   0   0.0923   0.9077)   % CBODN_12_00=15_MG_L   CNOD_12_00=1_MG_L   CBODD_12_00=30_MG_L   CKNI_12_00=30_MG_L   C_NI_12_00=3   
   (   0   0   0.0605   0.9395))   % CBODN_12_00=20_MG_L   CNOD_12_00=1_MG_L   CBODD_12_00=30_MG_L   CKNI_12_00=30_MG_L   C_NI_12_00=3   
   ((   0   0   0.1738   0.8262)   % CBODN_12_00=5_MG_L   CNOD_12_00=2_MG_L   CBODD_12_00=30_MG_L   CKNI_12_00=30_MG_L   C_NI_12_00=3   
   (   0   0   0.142   0.858)   % CBODN_12_00=10_MG_L   CNOD_12_00=2_MG_L   CBODD_12_00=30_MG_L   CKNI_12_00=30_MG_L   C_NI_12_00=3   
   (   0   0   0.1103   0.8897)   % CBODN_12_00=15_MG_L   CNOD_12_00=2_MG_L   CBODD_12_00=30_MG_L   CKNI_12_00=30_MG_L   C_NI_12_00=3   
   (   0   0   0.0785   0.9215))   % CBODN_12_00=20_MG_L   CNOD_12_00=2_MG_L   CBODD_12_00=30_MG_L   CKNI_12_00=30_MG_L   C_NI_12_00=3   
   ((   0   0   0.1858   0.8142)   % CBODN_12_00=5_MG_L   CNOD_12_00=4_MG_L   CBODD_12_00=30_MG_L   CKNI_12_00=30_MG_L   C_NI_12_00=3   
   (   0   0   0.154   0.846)   % CBODN_12_00=10_MG_L   CNOD_12_00=4_MG_L   CBODD_12_00=30_MG_L   CKNI_12_00=30_MG_L   C_NI_12_00=3   
   (   0   0   0.1223   0.8777)   % CBODN_12_00=15_MG_L   CNOD_12_00=4_MG_L   CBODD_12_00=30_MG_L   CKNI_12_00=30_MG_L   C_NI_12_00=3   
   (   0   0   0.0905   0.9095))))   % CBODN_12_00=20_MG_L   CNOD_12_00=4_MG_L   CBODD_12_00=30_MG_L   CKNI_12_00=30_MG_L   C_NI_12_00=3   
   ((((   0.9473   0.0527   0   0)   % CBODN_12_00=5_MG_L   CNOD_12_00=0_5_MG_L   CBODD_12_00=15_MG_L   CKNI_12_00=40_MG_L   C_NI_12_00=3   
   (   0.9156   0.0844   0   0)   % CBODN_12_00=10_MG_L   CNOD_12_00=0_5_MG_L   CBODD_12_00=15_MG_L   CKNI_12_00=40_MG_L   C_NI_12_00=3   
   (   0.8838   0.1162   0   0)   % CBODN_12_00=15_MG_L   CNOD_12_00=0_5_MG_L   CBODD_12_00=15_MG_L   CKNI_12_00=40_MG_L   C_NI_12_00=3   
   (   0.8521   0.1479   0   0))   % CBODN_12_00=20_MG_L   CNOD_12_00=0_5_MG_L   CBODD_12_00=15_MG_L   CKNI_12_00=40_MG_L   C_NI_12_00=3   
   ((   0.9634   0.0366   0   0)   % CBODN_12_00=5_MG_L   CNOD_12_00=1_MG_L   CBODD_12_00=15_MG_L   CKNI_12_00=40_MG_L   C_NI_12_00=3   
   (   0.9316   0.0684   0   0)   % CBODN_12_00=10_MG_L   CNOD_12_00=1_MG_L   CBODD_12_00=15_MG_L   CKNI_12_00=40_MG_L   C_NI_12_00=3   
   (   0.8999   0.1001   0   0)   % CBODN_12_00=15_MG_L   CNOD_12_00=1_MG_L   CBODD_12_00=15_MG_L   CKNI_12_00=40_MG_L   C_NI_12_00=3   
   (   0.8681   0.1319   0   0))   % CBODN_12_00=20_MG_L   CNOD_12_00=1_MG_L   CBODD_12_00=15_MG_L   CKNI_12_00=40_MG_L   C_NI_12_00=3   
   ((   0.9762   0.0238   0   0)   % CBODN_12_00=5_MG_L   CNOD_12_00=2_MG_L   CBODD_12_00=15_MG_L   CKNI_12_00=40_MG_L   C_NI_12_00=3   
   (   0.9445   0.0555   0   0)   % CBODN_12_00=10_MG_L   CNOD_12_00=2_MG_L   CBODD_12_00=15_MG_L   CKNI_12_00=40_MG_L   C_NI_12_00=3   
   (   0.9127   0.0873   0   0)   % CBODN_12_00=15_MG_L   CNOD_12_00=2_MG_L   CBODD_12_00=15_MG_L   CKNI_12_00=40_MG_L   C_NI_12_00=3   
   (   0.881   0.119   0   0))   % CBODN_12_00=20_MG_L   CNOD_12_00=2_MG_L   CBODD_12_00=15_MG_L   CKNI_12_00=40_MG_L   C_NI_12_00=3   
   ((   0.9848   0.0152   0   0)   % CBODN_12_00=5_MG_L   CNOD_12_00=4_MG_L   CBODD_12_00=15_MG_L   CKNI_12_00=40_MG_L   C_NI_12_00=3   
   (   0.9531   0.0469   0   0)   % CBODN_12_00=10_MG_L   CNOD_12_00=4_MG_L   CBODD_12_00=15_MG_L   CKNI_12_00=40_MG_L   C_NI_12_00=3   
   (   0.9213   0.0787   0   0)   % CBODN_12_00=15_MG_L   CNOD_12_00=4_MG_L   CBODD_12_00=15_MG_L   CKNI_12_00=40_MG_L   C_NI_12_00=3   
   (   0.8896   0.1104   0   0)))   % CBODN_12_00=20_MG_L   CNOD_12_00=4_MG_L   CBODD_12_00=15_MG_L   CKNI_12_00=40_MG_L   C_NI_12_00=3   
   (((   0   0.995   0.005   0)   % CBODN_12_00=5_MG_L   CNOD_12_00=0_5_MG_L   CBODD_12_00=20_MG_L   CKNI_12_00=40_MG_L   C_NI_12_00=3   
   (   0   0.9633   0.0367   0)   % CBODN_12_00=10_MG_L   CNOD_12_00=0_5_MG_L   CBODD_12_00=20_MG_L   CKNI_12_00=40_MG_L   C_NI_12_00=3   
   (   0   0.9315   0.0685   0)   % CBODN_12_00=15_MG_L   CNOD_12_00=0_5_MG_L   CBODD_12_00=20_MG_L   CKNI_12_00=40_MG_L   C_NI_12_00=3   
   (   0   0.8998   0.1002   0))   % CBODN_12_00=20_MG_L   CNOD_12_00=0_5_MG_L   CBODD_12_00=20_MG_L   CKNI_12_00=40_MG_L   C_NI_12_00=3   
   ((   0.0138   0.9862   0   0)   % CBODN_12_00=5_MG_L   CNOD_12_00=1_MG_L   CBODD_12_00=20_MG_L   CKNI_12_00=40_MG_L   C_NI_12_00=3   
   (   0   0.982   0.018   0)   % CBODN_12_00=10_MG_L   CNOD_12_00=1_MG_L   CBODD_12_00=20_MG_L   CKNI_12_00=40_MG_L   C_NI_12_00=3   
   (   0   0.9503   0.0497   0)   % CBODN_12_00=15_MG_L   CNOD_12_00=1_MG_L   CBODD_12_00=20_MG_L   CKNI_12_00=40_MG_L   C_NI_12_00=3   
   (   0   0.9185   0.0815   0))   % CBODN_12_00=20_MG_L   CNOD_12_00=1_MG_L   CBODD_12_00=20_MG_L   CKNI_12_00=40_MG_L   C_NI_12_00=3   
   ((   0.0288   0.9712   0   0)   % CBODN_12_00=5_MG_L   CNOD_12_00=2_MG_L   CBODD_12_00=20_MG_L   CKNI_12_00=40_MG_L   C_NI_12_00=3   
   (   0   0.997   0.003   0)   % CBODN_12_00=10_MG_L   CNOD_12_00=2_MG_L   CBODD_12_00=20_MG_L   CKNI_12_00=40_MG_L   C_NI_12_00=3   
   (   0   0.9653   0.0347   0)   % CBODN_12_00=15_MG_L   CNOD_12_00=2_MG_L   CBODD_12_00=20_MG_L   CKNI_12_00=40_MG_L   C_NI_12_00=3   
   (   0   0.9335   0.0665   0))   % CBODN_12_00=20_MG_L   CNOD_12_00=2_MG_L   CBODD_12_00=20_MG_L   CKNI_12_00=40_MG_L   C_NI_12_00=3   
   ((   0.0388   0.9612   0   0)   % CBODN_12_00=5_MG_L   CNOD_12_00=4_MG_L   CBODD_12_00=20_MG_L   CKNI_12_00=40_MG_L   C_NI_12_00=3   
   (   0.007   0.993   0   0)   % CBODN_12_00=10_MG_L   CNOD_12_00=4_MG_L   CBODD_12_00=20_MG_L   CKNI_12_00=40_MG_L   C_NI_12_00=3   
   (   0   0.9753   0.0247   0)   % CBODN_12_00=15_MG_L   CNOD_12_00=4_MG_L   CBODD_12_00=20_MG_L   CKNI_12_00=40_MG_L   C_NI_12_00=3   
   (   0   0.9435   0.0565   0)))   % CBODN_12_00=20_MG_L   CNOD_12_00=4_MG_L   CBODD_12_00=20_MG_L   CKNI_12_00=40_MG_L   C_NI_12_00=3   
   (((   0   0.041   0.959   0)   % CBODN_12_00=5_MG_L   CNOD_12_00=0_5_MG_L   CBODD_12_00=25_MG_L   CKNI_12_00=40_MG_L   C_NI_12_00=3   
   (   0   0.0092   0.9908   0)   % CBODN_12_00=10_MG_L   CNOD_12_00=0_5_MG_L   CBODD_12_00=25_MG_L   CKNI_12_00=40_MG_L   C_NI_12_00=3   
   (   0   0   0.9775   0.0225)   % CBODN_12_00=15_MG_L   CNOD_12_00=0_5_MG_L   CBODD_12_00=25_MG_L   CKNI_12_00=40_MG_L   C_NI_12_00=3   
   (   0   0   0.9457   0.0543))   % CBODN_12_00=20_MG_L   CNOD_12_00=0_5_MG_L   CBODD_12_00=25_MG_L   CKNI_12_00=40_MG_L   C_NI_12_00=3   
   ((   0   0.0618   0.9382   0)   % CBODN_12_00=5_MG_L   CNOD_12_00=1_MG_L   CBODD_12_00=25_MG_L   CKNI_12_00=40_MG_L   C_NI_12_00=3   
   (   0   0.03   0.97   0)   % CBODN_12_00=10_MG_L   CNOD_12_00=1_MG_L   CBODD_12_00=25_MG_L   CKNI_12_00=40_MG_L   C_NI_12_00=3   
   (   0   0   0.9983   0.0017)   % CBODN_12_00=15_MG_L   CNOD_12_00=1_MG_L   CBODD_12_00=25_MG_L   CKNI_12_00=40_MG_L   C_NI_12_00=3   
   (   0   0   0.9666   0.0334))   % CBODN_12_00=20_MG_L   CNOD_12_00=1_MG_L   CBODD_12_00=25_MG_L   CKNI_12_00=40_MG_L   C_NI_12_00=3   
   ((   0   0.0785   0.9215   0)   % CBODN_12_00=5_MG_L   CNOD_12_00=2_MG_L   CBODD_12_00=25_MG_L   CKNI_12_00=40_MG_L   C_NI_12_00=3   
   (   0   0.0467   0.9533   0)   % CBODN_12_00=10_MG_L   CNOD_12_00=2_MG_L   CBODD_12_00=25_MG_L   CKNI_12_00=40_MG_L   C_NI_12_00=3   
   (   0   0.015   0.985   0)   % CBODN_12_00=15_MG_L   CNOD_12_00=2_MG_L   CBODD_12_00=25_MG_L   CKNI_12_00=40_MG_L   C_NI_12_00=3   
   (   0   0   0.9832   0.0168))   % CBODN_12_00=20_MG_L   CNOD_12_00=2_MG_L   CBODD_12_00=25_MG_L   CKNI_12_00=40_MG_L   C_NI_12_00=3   
   ((   0   0.0896   0.9104   0)   % CBODN_12_00=5_MG_L   CNOD_12_00=4_MG_L   CBODD_12_00=25_MG_L   CKNI_12_00=40_MG_L   C_NI_12_00=3   
   (   0   0.0578   0.9422   0)   % CBODN_12_00=10_MG_L   CNOD_12_00=4_MG_L   CBODD_12_00=25_MG_L   CKNI_12_00=40_MG_L   C_NI_12_00=3   
   (   0   0.0261   0.9739   0)   % CBODN_12_00=15_MG_L   CNOD_12_00=4_MG_L   CBODD_12_00=25_MG_L   CKNI_12_00=40_MG_L   C_NI_12_00=3   
   (   0   0   0.9943   0.0057)))   % CBODN_12_00=20_MG_L   CNOD_12_00=4_MG_L   CBODD_12_00=25_MG_L   CKNI_12_00=40_MG_L   C_NI_12_00=3   
   (((   0   0   0.0856   0.9144)   % CBODN_12_00=5_MG_L   CNOD_12_00=0_5_MG_L   CBODD_12_00=30_MG_L   CKNI_12_00=40_MG_L   C_NI_12_00=3   
   (   0   0   0.0539   0.9461)   % CBODN_12_00=10_MG_L   CNOD_12_00=0_5_MG_L   CBODD_12_00=30_MG_L   CKNI_12_00=40_MG_L   C_NI_12_00=3   
   (   0   0   0.0221   0.9779)   % CBODN_12_00=15_MG_L   CNOD_12_00=0_5_MG_L   CBODD_12_00=30_MG_L   CKNI_12_00=40_MG_L   C_NI_12_00=3   
   (   0   0   0   1))   % CBODN_12_00=20_MG_L   CNOD_12_00=0_5_MG_L   CBODD_12_00=30_MG_L   CKNI_12_00=40_MG_L   C_NI_12_00=3   
   ((   0   0   0.1081   0.8919)   % CBODN_12_00=5_MG_L   CNOD_12_00=1_MG_L   CBODD_12_00=30_MG_L   CKNI_12_00=40_MG_L   C_NI_12_00=3   
   (   0   0   0.0764   0.9236)   % CBODN_12_00=10_MG_L   CNOD_12_00=1_MG_L   CBODD_12_00=30_MG_L   CKNI_12_00=40_MG_L   C_NI_12_00=3   
   (   0   0   0.0446   0.9554)   % CBODN_12_00=15_MG_L   CNOD_12_00=1_MG_L   CBODD_12_00=30_MG_L   CKNI_12_00=40_MG_L   C_NI_12_00=3   
   (   0   0   0.0129   0.9871))   % CBODN_12_00=20_MG_L   CNOD_12_00=1_MG_L   CBODD_12_00=30_MG_L   CKNI_12_00=40_MG_L   C_NI_12_00=3   
   ((   0   0   0.1261   0.8739)   % CBODN_12_00=5_MG_L   CNOD_12_00=2_MG_L   CBODD_12_00=30_MG_L   CKNI_12_00=40_MG_L   C_NI_12_00=3   
   (   0   0   0.0944   0.9056)   % CBODN_12_00=10_MG_L   CNOD_12_00=2_MG_L   CBODD_12_00=30_MG_L   CKNI_12_00=40_MG_L   C_NI_12_00=3   
   (   0   0   0.0626   0.9374)   % CBODN_12_00=15_MG_L   CNOD_12_00=2_MG_L   CBODD_12_00=30_MG_L   CKNI_12_00=40_MG_L   C_NI_12_00=3   
   (   0   0   0.0309   0.9691))   % CBODN_12_00=20_MG_L   CNOD_12_00=2_MG_L   CBODD_12_00=30_MG_L   CKNI_12_00=40_MG_L   C_NI_12_00=3   
   ((   0   0   0.1381   0.8619)   % CBODN_12_00=5_MG_L   CNOD_12_00=4_MG_L   CBODD_12_00=30_MG_L   CKNI_12_00=40_MG_L   C_NI_12_00=3   
   (   0   0   0.1064   0.8936)   % CBODN_12_00=10_MG_L   CNOD_12_00=4_MG_L   CBODD_12_00=30_MG_L   CKNI_12_00=40_MG_L   C_NI_12_00=3   
   (   0   0   0.0746   0.9254)   % CBODN_12_00=15_MG_L   CNOD_12_00=4_MG_L   CBODD_12_00=30_MG_L   CKNI_12_00=40_MG_L   C_NI_12_00=3   
   (   0   0   0.0429   0.9571)))))   % CBODN_12_00=20_MG_L   CNOD_12_00=4_MG_L   CBODD_12_00=30_MG_L   CKNI_12_00=40_MG_L   C_NI_12_00=3   
   (((((   1   0   0   0)   % CBODN_12_00=5_MG_L   CNOD_12_00=0_5_MG_L   CBODD_12_00=15_MG_L   CKNI_12_00=20_MG_L   C_NI_12_00=4   
   (   0.9791   0.0209   0   0)   % CBODN_12_00=10_MG_L   CNOD_12_00=0_5_MG_L   CBODD_12_00=15_MG_L   CKNI_12_00=20_MG_L   C_NI_12_00=4   
   (   0.9473   0.0527   0   0)   % CBODN_12_00=15_MG_L   CNOD_12_00=0_5_MG_L   CBODD_12_00=15_MG_L   CKNI_12_00=20_MG_L   C_NI_12_00=4   
   (   0.9156   0.0844   0   0))   % CBODN_12_00=20_MG_L   CNOD_12_00=0_5_MG_L   CBODD_12_00=15_MG_L   CKNI_12_00=20_MG_L   C_NI_12_00=4   
   ((   1   0   0   0)   % CBODN_12_00=5_MG_L   CNOD_12_00=1_MG_L   CBODD_12_00=15_MG_L   CKNI_12_00=20_MG_L   C_NI_12_00=4   
   (   0.9951   0.0049   0   0)   % CBODN_12_00=10_MG_L   CNOD_12_00=1_MG_L   CBODD_12_00=15_MG_L   CKNI_12_00=20_MG_L   C_NI_12_00=4   
   (   0.9634   0.0366   0   0)   % CBODN_12_00=15_MG_L   CNOD_12_00=1_MG_L   CBODD_12_00=15_MG_L   CKNI_12_00=20_MG_L   C_NI_12_00=4   
   (   0.9316   0.0684   0   0))   % CBODN_12_00=20_MG_L   CNOD_12_00=1_MG_L   CBODD_12_00=15_MG_L   CKNI_12_00=20_MG_L   C_NI_12_00=4   
   ((   1   0   0   0)   % CBODN_12_00=5_MG_L   CNOD_12_00=2_MG_L   CBODD_12_00=15_MG_L   CKNI_12_00=20_MG_L   C_NI_12_00=4   
   (   1   0   0   0)   % CBODN_12_00=10_MG_L   CNOD_12_00=2_MG_L   CBODD_12_00=15_MG_L   CKNI_12_00=20_MG_L   C_NI_12_00=4   
   (   0.9762   0.0238   0   0)   % CBODN_12_00=15_MG_L   CNOD_12_00=2_MG_L   CBODD_12_00=15_MG_L   CKNI_12_00=20_MG_L   C_NI_12_00=4   
   (   0.9445   0.0555   0   0))   % CBODN_12_00=20_MG_L   CNOD_12_00=2_MG_L   CBODD_12_00=15_MG_L   CKNI_12_00=20_MG_L   C_NI_12_00=4   
   ((   1   0   0   0)   % CBODN_12_00=5_MG_L   CNOD_12_00=4_MG_L   CBODD_12_00=15_MG_L   CKNI_12_00=20_MG_L   C_NI_12_00=4   
   (   1   0   0   0)   % CBODN_12_00=10_MG_L   CNOD_12_00=4_MG_L   CBODD_12_00=15_MG_L   CKNI_12_00=20_MG_L   C_NI_12_00=4   
   (   0.9848   0.0152   0   0)   % CBODN_12_00=15_MG_L   CNOD_12_00=4_MG_L   CBODD_12_00=15_MG_L   CKNI_12_00=20_MG_L   C_NI_12_00=4   
   (   0.9531   0.0469   0   0)))   % CBODN_12_00=20_MG_L   CNOD_12_00=4_MG_L   CBODD_12_00=15_MG_L   CKNI_12_00=20_MG_L   C_NI_12_00=4   
   (((   0.0585   0.9415   0   0)   % CBODN_12_00=5_MG_L   CNOD_12_00=0_5_MG_L   CBODD_12_00=20_MG_L   CKNI_12_00=20_MG_L   C_NI_12_00=4   
   (   0.0268   0.9732   0   0)   % CBODN_12_00=10_MG_L   CNOD_12_00=0_5_MG_L   CBODD_12_00=20_MG_L   CKNI_12_00=20_MG_L   C_NI_12_00=4   
   (   0   0.995   0.005   0)   % CBODN_12_00=15_MG_L   CNOD_12_00=0_5_MG_L   CBODD_12_00=20_MG_L   CKNI_12_00=20_MG_L   C_NI_12_00=4   
   (   0   0.9633   0.0367   0))   % CBODN_12_00=20_MG_L   CNOD_12_00=0_5_MG_L   CBODD_12_00=20_MG_L   CKNI_12_00=20_MG_L   C_NI_12_00=4   
   ((   0.0773   0.9227   0   0)   % CBODN_12_00=5_MG_L   CNOD_12_00=1_MG_L   CBODD_12_00=20_MG_L   CKNI_12_00=20_MG_L   C_NI_12_00=4   
   (   0.0455   0.9545   0   0)   % CBODN_12_00=10_MG_L   CNOD_12_00=1_MG_L   CBODD_12_00=20_MG_L   CKNI_12_00=20_MG_L   C_NI_12_00=4   
   (   0.0138   0.9862   0   0)   % CBODN_12_00=15_MG_L   CNOD_12_00=1_MG_L   CBODD_12_00=20_MG_L   CKNI_12_00=20_MG_L   C_NI_12_00=4   
   (   0   0.982   0.018   0))   % CBODN_12_00=20_MG_L   CNOD_12_00=1_MG_L   CBODD_12_00=20_MG_L   CKNI_12_00=20_MG_L   C_NI_12_00=4   
   ((   0.0923   0.9077   0   0)   % CBODN_12_00=5_MG_L   CNOD_12_00=2_MG_L   CBODD_12_00=20_MG_L   CKNI_12_00=20_MG_L   C_NI_12_00=4   
   (   0.0605   0.9395   0   0)   % CBODN_12_00=10_MG_L   CNOD_12_00=2_MG_L   CBODD_12_00=20_MG_L   CKNI_12_00=20_MG_L   C_NI_12_00=4   
   (   0.0288   0.9712   0   0)   % CBODN_12_00=15_MG_L   CNOD_12_00=2_MG_L   CBODD_12_00=20_MG_L   CKNI_12_00=20_MG_L   C_NI_12_00=4   
   (   0   0.997   0.003   0))   % CBODN_12_00=20_MG_L   CNOD_12_00=2_MG_L   CBODD_12_00=20_MG_L   CKNI_12_00=20_MG_L   C_NI_12_00=4   
   ((   0.1023   0.8977   0   0)   % CBODN_12_00=5_MG_L   CNOD_12_00=4_MG_L   CBODD_12_00=20_MG_L   CKNI_12_00=20_MG_L   C_NI_12_00=4   
   (   0.0705   0.9295   0   0)   % CBODN_12_00=10_MG_L   CNOD_12_00=4_MG_L   CBODD_12_00=20_MG_L   CKNI_12_00=20_MG_L   C_NI_12_00=4   
   (   0.0388   0.9612   0   0)   % CBODN_12_00=15_MG_L   CNOD_12_00=4_MG_L   CBODD_12_00=20_MG_L   CKNI_12_00=20_MG_L   C_NI_12_00=4   
   (   0.007   0.993   0   0)))   % CBODN_12_00=20_MG_L   CNOD_12_00=4_MG_L   CBODD_12_00=20_MG_L   CKNI_12_00=20_MG_L   C_NI_12_00=4   
   (((   0   0.1045   0.8955   0)   % CBODN_12_00=5_MG_L   CNOD_12_00=0_5_MG_L   CBODD_12_00=25_MG_L   CKNI_12_00=20_MG_L   C_NI_12_00=4   
   (   0   0.0727   0.9273   0)   % CBODN_12_00=10_MG_L   CNOD_12_00=0_5_MG_L   CBODD_12_00=25_MG_L   CKNI_12_00=20_MG_L   C_NI_12_00=4   
   (   0   0.041   0.959   0)   % CBODN_12_00=15_MG_L   CNOD_12_00=0_5_MG_L   CBODD_12_00=25_MG_L   CKNI_12_00=20_MG_L   C_NI_12_00=4   
   (   0   0.0092   0.9908   0))   % CBODN_12_00=20_MG_L   CNOD_12_00=0_5_MG_L   CBODD_12_00=25_MG_L   CKNI_12_00=20_MG_L   C_NI_12_00=4   
   ((   0   0.1253   0.8747   0)   % CBODN_12_00=5_MG_L   CNOD_12_00=1_MG_L   CBODD_12_00=25_MG_L   CKNI_12_00=20_MG_L   C_NI_12_00=4   
   (   0   0.0935   0.9065   0)   % CBODN_12_00=10_MG_L   CNOD_12_00=1_MG_L   CBODD_12_00=25_MG_L   CKNI_12_00=20_MG_L   C_NI_12_00=4   
   (   0   0.0618   0.9382   0)   % CBODN_12_00=15_MG_L   CNOD_12_00=1_MG_L   CBODD_12_00=25_MG_L   CKNI_12_00=20_MG_L   C_NI_12_00=4   
   (   0   0.03   0.97   0))   % CBODN_12_00=20_MG_L   CNOD_12_00=1_MG_L   CBODD_12_00=25_MG_L   CKNI_12_00=20_MG_L   C_NI_12_00=4   
   ((   0   0.142   0.858   0)   % CBODN_12_00=5_MG_L   CNOD_12_00=2_MG_L   CBODD_12_00=25_MG_L   CKNI_12_00=20_MG_L   C_NI_12_00=4   
   (   0   0.1102   0.8898   0)   % CBODN_12_00=10_MG_L   CNOD_12_00=2_MG_L   CBODD_12_00=25_MG_L   CKNI_12_00=20_MG_L   C_NI_12_00=4   
   (   0   0.0785   0.9215   0)   % CBODN_12_00=15_MG_L   CNOD_12_00=2_MG_L   CBODD_12_00=25_MG_L   CKNI_12_00=20_MG_L   C_NI_12_00=4   
   (   0   0.0467   0.9533   0))   % CBODN_12_00=20_MG_L   CNOD_12_00=2_MG_L   CBODD_12_00=25_MG_L   CKNI_12_00=20_MG_L   C_NI_12_00=4   
   ((   0   0.1531   0.8469   0)   % CBODN_12_00=5_MG_L   CNOD_12_00=4_MG_L   CBODD_12_00=25_MG_L   CKNI_12_00=20_MG_L   C_NI_12_00=4   
   (   0   0.1213   0.8787   0)   % CBODN_12_00=10_MG_L   CNOD_12_00=4_MG_L   CBODD_12_00=25_MG_L   CKNI_12_00=20_MG_L   C_NI_12_00=4   
   (   0   0.0896   0.9104   0)   % CBODN_12_00=15_MG_L   CNOD_12_00=4_MG_L   CBODD_12_00=25_MG_L   CKNI_12_00=20_MG_L   C_NI_12_00=4   
   (   0   0.0578   0.9422   0)))   % CBODN_12_00=20_MG_L   CNOD_12_00=4_MG_L   CBODD_12_00=25_MG_L   CKNI_12_00=20_MG_L   C_NI_12_00=4   
   (((   0   0   0.1491   0.8509)   % CBODN_12_00=5_MG_L   CNOD_12_00=0_5_MG_L   CBODD_12_00=30_MG_L   CKNI_12_00=20_MG_L   C_NI_12_00=4   
   (   0   0   0.1174   0.8826)   % CBODN_12_00=10_MG_L   CNOD_12_00=0_5_MG_L   CBODD_12_00=30_MG_L   CKNI_12_00=20_MG_L   C_NI_12_00=4   
   (   0   0   0.0856   0.9144)   % CBODN_12_00=15_MG_L   CNOD_12_00=0_5_MG_L   CBODD_12_00=30_MG_L   CKNI_12_00=20_MG_L   C_NI_12_00=4   
   (   0   0   0.0539   0.9461))   % CBODN_12_00=20_MG_L   CNOD_12_00=0_5_MG_L   CBODD_12_00=30_MG_L   CKNI_12_00=20_MG_L   C_NI_12_00=4   
   ((   0   0   0.1716   0.8284)   % CBODN_12_00=5_MG_L   CNOD_12_00=1_MG_L   CBODD_12_00=30_MG_L   CKNI_12_00=20_MG_L   C_NI_12_00=4   
   (   0   0   0.1399   0.8601)   % CBODN_12_00=10_MG_L   CNOD_12_00=1_MG_L   CBODD_12_00=30_MG_L   CKNI_12_00=20_MG_L   C_NI_12_00=4   
   (   0   0   0.1081   0.8919)   % CBODN_12_00=15_MG_L   CNOD_12_00=1_MG_L   CBODD_12_00=30_MG_L   CKNI_12_00=20_MG_L   C_NI_12_00=4   
   (   0   0   0.0764   0.9236))   % CBODN_12_00=20_MG_L   CNOD_12_00=1_MG_L   CBODD_12_00=30_MG_L   CKNI_12_00=20_MG_L   C_NI_12_00=4   
   ((   0   0   0.1896   0.8104)   % CBODN_12_00=5_MG_L   CNOD_12_00=2_MG_L   CBODD_12_00=30_MG_L   CKNI_12_00=20_MG_L   C_NI_12_00=4   
   (   0   0   0.1579   0.8421)   % CBODN_12_00=10_MG_L   CNOD_12_00=2_MG_L   CBODD_12_00=30_MG_L   CKNI_12_00=20_MG_L   C_NI_12_00=4   
   (   0   0   0.1261   0.8739)   % CBODN_12_00=15_MG_L   CNOD_12_00=2_MG_L   CBODD_12_00=30_MG_L   CKNI_12_00=20_MG_L   C_NI_12_00=4   
   (   0   0   0.0944   0.9056))   % CBODN_12_00=20_MG_L   CNOD_12_00=2_MG_L   CBODD_12_00=30_MG_L   CKNI_12_00=20_MG_L   C_NI_12_00=4   
   ((   0   0   0.2016   0.7984)   % CBODN_12_00=5_MG_L   CNOD_12_00=4_MG_L   CBODD_12_00=30_MG_L   CKNI_12_00=20_MG_L   C_NI_12_00=4   
   (   0   0   0.1699   0.8301)   % CBODN_12_00=10_MG_L   CNOD_12_00=4_MG_L   CBODD_12_00=30_MG_L   CKNI_12_00=20_MG_L   C_NI_12_00=4   
   (   0   0   0.1381   0.8619)   % CBODN_12_00=15_MG_L   CNOD_12_00=4_MG_L   CBODD_12_00=30_MG_L   CKNI_12_00=20_MG_L   C_NI_12_00=4   
   (   0   0   0.1064   0.8936))))   % CBODN_12_00=20_MG_L   CNOD_12_00=4_MG_L   CBODD_12_00=30_MG_L   CKNI_12_00=20_MG_L   C_NI_12_00=4   
   ((((   0.9473   0.0527   0   0)   % CBODN_12_00=5_MG_L   CNOD_12_00=0_5_MG_L   CBODD_12_00=15_MG_L   CKNI_12_00=30_MG_L   C_NI_12_00=4   
   (   0.9156   0.0844   0   0)   % CBODN_12_00=10_MG_L   CNOD_12_00=0_5_MG_L   CBODD_12_00=15_MG_L   CKNI_12_00=30_MG_L   C_NI_12_00=4   
   (   0.8838   0.1162   0   0)   % CBODN_12_00=15_MG_L   CNOD_12_00=0_5_MG_L   CBODD_12_00=15_MG_L   CKNI_12_00=30_MG_L   C_NI_12_00=4   
   (   0.8521   0.1479   0   0))   % CBODN_12_00=20_MG_L   CNOD_12_00=0_5_MG_L   CBODD_12_00=15_MG_L   CKNI_12_00=30_MG_L   C_NI_12_00=4   
   ((   0.9634   0.0366   0   0)   % CBODN_12_00=5_MG_L   CNOD_12_00=1_MG_L   CBODD_12_00=15_MG_L   CKNI_12_00=30_MG_L   C_NI_12_00=4   
   (   0.9316   0.0684   0   0)   % CBODN_12_00=10_MG_L   CNOD_12_00=1_MG_L   CBODD_12_00=15_MG_L   CKNI_12_00=30_MG_L   C_NI_12_00=4   
   (   0.8999   0.1001   0   0)   % CBODN_12_00=15_MG_L   CNOD_12_00=1_MG_L   CBODD_12_00=15_MG_L   CKNI_12_00=30_MG_L   C_NI_12_00=4   
   (   0.8681   0.1319   0   0))   % CBODN_12_00=20_MG_L   CNOD_12_00=1_MG_L   CBODD_12_00=15_MG_L   CKNI_12_00=30_MG_L   C_NI_12_00=4   
   ((   0.9762   0.0238   0   0)   % CBODN_12_00=5_MG_L   CNOD_12_00=2_MG_L   CBODD_12_00=15_MG_L   CKNI_12_00=30_MG_L   C_NI_12_00=4   
   (   0.9445   0.0555   0   0)   % CBODN_12_00=10_MG_L   CNOD_12_00=2_MG_L   CBODD_12_00=15_MG_L   CKNI_12_00=30_MG_L   C_NI_12_00=4   
   (   0.9127   0.0873   0   0)   % CBODN_12_00=15_MG_L   CNOD_12_00=2_MG_L   CBODD_12_00=15_MG_L   CKNI_12_00=30_MG_L   C_NI_12_00=4   
   (   0.881   0.119   0   0))   % CBODN_12_00=20_MG_L   CNOD_12_00=2_MG_L   CBODD_12_00=15_MG_L   CKNI_12_00=30_MG_L   C_NI_12_00=4   
   ((   0.9848   0.0152   0   0)   % CBODN_12_00=5_MG_L   CNOD_12_00=4_MG_L   CBODD_12_00=15_MG_L   CKNI_12_00=30_MG_L   C_NI_12_00=4   
   (   0.9531   0.0469   0   0)   % CBODN_12_00=10_MG_L   CNOD_12_00=4_MG_L   CBODD_12_00=15_MG_L   CKNI_12_00=30_MG_L   C_NI_12_00=4   
   (   0.9213   0.0787   0   0)   % CBODN_12_00=15_MG_L   CNOD_12_00=4_MG_L   CBODD_12_00=15_MG_L   CKNI_12_00=30_MG_L   C_NI_12_00=4   
   (   0.8896   0.1104   0   0)))   % CBODN_12_00=20_MG_L   CNOD_12_00=4_MG_L   CBODD_12_00=15_MG_L   CKNI_12_00=30_MG_L   C_NI_12_00=4   
   (((   0   0.995   0.005   0)   % CBODN_12_00=5_MG_L   CNOD_12_00=0_5_MG_L   CBODD_12_00=20_MG_L   CKNI_12_00=30_MG_L   C_NI_12_00=4   
   (   0   0.9633   0.0367   0)   % CBODN_12_00=10_MG_L   CNOD_12_00=0_5_MG_L   CBODD_12_00=20_MG_L   CKNI_12_00=30_MG_L   C_NI_12_00=4   
   (   0   0.9315   0.0685   0)   % CBODN_12_00=15_MG_L   CNOD_12_00=0_5_MG_L   CBODD_12_00=20_MG_L   CKNI_12_00=30_MG_L   C_NI_12_00=4   
   (   0   0.8998   0.1002   0))   % CBODN_12_00=20_MG_L   CNOD_12_00=0_5_MG_L   CBODD_12_00=20_MG_L   CKNI_12_00=30_MG_L   C_NI_12_00=4   
   ((   0.0138   0.9862   0   0)   % CBODN_12_00=5_MG_L   CNOD_12_00=1_MG_L   CBODD_12_00=20_MG_L   CKNI_12_00=30_MG_L   C_NI_12_00=4   
   (   0   0.982   0.018   0)   % CBODN_12_00=10_MG_L   CNOD_12_00=1_MG_L   CBODD_12_00=20_MG_L   CKNI_12_00=30_MG_L   C_NI_12_00=4   
   (   0   0.9503   0.0497   0)   % CBODN_12_00=15_MG_L   CNOD_12_00=1_MG_L   CBODD_12_00=20_MG_L   CKNI_12_00=30_MG_L   C_NI_12_00=4   
   (   0   0.9185   0.0815   0))   % CBODN_12_00=20_MG_L   CNOD_12_00=1_MG_L   CBODD_12_00=20_MG_L   CKNI_12_00=30_MG_L   C_NI_12_00=4   
   ((   0.0288   0.9712   0   0)   % CBODN_12_00=5_MG_L   CNOD_12_00=2_MG_L   CBODD_12_00=20_MG_L   CKNI_12_00=30_MG_L   C_NI_12_00=4   
   (   0   0.997   0.003   0)   % CBODN_12_00=10_MG_L   CNOD_12_00=2_MG_L   CBODD_12_00=20_MG_L   CKNI_12_00=30_MG_L   C_NI_12_00=4   
   (   0   0.9653   0.0347   0)   % CBODN_12_00=15_MG_L   CNOD_12_00=2_MG_L   CBODD_12_00=20_MG_L   CKNI_12_00=30_MG_L   C_NI_12_00=4   
   (   0   0.9335   0.0665   0))   % CBODN_12_00=20_MG_L   CNOD_12_00=2_MG_L   CBODD_12_00=20_MG_L   CKNI_12_00=30_MG_L   C_NI_12_00=4   
   ((   0.0388   0.9612   0   0)   % CBODN_12_00=5_MG_L   CNOD_12_00=4_MG_L   CBODD_12_00=20_MG_L   CKNI_12_00=30_MG_L   C_NI_12_00=4   
   (   0.007   0.993   0   0)   % CBODN_12_00=10_MG_L   CNOD_12_00=4_MG_L   CBODD_12_00=20_MG_L   CKNI_12_00=30_MG_L   C_NI_12_00=4   
   (   0   0.9753   0.0247   0)   % CBODN_12_00=15_MG_L   CNOD_12_00=4_MG_L   CBODD_12_00=20_MG_L   CKNI_12_00=30_MG_L   C_NI_12_00=4   
   (   0   0.9435   0.0565   0)))   % CBODN_12_00=20_MG_L   CNOD_12_00=4_MG_L   CBODD_12_00=20_MG_L   CKNI_12_00=30_MG_L   C_NI_12_00=4   
   (((   0   0.041   0.959   0)   % CBODN_12_00=5_MG_L   CNOD_12_00=0_5_MG_L   CBODD_12_00=25_MG_L   CKNI_12_00=30_MG_L   C_NI_12_00=4   
   (   0   0.0092   0.9908   0)   % CBODN_12_00=10_MG_L   CNOD_12_00=0_5_MG_L   CBODD_12_00=25_MG_L   CKNI_12_00=30_MG_L   C_NI_12_00=4   
   (   0   0   0.9775   0.0225)   % CBODN_12_00=15_MG_L   CNOD_12_00=0_5_MG_L   CBODD_12_00=25_MG_L   CKNI_12_00=30_MG_L   C_NI_12_00=4   
   (   0   0   0.9457   0.0543))   % CBODN_12_00=20_MG_L   CNOD_12_00=0_5_MG_L   CBODD_12_00=25_MG_L   CKNI_12_00=30_MG_L   C_NI_12_00=4   
   ((   0   0.0618   0.9382   0)   % CBODN_12_00=5_MG_L   CNOD_12_00=1_MG_L   CBODD_12_00=25_MG_L   CKNI_12_00=30_MG_L   C_NI_12_00=4   
   (   0   0.03   0.97   0)   % CBODN_12_00=10_MG_L   CNOD_12_00=1_MG_L   CBODD_12_00=25_MG_L   CKNI_12_00=30_MG_L   C_NI_12_00=4   
   (   0   0   0.9983   0.0017)   % CBODN_12_00=15_MG_L   CNOD_12_00=1_MG_L   CBODD_12_00=25_MG_L   CKNI_12_00=30_MG_L   C_NI_12_00=4   
   (   0   0   0.9666   0.0334))   % CBODN_12_00=20_MG_L   CNOD_12_00=1_MG_L   CBODD_12_00=25_MG_L   CKNI_12_00=30_MG_L   C_NI_12_00=4   
   ((   0   0.0785   0.9215   0)   % CBODN_12_00=5_MG_L   CNOD_12_00=2_MG_L   CBODD_12_00=25_MG_L   CKNI_12_00=30_MG_L   C_NI_12_00=4   
   (   0   0.0467   0.9533   0)   % CBODN_12_00=10_MG_L   CNOD_12_00=2_MG_L   CBODD_12_00=25_MG_L   CKNI_12_00=30_MG_L   C_NI_12_00=4   
   (   0   0.015   0.985   0)   % CBODN_12_00=15_MG_L   CNOD_12_00=2_MG_L   CBODD_12_00=25_MG_L   CKNI_12_00=30_MG_L   C_NI_12_00=4   
   (   0   0   0.9832   0.0168))   % CBODN_12_00=20_MG_L   CNOD_12_00=2_MG_L   CBODD_12_00=25_MG_L   CKNI_12_00=30_MG_L   C_NI_12_00=4   
   ((   0   0.0896   0.9104   0)   % CBODN_12_00=5_MG_L   CNOD_12_00=4_MG_L   CBODD_12_00=25_MG_L   CKNI_12_00=30_MG_L   C_NI_12_00=4   
   (   0   0.0578   0.9422   0)   % CBODN_12_00=10_MG_L   CNOD_12_00=4_MG_L   CBODD_12_00=25_MG_L   CKNI_12_00=30_MG_L   C_NI_12_00=4   
   (   0   0.0261   0.9739   0)   % CBODN_12_00=15_MG_L   CNOD_12_00=4_MG_L   CBODD_12_00=25_MG_L   CKNI_12_00=30_MG_L   C_NI_12_00=4   
   (   0   0   0.9943   0.0057)))   % CBODN_12_00=20_MG_L   CNOD_12_00=4_MG_L   CBODD_12_00=25_MG_L   CKNI_12_00=30_MG_L   C_NI_12_00=4   
   (((   0   0   0.0856   0.9144)   % CBODN_12_00=5_MG_L   CNOD_12_00=0_5_MG_L   CBODD_12_00=30_MG_L   CKNI_12_00=30_MG_L   C_NI_12_00=4   
   (   0   0   0.0539   0.9461)   % CBODN_12_00=10_MG_L   CNOD_12_00=0_5_MG_L   CBODD_12_00=30_MG_L   CKNI_12_00=30_MG_L   C_NI_12_00=4   
   (   0   0   0.0221   0.9779)   % CBODN_12_00=15_MG_L   CNOD_12_00=0_5_MG_L   CBODD_12_00=30_MG_L   CKNI_12_00=30_MG_L   C_NI_12_00=4   
   (   0   0   0   1))   % CBODN_12_00=20_MG_L   CNOD_12_00=0_5_MG_L   CBODD_12_00=30_MG_L   CKNI_12_00=30_MG_L   C_NI_12_00=4   
   ((   0   0   0.1081   0.8919)   % CBODN_12_00=5_MG_L   CNOD_12_00=1_MG_L   CBODD_12_00=30_MG_L   CKNI_12_00=30_MG_L   C_NI_12_00=4   
   (   0   0   0.0764   0.9236)   % CBODN_12_00=10_MG_L   CNOD_12_00=1_MG_L   CBODD_12_00=30_MG_L   CKNI_12_00=30_MG_L   C_NI_12_00=4   
   (   0   0   0.0446   0.9554)   % CBODN_12_00=15_MG_L   CNOD_12_00=1_MG_L   CBODD_12_00=30_MG_L   CKNI_12_00=30_MG_L   C_NI_12_00=4   
   (   0   0   0.0129   0.9871))   % CBODN_12_00=20_MG_L   CNOD_12_00=1_MG_L   CBODD_12_00=30_MG_L   CKNI_12_00=30_MG_L   C_NI_12_00=4   
   ((   0   0   0.1261   0.8739)   % CBODN_12_00=5_MG_L   CNOD_12_00=2_MG_L   CBODD_12_00=30_MG_L   CKNI_12_00=30_MG_L   C_NI_12_00=4   
   (   0   0   0.0944   0.9056)   % CBODN_12_00=10_MG_L   CNOD_12_00=2_MG_L   CBODD_12_00=30_MG_L   CKNI_12_00=30_MG_L   C_NI_12_00=4   
   (   0   0   0.0626   0.9374)   % CBODN_12_00=15_MG_L   CNOD_12_00=2_MG_L   CBODD_12_00=30_MG_L   CKNI_12_00=30_MG_L   C_NI_12_00=4   
   (   0   0   0.0309   0.9691))   % CBODN_12_00=20_MG_L   CNOD_12_00=2_MG_L   CBODD_12_00=30_MG_L   CKNI_12_00=30_MG_L   C_NI_12_00=4   
   ((   0   0   0.1381   0.8619)   % CBODN_12_00=5_MG_L   CNOD_12_00=4_MG_L   CBODD_12_00=30_MG_L   CKNI_12_00=30_MG_L   C_NI_12_00=4   
   (   0   0   0.1064   0.8936)   % CBODN_12_00=10_MG_L   CNOD_12_00=4_MG_L   CBODD_12_00=30_MG_L   CKNI_12_00=30_MG_L   C_NI_12_00=4   
   (   0   0   0.0746   0.9254)   % CBODN_12_00=15_MG_L   CNOD_12_00=4_MG_L   CBODD_12_00=30_MG_L   CKNI_12_00=30_MG_L   C_NI_12_00=4   
   (   0   0   0.0429   0.9571))))   % CBODN_12_00=20_MG_L   CNOD_12_00=4_MG_L   CBODD_12_00=30_MG_L   CKNI_12_00=30_MG_L   C_NI_12_00=4   
   ((((   0.8838   0.1162   0   0)   % CBODN_12_00=5_MG_L   CNOD_12_00=0_5_MG_L   CBODD_12_00=15_MG_L   CKNI_12_00=40_MG_L   C_NI_12_00=4   
   (   0.8521   0.1479   0   0)   % CBODN_12_00=10_MG_L   CNOD_12_00=0_5_MG_L   CBODD_12_00=15_MG_L   CKNI_12_00=40_MG_L   C_NI_12_00=4   
   (   0.8203   0.1797   0   0)   % CBODN_12_00=15_MG_L   CNOD_12_00=0_5_MG_L   CBODD_12_00=15_MG_L   CKNI_12_00=40_MG_L   C_NI_12_00=4   
   (   0.7886   0.2114   0   0))   % CBODN_12_00=20_MG_L   CNOD_12_00=0_5_MG_L   CBODD_12_00=15_MG_L   CKNI_12_00=40_MG_L   C_NI_12_00=4   
   ((   0.8999   0.1001   0   0)   % CBODN_12_00=5_MG_L   CNOD_12_00=1_MG_L   CBODD_12_00=15_MG_L   CKNI_12_00=40_MG_L   C_NI_12_00=4   
   (   0.8681   0.1319   0   0)   % CBODN_12_00=10_MG_L   CNOD_12_00=1_MG_L   CBODD_12_00=15_MG_L   CKNI_12_00=40_MG_L   C_NI_12_00=4   
   (   0.8364   0.1636   0   0)   % CBODN_12_00=15_MG_L   CNOD_12_00=1_MG_L   CBODD_12_00=15_MG_L   CKNI_12_00=40_MG_L   C_NI_12_00=4   
   (   0.8046   0.1954   0   0))   % CBODN_12_00=20_MG_L   CNOD_12_00=1_MG_L   CBODD_12_00=15_MG_L   CKNI_12_00=40_MG_L   C_NI_12_00=4   
   ((   0.9127   0.0873   0   0)   % CBODN_12_00=5_MG_L   CNOD_12_00=2_MG_L   CBODD_12_00=15_MG_L   CKNI_12_00=40_MG_L   C_NI_12_00=4   
   (   0.881   0.119   0   0)   % CBODN_12_00=10_MG_L   CNOD_12_00=2_MG_L   CBODD_12_00=15_MG_L   CKNI_12_00=40_MG_L   C_NI_12_00=4   
   (   0.8493   0.1507   0   0)   % CBODN_12_00=15_MG_L   CNOD_12_00=2_MG_L   CBODD_12_00=15_MG_L   CKNI_12_00=40_MG_L   C_NI_12_00=4   
   (   0.8175   0.1825   0   0))   % CBODN_12_00=20_MG_L   CNOD_12_00=2_MG_L   CBODD_12_00=15_MG_L   CKNI_12_00=40_MG_L   C_NI_12_00=4   
   ((   0.9213   0.0787   0   0)   % CBODN_12_00=5_MG_L   CNOD_12_00=4_MG_L   CBODD_12_00=15_MG_L   CKNI_12_00=40_MG_L   C_NI_12_00=4   
   (   0.8896   0.1104   0   0)   % CBODN_12_00=10_MG_L   CNOD_12_00=4_MG_L   CBODD_12_00=15_MG_L   CKNI_12_00=40_MG_L   C_NI_12_00=4   
   (   0.8578   0.1422   0   0)   % CBODN_12_00=15_MG_L   CNOD_12_00=4_MG_L   CBODD_12_00=15_MG_L   CKNI_12_00=40_MG_L   C_NI_12_00=4   
   (   0.8261   0.1739   0   0)))   % CBODN_12_00=20_MG_L   CNOD_12_00=4_MG_L   CBODD_12_00=15_MG_L   CKNI_12_00=40_MG_L   C_NI_12_00=4   
   (((   0   0.9315   0.0685   0)   % CBODN_12_00=5_MG_L   CNOD_12_00=0_5_MG_L   CBODD_12_00=20_MG_L   CKNI_12_00=40_MG_L   C_NI_12_00=4   
   (   0   0.8998   0.1002   0)   % CBODN_12_00=10_MG_L   CNOD_12_00=0_5_MG_L   CBODD_12_00=20_MG_L   CKNI_12_00=40_MG_L   C_NI_12_00=4   
   (   0   0.868   0.132   0)   % CBODN_12_00=15_MG_L   CNOD_12_00=0_5_MG_L   CBODD_12_00=20_MG_L   CKNI_12_00=40_MG_L   C_NI_12_00=4   
   (   0   0.8363   0.1637   0))   % CBODN_12_00=20_MG_L   CNOD_12_00=0_5_MG_L   CBODD_12_00=20_MG_L   CKNI_12_00=40_MG_L   C_NI_12_00=4   
   ((   0   0.9503   0.0497   0)   % CBODN_12_00=5_MG_L   CNOD_12_00=1_MG_L   CBODD_12_00=20_MG_L   CKNI_12_00=40_MG_L   C_NI_12_00=4   
   (   0   0.9185   0.0815   0)   % CBODN_12_00=10_MG_L   CNOD_12_00=1_MG_L   CBODD_12_00=20_MG_L   CKNI_12_00=40_MG_L   C_NI_12_00=4   
   (   0   0.8868   0.1132   0)   % CBODN_12_00=15_MG_L   CNOD_12_00=1_MG_L   CBODD_12_00=20_MG_L   CKNI_12_00=40_MG_L   C_NI_12_00=4   
   (   0   0.855   0.145   0))   % CBODN_12_00=20_MG_L   CNOD_12_00=1_MG_L   CBODD_12_00=20_MG_L   CKNI_12_00=40_MG_L   C_NI_12_00=4   
   ((   0   0.9653   0.0347   0)   % CBODN_12_00=5_MG_L   CNOD_12_00=2_MG_L   CBODD_12_00=20_MG_L   CKNI_12_00=40_MG_L   C_NI_12_00=4   
   (   0   0.9335   0.0665   0)   % CBODN_12_00=10_MG_L   CNOD_12_00=2_MG_L   CBODD_12_00=20_MG_L   CKNI_12_00=40_MG_L   C_NI_12_00=4   
   (   0   0.9018   0.0982   0)   % CBODN_12_00=15_MG_L   CNOD_12_00=2_MG_L   CBODD_12_00=20_MG_L   CKNI_12_00=40_MG_L   C_NI_12_00=4   
   (   0   0.87   0.13   0))   % CBODN_12_00=20_MG_L   CNOD_12_00=2_MG_L   CBODD_12_00=20_MG_L   CKNI_12_00=40_MG_L   C_NI_12_00=4   
   ((   0   0.9753   0.0247   0)   % CBODN_12_00=5_MG_L   CNOD_12_00=4_MG_L   CBODD_12_00=20_MG_L   CKNI_12_00=40_MG_L   C_NI_12_00=4   
   (   0   0.9435   0.0565   0)   % CBODN_12_00=10_MG_L   CNOD_12_00=4_MG_L   CBODD_12_00=20_MG_L   CKNI_12_00=40_MG_L   C_NI_12_00=4   
   (   0   0.9118   0.0882   0)   % CBODN_12_00=15_MG_L   CNOD_12_00=4_MG_L   CBODD_12_00=20_MG_L   CKNI_12_00=40_MG_L   C_NI_12_00=4   
   (   0   0.88   0.12   0)))   % CBODN_12_00=20_MG_L   CNOD_12_00=4_MG_L   CBODD_12_00=20_MG_L   CKNI_12_00=40_MG_L   C_NI_12_00=4   
   (((   0   0   0.9775   0.0225)   % CBODN_12_00=5_MG_L   CNOD_12_00=0_5_MG_L   CBODD_12_00=25_MG_L   CKNI_12_00=40_MG_L   C_NI_12_00=4   
   (   0   0   0.9457   0.0543)   % CBODN_12_00=10_MG_L   CNOD_12_00=0_5_MG_L   CBODD_12_00=25_MG_L   CKNI_12_00=40_MG_L   C_NI_12_00=4   
   (   0   0   0.914   0.086)   % CBODN_12_00=15_MG_L   CNOD_12_00=0_5_MG_L   CBODD_12_00=25_MG_L   CKNI_12_00=40_MG_L   C_NI_12_00=4   
   (   0   0   0.8822   0.1178))   % CBODN_12_00=20_MG_L   CNOD_12_00=0_5_MG_L   CBODD_12_00=25_MG_L   CKNI_12_00=40_MG_L   C_NI_12_00=4   
   ((   0   0   0.9983   0.0017)   % CBODN_12_00=5_MG_L   CNOD_12_00=1_MG_L   CBODD_12_00=25_MG_L   CKNI_12_00=40_MG_L   C_NI_12_00=4   
   (   0   0   0.9666   0.0334)   % CBODN_12_00=10_MG_L   CNOD_12_00=1_MG_L   CBODD_12_00=25_MG_L   CKNI_12_00=40_MG_L   C_NI_12_00=4   
   (   0   0   0.9348   0.0652)   % CBODN_12_00=15_MG_L   CNOD_12_00=1_MG_L   CBODD_12_00=25_MG_L   CKNI_12_00=40_MG_L   C_NI_12_00=4   
   (   0   0   0.9031   0.0969))   % CBODN_12_00=20_MG_L   CNOD_12_00=1_MG_L   CBODD_12_00=25_MG_L   CKNI_12_00=40_MG_L   C_NI_12_00=4   
   ((   0   0.015   0.985   0)   % CBODN_12_00=5_MG_L   CNOD_12_00=2_MG_L   CBODD_12_00=25_MG_L   CKNI_12_00=40_MG_L   C_NI_12_00=4   
   (   0   0   0.9832   0.0168)   % CBODN_12_00=10_MG_L   CNOD_12_00=2_MG_L   CBODD_12_00=25_MG_L   CKNI_12_00=40_MG_L   C_NI_12_00=4   
   (   0   0   0.9515   0.0485)   % CBODN_12_00=15_MG_L   CNOD_12_00=2_MG_L   CBODD_12_00=25_MG_L   CKNI_12_00=40_MG_L   C_NI_12_00=4   
   (   0   0   0.9197   0.0803))   % CBODN_12_00=20_MG_L   CNOD_12_00=2_MG_L   CBODD_12_00=25_MG_L   CKNI_12_00=40_MG_L   C_NI_12_00=4   
   ((   0   0.0261   0.9739   0)   % CBODN_12_00=5_MG_L   CNOD_12_00=4_MG_L   CBODD_12_00=25_MG_L   CKNI_12_00=40_MG_L   C_NI_12_00=4   
   (   0   0   0.9943   0.0057)   % CBODN_12_00=10_MG_L   CNOD_12_00=4_MG_L   CBODD_12_00=25_MG_L   CKNI_12_00=40_MG_L   C_NI_12_00=4   
   (   0   0   0.9626   0.0374)   % CBODN_12_00=15_MG_L   CNOD_12_00=4_MG_L   CBODD_12_00=25_MG_L   CKNI_12_00=40_MG_L   C_NI_12_00=4   
   (   0   0   0.9308   0.0692)))   % CBODN_12_00=20_MG_L   CNOD_12_00=4_MG_L   CBODD_12_00=25_MG_L   CKNI_12_00=40_MG_L   C_NI_12_00=4   
   (((   0   0   0.0221   0.9779)   % CBODN_12_00=5_MG_L   CNOD_12_00=0_5_MG_L   CBODD_12_00=30_MG_L   CKNI_12_00=40_MG_L   C_NI_12_00=4   
   (   0   0   0   1)   % CBODN_12_00=10_MG_L   CNOD_12_00=0_5_MG_L   CBODD_12_00=30_MG_L   CKNI_12_00=40_MG_L   C_NI_12_00=4   
   (   0   0   0   1)   % CBODN_12_00=15_MG_L   CNOD_12_00=0_5_MG_L   CBODD_12_00=30_MG_L   CKNI_12_00=40_MG_L   C_NI_12_00=4   
   (   0   0   0   1))   % CBODN_12_00=20_MG_L   CNOD_12_00=0_5_MG_L   CBODD_12_00=30_MG_L   CKNI_12_00=40_MG_L   C_NI_12_00=4   
   ((   0   0   0.0446   0.9554)   % CBODN_12_00=5_MG_L   CNOD_12_00=1_MG_L   CBODD_12_00=30_MG_L   CKNI_12_00=40_MG_L   C_NI_12_00=4   
   (   0   0   0.0129   0.9871)   % CBODN_12_00=10_MG_L   CNOD_12_00=1_MG_L   CBODD_12_00=30_MG_L   CKNI_12_00=40_MG_L   C_NI_12_00=4   
   (   0   0   0   1)   % CBODN_12_00=15_MG_L   CNOD_12_00=1_MG_L   CBODD_12_00=30_MG_L   CKNI_12_00=40_MG_L   C_NI_12_00=4   
   (   0   0   0   1))   % CBODN_12_00=20_MG_L   CNOD_12_00=1_MG_L   CBODD_12_00=30_MG_L   CKNI_12_00=40_MG_L   C_NI_12_00=4   
   ((   0   0   0.0626   0.9374)   % CBODN_12_00=5_MG_L   CNOD_12_00=2_MG_L   CBODD_12_00=30_MG_L   CKNI_12_00=40_MG_L   C_NI_12_00=4   
   (   0   0   0.0309   0.9691)   % CBODN_12_00=10_MG_L   CNOD_12_00=2_MG_L   CBODD_12_00=30_MG_L   CKNI_12_00=40_MG_L   C_NI_12_00=4   
   (   0   0   0   1)   % CBODN_12_00=15_MG_L   CNOD_12_00=2_MG_L   CBODD_12_00=30_MG_L   CKNI_12_00=40_MG_L   C_NI_12_00=4   
   (   0   0   0   1))   % CBODN_12_00=20_MG_L   CNOD_12_00=2_MG_L   CBODD_12_00=30_MG_L   CKNI_12_00=40_MG_L   C_NI_12_00=4   
   ((   0   0   0.0746   0.9254)   % CBODN_12_00=5_MG_L   CNOD_12_00=4_MG_L   CBODD_12_00=30_MG_L   CKNI_12_00=40_MG_L   C_NI_12_00=4   
   (   0   0   0.0429   0.9571)   % CBODN_12_00=10_MG_L   CNOD_12_00=4_MG_L   CBODD_12_00=30_MG_L   CKNI_12_00=40_MG_L   C_NI_12_00=4   
   (   0   0   0.0112   0.9888)   % CBODN_12_00=15_MG_L   CNOD_12_00=4_MG_L   CBODD_12_00=30_MG_L   CKNI_12_00=40_MG_L   C_NI_12_00=4   
   (   0   0   0   1)))))   % CBODN_12_00=20_MG_L   CNOD_12_00=4_MG_L   CBODD_12_00=30_MG_L   CKNI_12_00=40_MG_L   C_NI_12_00=4   
   (((((   0.9791   0.0209   0   0)   % CBODN_12_00=5_MG_L   CNOD_12_00=0_5_MG_L   CBODD_12_00=15_MG_L   CKNI_12_00=20_MG_L   C_NI_12_00=5   
   (   0.9473   0.0527   0   0)   % CBODN_12_00=10_MG_L   CNOD_12_00=0_5_MG_L   CBODD_12_00=15_MG_L   CKNI_12_00=20_MG_L   C_NI_12_00=5   
   (   0.9156   0.0844   0   0)   % CBODN_12_00=15_MG_L   CNOD_12_00=0_5_MG_L   CBODD_12_00=15_MG_L   CKNI_12_00=20_MG_L   C_NI_12_00=5   
   (   0.8838   0.1162   0   0))   % CBODN_12_00=20_MG_L   CNOD_12_00=0_5_MG_L   CBODD_12_00=15_MG_L   CKNI_12_00=20_MG_L   C_NI_12_00=5   
   ((   0.9951   0.0049   0   0)   % CBODN_12_00=5_MG_L   CNOD_12_00=1_MG_L   CBODD_12_00=15_MG_L   CKNI_12_00=20_MG_L   C_NI_12_00=5   
   (   0.9634   0.0366   0   0)   % CBODN_12_00=10_MG_L   CNOD_12_00=1_MG_L   CBODD_12_00=15_MG_L   CKNI_12_00=20_MG_L   C_NI_12_00=5   
   (   0.9316   0.0684   0   0)   % CBODN_12_00=15_MG_L   CNOD_12_00=1_MG_L   CBODD_12_00=15_MG_L   CKNI_12_00=20_MG_L   C_NI_12_00=5   
   (   0.8999   0.1001   0   0))   % CBODN_12_00=20_MG_L   CNOD_12_00=1_MG_L   CBODD_12_00=15_MG_L   CKNI_12_00=20_MG_L   C_NI_12_00=5   
   ((   1   0   0   0)   % CBODN_12_00=5_MG_L   CNOD_12_00=2_MG_L   CBODD_12_00=15_MG_L   CKNI_12_00=20_MG_L   C_NI_12_00=5   
   (   0.9762   0.0238   0   0)   % CBODN_12_00=10_MG_L   CNOD_12_00=2_MG_L   CBODD_12_00=15_MG_L   CKNI_12_00=20_MG_L   C_NI_12_00=5   
   (   0.9445   0.0555   0   0)   % CBODN_12_00=15_MG_L   CNOD_12_00=2_MG_L   CBODD_12_00=15_MG_L   CKNI_12_00=20_MG_L   C_NI_12_00=5   
   (   0.9127   0.0873   0   0))   % CBODN_12_00=20_MG_L   CNOD_12_00=2_MG_L   CBODD_12_00=15_MG_L   CKNI_12_00=20_MG_L   C_NI_12_00=5   
   ((   1   0   0   0)   % CBODN_12_00=5_MG_L   CNOD_12_00=4_MG_L   CBODD_12_00=15_MG_L   CKNI_12_00=20_MG_L   C_NI_12_00=5   
   (   0.9848   0.0152   0   0)   % CBODN_12_00=10_MG_L   CNOD_12_00=4_MG_L   CBODD_12_00=15_MG_L   CKNI_12_00=20_MG_L   C_NI_12_00=5   
   (   0.9531   0.0469   0   0)   % CBODN_12_00=15_MG_L   CNOD_12_00=4_MG_L   CBODD_12_00=15_MG_L   CKNI_12_00=20_MG_L   C_NI_12_00=5   
   (   0.9213   0.0787   0   0)))   % CBODN_12_00=20_MG_L   CNOD_12_00=4_MG_L   CBODD_12_00=15_MG_L   CKNI_12_00=20_MG_L   C_NI_12_00=5   
   (((   0.0268   0.9732   0   0)   % CBODN_12_00=5_MG_L   CNOD_12_00=0_5_MG_L   CBODD_12_00=20_MG_L   CKNI_12_00=20_MG_L   C_NI_12_00=5   
   (   0   0.995   0.005   0)   % CBODN_12_00=10_MG_L   CNOD_12_00=0_5_MG_L   CBODD_12_00=20_MG_L   CKNI_12_00=20_MG_L   C_NI_12_00=5   
   (   0   0.9633   0.0367   0)   % CBODN_12_00=15_MG_L   CNOD_12_00=0_5_MG_L   CBODD_12_00=20_MG_L   CKNI_12_00=20_MG_L   C_NI_12_00=5   
   (   0   0.9315   0.0685   0))   % CBODN_12_00=20_MG_L   CNOD_12_00=0_5_MG_L   CBODD_12_00=20_MG_L   CKNI_12_00=20_MG_L   C_NI_12_00=5   
   ((   0.0455   0.9545   0   0)   % CBODN_12_00=5_MG_L   CNOD_12_00=1_MG_L   CBODD_12_00=20_MG_L   CKNI_12_00=20_MG_L   C_NI_12_00=5   
   (   0.0138   0.9862   0   0)   % CBODN_12_00=10_MG_L   CNOD_12_00=1_MG_L   CBODD_12_00=20_MG_L   CKNI_12_00=20_MG_L   C_NI_12_00=5   
   (   0   0.982   0.018   0)   % CBODN_12_00=15_MG_L   CNOD_12_00=1_MG_L   CBODD_12_00=20_MG_L   CKNI_12_00=20_MG_L   C_NI_12_00=5   
   (   0   0.9503   0.0497   0))   % CBODN_12_00=20_MG_L   CNOD_12_00=1_MG_L   CBODD_12_00=20_MG_L   CKNI_12_00=20_MG_L   C_NI_12_00=5   
   ((   0.0605   0.9395   0   0)   % CBODN_12_00=5_MG_L   CNOD_12_00=2_MG_L   CBODD_12_00=20_MG_L   CKNI_12_00=20_MG_L   C_NI_12_00=5   
   (   0.0288   0.9712   0   0)   % CBODN_12_00=10_MG_L   CNOD_12_00=2_MG_L   CBODD_12_00=20_MG_L   CKNI_12_00=20_MG_L   C_NI_12_00=5   
   (   0   0.997   0.003   0)   % CBODN_12_00=15_MG_L   CNOD_12_00=2_MG_L   CBODD_12_00=20_MG_L   CKNI_12_00=20_MG_L   C_NI_12_00=5   
   (   0   0.9653   0.0347   0))   % CBODN_12_00=20_MG_L   CNOD_12_00=2_MG_L   CBODD_12_00=20_MG_L   CKNI_12_00=20_MG_L   C_NI_12_00=5   
   ((   0.0705   0.9295   0   0)   % CBODN_12_00=5_MG_L   CNOD_12_00=4_MG_L   CBODD_12_00=20_MG_L   CKNI_12_00=20_MG_L   C_NI_12_00=5   
   (   0.0388   0.9612   0   0)   % CBODN_12_00=10_MG_L   CNOD_12_00=4_MG_L   CBODD_12_00=20_MG_L   CKNI_12_00=20_MG_L   C_NI_12_00=5   
   (   0.007   0.993   0   0)   % CBODN_12_00=15_MG_L   CNOD_12_00=4_MG_L   CBODD_12_00=20_MG_L   CKNI_12_00=20_MG_L   C_NI_12_00=5   
   (   0   0.9753   0.0247   0)))   % CBODN_12_00=20_MG_L   CNOD_12_00=4_MG_L   CBODD_12_00=20_MG_L   CKNI_12_00=20_MG_L   C_NI_12_00=5   
   (((   0   0.0727   0.9273   0)   % CBODN_12_00=5_MG_L   CNOD_12_00=0_5_MG_L   CBODD_12_00=25_MG_L   CKNI_12_00=20_MG_L   C_NI_12_00=5   
   (   0   0.041   0.959   0)   % CBODN_12_00=10_MG_L   CNOD_12_00=0_5_MG_L   CBODD_12_00=25_MG_L   CKNI_12_00=20_MG_L   C_NI_12_00=5   
   (   0   0.0092   0.9908   0)   % CBODN_12_00=15_MG_L   CNOD_12_00=0_5_MG_L   CBODD_12_00=25_MG_L   CKNI_12_00=20_MG_L   C_NI_12_00=5   
   (   0   0   0.9775   0.0225))   % CBODN_12_00=20_MG_L   CNOD_12_00=0_5_MG_L   CBODD_12_00=25_MG_L   CKNI_12_00=20_MG_L   C_NI_12_00=5   
   ((   0   0.0935   0.9065   0)   % CBODN_12_00=5_MG_L   CNOD_12_00=1_MG_L   CBODD_12_00=25_MG_L   CKNI_12_00=20_MG_L   C_NI_12_00=5   
   (   0   0.0618   0.9382   0)   % CBODN_12_00=10_MG_L   CNOD_12_00=1_MG_L   CBODD_12_00=25_MG_L   CKNI_12_00=20_MG_L   C_NI_12_00=5   
   (   0   0.03   0.97   0)   % CBODN_12_00=15_MG_L   CNOD_12_00=1_MG_L   CBODD_12_00=25_MG_L   CKNI_12_00=20_MG_L   C_NI_12_00=5   
   (   0   0   0.9983   0.0017))   % CBODN_12_00=20_MG_L   CNOD_12_00=1_MG_L   CBODD_12_00=25_MG_L   CKNI_12_00=20_MG_L   C_NI_12_00=5   
   ((   0   0.1102   0.8898   0)   % CBODN_12_00=5_MG_L   CNOD_12_00=2_MG_L   CBODD_12_00=25_MG_L   CKNI_12_00=20_MG_L   C_NI_12_00=5   
   (   0   0.0785   0.9215   0)   % CBODN_12_00=10_MG_L   CNOD_12_00=2_MG_L   CBODD_12_00=25_MG_L   CKNI_12_00=20_MG_L   C_NI_12_00=5   
   (   0   0.0467   0.9533   0)   % CBODN_12_00=15_MG_L   CNOD_12_00=2_MG_L   CBODD_12_00=25_MG_L   CKNI_12_00=20_MG_L   C_NI_12_00=5   
   (   0   0.015   0.985   0))   % CBODN_12_00=20_MG_L   CNOD_12_00=2_MG_L   CBODD_12_00=25_MG_L   CKNI_12_00=20_MG_L   C_NI_12_00=5   
   ((   0   0.1213   0.8787   0)   % CBODN_12_00=5_MG_L   CNOD_12_00=4_MG_L   CBODD_12_00=25_MG_L   CKNI_12_00=20_MG_L   C_NI_12_00=5   
   (   0   0.0896   0.9104   0)   % CBODN_12_00=10_MG_L   CNOD_12_00=4_MG_L   CBODD_12_00=25_MG_L   CKNI_12_00=20_MG_L   C_NI_12_00=5   
   (   0   0.0578   0.9422   0)   % CBODN_12_00=15_MG_L   CNOD_12_00=4_MG_L   CBODD_12_00=25_MG_L   CKNI_12_00=20_MG_L   C_NI_12_00=5   
   (   0   0.0261   0.9739   0)))   % CBODN_12_00=20_MG_L   CNOD_12_00=4_MG_L   CBODD_12_00=25_MG_L   CKNI_12_00=20_MG_L   C_NI_12_00=5   
   (((   0   0   0.1174   0.8826)   % CBODN_12_00=5_MG_L   CNOD_12_00=0_5_MG_L   CBODD_12_00=30_MG_L   CKNI_12_00=20_MG_L   C_NI_12_00=5   
   (   0   0   0.0856   0.9144)   % CBODN_12_00=10_MG_L   CNOD_12_00=0_5_MG_L   CBODD_12_00=30_MG_L   CKNI_12_00=20_MG_L   C_NI_12_00=5   
   (   0   0   0.0539   0.9461)   % CBODN_12_00=15_MG_L   CNOD_12_00=0_5_MG_L   CBODD_12_00=30_MG_L   CKNI_12_00=20_MG_L   C_NI_12_00=5   
   (   0   0   0.0221   0.9779))   % CBODN_12_00=20_MG_L   CNOD_12_00=0_5_MG_L   CBODD_12_00=30_MG_L   CKNI_12_00=20_MG_L   C_NI_12_00=5   
   ((   0   0   0.1399   0.8601)   % CBODN_12_00=5_MG_L   CNOD_12_00=1_MG_L   CBODD_12_00=30_MG_L   CKNI_12_00=20_MG_L   C_NI_12_00=5   
   (   0   0   0.1081   0.8919)   % CBODN_12_00=10_MG_L   CNOD_12_00=1_MG_L   CBODD_12_00=30_MG_L   CKNI_12_00=20_MG_L   C_NI_12_00=5   
   (   0   0   0.0764   0.9236)   % CBODN_12_00=15_MG_L   CNOD_12_00=1_MG_L   CBODD_12_00=30_MG_L   CKNI_12_00=20_MG_L   C_NI_12_00=5   
   (   0   0   0.0446   0.9554))   % CBODN_12_00=20_MG_L   CNOD_12_00=1_MG_L   CBODD_12_00=30_MG_L   CKNI_12_00=20_MG_L   C_NI_12_00=5   
   ((   0   0   0.1579   0.8421)   % CBODN_12_00=5_MG_L   CNOD_12_00=2_MG_L   CBODD_12_00=30_MG_L   CKNI_12_00=20_MG_L   C_NI_12_00=5   
   (   0   0   0.1261   0.8739)   % CBODN_12_00=10_MG_L   CNOD_12_00=2_MG_L   CBODD_12_00=30_MG_L   CKNI_12_00=20_MG_L   C_NI_12_00=5   
   (   0   0   0.0944   0.9056)   % CBODN_12_00=15_MG_L   CNOD_12_00=2_MG_L   CBODD_12_00=30_MG_L   CKNI_12_00=20_MG_L   C_NI_12_00=5   
   (   0   0   0.0626   0.9374))   % CBODN_12_00=20_MG_L   CNOD_12_00=2_MG_L   CBODD_12_00=30_MG_L   CKNI_12_00=20_MG_L   C_NI_12_00=5   
   ((   0   0   0.1699   0.8301)   % CBODN_12_00=5_MG_L   CNOD_12_00=4_MG_L   CBODD_12_00=30_MG_L   CKNI_12_00=20_MG_L   C_NI_12_00=5   
   (   0   0   0.1381   0.8619)   % CBODN_12_00=10_MG_L   CNOD_12_00=4_MG_L   CBODD_12_00=30_MG_L   CKNI_12_00=20_MG_L   C_NI_12_00=5   
   (   0   0   0.1064   0.8936)   % CBODN_12_00=15_MG_L   CNOD_12_00=4_MG_L   CBODD_12_00=30_MG_L   CKNI_12_00=20_MG_L   C_NI_12_00=5   
   (   0   0   0.0746   0.9254))))   % CBODN_12_00=20_MG_L   CNOD_12_00=4_MG_L   CBODD_12_00=30_MG_L   CKNI_12_00=20_MG_L   C_NI_12_00=5   
   ((((   0.8997   0.1003   0   0)   % CBODN_12_00=5_MG_L   CNOD_12_00=0_5_MG_L   CBODD_12_00=15_MG_L   CKNI_12_00=30_MG_L   C_NI_12_00=5   
   (   0.8679   0.1321   0   0)   % CBODN_12_00=10_MG_L   CNOD_12_00=0_5_MG_L   CBODD_12_00=15_MG_L   CKNI_12_00=30_MG_L   C_NI_12_00=5   
   (   0.8362   0.1638   0   0)   % CBODN_12_00=15_MG_L   CNOD_12_00=0_5_MG_L   CBODD_12_00=15_MG_L   CKNI_12_00=30_MG_L   C_NI_12_00=5   
   (   0.8045   0.1955   0   0))   % CBODN_12_00=20_MG_L   CNOD_12_00=0_5_MG_L   CBODD_12_00=15_MG_L   CKNI_12_00=30_MG_L   C_NI_12_00=5   
   ((   0.9158   0.0842   0   0)   % CBODN_12_00=5_MG_L   CNOD_12_00=1_MG_L   CBODD_12_00=15_MG_L   CKNI_12_00=30_MG_L   C_NI_12_00=5   
   (   0.884   0.116   0   0)   % CBODN_12_00=10_MG_L   CNOD_12_00=1_MG_L   CBODD_12_00=15_MG_L   CKNI_12_00=30_MG_L   C_NI_12_00=5   
   (   0.8523   0.1477   0   0)   % CBODN_12_00=15_MG_L   CNOD_12_00=1_MG_L   CBODD_12_00=15_MG_L   CKNI_12_00=30_MG_L   C_NI_12_00=5   
   (   0.8205   0.1795   0   0))   % CBODN_12_00=20_MG_L   CNOD_12_00=1_MG_L   CBODD_12_00=15_MG_L   CKNI_12_00=30_MG_L   C_NI_12_00=5   
   ((   0.9286   0.0714   0   0)   % CBODN_12_00=5_MG_L   CNOD_12_00=2_MG_L   CBODD_12_00=15_MG_L   CKNI_12_00=30_MG_L   C_NI_12_00=5   
   (   0.8969   0.1031   0   0)   % CBODN_12_00=10_MG_L   CNOD_12_00=2_MG_L   CBODD_12_00=15_MG_L   CKNI_12_00=30_MG_L   C_NI_12_00=5   
   (   0.8651   0.1349   0   0)   % CBODN_12_00=15_MG_L   CNOD_12_00=2_MG_L   CBODD_12_00=15_MG_L   CKNI_12_00=30_MG_L   C_NI_12_00=5   
   (   0.8334   0.1666   0   0))   % CBODN_12_00=20_MG_L   CNOD_12_00=2_MG_L   CBODD_12_00=15_MG_L   CKNI_12_00=30_MG_L   C_NI_12_00=5   
   ((   0.9372   0.0628   0   0)   % CBODN_12_00=5_MG_L   CNOD_12_00=4_MG_L   CBODD_12_00=15_MG_L   CKNI_12_00=30_MG_L   C_NI_12_00=5   
   (   0.9054   0.0946   0   0)   % CBODN_12_00=10_MG_L   CNOD_12_00=4_MG_L   CBODD_12_00=15_MG_L   CKNI_12_00=30_MG_L   C_NI_12_00=5   
   (   0.8737   0.1263   0   0)   % CBODN_12_00=15_MG_L   CNOD_12_00=4_MG_L   CBODD_12_00=15_MG_L   CKNI_12_00=30_MG_L   C_NI_12_00=5   
   (   0.842   0.158   0   0)))   % CBODN_12_00=20_MG_L   CNOD_12_00=4_MG_L   CBODD_12_00=15_MG_L   CKNI_12_00=30_MG_L   C_NI_12_00=5   
   (((   0   0.9474   0.0526   0)   % CBODN_12_00=5_MG_L   CNOD_12_00=0_5_MG_L   CBODD_12_00=20_MG_L   CKNI_12_00=30_MG_L   C_NI_12_00=5   
   (   0   0.9157   0.0843   0)   % CBODN_12_00=10_MG_L   CNOD_12_00=0_5_MG_L   CBODD_12_00=20_MG_L   CKNI_12_00=30_MG_L   C_NI_12_00=5   
   (   0   0.8839   0.1161   0)   % CBODN_12_00=15_MG_L   CNOD_12_00=0_5_MG_L   CBODD_12_00=20_MG_L   CKNI_12_00=30_MG_L   C_NI_12_00=5   
   (   0   0.8522   0.1478   0))   % CBODN_12_00=20_MG_L   CNOD_12_00=0_5_MG_L   CBODD_12_00=20_MG_L   CKNI_12_00=30_MG_L   C_NI_12_00=5   
   ((   0   0.9662   0.0338   0)   % CBODN_12_00=5_MG_L   CNOD_12_00=1_MG_L   CBODD_12_00=20_MG_L   CKNI_12_00=30_MG_L   C_NI_12_00=5   
   (   0   0.9344   0.0656   0)   % CBODN_12_00=10_MG_L   CNOD_12_00=1_MG_L   CBODD_12_00=20_MG_L   CKNI_12_00=30_MG_L   C_NI_12_00=5   
   (   0   0.9027   0.0973   0)   % CBODN_12_00=15_MG_L   CNOD_12_00=1_MG_L   CBODD_12_00=20_MG_L   CKNI_12_00=30_MG_L   C_NI_12_00=5   
   (   0   0.8709   0.1291   0))   % CBODN_12_00=20_MG_L   CNOD_12_00=1_MG_L   CBODD_12_00=20_MG_L   CKNI_12_00=30_MG_L   C_NI_12_00=5   
   ((   0   0.9812   0.0188   0)   % CBODN_12_00=5_MG_L   CNOD_12_00=2_MG_L   CBODD_12_00=20_MG_L   CKNI_12_00=30_MG_L   C_NI_12_00=5   
   (   0   0.9494   0.0506   0)   % CBODN_12_00=10_MG_L   CNOD_12_00=2_MG_L   CBODD_12_00=20_MG_L   CKNI_12_00=30_MG_L   C_NI_12_00=5   
   (   0   0.9177   0.0823   0)   % CBODN_12_00=15_MG_L   CNOD_12_00=2_MG_L   CBODD_12_00=20_MG_L   CKNI_12_00=30_MG_L   C_NI_12_00=5   
   (   0   0.8859   0.1141   0))   % CBODN_12_00=20_MG_L   CNOD_12_00=2_MG_L   CBODD_12_00=20_MG_L   CKNI_12_00=30_MG_L   C_NI_12_00=5   
   ((   0   0.9912   0.0088   0)   % CBODN_12_00=5_MG_L   CNOD_12_00=4_MG_L   CBODD_12_00=20_MG_L   CKNI_12_00=30_MG_L   C_NI_12_00=5   
   (   0   0.9594   0.0406   0)   % CBODN_12_00=10_MG_L   CNOD_12_00=4_MG_L   CBODD_12_00=20_MG_L   CKNI_12_00=30_MG_L   C_NI_12_00=5   
   (   0   0.9277   0.0723   0)   % CBODN_12_00=15_MG_L   CNOD_12_00=4_MG_L   CBODD_12_00=20_MG_L   CKNI_12_00=30_MG_L   C_NI_12_00=5   
   (   0   0.8959   0.1041   0)))   % CBODN_12_00=20_MG_L   CNOD_12_00=4_MG_L   CBODD_12_00=20_MG_L   CKNI_12_00=30_MG_L   C_NI_12_00=5   
   (((   0   0   0.9933   0.0067)   % CBODN_12_00=5_MG_L   CNOD_12_00=0_5_MG_L   CBODD_12_00=25_MG_L   CKNI_12_00=30_MG_L   C_NI_12_00=5   
   (   0   0   0.9616   0.0384)   % CBODN_12_00=10_MG_L   CNOD_12_00=0_5_MG_L   CBODD_12_00=25_MG_L   CKNI_12_00=30_MG_L   C_NI_12_00=5   
   (   0   0   0.9298   0.0702)   % CBODN_12_00=15_MG_L   CNOD_12_00=0_5_MG_L   CBODD_12_00=25_MG_L   CKNI_12_00=30_MG_L   C_NI_12_00=5   
   (   0   0   0.8981   0.1019))   % CBODN_12_00=20_MG_L   CNOD_12_00=0_5_MG_L   CBODD_12_00=25_MG_L   CKNI_12_00=30_MG_L   C_NI_12_00=5   
   ((   0   0.0142   0.9858   0)   % CBODN_12_00=5_MG_L   CNOD_12_00=1_MG_L   CBODD_12_00=25_MG_L   CKNI_12_00=30_MG_L   C_NI_12_00=5   
   (   0   0   0.9824   0.0176)   % CBODN_12_00=10_MG_L   CNOD_12_00=1_MG_L   CBODD_12_00=25_MG_L   CKNI_12_00=30_MG_L   C_NI_12_00=5   
   (   0   0   0.9507   0.0493)   % CBODN_12_00=15_MG_L   CNOD_12_00=1_MG_L   CBODD_12_00=25_MG_L   CKNI_12_00=30_MG_L   C_NI_12_00=5   
   (   0   0   0.9189   0.0811))   % CBODN_12_00=20_MG_L   CNOD_12_00=1_MG_L   CBODD_12_00=25_MG_L   CKNI_12_00=30_MG_L   C_NI_12_00=5   
   ((   0   0.0308   0.9692   0)   % CBODN_12_00=5_MG_L   CNOD_12_00=2_MG_L   CBODD_12_00=25_MG_L   CKNI_12_00=30_MG_L   C_NI_12_00=5   
   (   0   0   0.9991   0.0009)   % CBODN_12_00=10_MG_L   CNOD_12_00=2_MG_L   CBODD_12_00=25_MG_L   CKNI_12_00=30_MG_L   C_NI_12_00=5   
   (   0   0   0.9673   0.0327)   % CBODN_12_00=15_MG_L   CNOD_12_00=2_MG_L   CBODD_12_00=25_MG_L   CKNI_12_00=30_MG_L   C_NI_12_00=5   
   (   0   0   0.9356   0.0644))   % CBODN_12_00=20_MG_L   CNOD_12_00=2_MG_L   CBODD_12_00=25_MG_L   CKNI_12_00=30_MG_L   C_NI_12_00=5   
   ((   0   0.042   0.958   0)   % CBODN_12_00=5_MG_L   CNOD_12_00=4_MG_L   CBODD_12_00=25_MG_L   CKNI_12_00=30_MG_L   C_NI_12_00=5   
   (   0   0.0102   0.9898   0)   % CBODN_12_00=10_MG_L   CNOD_12_00=4_MG_L   CBODD_12_00=25_MG_L   CKNI_12_00=30_MG_L   C_NI_12_00=5   
   (   0   0   0.9785   0.0215)   % CBODN_12_00=15_MG_L   CNOD_12_00=4_MG_L   CBODD_12_00=25_MG_L   CKNI_12_00=30_MG_L   C_NI_12_00=5   
   (   0   0   0.9467   0.0533)))   % CBODN_12_00=20_MG_L   CNOD_12_00=4_MG_L   CBODD_12_00=25_MG_L   CKNI_12_00=30_MG_L   C_NI_12_00=5   
   (((   0   0   0.038   0.962)   % CBODN_12_00=5_MG_L   CNOD_12_00=0_5_MG_L   CBODD_12_00=30_MG_L   CKNI_12_00=30_MG_L   C_NI_12_00=5   
   (   0   0   0.0063   0.9937)   % CBODN_12_00=10_MG_L   CNOD_12_00=0_5_MG_L   CBODD_12_00=30_MG_L   CKNI_12_00=30_MG_L   C_NI_12_00=5   
   (   0   0   0   1)   % CBODN_12_00=15_MG_L   CNOD_12_00=0_5_MG_L   CBODD_12_00=30_MG_L   CKNI_12_00=30_MG_L   C_NI_12_00=5   
   (   0   0   0   1))   % CBODN_12_00=20_MG_L   CNOD_12_00=0_5_MG_L   CBODD_12_00=30_MG_L   CKNI_12_00=30_MG_L   C_NI_12_00=5   
   ((   0   0   0.0605   0.9395)   % CBODN_12_00=5_MG_L   CNOD_12_00=1_MG_L   CBODD_12_00=30_MG_L   CKNI_12_00=30_MG_L   C_NI_12_00=5   
   (   0   0   0.0288   0.9712)   % CBODN_12_00=10_MG_L   CNOD_12_00=1_MG_L   CBODD_12_00=30_MG_L   CKNI_12_00=30_MG_L   C_NI_12_00=5   
   (   0   0   0   1)   % CBODN_12_00=15_MG_L   CNOD_12_00=1_MG_L   CBODD_12_00=30_MG_L   CKNI_12_00=30_MG_L   C_NI_12_00=5   
   (   0   0   0   1))   % CBODN_12_00=20_MG_L   CNOD_12_00=1_MG_L   CBODD_12_00=30_MG_L   CKNI_12_00=30_MG_L   C_NI_12_00=5   
   ((   0   0   0.0785   0.9215)   % CBODN_12_00=5_MG_L   CNOD_12_00=2_MG_L   CBODD_12_00=30_MG_L   CKNI_12_00=30_MG_L   C_NI_12_00=5   
   (   0   0   0.0468   0.9532)   % CBODN_12_00=10_MG_L   CNOD_12_00=2_MG_L   CBODD_12_00=30_MG_L   CKNI_12_00=30_MG_L   C_NI_12_00=5   
   (   0   0   0.015   0.985)   % CBODN_12_00=15_MG_L   CNOD_12_00=2_MG_L   CBODD_12_00=30_MG_L   CKNI_12_00=30_MG_L   C_NI_12_00=5   
   (   0   0   0   1))   % CBODN_12_00=20_MG_L   CNOD_12_00=2_MG_L   CBODD_12_00=30_MG_L   CKNI_12_00=30_MG_L   C_NI_12_00=5   
   ((   0   0   0.0905   0.9095)   % CBODN_12_00=5_MG_L   CNOD_12_00=4_MG_L   CBODD_12_00=30_MG_L   CKNI_12_00=30_MG_L   C_NI_12_00=5   
   (   0   0   0.0588   0.9412)   % CBODN_12_00=10_MG_L   CNOD_12_00=4_MG_L   CBODD_12_00=30_MG_L   CKNI_12_00=30_MG_L   C_NI_12_00=5   
   (   0   0   0.027   0.973)   % CBODN_12_00=15_MG_L   CNOD_12_00=4_MG_L   CBODD_12_00=30_MG_L   CKNI_12_00=30_MG_L   C_NI_12_00=5   
   (   0   0   0   1))))   % CBODN_12_00=20_MG_L   CNOD_12_00=4_MG_L   CBODD_12_00=30_MG_L   CKNI_12_00=30_MG_L   C_NI_12_00=5   
   ((((   0.8203   0.1797   0   0)   % CBODN_12_00=5_MG_L   CNOD_12_00=0_5_MG_L   CBODD_12_00=15_MG_L   CKNI_12_00=40_MG_L   C_NI_12_00=5   
   (   0.7886   0.2114   0   0)   % CBODN_12_00=10_MG_L   CNOD_12_00=0_5_MG_L   CBODD_12_00=15_MG_L   CKNI_12_00=40_MG_L   C_NI_12_00=5   
   (   0.7568   0.2432   0   0)   % CBODN_12_00=15_MG_L   CNOD_12_00=0_5_MG_L   CBODD_12_00=15_MG_L   CKNI_12_00=40_MG_L   C_NI_12_00=5   
   (   0.7251   0.2749   0   0))   % CBODN_12_00=20_MG_L   CNOD_12_00=0_5_MG_L   CBODD_12_00=15_MG_L   CKNI_12_00=40_MG_L   C_NI_12_00=5   
   ((   0.8364   0.1636   0   0)   % CBODN_12_00=5_MG_L   CNOD_12_00=1_MG_L   CBODD_12_00=15_MG_L   CKNI_12_00=40_MG_L   C_NI_12_00=5   
   (   0.8046   0.1954   0   0)   % CBODN_12_00=10_MG_L   CNOD_12_00=1_MG_L   CBODD_12_00=15_MG_L   CKNI_12_00=40_MG_L   C_NI_12_00=5   
   (   0.7729   0.2271   0   0)   % CBODN_12_00=15_MG_L   CNOD_12_00=1_MG_L   CBODD_12_00=15_MG_L   CKNI_12_00=40_MG_L   C_NI_12_00=5   
   (   0.7412   0.2588   0   0))   % CBODN_12_00=20_MG_L   CNOD_12_00=1_MG_L   CBODD_12_00=15_MG_L   CKNI_12_00=40_MG_L   C_NI_12_00=5   
   ((   0.8493   0.1507   0   0)   % CBODN_12_00=5_MG_L   CNOD_12_00=2_MG_L   CBODD_12_00=15_MG_L   CKNI_12_00=40_MG_L   C_NI_12_00=5   
   (   0.8175   0.1825   0   0)   % CBODN_12_00=10_MG_L   CNOD_12_00=2_MG_L   CBODD_12_00=15_MG_L   CKNI_12_00=40_MG_L   C_NI_12_00=5   
   (   0.7858   0.2142   0   0)   % CBODN_12_00=15_MG_L   CNOD_12_00=2_MG_L   CBODD_12_00=15_MG_L   CKNI_12_00=40_MG_L   C_NI_12_00=5   
   (   0.754   0.246   0   0))   % CBODN_12_00=20_MG_L   CNOD_12_00=2_MG_L   CBODD_12_00=15_MG_L   CKNI_12_00=40_MG_L   C_NI_12_00=5   
   ((   0.8578   0.1422   0   0)   % CBODN_12_00=5_MG_L   CNOD_12_00=4_MG_L   CBODD_12_00=15_MG_L   CKNI_12_00=40_MG_L   C_NI_12_00=5   
   (   0.8261   0.1739   0   0)   % CBODN_12_00=10_MG_L   CNOD_12_00=4_MG_L   CBODD_12_00=15_MG_L   CKNI_12_00=40_MG_L   C_NI_12_00=5   
   (   0.7943   0.2057   0   0)   % CBODN_12_00=15_MG_L   CNOD_12_00=4_MG_L   CBODD_12_00=15_MG_L   CKNI_12_00=40_MG_L   C_NI_12_00=5   
   (   0.7626   0.2374   0   0)))   % CBODN_12_00=20_MG_L   CNOD_12_00=4_MG_L   CBODD_12_00=15_MG_L   CKNI_12_00=40_MG_L   C_NI_12_00=5   
   (((   0   0.868   0.132   0)   % CBODN_12_00=5_MG_L   CNOD_12_00=0_5_MG_L   CBODD_12_00=20_MG_L   CKNI_12_00=40_MG_L   C_NI_12_00=5   
   (   0   0.8363   0.1637   0)   % CBODN_12_00=10_MG_L   CNOD_12_00=0_5_MG_L   CBODD_12_00=20_MG_L   CKNI_12_00=40_MG_L   C_NI_12_00=5   
   (   0   0.8045   0.1955   0)   % CBODN_12_00=15_MG_L   CNOD_12_00=0_5_MG_L   CBODD_12_00=20_MG_L   CKNI_12_00=40_MG_L   C_NI_12_00=5   
   (   0   0.7728   0.2272   0))   % CBODN_12_00=20_MG_L   CNOD_12_00=0_5_MG_L   CBODD_12_00=20_MG_L   CKNI_12_00=40_MG_L   C_NI_12_00=5   
   ((   0   0.8868   0.1132   0)   % CBODN_12_00=5_MG_L   CNOD_12_00=1_MG_L   CBODD_12_00=20_MG_L   CKNI_12_00=40_MG_L   C_NI_12_00=5   
   (   0   0.855   0.145   0)   % CBODN_12_00=10_MG_L   CNOD_12_00=1_MG_L   CBODD_12_00=20_MG_L   CKNI_12_00=40_MG_L   C_NI_12_00=5   
   (   0   0.8233   0.1767   0)   % CBODN_12_00=15_MG_L   CNOD_12_00=1_MG_L   CBODD_12_00=20_MG_L   CKNI_12_00=40_MG_L   C_NI_12_00=5   
   (   0   0.7916   0.2084   0))   % CBODN_12_00=20_MG_L   CNOD_12_00=1_MG_L   CBODD_12_00=20_MG_L   CKNI_12_00=40_MG_L   C_NI_12_00=5   
   ((   0   0.9018   0.0982   0)   % CBODN_12_00=5_MG_L   CNOD_12_00=2_MG_L   CBODD_12_00=20_MG_L   CKNI_12_00=40_MG_L   C_NI_12_00=5   
   (   0   0.87   0.13   0)   % CBODN_12_00=10_MG_L   CNOD_12_00=2_MG_L   CBODD_12_00=20_MG_L   CKNI_12_00=40_MG_L   C_NI_12_00=5   
   (   0   0.8383   0.1617   0)   % CBODN_12_00=15_MG_L   CNOD_12_00=2_MG_L   CBODD_12_00=20_MG_L   CKNI_12_00=40_MG_L   C_NI_12_00=5   
   (   0   0.8066   0.1934   0))   % CBODN_12_00=20_MG_L   CNOD_12_00=2_MG_L   CBODD_12_00=20_MG_L   CKNI_12_00=40_MG_L   C_NI_12_00=5   
   ((   0   0.9118   0.0882   0)   % CBODN_12_00=5_MG_L   CNOD_12_00=4_MG_L   CBODD_12_00=20_MG_L   CKNI_12_00=40_MG_L   C_NI_12_00=5   
   (   0   0.88   0.12   0)   % CBODN_12_00=10_MG_L   CNOD_12_00=4_MG_L   CBODD_12_00=20_MG_L   CKNI_12_00=40_MG_L   C_NI_12_00=5   
   (   0   0.8483   0.1517   0)   % CBODN_12_00=15_MG_L   CNOD_12_00=4_MG_L   CBODD_12_00=20_MG_L   CKNI_12_00=40_MG_L   C_NI_12_00=5   
   (   0   0.8166   0.1834   0)))   % CBODN_12_00=20_MG_L   CNOD_12_00=4_MG_L   CBODD_12_00=20_MG_L   CKNI_12_00=40_MG_L   C_NI_12_00=5   
   (((   0   0   0.914   0.086)   % CBODN_12_00=5_MG_L   CNOD_12_00=0_5_MG_L   CBODD_12_00=25_MG_L   CKNI_12_00=40_MG_L   C_NI_12_00=5   
   (   0   0   0.8822   0.1178)   % CBODN_12_00=10_MG_L   CNOD_12_00=0_5_MG_L   CBODD_12_00=25_MG_L   CKNI_12_00=40_MG_L   C_NI_12_00=5   
   (   0   0   0.8505   0.1495)   % CBODN_12_00=15_MG_L   CNOD_12_00=0_5_MG_L   CBODD_12_00=25_MG_L   CKNI_12_00=40_MG_L   C_NI_12_00=5   
   (   0   0   0.8187   0.1813))   % CBODN_12_00=20_MG_L   CNOD_12_00=0_5_MG_L   CBODD_12_00=25_MG_L   CKNI_12_00=40_MG_L   C_NI_12_00=5   
   ((   0   0   0.9348   0.0652)   % CBODN_12_00=5_MG_L   CNOD_12_00=1_MG_L   CBODD_12_00=25_MG_L   CKNI_12_00=40_MG_L   C_NI_12_00=5   
   (   0   0   0.9031   0.0969)   % CBODN_12_00=10_MG_L   CNOD_12_00=1_MG_L   CBODD_12_00=25_MG_L   CKNI_12_00=40_MG_L   C_NI_12_00=5   
   (   0   0   0.8713   0.1287)   % CBODN_12_00=15_MG_L   CNOD_12_00=1_MG_L   CBODD_12_00=25_MG_L   CKNI_12_00=40_MG_L   C_NI_12_00=5   
   (   0   0   0.8396   0.1604))   % CBODN_12_00=20_MG_L   CNOD_12_00=1_MG_L   CBODD_12_00=25_MG_L   CKNI_12_00=40_MG_L   C_NI_12_00=5   
   ((   0   0   0.9515   0.0485)   % CBODN_12_00=5_MG_L   CNOD_12_00=2_MG_L   CBODD_12_00=25_MG_L   CKNI_12_00=40_MG_L   C_NI_12_00=5   
   (   0   0   0.9197   0.0803)   % CBODN_12_00=10_MG_L   CNOD_12_00=2_MG_L   CBODD_12_00=25_MG_L   CKNI_12_00=40_MG_L   C_NI_12_00=5   
   (   0   0   0.888   0.112)   % CBODN_12_00=15_MG_L   CNOD_12_00=2_MG_L   CBODD_12_00=25_MG_L   CKNI_12_00=40_MG_L   C_NI_12_00=5   
   (   0   0   0.8562   0.1438))   % CBODN_12_00=20_MG_L   CNOD_12_00=2_MG_L   CBODD_12_00=25_MG_L   CKNI_12_00=40_MG_L   C_NI_12_00=5   
   ((   0   0   0.9626   0.0374)   % CBODN_12_00=5_MG_L   CNOD_12_00=4_MG_L   CBODD_12_00=25_MG_L   CKNI_12_00=40_MG_L   C_NI_12_00=5   
   (   0   0   0.9308   0.0692)   % CBODN_12_00=10_MG_L   CNOD_12_00=4_MG_L   CBODD_12_00=25_MG_L   CKNI_12_00=40_MG_L   C_NI_12_00=5   
   (   0   0   0.8991   0.1009)   % CBODN_12_00=15_MG_L   CNOD_12_00=4_MG_L   CBODD_12_00=25_MG_L   CKNI_12_00=40_MG_L   C_NI_12_00=5   
   (   0   0   0.8673   0.1327)))   % CBODN_12_00=20_MG_L   CNOD_12_00=4_MG_L   CBODD_12_00=25_MG_L   CKNI_12_00=40_MG_L   C_NI_12_00=5   
   (((   0   0   0   1)   % CBODN_12_00=5_MG_L   CNOD_12_00=0_5_MG_L   CBODD_12_00=30_MG_L   CKNI_12_00=40_MG_L   C_NI_12_00=5   
   (   0   0   0   1)   % CBODN_12_00=10_MG_L   CNOD_12_00=0_5_MG_L   CBODD_12_00=30_MG_L   CKNI_12_00=40_MG_L   C_NI_12_00=5   
   (   0   0   0   1)   % CBODN_12_00=15_MG_L   CNOD_12_00=0_5_MG_L   CBODD_12_00=30_MG_L   CKNI_12_00=40_MG_L   C_NI_12_00=5   
   (   0   0   0   1))   % CBODN_12_00=20_MG_L   CNOD_12_00=0_5_MG_L   CBODD_12_00=30_MG_L   CKNI_12_00=40_MG_L   C_NI_12_00=5   
   ((   0   0   0   1)   % CBODN_12_00=5_MG_L   CNOD_12_00=1_MG_L   CBODD_12_00=30_MG_L   CKNI_12_00=40_MG_L   C_NI_12_00=5   
   (   0   0   0   1)   % CBODN_12_00=10_MG_L   CNOD_12_00=1_MG_L   CBODD_12_00=30_MG_L   CKNI_12_00=40_MG_L   C_NI_12_00=5   
   (   0   0   0   1)   % CBODN_12_00=15_MG_L   CNOD_12_00=1_MG_L   CBODD_12_00=30_MG_L   CKNI_12_00=40_MG_L   C_NI_12_00=5   
   (   0   0   0   1))   % CBODN_12_00=20_MG_L   CNOD_12_00=1_MG_L   CBODD_12_00=30_MG_L   CKNI_12_00=40_MG_L   C_NI_12_00=5   
   ((   0   0   0   1)   % CBODN_12_00=5_MG_L   CNOD_12_00=2_MG_L   CBODD_12_00=30_MG_L   CKNI_12_00=40_MG_L   C_NI_12_00=5   
   (   0   0   0   1)   % CBODN_12_00=10_MG_L   CNOD_12_00=2_MG_L   CBODD_12_00=30_MG_L   CKNI_12_00=40_MG_L   C_NI_12_00=5   
   (   0   0   0   1)   % CBODN_12_00=15_MG_L   CNOD_12_00=2_MG_L   CBODD_12_00=30_MG_L   CKNI_12_00=40_MG_L   C_NI_12_00=5   
   (   0   0   0   1))   % CBODN_12_00=20_MG_L   CNOD_12_00=2_MG_L   CBODD_12_00=30_MG_L   CKNI_12_00=40_MG_L   C_NI_12_00=5   
   ((   0   0   0.0112   0.9888)   % CBODN_12_00=5_MG_L   CNOD_12_00=4_MG_L   CBODD_12_00=30_MG_L   CKNI_12_00=40_MG_L   C_NI_12_00=5   
   (   0   0   0   1)   % CBODN_12_00=10_MG_L   CNOD_12_00=4_MG_L   CBODD_12_00=30_MG_L   CKNI_12_00=40_MG_L   C_NI_12_00=5   
   (   0   0   0   1)   % CBODN_12_00=15_MG_L   CNOD_12_00=4_MG_L   CBODD_12_00=30_MG_L   CKNI_12_00=40_MG_L   C_NI_12_00=5   
   (   0   0   0   1)))))   % CBODN_12_00=20_MG_L   CNOD_12_00=4_MG_L   CBODD_12_00=30_MG_L   CKNI_12_00=40_MG_L   C_NI_12_00=5   
   (((((   0.9473   0.0527   0   0)   % CBODN_12_00=5_MG_L   CNOD_12_00=0_5_MG_L   CBODD_12_00=15_MG_L   CKNI_12_00=20_MG_L   C_NI_12_00=6   
   (   0.9156   0.0844   0   0)   % CBODN_12_00=10_MG_L   CNOD_12_00=0_5_MG_L   CBODD_12_00=15_MG_L   CKNI_12_00=20_MG_L   C_NI_12_00=6   
   (   0.8838   0.1162   0   0)   % CBODN_12_00=15_MG_L   CNOD_12_00=0_5_MG_L   CBODD_12_00=15_MG_L   CKNI_12_00=20_MG_L   C_NI_12_00=6   
   (   0.8521   0.1479   0   0))   % CBODN_12_00=20_MG_L   CNOD_12_00=0_5_MG_L   CBODD_12_00=15_MG_L   CKNI_12_00=20_MG_L   C_NI_12_00=6   
   ((   0.9634   0.0366   0   0)   % CBODN_12_00=5_MG_L   CNOD_12_00=1_MG_L   CBODD_12_00=15_MG_L   CKNI_12_00=20_MG_L   C_NI_12_00=6   
   (   0.9316   0.0684   0   0)   % CBODN_12_00=10_MG_L   CNOD_12_00=1_MG_L   CBODD_12_00=15_MG_L   CKNI_12_00=20_MG_L   C_NI_12_00=6   
   (   0.8999   0.1001   0   0)   % CBODN_12_00=15_MG_L   CNOD_12_00=1_MG_L   CBODD_12_00=15_MG_L   CKNI_12_00=20_MG_L   C_NI_12_00=6   
   (   0.8681   0.1319   0   0))   % CBODN_12_00=20_MG_L   CNOD_12_00=1_MG_L   CBODD_12_00=15_MG_L   CKNI_12_00=20_MG_L   C_NI_12_00=6   
   ((   0.9762   0.0238   0   0)   % CBODN_12_00=5_MG_L   CNOD_12_00=2_MG_L   CBODD_12_00=15_MG_L   CKNI_12_00=20_MG_L   C_NI_12_00=6   
   (   0.9445   0.0555   0   0)   % CBODN_12_00=10_MG_L   CNOD_12_00=2_MG_L   CBODD_12_00=15_MG_L   CKNI_12_00=20_MG_L   C_NI_12_00=6   
   (   0.9127   0.0873   0   0)   % CBODN_12_00=15_MG_L   CNOD_12_00=2_MG_L   CBODD_12_00=15_MG_L   CKNI_12_00=20_MG_L   C_NI_12_00=6   
   (   0.881   0.119   0   0))   % CBODN_12_00=20_MG_L   CNOD_12_00=2_MG_L   CBODD_12_00=15_MG_L   CKNI_12_00=20_MG_L   C_NI_12_00=6   
   ((   0.9848   0.0152   0   0)   % CBODN_12_00=5_MG_L   CNOD_12_00=4_MG_L   CBODD_12_00=15_MG_L   CKNI_12_00=20_MG_L   C_NI_12_00=6   
   (   0.9531   0.0469   0   0)   % CBODN_12_00=10_MG_L   CNOD_12_00=4_MG_L   CBODD_12_00=15_MG_L   CKNI_12_00=20_MG_L   C_NI_12_00=6   
   (   0.9213   0.0787   0   0)   % CBODN_12_00=15_MG_L   CNOD_12_00=4_MG_L   CBODD_12_00=15_MG_L   CKNI_12_00=20_MG_L   C_NI_12_00=6   
   (   0.8896   0.1104   0   0)))   % CBODN_12_00=20_MG_L   CNOD_12_00=4_MG_L   CBODD_12_00=15_MG_L   CKNI_12_00=20_MG_L   C_NI_12_00=6   
   (((   0   0.995   0.005   0)   % CBODN_12_00=5_MG_L   CNOD_12_00=0_5_MG_L   CBODD_12_00=20_MG_L   CKNI_12_00=20_MG_L   C_NI_12_00=6   
   (   0   0.9633   0.0367   0)   % CBODN_12_00=10_MG_L   CNOD_12_00=0_5_MG_L   CBODD_12_00=20_MG_L   CKNI_12_00=20_MG_L   C_NI_12_00=6   
   (   0   0.9315   0.0685   0)   % CBODN_12_00=15_MG_L   CNOD_12_00=0_5_MG_L   CBODD_12_00=20_MG_L   CKNI_12_00=20_MG_L   C_NI_12_00=6   
   (   0   0.8998   0.1002   0))   % CBODN_12_00=20_MG_L   CNOD_12_00=0_5_MG_L   CBODD_12_00=20_MG_L   CKNI_12_00=20_MG_L   C_NI_12_00=6   
   ((   0.0138   0.9862   0   0)   % CBODN_12_00=5_MG_L   CNOD_12_00=1_MG_L   CBODD_12_00=20_MG_L   CKNI_12_00=20_MG_L   C_NI_12_00=6   
   (   0   0.982   0.018   0)   % CBODN_12_00=10_MG_L   CNOD_12_00=1_MG_L   CBODD_12_00=20_MG_L   CKNI_12_00=20_MG_L   C_NI_12_00=6   
   (   0   0.9503   0.0497   0)   % CBODN_12_00=15_MG_L   CNOD_12_00=1_MG_L   CBODD_12_00=20_MG_L   CKNI_12_00=20_MG_L   C_NI_12_00=6   
   (   0   0.9185   0.0815   0))   % CBODN_12_00=20_MG_L   CNOD_12_00=1_MG_L   CBODD_12_00=20_MG_L   CKNI_12_00=20_MG_L   C_NI_12_00=6   
   ((   0.0288   0.9712   0   0)   % CBODN_12_00=5_MG_L   CNOD_12_00=2_MG_L   CBODD_12_00=20_MG_L   CKNI_12_00=20_MG_L   C_NI_12_00=6   
   (   0   0.997   0.003   0)   % CBODN_12_00=10_MG_L   CNOD_12_00=2_MG_L   CBODD_12_00=20_MG_L   CKNI_12_00=20_MG_L   C_NI_12_00=6   
   (   0   0.9653   0.0347   0)   % CBODN_12_00=15_MG_L   CNOD_12_00=2_MG_L   CBODD_12_00=20_MG_L   CKNI_12_00=20_MG_L   C_NI_12_00=6   
   (   0   0.9335   0.0665   0))   % CBODN_12_00=20_MG_L   CNOD_12_00=2_MG_L   CBODD_12_00=20_MG_L   CKNI_12_00=20_MG_L   C_NI_12_00=6   
   ((   0.0388   0.9612   0   0)   % CBODN_12_00=5_MG_L   CNOD_12_00=4_MG_L   CBODD_12_00=20_MG_L   CKNI_12_00=20_MG_L   C_NI_12_00=6   
   (   0.007   0.993   0   0)   % CBODN_12_00=10_MG_L   CNOD_12_00=4_MG_L   CBODD_12_00=20_MG_L   CKNI_12_00=20_MG_L   C_NI_12_00=6   
   (   0   0.9753   0.0247   0)   % CBODN_12_00=15_MG_L   CNOD_12_00=4_MG_L   CBODD_12_00=20_MG_L   CKNI_12_00=20_MG_L   C_NI_12_00=6   
   (   0   0.9435   0.0565   0)))   % CBODN_12_00=20_MG_L   CNOD_12_00=4_MG_L   CBODD_12_00=20_MG_L   CKNI_12_00=20_MG_L   C_NI_12_00=6   
   (((   0   0.041   0.959   0)   % CBODN_12_00=5_MG_L   CNOD_12_00=0_5_MG_L   CBODD_12_00=25_MG_L   CKNI_12_00=20_MG_L   C_NI_12_00=6   
   (   0   0.0092   0.9908   0)   % CBODN_12_00=10_MG_L   CNOD_12_00=0_5_MG_L   CBODD_12_00=25_MG_L   CKNI_12_00=20_MG_L   C_NI_12_00=6   
   (   0   0   0.9775   0.0225)   % CBODN_12_00=15_MG_L   CNOD_12_00=0_5_MG_L   CBODD_12_00=25_MG_L   CKNI_12_00=20_MG_L   C_NI_12_00=6   
   (   0   0   0.9457   0.0543))   % CBODN_12_00=20_MG_L   CNOD_12_00=0_5_MG_L   CBODD_12_00=25_MG_L   CKNI_12_00=20_MG_L   C_NI_12_00=6   
   ((   0   0.0618   0.9382   0)   % CBODN_12_00=5_MG_L   CNOD_12_00=1_MG_L   CBODD_12_00=25_MG_L   CKNI_12_00=20_MG_L   C_NI_12_00=6   
   (   0   0.03   0.97   0)   % CBODN_12_00=10_MG_L   CNOD_12_00=1_MG_L   CBODD_12_00=25_MG_L   CKNI_12_00=20_MG_L   C_NI_12_00=6   
   (   0   0   0.9983   0.0017)   % CBODN_12_00=15_MG_L   CNOD_12_00=1_MG_L   CBODD_12_00=25_MG_L   CKNI_12_00=20_MG_L   C_NI_12_00=6   
   (   0   0   0.9666   0.0334))   % CBODN_12_00=20_MG_L   CNOD_12_00=1_MG_L   CBODD_12_00=25_MG_L   CKNI_12_00=20_MG_L   C_NI_12_00=6   
   ((   0   0.0785   0.9215   0)   % CBODN_12_00=5_MG_L   CNOD_12_00=2_MG_L   CBODD_12_00=25_MG_L   CKNI_12_00=20_MG_L   C_NI_12_00=6   
   (   0   0.0467   0.9533   0)   % CBODN_12_00=10_MG_L   CNOD_12_00=2_MG_L   CBODD_12_00=25_MG_L   CKNI_12_00=20_MG_L   C_NI_12_00=6   
   (   0   0.015   0.985   0)   % CBODN_12_00=15_MG_L   CNOD_12_00=2_MG_L   CBODD_12_00=25_MG_L   CKNI_12_00=20_MG_L   C_NI_12_00=6   
   (   0   0   0.9832   0.0168))   % CBODN_12_00=20_MG_L   CNOD_12_00=2_MG_L   CBODD_12_00=25_MG_L   CKNI_12_00=20_MG_L   C_NI_12_00=6   
   ((   0   0.0896   0.9104   0)   % CBODN_12_00=5_MG_L   CNOD_12_00=4_MG_L   CBODD_12_00=25_MG_L   CKNI_12_00=20_MG_L   C_NI_12_00=6   
   (   0   0.0578   0.9422   0)   % CBODN_12_00=10_MG_L   CNOD_12_00=4_MG_L   CBODD_12_00=25_MG_L   CKNI_12_00=20_MG_L   C_NI_12_00=6   
   (   0   0.0261   0.9739   0)   % CBODN_12_00=15_MG_L   CNOD_12_00=4_MG_L   CBODD_12_00=25_MG_L   CKNI_12_00=20_MG_L   C_NI_12_00=6   
   (   0   0   0.9943   0.0057)))   % CBODN_12_00=20_MG_L   CNOD_12_00=4_MG_L   CBODD_12_00=25_MG_L   CKNI_12_00=20_MG_L   C_NI_12_00=6   
   (((   0   0   0.0856   0.9144)   % CBODN_12_00=5_MG_L   CNOD_12_00=0_5_MG_L   CBODD_12_00=30_MG_L   CKNI_12_00=20_MG_L   C_NI_12_00=6   
   (   0   0   0.0539   0.9461)   % CBODN_12_00=10_MG_L   CNOD_12_00=0_5_MG_L   CBODD_12_00=30_MG_L   CKNI_12_00=20_MG_L   C_NI_12_00=6   
   (   0   0   0.0221   0.9779)   % CBODN_12_00=15_MG_L   CNOD_12_00=0_5_MG_L   CBODD_12_00=30_MG_L   CKNI_12_00=20_MG_L   C_NI_12_00=6   
   (   0   0   0   1))   % CBODN_12_00=20_MG_L   CNOD_12_00=0_5_MG_L   CBODD_12_00=30_MG_L   CKNI_12_00=20_MG_L   C_NI_12_00=6   
   ((   0   0   0.1081   0.8919)   % CBODN_12_00=5_MG_L   CNOD_12_00=1_MG_L   CBODD_12_00=30_MG_L   CKNI_12_00=20_MG_L   C_NI_12_00=6   
   (   0   0   0.0764   0.9236)   % CBODN_12_00=10_MG_L   CNOD_12_00=1_MG_L   CBODD_12_00=30_MG_L   CKNI_12_00=20_MG_L   C_NI_12_00=6   
   (   0   0   0.0446   0.9554)   % CBODN_12_00=15_MG_L   CNOD_12_00=1_MG_L   CBODD_12_00=30_MG_L   CKNI_12_00=20_MG_L   C_NI_12_00=6   
   (   0   0   0.0129   0.9871))   % CBODN_12_00=20_MG_L   CNOD_12_00=1_MG_L   CBODD_12_00=30_MG_L   CKNI_12_00=20_MG_L   C_NI_12_00=6   
   ((   0   0   0.1261   0.8739)   % CBODN_12_00=5_MG_L   CNOD_12_00=2_MG_L   CBODD_12_00=30_MG_L   CKNI_12_00=20_MG_L   C_NI_12_00=6   
   (   0   0   0.0944   0.9056)   % CBODN_12_00=10_MG_L   CNOD_12_00=2_MG_L   CBODD_12_00=30_MG_L   CKNI_12_00=20_MG_L   C_NI_12_00=6   
   (   0   0   0.0626   0.9374)   % CBODN_12_00=15_MG_L   CNOD_12_00=2_MG_L   CBODD_12_00=30_MG_L   CKNI_12_00=20_MG_L   C_NI_12_00=6   
   (   0   0   0.0309   0.9691))   % CBODN_12_00=20_MG_L   CNOD_12_00=2_MG_L   CBODD_12_00=30_MG_L   CKNI_12_00=20_MG_L   C_NI_12_00=6   
   ((   0   0   0.1381   0.8619)   % CBODN_12_00=5_MG_L   CNOD_12_00=4_MG_L   CBODD_12_00=30_MG_L   CKNI_12_00=20_MG_L   C_NI_12_00=6   
   (   0   0   0.1064   0.8936)   % CBODN_12_00=10_MG_L   CNOD_12_00=4_MG_L   CBODD_12_00=30_MG_L   CKNI_12_00=20_MG_L   C_NI_12_00=6   
   (   0   0   0.0746   0.9254)   % CBODN_12_00=15_MG_L   CNOD_12_00=4_MG_L   CBODD_12_00=30_MG_L   CKNI_12_00=20_MG_L   C_NI_12_00=6   
   (   0   0   0.0429   0.9571))))   % CBODN_12_00=20_MG_L   CNOD_12_00=4_MG_L   CBODD_12_00=30_MG_L   CKNI_12_00=20_MG_L   C_NI_12_00=6   
   ((((   0.8521   0.1479   0   0)   % CBODN_12_00=5_MG_L   CNOD_12_00=0_5_MG_L   CBODD_12_00=15_MG_L   CKNI_12_00=30_MG_L   C_NI_12_00=6   
   (   0.8203   0.1797   0   0)   % CBODN_12_00=10_MG_L   CNOD_12_00=0_5_MG_L   CBODD_12_00=15_MG_L   CKNI_12_00=30_MG_L   C_NI_12_00=6   
   (   0.7886   0.2114   0   0)   % CBODN_12_00=15_MG_L   CNOD_12_00=0_5_MG_L   CBODD_12_00=15_MG_L   CKNI_12_00=30_MG_L   C_NI_12_00=6   
   (   0.7568   0.2432   0   0))   % CBODN_12_00=20_MG_L   CNOD_12_00=0_5_MG_L   CBODD_12_00=15_MG_L   CKNI_12_00=30_MG_L   C_NI_12_00=6   
   ((   0.8681   0.1319   0   0)   % CBODN_12_00=5_MG_L   CNOD_12_00=1_MG_L   CBODD_12_00=15_MG_L   CKNI_12_00=30_MG_L   C_NI_12_00=6   
   (   0.8364   0.1636   0   0)   % CBODN_12_00=10_MG_L   CNOD_12_00=1_MG_L   CBODD_12_00=15_MG_L   CKNI_12_00=30_MG_L   C_NI_12_00=6   
   (   0.8046   0.1954   0   0)   % CBODN_12_00=15_MG_L   CNOD_12_00=1_MG_L   CBODD_12_00=15_MG_L   CKNI_12_00=30_MG_L   C_NI_12_00=6   
   (   0.7729   0.2271   0   0))   % CBODN_12_00=20_MG_L   CNOD_12_00=1_MG_L   CBODD_12_00=15_MG_L   CKNI_12_00=30_MG_L   C_NI_12_00=6   
   ((   0.881   0.119   0   0)   % CBODN_12_00=5_MG_L   CNOD_12_00=2_MG_L   CBODD_12_00=15_MG_L   CKNI_12_00=30_MG_L   C_NI_12_00=6   
   (   0.8493   0.1507   0   0)   % CBODN_12_00=10_MG_L   CNOD_12_00=2_MG_L   CBODD_12_00=15_MG_L   CKNI_12_00=30_MG_L   C_NI_12_00=6   
   (   0.8175   0.1825   0   0)   % CBODN_12_00=15_MG_L   CNOD_12_00=2_MG_L   CBODD_12_00=15_MG_L   CKNI_12_00=30_MG_L   C_NI_12_00=6   
   (   0.7858   0.2142   0   0))   % CBODN_12_00=20_MG_L   CNOD_12_00=2_MG_L   CBODD_12_00=15_MG_L   CKNI_12_00=30_MG_L   C_NI_12_00=6   
   ((   0.8896   0.1104   0   0)   % CBODN_12_00=5_MG_L   CNOD_12_00=4_MG_L   CBODD_12_00=15_MG_L   CKNI_12_00=30_MG_L   C_NI_12_00=6   
   (   0.8578   0.1422   0   0)   % CBODN_12_00=10_MG_L   CNOD_12_00=4_MG_L   CBODD_12_00=15_MG_L   CKNI_12_00=30_MG_L   C_NI_12_00=6   
   (   0.8261   0.1739   0   0)   % CBODN_12_00=15_MG_L   CNOD_12_00=4_MG_L   CBODD_12_00=15_MG_L   CKNI_12_00=30_MG_L   C_NI_12_00=6   
   (   0.7943   0.2057   0   0)))   % CBODN_12_00=20_MG_L   CNOD_12_00=4_MG_L   CBODD_12_00=15_MG_L   CKNI_12_00=30_MG_L   C_NI_12_00=6   
   (((   0   0.8998   0.1002   0)   % CBODN_12_00=5_MG_L   CNOD_12_00=0_5_MG_L   CBODD_12_00=20_MG_L   CKNI_12_00=30_MG_L   C_NI_12_00=6   
   (   0   0.868   0.132   0)   % CBODN_12_00=10_MG_L   CNOD_12_00=0_5_MG_L   CBODD_12_00=20_MG_L   CKNI_12_00=30_MG_L   C_NI_12_00=6   
   (   0   0.8363   0.1637   0)   % CBODN_12_00=15_MG_L   CNOD_12_00=0_5_MG_L   CBODD_12_00=20_MG_L   CKNI_12_00=30_MG_L   C_NI_12_00=6   
   (   0   0.8045   0.1955   0))   % CBODN_12_00=20_MG_L   CNOD_12_00=0_5_MG_L   CBODD_12_00=20_MG_L   CKNI_12_00=30_MG_L   C_NI_12_00=6   
   ((   0   0.9185   0.0815   0)   % CBODN_12_00=5_MG_L   CNOD_12_00=1_MG_L   CBODD_12_00=20_MG_L   CKNI_12_00=30_MG_L   C_NI_12_00=6   
   (   0   0.8868   0.1132   0)   % CBODN_12_00=10_MG_L   CNOD_12_00=1_MG_L   CBODD_12_00=20_MG_L   CKNI_12_00=30_MG_L   C_NI_12_00=6   
   (   0   0.855   0.145   0)   % CBODN_12_00=15_MG_L   CNOD_12_00=1_MG_L   CBODD_12_00=20_MG_L   CKNI_12_00=30_MG_L   C_NI_12_00=6   
   (   0   0.8233   0.1767   0))   % CBODN_12_00=20_MG_L   CNOD_12_00=1_MG_L   CBODD_12_00=20_MG_L   CKNI_12_00=30_MG_L   C_NI_12_00=6   
   ((   0   0.9335   0.0665   0)   % CBODN_12_00=5_MG_L   CNOD_12_00=2_MG_L   CBODD_12_00=20_MG_L   CKNI_12_00=30_MG_L   C_NI_12_00=6   
   (   0   0.9018   0.0982   0)   % CBODN_12_00=10_MG_L   CNOD_12_00=2_MG_L   CBODD_12_00=20_MG_L   CKNI_12_00=30_MG_L   C_NI_12_00=6   
   (   0   0.87   0.13   0)   % CBODN_12_00=15_MG_L   CNOD_12_00=2_MG_L   CBODD_12_00=20_MG_L   CKNI_12_00=30_MG_L   C_NI_12_00=6   
   (   0   0.8383   0.1617   0))   % CBODN_12_00=20_MG_L   CNOD_12_00=2_MG_L   CBODD_12_00=20_MG_L   CKNI_12_00=30_MG_L   C_NI_12_00=6   
   ((   0   0.9435   0.0565   0)   % CBODN_12_00=5_MG_L   CNOD_12_00=4_MG_L   CBODD_12_00=20_MG_L   CKNI_12_00=30_MG_L   C_NI_12_00=6   
   (   0   0.9118   0.0882   0)   % CBODN_12_00=10_MG_L   CNOD_12_00=4_MG_L   CBODD_12_00=20_MG_L   CKNI_12_00=30_MG_L   C_NI_12_00=6   
   (   0   0.88   0.12   0)   % CBODN_12_00=15_MG_L   CNOD_12_00=4_MG_L   CBODD_12_00=20_MG_L   CKNI_12_00=30_MG_L   C_NI_12_00=6   
   (   0   0.8483   0.1517   0)))   % CBODN_12_00=20_MG_L   CNOD_12_00=4_MG_L   CBODD_12_00=20_MG_L   CKNI_12_00=30_MG_L   C_NI_12_00=6   
   (((   0   0   0.9457   0.0543)   % CBODN_12_00=5_MG_L   CNOD_12_00=0_5_MG_L   CBODD_12_00=25_MG_L   CKNI_12_00=30_MG_L   C_NI_12_00=6   
   (   0   0   0.914   0.086)   % CBODN_12_00=10_MG_L   CNOD_12_00=0_5_MG_L   CBODD_12_00=25_MG_L   CKNI_12_00=30_MG_L   C_NI_12_00=6   
   (   0   0   0.8822   0.1178)   % CBODN_12_00=15_MG_L   CNOD_12_00=0_5_MG_L   CBODD_12_00=25_MG_L   CKNI_12_00=30_MG_L   C_NI_12_00=6   
   (   0   0   0.8505   0.1495))   % CBODN_12_00=20_MG_L   CNOD_12_00=0_5_MG_L   CBODD_12_00=25_MG_L   CKNI_12_00=30_MG_L   C_NI_12_00=6   
   ((   0   0   0.9666   0.0334)   % CBODN_12_00=5_MG_L   CNOD_12_00=1_MG_L   CBODD_12_00=25_MG_L   CKNI_12_00=30_MG_L   C_NI_12_00=6   
   (   0   0   0.9348   0.0652)   % CBODN_12_00=10_MG_L   CNOD_12_00=1_MG_L   CBODD_12_00=25_MG_L   CKNI_12_00=30_MG_L   C_NI_12_00=6   
   (   0   0   0.9031   0.0969)   % CBODN_12_00=15_MG_L   CNOD_12_00=1_MG_L   CBODD_12_00=25_MG_L   CKNI_12_00=30_MG_L   C_NI_12_00=6   
   (   0   0   0.8713   0.1287))   % CBODN_12_00=20_MG_L   CNOD_12_00=1_MG_L   CBODD_12_00=25_MG_L   CKNI_12_00=30_MG_L   C_NI_12_00=6   
   ((   0   0   0.9832   0.0168)   % CBODN_12_00=5_MG_L   CNOD_12_00=2_MG_L   CBODD_12_00=25_MG_L   CKNI_12_00=30_MG_L   C_NI_12_00=6   
   (   0   0   0.9515   0.0485)   % CBODN_12_00=10_MG_L   CNOD_12_00=2_MG_L   CBODD_12_00=25_MG_L   CKNI_12_00=30_MG_L   C_NI_12_00=6   
   (   0   0   0.9197   0.0803)   % CBODN_12_00=15_MG_L   CNOD_12_00=2_MG_L   CBODD_12_00=25_MG_L   CKNI_12_00=30_MG_L   C_NI_12_00=6   
   (   0   0   0.888   0.112))   % CBODN_12_00=20_MG_L   CNOD_12_00=2_MG_L   CBODD_12_00=25_MG_L   CKNI_12_00=30_MG_L   C_NI_12_00=6   
   ((   0   0   0.9943   0.0057)   % CBODN_12_00=5_MG_L   CNOD_12_00=4_MG_L   CBODD_12_00=25_MG_L   CKNI_12_00=30_MG_L   C_NI_12_00=6   
   (   0   0   0.9626   0.0374)   % CBODN_12_00=10_MG_L   CNOD_12_00=4_MG_L   CBODD_12_00=25_MG_L   CKNI_12_00=30_MG_L   C_NI_12_00=6   
   (   0   0   0.9308   0.0692)   % CBODN_12_00=15_MG_L   CNOD_12_00=4_MG_L   CBODD_12_00=25_MG_L   CKNI_12_00=30_MG_L   C_NI_12_00=6   
   (   0   0   0.8991   0.1009)))   % CBODN_12_00=20_MG_L   CNOD_12_00=4_MG_L   CBODD_12_00=25_MG_L   CKNI_12_00=30_MG_L   C_NI_12_00=6   
   (((   0   0   0   1)   % CBODN_12_00=5_MG_L   CNOD_12_00=0_5_MG_L   CBODD_12_00=30_MG_L   CKNI_12_00=30_MG_L   C_NI_12_00=6   
   (   0   0   0   1)   % CBODN_12_00=10_MG_L   CNOD_12_00=0_5_MG_L   CBODD_12_00=30_MG_L   CKNI_12_00=30_MG_L   C_NI_12_00=6   
   (   0   0   0   1)   % CBODN_12_00=15_MG_L   CNOD_12_00=0_5_MG_L   CBODD_12_00=30_MG_L   CKNI_12_00=30_MG_L   C_NI_12_00=6   
   (   0   0   0   1))   % CBODN_12_00=20_MG_L   CNOD_12_00=0_5_MG_L   CBODD_12_00=30_MG_L   CKNI_12_00=30_MG_L   C_NI_12_00=6   
   ((   0   0   0.0129   0.9871)   % CBODN_12_00=5_MG_L   CNOD_12_00=1_MG_L   CBODD_12_00=30_MG_L   CKNI_12_00=30_MG_L   C_NI_12_00=6   
   (   0   0   0   1)   % CBODN_12_00=10_MG_L   CNOD_12_00=1_MG_L   CBODD_12_00=30_MG_L   CKNI_12_00=30_MG_L   C_NI_12_00=6   
   (   0   0   0   1)   % CBODN_12_00=15_MG_L   CNOD_12_00=1_MG_L   CBODD_12_00=30_MG_L   CKNI_12_00=30_MG_L   C_NI_12_00=6   
   (   0   0   0   1))   % CBODN_12_00=20_MG_L   CNOD_12_00=1_MG_L   CBODD_12_00=30_MG_L   CKNI_12_00=30_MG_L   C_NI_12_00=6   
   ((   0   0   0.0309   0.9691)   % CBODN_12_00=5_MG_L   CNOD_12_00=2_MG_L   CBODD_12_00=30_MG_L   CKNI_12_00=30_MG_L   C_NI_12_00=6   
