<?xml version="1.0" ?>
<!-- This network was created by pyAgrum 1.9.0 for any purpose you want -->
<smile version="1.0" id="data\diabetes.bif">

  <nodes>
    <cpt id="meal_24">
      <state id="100g" />
      <state id="95g" />
      <state id="90g" />
      <state id="85g" />
      <state id="80g" />
      <state id="75g" />
      <state id="70g" />
      <state id="65g" />
      <state id="60g" />
      <state id="55g" />
      <state id="50g" />
      <state id="45g" />
      <state id="40g" />
      <state id="35g" />
      <state id="30g" />
      <state id="25g" />
      <state id="20g" />
      <state id="15g" />
      <state id="10g" />
      <state id="5g" />
      <state id="0g" />
      <probabilities>0.01 0.01 0.01 0.01 0.01 0.01 0.01 0.01 0.01 0.01 0.01 0.01 0.01 0.01 0.01 0.01 0.01 0.01 0.01 0.01 0.8</probabilities>
    </cpt>
    <cpt id="met_irr_23">
      <state id="1_2mmol_kg_h" />
      <state id="0_8mmol_kg_h" />
      <state id="0_4mmol_kg_h" />
      <state id="0_0mmol_kg_h" />
      <state id="__0_4mmol_kg_h" />
      <state id="__0_8mmol_kg_h" />
      <state id="__1_2mmol_kg_h" />
      <probabilities>0.02 0.05 0.18 0.5 0.18 0.05 0.02</probabilities>
    </cpt>
    <cpt id="ins_abs_23">
      <state id="100_0mU_kg_h" />
      <state id="70_7mU_kg_h" />
      <state id="50_0mU_kg_h" />
      <state id="35_5mU_kg_h" />
      <state id="25_0mU_kg_h" />
      <state id="17_7mU_kg_h" />
      <state id="12_5mU_kg_h" />
      <state id="8_9mU_kg_h" />
      <state id="6_4mU_kg_h" />
      <state id="3_2mU_kg_h" />
      <state id="1_6mU_kg_h" />
      <probabilities>0.03 0.04 0.04 0.04 0.1 0.15 0.2 0.2 0.1 0.06 0.04</probabilities>
    </cpt>
    <cpt id="meal_23">
      <state id="100g" />
      <state id="95g" />
      <state id="90g" />
      <state id="85g" />
      <state id="80g" />
      <state id="75g" />
      <state id="70g" />
      <state id="65g" />
      <state id="60g" />
      <state id="55g" />
      <state id="50g" />
      <state id="45g" />
      <state id="40g" />
      <state id="35g" />
      <state id="30g" />
      <state id="25g" />
      <state id="20g" />
      <state id="15g" />
      <state id="10g" />
      <state id="5g" />
      <state id="0g" />
      <probabilities>0.01 0.01 0.01 0.01 0.01 0.01 0.01 0.01 0.01 0.01 0.01 0.01 0.01 0.01 0.01 0.01 0.01 0.01 0.01 0.01 0.8</probabilities>
    </cpt>
    <cpt id="met_irr_22">
      <state id="1_2mmol_kg_h" />
      <state id="0_8mmol_kg_h" />
      <state id="0_4mmol_kg_h" />
      <state id="0_0mmol_kg_h" />
      <state id="__0_4mmol_kg_h" />
      <state id="__0_8mmol_kg_h" />
      <state id="__1_2mmol_kg_h" />
      <probabilities>0.02 0.05 0.18 0.5 0.18 0.05 0.02</probabilities>
    </cpt>
    <cpt id="ins_abs_22">
      <state id="100_0mU_kg_h" />
      <state id="70_7mU_kg_h" />
      <state id="50_0mU_kg_h" />
      <state id="35_5mU_kg_h" />
      <state id="25_0mU_kg_h" />
      <state id="17_7mU_kg_h" />
      <state id="12_5mU_kg_h" />
      <state id="8_9mU_kg_h" />
      <state id="6_4mU_kg_h" />
      <state id="3_2mU_kg_h" />
      <state id="1_6mU_kg_h" />
      <probabilities>0.03 0.04 0.04 0.04 0.1 0.15 0.2 0.2 0.1 0.06 0.04</probabilities>
    </cpt>
    <cpt id="meal_22">
      <state id="100g" />
      <state id="95g" />
      <state id="90g" />
      <state id="85g" />
      <state id="80g" />
      <state id="75g" />
      <state id="70g" />
      <state id="65g" />
      <state id="60g" />
      <state id="55g" />
      <state id="50g" />
      <state id="45g" />
      <state id="40g" />
      <state id="35g" />
      <state id="30g" />
      <state id="25g" />
      <state id="20g" />
      <state id="15g" />
      <state id="10g" />
      <state id="5g" />
      <state id="0g" />
      <probabilities>0.01 0.01 0.01 0.01 0.01 0.01 0.01 0.01 0.01 0.01 0.01 0.01 0.01 0.01 0.01 0.01 0.01 0.01 0.01 0.01 0.8</probabilities>
    </cpt>
    <cpt id="met_irr_21">
      <state id="1_2mmol_kg_h" />
      <state id="0_8mmol_kg_h" />
      <state id="0_4mmol_kg_h" />
      <state id="0_0mmol_kg_h" />
      <state id="__0_4mmol_kg_h" />
      <state id="__0_8mmol_kg_h" />
      <state id="__1_2mmol_kg_h" />
      <probabilities>0.02 0.05 0.18 0.5 0.18 0.05 0.02</probabilities>
    </cpt>
    <cpt id="ins_abs_21">
      <state id="100_0mU_kg_h" />
      <state id="70_7mU_kg_h" />
      <state id="50_0mU_kg_h" />
      <state id="35_5mU_kg_h" />
      <state id="25_0mU_kg_h" />
      <state id="17_7mU_kg_h" />
      <state id="12_5mU_kg_h" />
      <state id="8_9mU_kg_h" />
      <state id="6_4mU_kg_h" />
      <state id="3_2mU_kg_h" />
      <state id="1_6mU_kg_h" />
      <probabilities>0.03 0.04 0.04 0.04 0.1 0.15 0.2 0.2 0.1 0.06 0.04</probabilities>
    </cpt>
    <cpt id="meal_21">
      <state id="100g" />
      <state id="95g" />
      <state id="90g" />
      <state id="85g" />
      <state id="80g" />
      <state id="75g" />
      <state id="70g" />
      <state id="65g" />
      <state id="60g" />
      <state id="55g" />
      <state id="50g" />
      <state id="45g" />
      <state id="40g" />
      <state id="35g" />
      <state id="30g" />
      <state id="25g" />
      <state id="20g" />
      <state id="15g" />
      <state id="10g" />
      <state id="5g" />
      <state id="0g" />
      <probabilities>0.01 0.01 0.01 0.01 0.01 0.01 0.01 0.01 0.01 0.01 0.01 0.01 0.01 0.01 0.01 0.01 0.01 0.01 0.01 0.01 0.8</probabilities>
    </cpt>
    <cpt id="met_irr_20">
      <state id="1_2mmol_kg_h" />
      <state id="0_8mmol_kg_h" />
      <state id="0_4mmol_kg_h" />
      <state id="0_0mmol_kg_h" />
      <state id="__0_4mmol_kg_h" />
      <state id="__0_8mmol_kg_h" />
      <state id="__1_2mmol_kg_h" />
      <probabilities>0.02 0.05 0.18 0.5 0.18 0.05 0.02</probabilities>
    </cpt>
    <cpt id="ins_abs_20">
      <state id="100_0mU_kg_h" />
      <state id="70_7mU_kg_h" />
      <state id="50_0mU_kg_h" />
      <state id="35_5mU_kg_h" />
      <state id="25_0mU_kg_h" />
      <state id="17_7mU_kg_h" />
      <state id="12_5mU_kg_h" />
      <state id="8_9mU_kg_h" />
      <state id="6_4mU_kg_h" />
      <state id="3_2mU_kg_h" />
      <state id="1_6mU_kg_h" />
      <probabilities>0.03 0.04 0.04 0.04 0.1 0.15 0.2 0.2 0.1 0.06 0.04</probabilities>
    </cpt>
    <cpt id="meal_20">
      <state id="100g" />
      <state id="95g" />
      <state id="90g" />
      <state id="85g" />
      <state id="80g" />
      <state id="75g" />
      <state id="70g" />
      <state id="65g" />
      <state id="60g" />
      <state id="55g" />
      <state id="50g" />
      <state id="45g" />
      <state id="40g" />
      <state id="35g" />
      <state id="30g" />
      <state id="25g" />
      <state id="20g" />
      <state id="15g" />
      <state id="10g" />
      <state id="5g" />
      <state id="0g" />
      <probabilities>0.01 0.01 0.01 0.01 0.01 0.01 0.01 0.01 0.01 0.01 0.01 0.01 0.01 0.01 0.01 0.01 0.01 0.01 0.01 0.01 0.8</probabilities>
    </cpt>
    <cpt id="met_irr_19">
      <state id="1_2mmol_kg_h" />
      <state id="0_8mmol_kg_h" />
      <state id="0_4mmol_kg_h" />
      <state id="0_0mmol_kg_h" />
      <state id="__0_4mmol_kg_h" />
      <state id="__0_8mmol_kg_h" />
      <state id="__1_2mmol_kg_h" />
      <probabilities>0.02 0.05 0.18 0.5 0.18 0.05 0.02</probabilities>
    </cpt>
    <cpt id="ins_abs_19">
      <state id="100_0mU_kg_h" />
      <state id="70_7mU_kg_h" />
      <state id="50_0mU_kg_h" />
      <state id="35_5mU_kg_h" />
      <state id="25_0mU_kg_h" />
      <state id="17_7mU_kg_h" />
      <state id="12_5mU_kg_h" />
      <state id="8_9mU_kg_h" />
      <state id="6_4mU_kg_h" />
      <state id="3_2mU_kg_h" />
      <state id="1_6mU_kg_h" />
      <probabilities>0.03 0.04 0.04 0.04 0.1 0.15 0.2 0.2 0.1 0.06 0.04</probabilities>
    </cpt>
    <cpt id="meal_19">
      <state id="100g" />
      <state id="95g" />
      <state id="90g" />
      <state id="85g" />
      <state id="80g" />
      <state id="75g" />
      <state id="70g" />
      <state id="65g" />
      <state id="60g" />
      <state id="55g" />
      <state id="50g" />
      <state id="45g" />
      <state id="40g" />
      <state id="35g" />
      <state id="30g" />
      <state id="25g" />
      <state id="20g" />
      <state id="15g" />
      <state id="10g" />
      <state id="5g" />
      <state id="0g" />
      <probabilities>0.01 0.01 0.01 0.01 0.01 0.01 0.01 0.01 0.01 0.01 0.01 0.01 0.01 0.01 0.01 0.01 0.01 0.01 0.01 0.01 0.8</probabilities>
    </cpt>
    <cpt id="met_irr_18">
      <state id="1_2mmol_kg_h" />
      <state id="0_8mmol_kg_h" />
      <state id="0_4mmol_kg_h" />
      <state id="0_0mmol_kg_h" />
      <state id="__0_4mmol_kg_h" />
      <state id="__0_8mmol_kg_h" />
      <state id="__1_2mmol_kg_h" />
      <probabilities>0.02 0.05 0.18 0.5 0.18 0.05 0.02</probabilities>
    </cpt>
    <cpt id="ins_abs_18">
      <state id="100_0mU_kg_h" />
      <state id="70_7mU_kg_h" />
      <state id="50_0mU_kg_h" />
      <state id="35_5mU_kg_h" />
      <state id="25_0mU_kg_h" />
      <state id="17_7mU_kg_h" />
      <state id="12_5mU_kg_h" />
      <state id="8_9mU_kg_h" />
      <state id="6_4mU_kg_h" />
      <state id="3_2mU_kg_h" />
      <state id="1_6mU_kg_h" />
      <probabilities>0.03 0.04 0.04 0.04 0.1 0.15 0.2 0.2 0.1 0.06 0.04</probabilities>
    </cpt>
    <cpt id="meal_18">
      <state id="100g" />
      <state id="95g" />
      <state id="90g" />
      <state id="85g" />
      <state id="80g" />
      <state id="75g" />
      <state id="70g" />
      <state id="65g" />
      <state id="60g" />
      <state id="55g" />
      <state id="50g" />
      <state id="45g" />
      <state id="40g" />
      <state id="35g" />
      <state id="30g" />
      <state id="25g" />
      <state id="20g" />
      <state id="15g" />
      <state id="10g" />
      <state id="5g" />
      <state id="0g" />
      <probabilities>0.01 0.01 0.01 0.01 0.01 0.01 0.01 0.01 0.01 0.01 0.01 0.01 0.01 0.01 0.01 0.01 0.01 0.01 0.01 0.01 0.8</probabilities>
    </cpt>
    <cpt id="met_irr_17">
      <state id="1_2mmol_kg_h" />
      <state id="0_8mmol_kg_h" />
      <state id="0_4mmol_kg_h" />
      <state id="0_0mmol_kg_h" />
      <state id="__0_4mmol_kg_h" />
      <state id="__0_8mmol_kg_h" />
      <state id="__1_2mmol_kg_h" />
      <probabilities>0.02 0.05 0.18 0.5 0.18 0.05 0.02</probabilities>
    </cpt>
    <cpt id="ins_abs_17">
      <state id="100_0mU_kg_h" />
      <state id="70_7mU_kg_h" />
      <state id="50_0mU_kg_h" />
      <state id="35_5mU_kg_h" />
      <state id="25_0mU_kg_h" />
      <state id="17_7mU_kg_h" />
      <state id="12_5mU_kg_h" />
      <state id="8_9mU_kg_h" />
      <state id="6_4mU_kg_h" />
      <state id="3_2mU_kg_h" />
      <state id="1_6mU_kg_h" />
      <probabilities>0.03 0.04 0.04 0.04 0.1 0.15 0.2 0.2 0.1 0.06 0.04</probabilities>
    </cpt>
    <cpt id="meal_17">
      <state id="100g" />
      <state id="95g" />
      <state id="90g" />
      <state id="85g" />
      <state id="80g" />
      <state id="75g" />
      <state id="70g" />
      <state id="65g" />
      <state id="60g" />
      <state id="55g" />
      <state id="50g" />
      <state id="45g" />
      <state id="40g" />
      <state id="35g" />
      <state id="30g" />
      <state id="25g" />
      <state id="20g" />
      <state id="15g" />
      <state id="10g" />
      <state id="5g" />
      <state id="0g" />
      <probabilities>0.01 0.01 0.01 0.01 0.01 0.01 0.01 0.01 0.01 0.01 0.01 0.01 0.01 0.01 0.01 0.01 0.01 0.01 0.01 0.01 0.8</probabilities>
    </cpt>
    <cpt id="met_irr_16">
      <state id="1_2mmol_kg_h" />
      <state id="0_8mmol_kg_h" />
      <state id="0_4mmol_kg_h" />
      <state id="0_0mmol_kg_h" />
      <state id="__0_4mmol_kg_h" />
      <state id="__0_8mmol_kg_h" />
      <state id="__1_2mmol_kg_h" />
      <probabilities>0.02 0.05 0.18 0.5 0.18 0.05 0.02</probabilities>
    </cpt>
    <cpt id="ins_abs_16">
      <state id="100_0mU_kg_h" />
      <state id="70_7mU_kg_h" />
      <state id="50_0mU_kg_h" />
      <state id="35_5mU_kg_h" />
      <state id="25_0mU_kg_h" />
      <state id="17_7mU_kg_h" />
      <state id="12_5mU_kg_h" />
      <state id="8_9mU_kg_h" />
      <state id="6_4mU_kg_h" />
      <state id="3_2mU_kg_h" />
      <state id="1_6mU_kg_h" />
      <probabilities>0.03 0.04 0.04 0.04 0.1 0.15 0.2 0.2 0.1 0.06 0.04</probabilities>
    </cpt>
    <cpt id="meal_16">
      <state id="100g" />
      <state id="95g" />
      <state id="90g" />
      <state id="85g" />
      <state id="80g" />
      <state id="75g" />
      <state id="70g" />
      <state id="65g" />
      <state id="60g" />
      <state id="55g" />
      <state id="50g" />
      <state id="45g" />
      <state id="40g" />
      <state id="35g" />
      <state id="30g" />
      <state id="25g" />
      <state id="20g" />
      <state id="15g" />
      <state id="10g" />
      <state id="5g" />
      <state id="0g" />
      <probabilities>0.01 0.01 0.01 0.01 0.01 0.01 0.01 0.01 0.01 0.01 0.01 0.01 0.01 0.01 0.01 0.01 0.01 0.01 0.01 0.01 0.8</probabilities>
    </cpt>
    <cpt id="met_irr_15">
      <state id="1_2mmol_kg_h" />
      <state id="0_8mmol_kg_h" />
      <state id="0_4mmol_kg_h" />
      <state id="0_0mmol_kg_h" />
      <state id="__0_4mmol_kg_h" />
      <state id="__0_8mmol_kg_h" />
      <state id="__1_2mmol_kg_h" />
      <probabilities>0.02 0.05 0.18 0.5 0.18 0.05 0.02</probabilities>
    </cpt>
    <cpt id="ins_abs_15">
      <state id="100_0mU_kg_h" />
      <state id="70_7mU_kg_h" />
      <state id="50_0mU_kg_h" />
      <state id="35_5mU_kg_h" />
      <state id="25_0mU_kg_h" />
      <state id="17_7mU_kg_h" />
      <state id="12_5mU_kg_h" />
      <state id="8_9mU_kg_h" />
      <state id="6_4mU_kg_h" />
      <state id="3_2mU_kg_h" />
      <state id="1_6mU_kg_h" />
      <probabilities>0.03 0.04 0.04 0.04 0.1 0.15 0.2 0.2 0.1 0.06 0.04</probabilities>
    </cpt>
    <cpt id="meal_15">
      <state id="100g" />
      <state id="95g" />
      <state id="90g" />
      <state id="85g" />
      <state id="80g" />
      <state id="75g" />
      <state id="70g" />
      <state id="65g" />
      <state id="60g" />
      <state id="55g" />
      <state id="50g" />
      <state id="45g" />
      <state id="40g" />
      <state id="35g" />
      <state id="30g" />
      <state id="25g" />
      <state id="20g" />
      <state id="15g" />
      <state id="10g" />
      <state id="5g" />
      <state id="0g" />
      <probabilities>0.01 0.01 0.01 0.01 0.01 0.01 0.01 0.01 0.01 0.01 0.01 0.01 0.01 0.01 0.01 0.01 0.01 0.01 0.01 0.01 0.8</probabilities>
    </cpt>
    <cpt id="met_irr_14">
      <state id="1_2mmol_kg_h" />
      <state id="0_8mmol_kg_h" />
      <state id="0_4mmol_kg_h" />
      <state id="0_0mmol_kg_h" />
      <state id="__0_4mmol_kg_h" />
      <state id="__0_8mmol_kg_h" />
      <state id="__1_2mmol_kg_h" />
      <probabilities>0.02 0.05 0.18 0.5 0.18 0.05 0.02</probabilities>
    </cpt>
    <cpt id="ins_abs_14">
      <state id="100_0mU_kg_h" />
      <state id="70_7mU_kg_h" />
      <state id="50_0mU_kg_h" />
      <state id="35_5mU_kg_h" />
      <state id="25_0mU_kg_h" />
      <state id="17_7mU_kg_h" />
      <state id="12_5mU_kg_h" />
      <state id="8_9mU_kg_h" />
      <state id="6_4mU_kg_h" />
      <state id="3_2mU_kg_h" />
      <state id="1_6mU_kg_h" />
      <probabilities>0.03 0.04 0.04 0.04 0.1 0.15 0.2 0.2 0.1 0.06 0.04</probabilities>
    </cpt>
    <cpt id="meal_14">
      <state id="100g" />
      <state id="95g" />
      <state id="90g" />
      <state id="85g" />
      <state id="80g" />
      <state id="75g" />
      <state id="70g" />
      <state id="65g" />
      <state id="60g" />
      <state id="55g" />
      <state id="50g" />
      <state id="45g" />
      <state id="40g" />
      <state id="35g" />
      <state id="30g" />
      <state id="25g" />
      <state id="20g" />
      <state id="15g" />
      <state id="10g" />
      <state id="5g" />
      <state id="0g" />
      <probabilities>0.01 0.01 0.01 0.01 0.01 0.01 0.01 0.01 0.01 0.01 0.01 0.01 0.01 0.01 0.01 0.01 0.01 0.01 0.01 0.01 0.8</probabilities>
    </cpt>
    <cpt id="met_irr_13">
      <state id="1_2mmol_kg_h" />
      <state id="0_8mmol_kg_h" />
      <state id="0_4mmol_kg_h" />
      <state id="0_0mmol_kg_h" />
      <state id="__0_4mmol_kg_h" />
      <state id="__0_8mmol_kg_h" />
      <state id="__1_2mmol_kg_h" />
      <probabilities>0.02 0.05 0.18 0.5 0.18 0.05 0.02</probabilities>
    </cpt>
    <cpt id="ins_abs_13">
      <state id="100_0mU_kg_h" />
      <state id="70_7mU_kg_h" />
      <state id="50_0mU_kg_h" />
      <state id="35_5mU_kg_h" />
      <state id="25_0mU_kg_h" />
      <state id="17_7mU_kg_h" />
      <state id="12_5mU_kg_h" />
      <state id="8_9mU_kg_h" />
      <state id="6_4mU_kg_h" />
      <state id="3_2mU_kg_h" />
      <state id="1_6mU_kg_h" />
      <probabilities>0.03 0.04 0.04 0.04 0.1 0.15 0.2 0.2 0.1 0.06 0.04</probabilities>
    </cpt>
    <cpt id="meal_13">
      <state id="100g" />
      <state id="95g" />
      <state id="90g" />
      <state id="85g" />
      <state id="80g" />
      <state id="75g" />
      <state id="70g" />
      <state id="65g" />
      <state id="60g" />
      <state id="55g" />
      <state id="50g" />
      <state id="45g" />
      <state id="40g" />
      <state id="35g" />
      <state id="30g" />
      <state id="25g" />
      <state id="20g" />
      <state id="15g" />
      <state id="10g" />
      <state id="5g" />
      <state id="0g" />
      <probabilities>0.01 0.01 0.01 0.01 0.01 0.01 0.01 0.01 0.01 0.01 0.01 0.01 0.01 0.01 0.01 0.01 0.01 0.01 0.01 0.01 0.8</probabilities>
    </cpt>
    <cpt id="met_irr_12">
      <state id="1_2mmol_kg_h" />
      <state id="0_8mmol_kg_h" />
      <state id="0_4mmol_kg_h" />
      <state id="0_0mmol_kg_h" />
      <state id="__0_4mmol_kg_h" />
      <state id="__0_8mmol_kg_h" />
      <state id="__1_2mmol_kg_h" />
      <probabilities>0.02 0.05 0.18 0.5 0.18 0.05 0.02</probabilities>
    </cpt>
    <cpt id="ins_abs_12">
      <state id="100_0mU_kg_h" />
      <state id="70_7mU_kg_h" />
      <state id="50_0mU_kg_h" />
      <state id="35_5mU_kg_h" />
      <state id="25_0mU_kg_h" />
      <state id="17_7mU_kg_h" />
      <state id="12_5mU_kg_h" />
      <state id="8_9mU_kg_h" />
      <state id="6_4mU_kg_h" />
      <state id="3_2mU_kg_h" />
      <state id="1_6mU_kg_h" />
      <probabilities>0.03 0.04 0.04 0.04 0.1 0.15 0.2 0.2 0.1 0.06 0.04</probabilities>
    </cpt>
    <cpt id="meal_12">
      <state id="100g" />
      <state id="95g" />
      <state id="90g" />
      <state id="85g" />
      <state id="80g" />
      <state id="75g" />
      <state id="70g" />
      <state id="65g" />
      <state id="60g" />
      <state id="55g" />
      <state id="50g" />
      <state id="45g" />
      <state id="40g" />
      <state id="35g" />
      <state id="30g" />
      <state id="25g" />
      <state id="20g" />
      <state id="15g" />
      <state id="10g" />
      <state id="5g" />
      <state id="0g" />
      <probabilities>0.01 0.01 0.01 0.01 0.01 0.01 0.01 0.01 0.01 0.01 0.01 0.01 0.01 0.01 0.01 0.01 0.01 0.01 0.01 0.01 0.8</probabilities>
    </cpt>
    <cpt id="met_irr_11">
      <state id="1_2mmol_kg_h" />
      <state id="0_8mmol_kg_h" />
      <state id="0_4mmol_kg_h" />
      <state id="0_0mmol_kg_h" />
      <state id="__0_4mmol_kg_h" />
      <state id="__0_8mmol_kg_h" />
      <state id="__1_2mmol_kg_h" />
      <probabilities>0.02 0.05 0.18 0.5 0.18 0.05 0.02</probabilities>
    </cpt>
    <cpt id="ins_abs_11">
      <state id="100_0mU_kg_h" />
      <state id="70_7mU_kg_h" />
      <state id="50_0mU_kg_h" />
      <state id="35_5mU_kg_h" />
      <state id="25_0mU_kg_h" />
      <state id="17_7mU_kg_h" />
      <state id="12_5mU_kg_h" />
      <state id="8_9mU_kg_h" />
      <state id="6_4mU_kg_h" />
      <state id="3_2mU_kg_h" />
      <state id="1_6mU_kg_h" />
      <probabilities>0.03 0.04 0.04 0.04 0.1 0.15 0.2 0.2 0.1 0.06 0.04</probabilities>
    </cpt>
    <cpt id="meal_11">
      <state id="100g" />
      <state id="95g" />
      <state id="90g" />
      <state id="85g" />
      <state id="80g" />
      <state id="75g" />
      <state id="70g" />
      <state id="65g" />
      <state id="60g" />
      <state id="55g" />
      <state id="50g" />
      <state id="45g" />
      <state id="40g" />
      <state id="35g" />
      <state id="30g" />
      <state id="25g" />
      <state id="20g" />
      <state id="15g" />
      <state id="10g" />
      <state id="5g" />
      <state id="0g" />
      <probabilities>0.01 0.01 0.01 0.01 0.01 0.01 0.01 0.01 0.01 0.01 0.01 0.01 0.01 0.01 0.01 0.01 0.01 0.01 0.01 0.01 0.8</probabilities>
    </cpt>
    <cpt id="met_irr_10">
      <state id="1_2mmol_kg_h" />
      <state id="0_8mmol_kg_h" />
      <state id="0_4mmol_kg_h" />
      <state id="0_0mmol_kg_h" />
      <state id="__0_4mmol_kg_h" />
      <state id="__0_8mmol_kg_h" />
      <state id="__1_2mmol_kg_h" />
      <probabilities>0.02 0.05 0.18 0.5 0.18 0.05 0.02</probabilities>
    </cpt>
    <cpt id="ins_abs_10">
      <state id="100_0mU_kg_h" />
      <state id="70_7mU_kg_h" />
      <state id="50_0mU_kg_h" />
      <state id="35_5mU_kg_h" />
      <state id="25_0mU_kg_h" />
      <state id="17_7mU_kg_h" />
      <state id="12_5mU_kg_h" />
      <state id="8_9mU_kg_h" />
      <state id="6_4mU_kg_h" />
      <state id="3_2mU_kg_h" />
      <state id="1_6mU_kg_h" />
      <probabilities>0.03 0.04 0.04 0.04 0.1 0.15 0.2 0.2 0.1 0.06 0.04</probabilities>
    </cpt>
    <cpt id="meal_10">
      <state id="100g" />
      <state id="95g" />
      <state id="90g" />
      <state id="85g" />
      <state id="80g" />
      <state id="75g" />
      <state id="70g" />
      <state id="65g" />
      <state id="60g" />
      <state id="55g" />
      <state id="50g" />
      <state id="45g" />
      <state id="40g" />
      <state id="35g" />
      <state id="30g" />
      <state id="25g" />
      <state id="20g" />
      <state id="15g" />
      <state id="10g" />
      <state id="5g" />
      <state id="0g" />
      <probabilities>0.01 0.01 0.01 0.01 0.01 0.01 0.01 0.01 0.01 0.01 0.01 0.01 0.01 0.01 0.01 0.01 0.01 0.01 0.01 0.01 0.8</probabilities>
    </cpt>
    <cpt id="met_irr_9">
      <state id="1_2mmol_kg_h" />
      <state id="0_8mmol_kg_h" />
      <state id="0_4mmol_kg_h" />
      <state id="0_0mmol_kg_h" />
      <state id="__0_4mmol_kg_h" />
      <state id="__0_8mmol_kg_h" />
      <state id="__1_2mmol_kg_h" />
      <probabilities>0.02 0.05 0.18 0.5 0.18 0.05 0.02</probabilities>
    </cpt>
    <cpt id="ins_abs_9">
      <state id="100_0mU_kg_h" />
      <state id="70_7mU_kg_h" />
      <state id="50_0mU_kg_h" />
      <state id="35_5mU_kg_h" />
      <state id="25_0mU_kg_h" />
      <state id="17_7mU_kg_h" />
      <state id="12_5mU_kg_h" />
      <state id="8_9mU_kg_h" />
      <state id="6_4mU_kg_h" />
      <state id="3_2mU_kg_h" />
      <state id="1_6mU_kg_h" />
      <probabilities>0.03 0.04 0.04 0.04 0.1 0.15 0.2 0.2 0.1 0.06 0.04</probabilities>
    </cpt>
    <cpt id="meal_9">
      <state id="100g" />
      <state id="95g" />
      <state id="90g" />
      <state id="85g" />
      <state id="80g" />
      <state id="75g" />
      <state id="70g" />
      <state id="65g" />
      <state id="60g" />
      <state id="55g" />
      <state id="50g" />
      <state id="45g" />
      <state id="40g" />
      <state id="35g" />
      <state id="30g" />
      <state id="25g" />
      <state id="20g" />
      <state id="15g" />
      <state id="10g" />
      <state id="5g" />
      <state id="0g" />
      <probabilities>0.01 0.01 0.01 0.01 0.01 0.01 0.01 0.01 0.01 0.01 0.01 0.01 0.01 0.01 0.01 0.01 0.01 0.01 0.01 0.01 0.8</probabilities>
    </cpt>
    <cpt id="met_irr_8">
      <state id="1_2mmol_kg_h" />
      <state id="0_8mmol_kg_h" />
      <state id="0_4mmol_kg_h" />
      <state id="0_0mmol_kg_h" />
      <state id="__0_4mmol_kg_h" />
      <state id="__0_8mmol_kg_h" />
      <state id="__1_2mmol_kg_h" />
      <probabilities>0.02 0.05 0.18 0.5 0.18 0.05 0.02</probabilities>
    </cpt>
    <cpt id="ins_abs_8">
      <state id="100_0mU_kg_h" />
      <state id="70_7mU_kg_h" />
      <state id="50_0mU_kg_h" />
      <state id="35_5mU_kg_h" />
      <state id="25_0mU_kg_h" />
      <state id="17_7mU_kg_h" />
      <state id="12_5mU_kg_h" />
      <state id="8_9mU_kg_h" />
      <state id="6_4mU_kg_h" />
      <state id="3_2mU_kg_h" />
      <state id="1_6mU_kg_h" />
      <probabilities>0.03 0.04 0.04 0.04 0.1 0.15 0.2 0.2 0.1 0.06 0.04</probabilities>
    </cpt>
    <cpt id="meal_8">
      <state id="100g" />
      <state id="95g" />
      <state id="90g" />
      <state id="85g" />
      <state id="80g" />
      <state id="75g" />
      <state id="70g" />
      <state id="65g" />
      <state id="60g" />
      <state id="55g" />
      <state id="50g" />
      <state id="45g" />
      <state id="40g" />
      <state id="35g" />
      <state id="30g" />
      <state id="25g" />
      <state id="20g" />
      <state id="15g" />
      <state id="10g" />
      <state id="5g" />
      <state id="0g" />
      <probabilities>0.01 0.01 0.01 0.01 0.01 0.01 0.01 0.01 0.01 0.01 0.01 0.01 0.01 0.01 0.01 0.01 0.01 0.01 0.01 0.01 0.8</probabilities>
    </cpt>
    <cpt id="met_irr_7">
      <state id="1_2mmol_kg_h" />
      <state id="0_8mmol_kg_h" />
      <state id="0_4mmol_kg_h" />
      <state id="0_0mmol_kg_h" />
      <state id="__0_4mmol_kg_h" />
      <state id="__0_8mmol_kg_h" />
      <state id="__1_2mmol_kg_h" />
      <probabilities>0.02 0.05 0.18 0.5 0.18 0.05 0.02</probabilities>
    </cpt>
    <cpt id="ins_abs_7">
      <state id="100_0mU_kg_h" />
      <state id="70_7mU_kg_h" />
      <state id="50_0mU_kg_h" />
      <state id="35_5mU_kg_h" />
      <state id="25_0mU_kg_h" />
      <state id="17_7mU_kg_h" />
      <state id="12_5mU_kg_h" />
      <state id="8_9mU_kg_h" />
      <state id="6_4mU_kg_h" />
      <state id="3_2mU_kg_h" />
      <state id="1_6mU_kg_h" />
      <probabilities>0.03 0.04 0.04 0.04 0.1 0.15 0.2 0.2 0.1 0.06 0.04</probabilities>
    </cpt>
    <cpt id="meal_7">
      <state id="100g" />
      <state id="95g" />
      <state id="90g" />
      <state id="85g" />
      <state id="80g" />
      <state id="75g" />
      <state id="70g" />
      <state id="65g" />
      <state id="60g" />
      <state id="55g" />
      <state id="50g" />
      <state id="45g" />
      <state id="40g" />
      <state id="35g" />
      <state id="30g" />
      <state id="25g" />
      <state id="20g" />
      <state id="15g" />
      <state id="10g" />
      <state id="5g" />
      <state id="0g" />
      <probabilities>0.01 0.01 0.01 0.01 0.01 0.01 0.01 0.01 0.01 0.01 0.01 0.01 0.01 0.01 0.01 0.01 0.01 0.01 0.01 0.01 0.8</probabilities>
    </cpt>
    <cpt id="met_irr_6">
      <state id="1_2mmol_kg_h" />
      <state id="0_8mmol_kg_h" />
      <state id="0_4mmol_kg_h" />
      <state id="0_0mmol_kg_h" />
      <state id="__0_4mmol_kg_h" />
      <state id="__0_8mmol_kg_h" />
      <state id="__1_2mmol_kg_h" />
      <probabilities>0.02 0.05 0.18 0.5 0.18 0.05 0.02</probabilities>
    </cpt>
    <cpt id="ins_abs_6">
      <state id="100_0mU_kg_h" />
      <state id="70_7mU_kg_h" />
      <state id="50_0mU_kg_h" />
      <state id="35_5mU_kg_h" />
      <state id="25_0mU_kg_h" />
      <state id="17_7mU_kg_h" />
      <state id="12_5mU_kg_h" />
      <state id="8_9mU_kg_h" />
      <state id="6_4mU_kg_h" />
      <state id="3_2mU_kg_h" />
      <state id="1_6mU_kg_h" />
      <probabilities>0.03 0.04 0.04 0.04 0.1 0.15 0.2 0.2 0.1 0.06 0.04</probabilities>
    </cpt>
    <cpt id="meal_6">
      <state id="100g" />
      <state id="95g" />
      <state id="90g" />
      <state id="85g" />
      <state id="80g" />
      <state id="75g" />
      <state id="70g" />
      <state id="65g" />
      <state id="60g" />
      <state id="55g" />
      <state id="50g" />
      <state id="45g" />
      <state id="40g" />
      <state id="35g" />
      <state id="30g" />
      <state id="25g" />
      <state id="20g" />
      <state id="15g" />
      <state id="10g" />
      <state id="5g" />
      <state id="0g" />
      <probabilities>0.01 0.01 0.01 0.01 0.01 0.01 0.01 0.01 0.01 0.01 0.01 0.01 0.01 0.01 0.01 0.01 0.01 0.01 0.01 0.01 0.8</probabilities>
    </cpt>
    <cpt id="met_irr_5">
      <state id="1_2mmol_kg_h" />
      <state id="0_8mmol_kg_h" />
      <state id="0_4mmol_kg_h" />
      <state id="0_0mmol_kg_h" />
      <state id="__0_4mmol_kg_h" />
      <state id="__0_8mmol_kg_h" />
      <state id="__1_2mmol_kg_h" />
      <probabilities>0.02 0.05 0.18 0.5 0.18 0.05 0.02</probabilities>
    </cpt>
    <cpt id="ins_abs_5">
      <state id="100_0mU_kg_h" />
      <state id="70_7mU_kg_h" />
      <state id="50_0mU_kg_h" />
      <state id="35_5mU_kg_h" />
      <state id="25_0mU_kg_h" />
      <state id="17_7mU_kg_h" />
      <state id="12_5mU_kg_h" />
      <state id="8_9mU_kg_h" />
      <state id="6_4mU_kg_h" />
      <state id="3_2mU_kg_h" />
      <state id="1_6mU_kg_h" />
      <probabilities>0.03 0.04 0.04 0.04 0.1 0.15 0.2 0.2 0.1 0.06 0.04</probabilities>
    </cpt>
    <cpt id="meal_5">
      <state id="100g" />
      <state id="95g" />
      <state id="90g" />
      <state id="85g" />
      <state id="80g" />
      <state id="75g" />
      <state id="70g" />
      <state id="65g" />
      <state id="60g" />
      <state id="55g" />
      <state id="50g" />
      <state id="45g" />
      <state id="40g" />
      <state id="35g" />
      <state id="30g" />
      <state id="25g" />
      <state id="20g" />
      <state id="15g" />
      <state id="10g" />
      <state id="5g" />
      <state id="0g" />
      <probabilities>0.01 0.01 0.01 0.01 0.01 0.01 0.01 0.01 0.01 0.01 0.01 0.01 0.01 0.01 0.01 0.01 0.01 0.01 0.01 0.01 0.8</probabilities>
    </cpt>
    <cpt id="met_irr_4">
      <state id="1_2mmol_kg_h" />
      <state id="0_8mmol_kg_h" />
      <state id="0_4mmol_kg_h" />
      <state id="0_0mmol_kg_h" />
      <state id="__0_4mmol_kg_h" />
      <state id="__0_8mmol_kg_h" />
      <state id="__1_2mmol_kg_h" />
      <probabilities>0.02 0.05 0.18 0.5 0.18 0.05 0.02</probabilities>
    </cpt>
    <cpt id="ins_abs_4">
      <state id="100_0mU_kg_h" />
      <state id="70_7mU_kg_h" />
      <state id="50_0mU_kg_h" />
      <state id="35_5mU_kg_h" />
      <state id="25_0mU_kg_h" />
      <state id="17_7mU_kg_h" />
      <state id="12_5mU_kg_h" />
      <state id="8_9mU_kg_h" />
      <state id="6_4mU_kg_h" />
      <state id="3_2mU_kg_h" />
      <state id="1_6mU_kg_h" />
      <probabilities>0.03 0.04 0.04 0.04 0.1 0.15 0.2 0.2 0.1 0.06 0.04</probabilities>
    </cpt>
    <cpt id="meal_4">
      <state id="100g" />
      <state id="95g" />
      <state id="90g" />
      <state id="85g" />
      <state id="80g" />
      <state id="75g" />
      <state id="70g" />
      <state id="65g" />
      <state id="60g" />
      <state id="55g" />
      <state id="50g" />
      <state id="45g" />
      <state id="40g" />
      <state id="35g" />
      <state id="30g" />
      <state id="25g" />
      <state id="20g" />
      <state id="15g" />
      <state id="10g" />
      <state id="5g" />
      <state id="0g" />
      <probabilities>0.01 0.01 0.01 0.01 0.01 0.01 0.01 0.01 0.01 0.01 0.01 0.01 0.01 0.01 0.01 0.01 0.01 0.01 0.01 0.01 0.8</probabilities>
    </cpt>
    <cpt id="met_irr_3">
      <state id="1_2mmol_kg_h" />
      <state id="0_8mmol_kg_h" />
      <state id="0_4mmol_kg_h" />
      <state id="0_0mmol_kg_h" />
      <state id="__0_4mmol_kg_h" />
      <state id="__0_8mmol_kg_h" />
      <state id="__1_2mmol_kg_h" />
      <probabilities>0.02 0.05 0.18 0.5 0.18 0.05 0.02</probabilities>
    </cpt>
    <cpt id="ins_abs_3">
      <state id="100_0mU_kg_h" />
      <state id="70_7mU_kg_h" />
      <state id="50_0mU_kg_h" />
      <state id="35_5mU_kg_h" />
      <state id="25_0mU_kg_h" />
      <state id="17_7mU_kg_h" />
      <state id="12_5mU_kg_h" />
      <state id="8_9mU_kg_h" />
      <state id="6_4mU_kg_h" />
      <state id="3_2mU_kg_h" />
      <state id="1_6mU_kg_h" />
      <probabilities>0.03 0.04 0.04 0.04 0.1 0.15 0.2 0.2 0.1 0.06 0.04</probabilities>
    </cpt>
    <cpt id="meal_3">
      <state id="100g" />
      <state id="95g" />
      <state id="90g" />
      <state id="85g" />
      <state id="80g" />
      <state id="75g" />
      <state id="70g" />
      <state id="65g" />
      <state id="60g" />
      <state id="55g" />
      <state id="50g" />
      <state id="45g" />
      <state id="40g" />
      <state id="35g" />
      <state id="30g" />
      <state id="25g" />
      <state id="20g" />
      <state id="15g" />
      <state id="10g" />
      <state id="5g" />
      <state id="0g" />
      <probabilities>0.01 0.01 0.01 0.01 0.01 0.01 0.01 0.01 0.01 0.01 0.01 0.01 0.01 0.01 0.01 0.01 0.01 0.01 0.01 0.01 0.8</probabilities>
    </cpt>
    <cpt id="met_irr_2">
      <state id="1_2mmol_kg_h" />
      <state id="0_8mmol_kg_h" />
      <state id="0_4mmol_kg_h" />
      <state id="0_0mmol_kg_h" />
      <state id="__0_4mmol_kg_h" />
      <state id="__0_8mmol_kg_h" />
      <state id="__1_2mmol_kg_h" />
      <probabilities>0.02 0.05 0.18 0.5 0.18 0.05 0.02</probabilities>
    </cpt>
    <cpt id="ins_abs_2">
      <state id="100_0mU_kg_h" />
      <state id="70_7mU_kg_h" />
      <state id="50_0mU_kg_h" />
      <state id="35_5mU_kg_h" />
      <state id="25_0mU_kg_h" />
      <state id="17_7mU_kg_h" />
      <state id="12_5mU_kg_h" />
      <state id="8_9mU_kg_h" />
      <state id="6_4mU_kg_h" />
      <state id="3_2mU_kg_h" />
      <state id="1_6mU_kg_h" />
      <probabilities>0.03 0.04 0.04 0.04 0.1 0.15 0.2 0.2 0.1 0.06 0.04</probabilities>
    </cpt>
    <cpt id="meal_2">
      <state id="100g" />
      <state id="95g" />
      <state id="90g" />
      <state id="85g" />
      <state id="80g" />
      <state id="75g" />
      <state id="70g" />
      <state id="65g" />
      <state id="60g" />
      <state id="55g" />
      <state id="50g" />
      <state id="45g" />
      <state id="40g" />
      <state id="35g" />
      <state id="30g" />
      <state id="25g" />
      <state id="20g" />
      <state id="15g" />
      <state id="10g" />
      <state id="5g" />
      <state id="0g" />
      <probabilities>0.01 0.01 0.01 0.01 0.01 0.01 0.01 0.01 0.01 0.01 0.01 0.01 0.01 0.01 0.01 0.01 0.01 0.01 0.01 0.01 0.8</probabilities>
    </cpt>
    <cpt id="met_irr_1">
      <state id="1_2mmol_kg_h" />
      <state id="0_8mmol_kg_h" />
      <state id="0_4mmol_kg_h" />
      <state id="0_0mmol_kg_h" />
      <state id="__0_4mmol_kg_h" />
      <state id="__0_8mmol_kg_h" />
      <state id="__1_2mmol_kg_h" />
      <probabilities>0.02 0.05 0.18 0.5 0.18 0.05 0.02</probabilities>
    </cpt>
    <cpt id="ins_abs_1">
      <state id="100_0mU_kg_h" />
      <state id="70_7mU_kg_h" />
      <state id="50_0mU_kg_h" />
      <state id="35_5mU_kg_h" />
      <state id="25_0mU_kg_h" />
      <state id="17_7mU_kg_h" />
      <state id="12_5mU_kg_h" />
      <state id="8_9mU_kg_h" />
      <state id="6_4mU_kg_h" />
      <state id="3_2mU_kg_h" />
      <state id="1_6mU_kg_h" />
      <probabilities>0.03 0.04 0.04 0.04 0.1 0.15 0.2 0.2 0.1 0.06 0.04</probabilities>
    </cpt>
    <cpt id="meal_1">
      <state id="100g" />
      <state id="95g" />
      <state id="90g" />
      <state id="85g" />
      <state id="80g" />
      <state id="75g" />
      <state id="70g" />
      <state id="65g" />
      <state id="60g" />
      <state id="55g" />
      <state id="50g" />
      <state id="45g" />
      <state id="40g" />
      <state id="35g" />
      <state id="30g" />
      <state id="25g" />
      <state id="20g" />
      <state id="15g" />
      <state id="10g" />
      <state id="5g" />
      <state id="0g" />
      <probabilities>0.01 0.01 0.01 0.01 0.01 0.01 0.01 0.01 0.01 0.01 0.01 0.01 0.01 0.01 0.01 0.01 0.01 0.01 0.01 0.01 0.8</probabilities>
    </cpt>
    <cpt id="met_irr_0">
      <state id="1_2mmol_kg_h" />
      <state id="0_8mmol_kg_h" />
      <state id="0_4mmol_kg_h" />
      <state id="0_0mmol_kg_h" />
      <state id="__0_4mmol_kg_h" />
      <state id="__0_8mmol_kg_h" />
      <state id="__1_2mmol_kg_h" />
      <probabilities>0.02 0.05 0.18 0.5 0.18 0.05 0.02</probabilities>
    </cpt>
    <cpt id="ins_abs_0">
      <state id="100_0mU_kg_h" />
      <state id="70_7mU_kg_h" />
      <state id="50_0mU_kg_h" />
      <state id="35_5mU_kg_h" />
      <state id="25_0mU_kg_h" />
      <state id="17_7mU_kg_h" />
      <state id="12_5mU_kg_h" />
      <state id="8_9mU_kg_h" />
      <state id="6_4mU_kg_h" />
      <state id="3_2mU_kg_h" />
      <state id="1_6mU_kg_h" />
      <probabilities>0.03 0.04 0.04 0.04 0.1 0.15 0.2 0.2 0.1 0.06 0.04</probabilities>
    </cpt>
    <cpt id="bg_0">
      <state id="20mmol_l" />
      <state id="18mmol_l" />
      <state id="16mmol_l" />
      <state id="14mmol_l" />
      <state id="12mmol_l" />
      <state id="10mmol_l" />
      <state id="8mmol_l" />
      <state id="6mmol_l" />
      <state id="4mmol_l" />
      <state id="2mmol_l" />
      <state id="1mmol_l" />
      <probabilities>0.01 0.01 0.02 0.07 0.15 0.3 0.2 0.15 0.07 0.01 0.01</probabilities>
    </cpt>
    <cpt id="ins_indep_util_0">
      <state id="0_8mmol_kg_h" />
      <state id="0_4mmol_kg_h" />
      <state id="0_0mmol_kg_h" />
      <parents>bg_0</parents>
      <probabilities>1 0 0 1 0 0 1 0 0 0.9997 0.0003 0 0.9963 0.0037 0 0.951 0.049 0 0.5 0.5 0 0.0796 0.9204 0 0.0072 0.9927 0.0001 0.0133013 0.963396 0.0233023 0.00039996 0.19728 0.80232</probabilities>
    </cpt>
    <cpt id="renal_cl_0">
      <state id="0_8mmol_kg_h" />
      <state id="0_4mmol_kg_h" />
      <state id="0_0mmol_kg_h" />
      <parents>bg_0</parents>
      <probabilities>0 1 0 0 1 0 0 1 0 0 0 1 0 0 1 0 0 1 0 0 1 0 0 1 0 0 1 0 0 1 0 0 1</probabilities>
    </cpt>
    <cpt id="ins_indep_0">
      <state id="1_6mmol_kg_h" />
      <state id="1_2mmol_kg_h" />
      <state id="0_8mmol_kg_h" />
      <state id="0_4mmol_kg_h" />
      <state id="0_0mmol_kg_h" />
      <parents>renal_cl_0 ins_indep_util_0</parents>
      <probabilities>0.9997 0.0003 0 0 0 0.00030003 0.9994 0.00030003 0 0 0 0.00030003 0.9994 0.00030003 0 0.00030003 0.9994 0.00030003 0 0 0 0.00030003 0.9994 0.00030003 0 0 0 0.00030003 0.9994 0.00030003 0 0.00030003 0.9994 0.00030003 0 0 0 0.00030003 0.9994 0.00030003 0 0 0 0.0003 0.9997</probabilities>
    </cpt>
    <cpt id="meal_0">
      <state id="100g" />
      <state id="95g" />
      <state id="90g" />
      <state id="85g" />
      <state id="80g" />
      <state id="75g" />
      <state id="70g" />
      <state id="65g" />
      <state id="60g" />
      <state id="55g" />
      <state id="50g" />
      <state id="45g" />
      <state id="40g" />
      <state id="35g" />
      <state id="30g" />
      <state id="25g" />
      <state id="20g" />
      <state id="15g" />
      <state id="10g" />
      <state id="5g" />
      <state id="0g" />
      <probabilities>0.01 0.01 0.01 0.01 0.01 0.01 0.01 0.01 0.01 0.01 0.01 0.01 0.01 0.01 0.01 0.01 0.01 0.01 0.01 0.01 0.8</probabilities>
    </cpt>
    <cpt id="ins_sens">
      <state id="incr__1_41" />
      <state id="normal_1_00" />
      <state id="s_red__0_71" />
      <state id="reduced_0_50" />
      <state id="v_red__0_35" />
      <probabilities>0.2 0.2 0.2 0.2 0.2</probabilities>
    </cpt>
    <cpt id="activ_ins_0">
      <state id="80mU_l" />
      <state id="56mU_l" />
      <state id="40mU_l" />
      <state id="28mU_l" />
      <state id="20mU_l" />
      <state id="14mU_l" />
      <state id="10mU_l" />
      <state id="7mU_l" />
      <state id="5mU_l" />
      <state id="2mU_l" />
      <parents>ins_abs_0 ins_sens</parents>
      <probabilities>1 0 0 0 0 0 0 0 0 0 1 0 0 0 0 0 0 0 0 0 0.9956 0.0044 0 0 0 0 0 0 0 0 0.00109989 0.992801 0.00609939 0 0 0 0 0 0 0 0 0.0016 0.9953 0.0031 0 0 0 0 0 0 0 0 0.0011 0.9946 0.0043 0 0 0 0 0 0 0 0 0.0022 0.9947 0.0031 0 0 0 0 0 0 0 0 0.00219978 0.994701 0.00309969 0 0 0 0 0 0 0 0 0.0043 0.9942 0.0015 0 0 0 0 0 0 0 0.00270027 0.050205 0.30443 0.620162 0.0225023 0 0 0 0 0 0 0 0.0022 0.0459 0.9519 1 0 0 0 0 0 0 0 0 0 0.9956 0.0044 0 0 0 0 0 0 0 0 0.00109989 0.992801 0.00609939 0 0 0 0 0 0 0 0 0.0011 0.9944 0.0045 0 0 0 0 0 0 0 0 0.0011 0.9946 0.0043 0 0 0 0 0 0 0 0 0.00159984 0.994001 0.00439956 0 0 0 0 0 0 0 0 0.0015 0.9942 0.0043 0 0 0 0 0 0 0 0 0.0022 0.9947 0.0031 0 0 0 0 0 0 0 0 0.0031 0.9944 0.0025 0 0 0 0 0 0 9.999e-05 0.00349965 0.0722928 0.484152 0.439956 0 0 0 0 0 0 0 0 0.0019 0.9981 0.9956 0.0044 0 0 0 0 0 0 0 0 0.00109989 0.992801 0.00609939 0 0 0 0 0 0 0 0 0.0011 0.9944 0.0045 0 0 0 0 0 0 0 0 0.0007 0.9932 0.0061 0 0 0 0 0 0 0 0 0.00159984 0.994001 0.00439956 0 0 0 0 0 0 0 0 0.00109989 0.992801 0.00609939 0 0 0 0 0 0 0 0 0.00159984 0.994001 0.00439956 0 0 0 0 0 0 0 0 0.00150015 0.993599 0.00490049 0 0 0 0 0 0 0 0 0.0027 0.9973 0 0 0 0 0 0 0 0 0.00190019 0.0420042 0.956096 0 0 0 0 0 0 0 0 0.0001 0.9999 0.00079992 0.990701 0.00849915 0 0 0 0 0 0 0 0 0.0008 0.9928 0.0064 0 0 0 0 0 0 0 0 0.0005 0.991 0.0085 0 0 0 0 0 0 0 0 0.0008 0.9904 0.0088 0 0 0 0 0 0 0 0 0.00079992 0.990701 0.00849915 0 0 0 0 0 0 0 0 0.0008 0.9904 0.0088 0 0 0 0 0 0 0 0 0.00079992 0.989501 0.00969903 0 0 0 0 0 0 0 0 0.001 0.999 0 0 0 0 0 0 0 0 0 0.9997 0.0003 0 0 0 0 0 0 0 0 0.0016 0.9984 0 0 0 0 0 0 0 0 0 1 0 0.0011 0.9944 0.0045 0 0 0 0 0 0 0 0 0.0007 0.9932 0.0061 0 0 0 0 0 0 0 0 0.0011 0.9927 0.0062 0 0 0 0 0 0 0 0 0.00079992 0.990701 0.00849915 0 0 0 0 0 0 0 0 0.0011 0.9927 0.0062 0 0 0 0 0 0 0 0 0.00079992 0.989501 0.00969903 0 0 0 0 0 0 0 0 0.001 0.999 0 0 0 0 0 0 0 0 0 0.9994 0.0006 0 0 0 0 0 0 0 0 0 1 0 0 0 0 0 0 0 0 0.0001 0.9999 0 0 0 0 0 0 0 0 0 1</probabilities>
    </cpt>
    <cpt id="ins_dep_util_0">
      <state id="2_8mmol_kg_h" />
      <state id="2_4mmol_kg_h" />
      <state id="2_0mmol_kg_h" />
      <state id="1_6mmol_kg_h" />
      <state id="1_2mmol_kg_h" />
      <state id="0_8mmol_kg_h" />
      <state id="0_4mmol_kg_h" />
      <state id="0_0mmol_kg_h" />
      <parents>bg_0 activ_ins_0</parents>
      <probabilities>0.5883 0.3452 0.0645 0.002 0 0 0 0 0.453645 0.407741 0.130813 0.00780078 0 0 0 0 0.2969 0.4177 0.2514 0.0337 0.0003 0 0 0 0.156384 0.342466 0.383562 0.114689 0.00289971 0 0 0 0.0619 0.2087 0.4278 0.2792 0.0224 0 0 0 0.0190019 0.0898089 0.315632 0.447245 0.127513 0.000800079 0 0 0.00539946 0.0305969 0.156184 0.414559 0.371663 0.0215978 0 0 0.0012 0.0078 0.0539 0.2358 0.5274 0.1739 0 0 0 0.00049995 0.00679932 0.0641936 0.39646 0.530847 0.00119988 0 0 0 0.0002 0.0046 0.1048 0.8475 0.0429 0 0 0 0 0.00050005 0.0283028 0.710071 0.261126 0 0.084883 0.276845 0.454709 0.178664 0.00489902 0 0 0 0.0322032 0.160816 0.453445 0.332933 0.0206021 0 0 0 0.010399 0.0734927 0.342166 0.489651 0.0841916 9.999e-05 0 0 0.0025 0.025 0.1915 0.5299 0.2495 0.0016 0 0 0.0004 0.0061 0.076 0.3999 0.5015 0.0161 0 0 9.99899e-05 0.00139986 0.0231977 0.20488 0.650935 0.119488 0 0 0 0.0003 0.0064 0.0754 0.4873 0.4305 0.0001 0 0 0.0001 0.0014 0.0209 0.2369 0.7338 0.0069 0 0 0 0.0001 0.0021 0.0667 0.839 0.0921 0 0 0 0 0 0.0037 0.2804 0.7159 0 0 0 0 0 0.0002 0.0512 0.9486 0 0.0005 0.0085 0.1148 0.5198 0.3541 0.0023 0 0 0.0001 0.0019 0.0436 0.3692 0.5737 0.0115 0 0 0 0.0004 0.0142 0.2025 0.7236 0.0593 0 0 0 0.0001 0.0035 0.0843 0.6858 0.2263 0 0 0 0 0.0006 0.0236 0.4282 0.5476 0 0 0 0 0.00010001 0.00530053 0.176118 0.817681 0.000800079 0 0 0 0 0.0016 0.0723 0.9004 0.0257 0 0 0 0 0.0005 0.0251 0.6836 0.2908 0 0 0 0 0 0.0015 0.168 0.8305 0 0 0 0 0 0 0.0086 0.991 0.0004 0 0 0 0 0 0.0012 0.9918 0.007 0 0 0.00049995 0.0275972 0.569043 0.40286 0 0 0 0 9.999e-05 0.00659934 0.309669 0.683632 0 0 0 0 0 0.0014 0.1267 0.8718 0.0001 0 0 0 0 0.0003 0.045 0.9529 0.0018 0 0 0 0 0 0.0152 0.96 0.0248 0 0 0 0 0 0.00509949 0.718128 0.276772 0 0 0 0 0 0.001 0.2065 0.7925 0 0 0 0 0 0.00010001 0.040004 0.959896 0 0 0 0 0 0 0.00359964 0.995 0.00139986 0 0 0 0 0 0.0001 0.8668 0.1331 0 0 0 0 0 0 0.2498 0.7502 0 0 0 0 0.0163 0.981 0.0027 0 0 0 0 0 0.00519948 0.975003 0.019798 0 0 0 0 0 0.0018 0.8344 0.1638 0 0 0 0 0 0.0003 0.3511 0.6486 0 0 0 0 0 0 0.0576 0.9424 0 0 0 0 0 0 0.009 0.991 0 0 0 0 0 0 0.0025 0.9974 0.0001 0 0 0 0 0 0.0009 0.9888 0.0103 0 0 0 0 0 9.999e-05 0.707329 0.292571 0 0 0 0 0 0 0.0211 0.9789 0 0 0 0 0 0 0.0011 0.9989 0 0 0 0 0 0.1074 0.8926 0 0 0 0 0 0 0.0162 0.9838 0 0 0 0 0 0 0.0027 0.9973 0 0 0 0 0 0 0.0005 0.9995 0 0 0 0 0 0 0.0001 0.9999 0 0 0 0 0 0 0 0.9983 0.0017 0 0 0 0 0 0 0.891089 0.108911 0 0 0 0 0 0 0.2112 0.7888 0 0 0 0 0 0 0.0067 0.9933 0 0 0 0 0 0 0.0001 0.9999 0 0 0 0 0 0 0 1 0 0 0 0 0 0.0001 0.9999 0 0 0 0 0 0 0 1 0 0 0 0 0 0 0 0.9998 0.0002 0 0 0 0 0 0 0.9935 0.0065 0 0 0 0 0 0 0.804 0.196 0 0 0 0 0 0 0.1095 0.8905 0 0 0 0 0 0 0.0078 0.9922 0 0 0 0 0 0 0.0009 0.9991 0 0 0 0 0 0 0 1 0 0 0 0 0 0 0 1 0 0 0 0 0 0 0 1 0 0 0 0 0 0 0.971 0.029 0 0 0 0 0 0 0.6287 0.3713 0 0 0 0 0 0 0.0725 0.9275 0 0 0 0 0 0 0.0037 0.9963 0 0 0 0 0 0 0.0002 0.9998 0 0 0 0 0 0 0 1 0 0 0 0 0 0 0 1 0 0 0 0 0 0 0 1 0 0 0 0 0 0 0 1 0 0 0 0 0 0 0 1 0 0 0 0 0 0 0 1 0 0 0 0 0 0 0.0003 0.9997 0 0 0 0 0 0 0 1 0 0 0 0 0 0 0 1 0 0 0 0 0 0 0 1 0 0 0 0 0 0 0 1 0 0 0 0 0 0 0 1 0 0 0 0 0 0 0 1 0 0 0 0 0 0 0 1 0 0 0 0 0 0 0 1 0 0 0 0 0 0 0 1 0 0 0 0 0 0 0 1 0 0 0 0 0 0 0.0007 0.9993 0 0 0 0 0 0 0.0004 0.9996 0 0 0 0 0 0 0.0002 0.9998 0 0 0 0 0 0 0.0001 0.9999 0 0 0 0 0 0 0.0001 0.9999 0 0 0 0 0 0 0 1 0 0 0 0 0 0 0 1 0 0 0 0 0 0 0 1 0 0 0 0 0 0 0 1 0 0 0 0 0 0 0 1 0 0 0 0 0 0 0 1</probabilities>
    </cpt>
    <cpt id="glu_prod_0">
      <state id="2_0mmol_kg_h" />
      <state id="1_6mmol_kg_h" />
      <state id="1_2mmol_kg_h" />
      <state id="0_8mmol_kg_h" />
      <state id="0_4mmol_kg_h" />
      <state id="0_0mmol_kg_h" />
      <parents>activ_ins_0 bg_0</parents>
      <probabilities>0 0 0 0 0 1 0 0 0 0 0 1 0 0 0 0 0 1 0 0 0 0 0 1 0 0 0 0 0 1 0 0 0 0 0.5 0.5 0 0 0 0 1 0 0 0.00070007 0.170817 0.765577 0.0628063 0.00010001 0 0.0177 0.4823 0.4823 0.0177 0 0.1224 0.3707 0.3707 0.1224 0.0133 0.0005 0 0 0 0 0 1 0 0 0 0 0 1 0 0 0 0 0 1 0 0 0 0 0 1 0 0 0 0 0 1 0 0 0 0 0.9981 0.0019 0 0 0 0.0002 0.9993 0.0005 0 0.00459954 0.286271 0.654135 0.0547945 0.00019998 0.0003 0.0482 0.5476 0.3869 0.017 0 0.147815 0.372837 0.345835 0.118012 0.0148015 0.00070007 0 0 0 0 0 1 0 0 0 0 0 1 0 0 0 0 0 1 0 0 0 0 0 1 0 0 0 0 0 1 0 0 0 0.00030003 0.9994 0.00030003 0 0 0 0.045 0.9547 0.0003 0.0001 0.0293 0.4706 0.4706 0.0293 0.0001 0.001 0.0864 0.5892 0.3107 0.0127 0 0.159 0.3814 0.3366 0.1093 0.0131 0.0006 0 0 0 0 0 1 0 0 0 0 0 1 0 0 0 0 0 1 0 0 0 0 0 1 0 0 0 0 0 1 0 0 0 0.0585 0.9413 0.0002 0 0 0.0003 0.4553 0.5439 0.0005 0.001 0.0864 0.5892 0.3107 0.0127 0 0.00290029 0.137214 0.60236 0.247925 0.00960096 0 0.1952 0.3853 0.3072 0.0988 0.0128 0.0007 0 0 0 0 0 1 0 0 0 0 0 1 0 0 0 0 0 1 0 0 0 0 0 1 0 0 0 0 0 1 0 0 0.0004 0.4996 0.4996 0.0004 0 0 0.0052 0.7732 0.2215 0.0001 0.00730073 0.19722 0.590959 0.19722 0.00730073 0 0.0124988 0.255074 0.580842 0.147385 0.00419958 0 0.247825 0.390439 0.269227 0.0812081 0.0107011 0.00060006 0 0 0 0 0 1 0 0 0 0 0 1 0 0 0 0 0 1 0 0 0 0 0 1 0 0 0 0 0.0001 0.9999 0 0 0.0124 0.7896 0.1978 0.0002 0 0 0.0639 0.8542 0.0818 0.0001 0.0350035 0.322832 0.50355 0.132713 0.00590059 0 0.0299 0.3458 0.5201 0.1016 0.0026 0 0.2858 0.392 0.244 0.0689 0.0088 0.0005 0 0 0 0 0 1 0 0 0 0 0 1 0 0 0 0 0 1 0 0 0 0 0 1 0 0 0 0 0.9997 0.0003 0 0.00029994 0.106479 0.786442 0.106479 0.00029994 0 0.0006 0.1561 0.7731 0.0701 0.0001 0.0635 0.3684 0.4478 0.1141 0.0061 0.0001 0.0547 0.3868 0.462 0.0933 0.0032 0 0.305 0.3943 0.2313 0.0616 0.0074 0.0004 0 0 0 0 0 1 0 0 0 0 0 1 0 0 0 0 0 1 0 0 0 0 0 1 0 0 0 0 0.9999 0.0001 0 0.0006 0.1561 0.7731 0.0701 0.0001 0 0.0008 0.1865 0.7564 0.0562 0.0001 0.0719928 0.386261 0.434257 0.10229 0.00509949 9.999e-05 0.0863 0.4118 0.4118 0.0863 0.0038 0 0.3353 0.3901 0.213 0.0546 0.0066 0.0004 0 0 0 0 0 1 0 0 0 0 0 1 0 0 0 0 0 1 0 0 0 0 0.0001 0.9999 0 0 0 0 1 0 0 0.00340034 0.251425 0.677968 0.0670067 0.00020002 0 0.00530053 0.30453 0.640664 0.0494049 0.00010001 0.110378 0.411018 0.383523 0.0896821 0.00529894 9.998e-05 0.1405 0.4263 0.3504 0.078 0.0047 0.0001 0.372663 0.379162 0.192681 0.0488951 0.00619938 0.00039996 0 0 0 0 0 1 0 0 0 0 0 1 0 0 0 0 0 1 0 0 0 0 1 0 0 0 0 0.1852 0.8148 0 0.0001 0.0212 0.4207 0.5181 0.0397 0.0002 0.0002 0.0359 0.4639 0.4639 0.0359 0.0002 0.1724 0.4353 0.3197 0.0683 0.0042 0.0001 0.2127 0.4416 0.2849 0.0571 0.0036 0.0001 0.439056 0.362364 0.157684 0.0361964 0.00439956 0.00029997 0 0 0 0 0 1 0 0 0 0 0 1 0 0 0 0 0 1 0 0 0 0 1 0 0 0 0 0.8393 0.1607 0 0.0035 0.0991 0.4694 0.3759 0.0509 0.0012 0.00049995 0.0619938 0.545945 0.371863 0.019598 9.999e-05 0.216122 0.432043 0.285129 0.0621062 0.00450045 0.00010001 0.257026 0.423842 0.257026 0.0573057 0.00470047 0.00010001 0.4672 0.3559 0.143 0.0303 0.0034 0.0002</probabilities>
    </cpt>
    <cpt id="ins_dep_0">
      <state id="2_0mmol_kg_h" />
      <state id="1_6mmol_kg_h" />
      <state id="1_2mmol_kg_h" />
      <state id="0_8mmol_kg_h" />
      <state id="0_4mmol_kg_h" />
      <state id="0_0mmol_kg_h" />
      <state id="__0_4mmol_kg_h" />
      <state id="__0_8mmol_kg_h" />
      <state id="__1_2mmol_kg_h" />
      <state id="__1_6mmol_kg_h" />
      <state id="__2_0mmol_kg_h" />
      <state id="__2_4mmol_kg_h" />
      <state id="__2_8mmol_kg_h" />
      <parents>ins_dep_util_0 glu_prod_0</parents>
      <probabilities>0 0 0 0 0 0 0.00030003 0.9994 0.00030003 0 0 0 0 0 0 0 0 0 0.00030003 0.9994 0.00030003 0 0 0 0 0 0 0 0 0 0.00030003 0.9994 0.00030003 0 0 0 0 0 0 0 0 0 0.00030003 0.9994 0.00030003 0 0 0 0 0 0 0 0 0 0.00030003 0.9994 0.00030003 0 0 0 0 0 0 0 0 0 0.00030003 0.9994 0.00030003 0 0 0 0 0 0 0 0 0 0.00030003 0.9994 0.00030003 0 0 0 0 0 0 0 0 0 0 0.9997 0.0003 0 0 0 0 0 0 0 0 0 0 0 0 0 0 0 0 0 0 0.00030003 0.9994 0.00030003 0 0 0 0 0 0 0 0 0 0.00030003 0.9994 0.00030003 0 0 0 0 0 0 0 0 0 0.00030003 0.9994 0.00030003 0 0 0 0 0 0 0 0 0 0.00030003 0.9994 0.00030003 0 0 0 0 0 0 0 0 0 0.00030003 0.9994 0.00030003 0 0 0 0 0 0 0 0 0 0.00030003 0.9994 0.00030003 0 0 0 0 0 0 0 0 0 0.00030003 0.9994 0.00030003 0 0 0 0 0 0 0 0 0 0.00030003 0.9994 0.00030003 0 0 0 0 0 0 0 0 0 0 0 0 0 0 0 0 0 0 0.00030003 0.9994 0.00030003 0 0 0 0 0 0 0 0 0 0.00030003 0.9994 0.00030003 0 0 0 0 0 0 0 0 0 0.00030003 0.9994 0.00030003 0 0 0 0 0 0 0 0 0 0.00030003 0.9994 0.00030003 0 0 0 0 0 0 0 0 0 0.00030003 0.9994 0.00030003 0 0 0 0 0 0 0 0 0 0.00030003 0.9994 0.00030003 0 0 0 0 0 0 0 0 0 0.00030003 0.9994 0.00030003 0 0 0 0 0 0 0 0 0 0.00030003 0.9994 0.00030003 0 0 0 0 0 0 0 0 0 0 0 0 0 0 0 0 0 0 0.00030003 0.9994 0.00030003 0 0 0 0 0 0 0 0 0 0.00030003 0.9994 0.00030003 0 0 0 0 0 0 0 0 0 0.00030003 0.9994 0.00030003 0 0 0 0 0 0 0 0 0 0.00030003 0.9994 0.00030003 0 0 0 0 0 0 0 0 0 0.00030003 0.9994 0.00030003 0 0 0 0 0 0 0 0 0 0.00030003 0.9994 0.00030003 0 0 0 0 0 0 0 0 0 0.00030003 0.9994 0.00030003 0 0 0 0 0 0 0 0 0 0.00030003 0.9994 0.00030003 0 0 0 0 0 0 0 0 0 0 0 0 0 0 0 0 0 0 0.00030003 0.9994 0.00030003 0 0 0 0 0 0 0 0 0 0.00030003 0.9994 0.00030003 0 0 0 0 0 0 0 0 0 0.00030003 0.9994 0.00030003 0 0 0 0 0 0 0 0 0 0.00030003 0.9994 0.00030003 0 0 0 0 0 0 0 0 0 0.00030003 0.9994 0.00030003 0 0 0 0 0 0 0 0 0 0.00030003 0.9994 0.00030003 0 0 0 0 0 0 0 0 0 0.00030003 0.9994 0.00030003 0 0 0 0 0 0 0 0 0 0.00030003 0.9994 0.00030003 0 0 0 0 0 0 0 0 0 0 0 0 0 0 0 0 0 0 0.0003 0.9997 0 0 0 0 0 0 0 0 0 0 0.00030003 0.9994 0.00030003 0 0 0 0 0 0 0 0 0 0.00030003 0.9994 0.00030003 0 0 0 0 0 0 0 0 0 0.00030003 0.9994 0.00030003 0 0 0 0 0 0 0 0 0 0.00030003 0.9994 0.00030003 0 0 0 0 0 0 0 0 0 0.00030003 0.9994 0.00030003 0 0 0 0 0 0 0 0 0 0.00030003 0.9994 0.00030003 0 0 0 0 0 0 0 0 0 0.00030003 0.9994 0.00030003 0 0 0 0 0 0</probabilities>
    </cpt>
    <cpt id="endo_bal_0">
      <state id="2_0mmol_kg_h" />
      <state id="1_6mmol_kg_h" />
      <state id="1_2mmol_kg_h" />
      <state id="0_8mmol_kg_h" />
      <state id="0_4mmol_kg_h" />
      <state id="0_0mmol_kg_h" />
      <state id="__0_4mmol_kg_h" />
      <state id="__0_8mmol_kg_h" />
      <state id="__1_2mmol_kg_h" />
      <state id="__1_6mmol_kg_h" />
      <state id="__2_0mmol_kg_h" />
      <state id="__2_4mmol_kg_h" />
      <state id="__2_8mmol_kg_h" />
      <state id="__3_2mmol_kg_h" />
      <state id="__3_6mmol_kg_h" />
      <state id="__4_0mmol_kg_h" />
      <state id="__4_4mmol_kg_h" />
      <parents>ins_indep_0 ins_dep_0</parents>
      <probabilities>0 0 0 0.00030003 0.9994 0.00030003 0 0 0 0 0 0 0 0 0 0 0 0 0 0.00030003 0.9994 0.00030003 0 0 0 0 0 0 0 0 0 0 0 0 0 0.00030003 0.9994 0.00030003 0 0 0 0 0 0 0 0 0 0 0 0 0 0.00030003 0.9994 0.00030003 0 0 0 0 0 0 0 0 0 0 0 0 0 0 0.9997 0.0003 0 0 0 0 0 0 0 0 0 0 0 0 0 0 0 0 0 0 0 0.00030003 0.9994 0.00030003 0 0 0 0 0 0 0 0 0 0 0 0 0 0.00030003 0.9994 0.00030003 0 0 0 0 0 0 0 0 0 0 0 0 0 0.00030003 0.9994 0.00030003 0 0 0 0 0 0 0 0 0 0 0 0 0 0.00030003 0.9994 0.00030003 0 0 0 0 0 0 0 0 0 0 0 0 0 0.00030003 0.9994 0.00030003 0 0 0 0 0 0 0 0 0 0 0 0 0 0 0 0 0 0 0 0.00030003 0.9994 0.00030003 0 0 0 0 0 0 0 0 0 0 0 0 0 0.00030003 0.9994 0.00030003 0 0 0 0 0 0 0 0 0 0 0 0 0 0.00030003 0.9994 0.00030003 0 0 0 0 0 0 0 0 0 0 0 0 0 0.00030003 0.9994 0.00030003 0 0 0 0 0 0 0 0 0 0 0 0 0 0.00030003 0.9994 0.00030003 0 0 0 0 0 0 0 0 0 0 0 0 0 0 0 0 0 0 0 0.00030003 0.9994 0.00030003 0 0 0 0 0 0 0 0 0 0 0 0 0 0.00030003 0.9994 0.00030003 0 0 0 0 0 0 0 0 0 0 0 0 0 0.00030003 0.9994 0.00030003 0 0 0 0 0 0 0 0 0 0 0 0 0 0.00030003 0.9994 0.00030003 0 0 0 0 0 0 0 0 0 0 0 0 0 0.00030003 0.9994 0.00030003 0 0 0 0 0 0 0 0 0 0 0 0 0 0 0 0 0 0 0 0.00030003 0.9994 0.00030003 0 0 0 0 0 0 0 0 0 0 0 0 0 0.00030003 0.9994 0.00030003 0 0 0 0 0 0 0 0 0 0 0 0 0 0.00030003 0.9994 0.00030003 0 0 0 0 0 0 0 0 0 0 0 0 0 0.00030003 0.9994 0.00030003 0 0 0 0 0 0 0 0 0 0 0 0 0 0.00030003 0.9994 0.00030003 0 0 0 0 0 0 0 0 0 0 0 0 0 0 0 0 0 0 0 0.00030003 0.9994 0.00030003 0 0 0 0 0 0 0 0 0 0 0 0 0 0.00030003 0.9994 0.00030003 0 0 0 0 0 0 0 0 0 0 0 0 0 0.00030003 0.9994 0.00030003 0 0 0 0 0 0 0 0 0 0 0 0 0 0.00030003 0.9994 0.00030003 0 0 0 0 0 0 0 0 0 0 0 0 0 0.00030003 0.9994 0.00030003 0 0 0 0 0 0 0 0 0 0 0 0 0 0 0 0 0 0 0 0.00030003 0.9994 0.00030003 0 0 0 0 0 0 0 0 0 0 0 0 0 0.00030003 0.9994 0.00030003 0 0 0 0 0 0 0 0 0 0 0 0 0 0.00030003 0.9994 0.00030003 0 0 0 0 0 0 0 0 0 0 0 0 0 0.00030003 0.9994 0.00030003 0 0 0 0 0 0 0 0 0 0 0 0 0 0.00030003 0.9994 0.00030003 0 0 0 0 0 0 0 0 0 0 0 0 0 0 0 0 0 0 0 0.00030003 0.9994 0.00030003 0 0 0 0 0 0 0 0 0 0 0 0 0 0.00030003 0.9994 0.00030003 0 0 0 0 0 0 0 0 0 0 0 0 0 0.00030003 0.9994 0.00030003 0 0 0 0 0 0 0 0 0 0 0 0 0 0.00030003 0.9994 0.00030003 0 0 0 0 0 0 0 0 0 0 0 0 0 0.00030003 0.9994 0.00030003 0 0 0 0 0 0 0 0 0 0 0 0 0 0 0 0 0 0 0 0.00030003 0.9994 0.00030003 0 0 0 0 0 0 0 0 0 0 0 0 0 0.00030003 0.9994 0.00030003 0 0 0 0 0 0 0 0 0 0 0 0 0 0.00030003 0.9994 0.00030003 0 0 0 0 0 0 0 0 0 0 0 0 0 0.00030003 0.9994 0.00030003 0 0 0 0 0 0 0 0 0 0 0 0 0 0.00030003 0.9994 0.00030003 0 0 0 0 0 0 0 0 0 0 0 0 0 0 0 0 0 0 0 0.00030003 0.9994 0.00030003 0 0 0 0 0 0 0 0 0 0 0 0 0 0.00030003 0.9994 0.00030003 0 0 0 0 0 0 0 0 0 0 0 0 0 0.00030003 0.9994 0.00030003 0 0 0 0 0 0 0 0 0 0 0 0 0 0.00030003 0.9994 0.00030003 0 0 0 0 0 0 0 0 0 0 0 0 0 0.00030003 0.9994 0.00030003 0 0 0 0 0 0 0 0 0 0 0 0 0 0 0 0 0 0 0 0.00030003 0.9994 0.00030003 0 0 0 0 0 0 0 0 0 0 0 0 0 0.00030003 0.9994 0.00030003 0 0 0 0 0 0 0 0 0 0 0 0 0 0.00030003 0.9994 0.00030003 0 0 0 0 0 0 0 0 0 0 0 0 0 0.00030003 0.9994 0.00030003 0 0 0 0 0 0 0 0 0 0 0 0 0 0.00030003 0.9994 0.00030003 0 0 0 0 0 0 0 0 0 0 0 0 0 0 0 0 0 0 0 0.00030003 0.9994 0.00030003 0 0 0 0 0 0 0 0 0 0 0 0 0 0.00030003 0.9994 0.00030003 0 0 0 0 0 0 0 0 0 0 0 0 0 0.00030003 0.9994 0.00030003 0 0 0 0 0 0 0 0 0 0 0 0 0 0.00030003 0.9994 0.00030003 0 0 0 0 0 0 0 0 0 0 0 0 0 0.00030003 0.9994 0.00030003 0 0 0 0 0 0 0 0 0 0 0 0 0 0 0 0 0 0 0 0.0003 0.9997 0 0 0 0 0 0 0 0 0 0 0 0 0 0 0.00030003 0.9994 0.00030003 0 0 0 0 0 0 0 0 0 0 0 0 0 0.00030003 0.9994 0.00030003 0 0 0 0 0 0 0 0 0 0 0 0 0 0.00030003 0.9994 0.00030003 0 0 0 0 0 0 0 0 0 0 0 0 0 0.00030003 0.9994 0.00030003 0 0 0</probabilities>
    </cpt>
    <cpt id="activ_ins_2">
      <state id="80mU_l" />
      <state id="56mU_l" />
      <state id="40mU_l" />
      <state id="28mU_l" />
      <state id="20mU_l" />
      <state id="14mU_l" />
      <state id="10mU_l" />
      <state id="7mU_l" />
      <state id="5mU_l" />
      <state id="2mU_l" />
      <parents>ins_abs_2 ins_sens</parents>
      <probabilities>1 0 0 0 0 0 0 0 0 0 1 0 0 0 0 0 0 0 0 0 0.9956 0.0044 0 0 0 0 0 0 0 0 0.00109989 0.992801 0.00609939 0 0 0 0 0 0 0 0 0.0016 0.9953 0.0031 0 0 0 0 0 0 0 0 0.0011 0.9946 0.0043 0 0 0 0 0 0 0 0 0.0022 0.9947 0.0031 0 0 0 0 0 0 0 0 0.00219978 0.994701 0.00309969 0 0 0 0 0 0 0 0 0.0043 0.9942 0.0015 0 0 0 0 0 0 0 0.00270027 0.050205 0.30443 0.620162 0.0225023 0 0 0 0 0 0 0 0.0022 0.0459 0.9519 1 0 0 0 0 0 0 0 0 0 0.9956 0.0044 0 0 0 0 0 0 0 0 0.00109989 0.992801 0.00609939 0 0 0 0 0 0 0 0 0.0011 0.9944 0.0045 0 0 0 0 0 0 0 0 0.0011 0.9946 0.0043 0 0 0 0 0 0 0 0 0.00159984 0.994001 0.00439956 0 0 0 0 0 0 0 0 0.0015 0.9942 0.0043 0 0 0 0 0 0 0 0 0.0022 0.9947 0.0031 0 0 0 0 0 0 0 0 0.0031 0.9944 0.0025 0 0 0 0 0 0 9.999e-05 0.00349965 0.0722928 0.484152 0.439956 0 0 0 0 0 0 0 0 0.0019 0.9981 0.9956 0.0044 0 0 0 0 0 0 0 0 0.00109989 0.992801 0.00609939 0 0 0 0 0 0 0 0 0.0011 0.9944 0.0045 0 0 0 0 0 0 0 0 0.0007 0.9932 0.0061 0 0 0 0 0 0 0 0 0.00159984 0.994001 0.00439956 0 0 0 0 0 0 0 0 0.00109989 0.992801 0.00609939 0 0 0 0 0 0 0 0 0.00159984 0.994001 0.00439956 0 0 0 0 0 0 0 0 0.00150015 0.993599 0.00490049 0 0 0 0 0 0 0 0 0.0027 0.9973 0 0 0 0 0 0 0 0 0.00190019 0.0420042 0.956096 0 0 0 0 0 0 0 0 0.0001 0.9999 0.00079992 0.990701 0.00849915 0 0 0 0 0 0 0 0 0.0008 0.9928 0.0064 0 0 0 0 0 0 0 0 0.0005 0.991 0.0085 0 0 0 0 0 0 0 0 0.0008 0.9904 0.0088 0 0 0 0 0 0 0 0 0.00079992 0.990701 0.00849915 0 0 0 0 0 0 0 0 0.0008 0.9904 0.0088 0 0 0 0 0 0 0 0 0.00079992 0.989501 0.00969903 0 0 0 0 0 0 0 0 0.001 0.999 0 0 0 0 0 0 0 0 0 0.9997 0.0003 0 0 0 0 0 0 0 0 0.0016 0.9984 0 0 0 0 0 0 0 0 0 1 0 0.0011 0.9944 0.0045 0 0 0 0 0 0 0 0 0.0007 0.9932 0.0061 0 0 0 0 0 0 0 0 0.0011 0.9927 0.0062 0 0 0 0 0 0 0 0 0.00079992 0.990701 0.00849915 0 0 0 0 0 0 0 0 0.0011 0.9927 0.0062 0 0 0 0 0 0 0 0 0.00079992 0.989501 0.00969903 0 0 0 0 0 0 0 0 0.001 0.999 0 0 0 0 0 0 0 0 0 0.9994 0.0006 0 0 0 0 0 0 0 0 0 1 0 0 0 0 0 0 0 0 0.0001 0.9999 0 0 0 0 0 0 0 0 0 1</probabilities>
    </cpt>
    <cpt id="activ_ins_4">
      <state id="80mU_l" />
      <state id="56mU_l" />
      <state id="40mU_l" />
      <state id="28mU_l" />
      <state id="20mU_l" />
      <state id="14mU_l" />
      <state id="10mU_l" />
      <state id="7mU_l" />
      <state id="5mU_l" />
      <state id="2mU_l" />
      <parents>ins_abs_4 ins_sens</parents>
      <probabilities>1 0 0 0 0 0 0 0 0 0 1 0 0 0 0 0 0 0 0 0 0.9956 0.0044 0 0 0 0 0 0 0 0 0.00109989 0.992801 0.00609939 0 0 0 0 0 0 0 0 0.0016 0.9953 0.0031 0 0 0 0 0 0 0 0 0.0011 0.9946 0.0043 0 0 0 0 0 0 0 0 0.0022 0.9947 0.0031 0 0 0 0 0 0 0 0 0.00219978 0.994701 0.00309969 0 0 0 0 0 0 0 0 0.0043 0.9942 0.0015 0 0 0 0 0 0 0 0.00270027 0.050205 0.30443 0.620162 0.0225023 0 0 0 0 0 0 0 0.0022 0.0459 0.9519 1 0 0 0 0 0 0 0 0 0 0.9956 0.0044 0 0 0 0 0 0 0 0 0.00109989 0.992801 0.00609939 0 0 0 0 0 0 0 0 0.0011 0.9944 0.0045 0 0 0 0 0 0 0 0 0.0011 0.9946 0.0043 0 0 0 0 0 0 0 0 0.00159984 0.994001 0.00439956 0 0 0 0 0 0 0 0 0.0015 0.9942 0.0043 0 0 0 0 0 0 0 0 0.0022 0.9947 0.0031 0 0 0 0 0 0 0 0 0.0031 0.9944 0.0025 0 0 0 0 0 0 9.999e-05 0.00349965 0.0722928 0.484152 0.439956 0 0 0 0 0 0 0 0 0.0019 0.9981 0.9956 0.0044 0 0 0 0 0 0 0 0 0.00109989 0.992801 0.00609939 0 0 0 0 0 0 0 0 0.0011 0.9944 0.0045 0 0 0 0 0 0 0 0 0.0007 0.9932 0.0061 0 0 0 0 0 0 0 0 0.00159984 0.994001 0.00439956 0 0 0 0 0 0 0 0 0.00109989 0.992801 0.00609939 0 0 0 0 0 0 0 0 0.00159984 0.994001 0.00439956 0 0 0 0 0 0 0 0 0.00150015 0.993599 0.00490049 0 0 0 0 0 0 0 0 0.0027 0.9973 0 0 0 0 0 0 0 0 0.00190019 0.0420042 0.956096 0 0 0 0 0 0 0 0 0.0001 0.9999 0.00079992 0.990701 0.00849915 0 0 0 0 0 0 0 0 0.0008 0.9928 0.0064 0 0 0 0 0 0 0 0 0.0005 0.991 0.0085 0 0 0 0 0 0 0 0 0.0008 0.9904 0.0088 0 0 0 0 0 0 0 0 0.00079992 0.990701 0.00849915 0 0 0 0 0 0 0 0 0.0008 0.9904 0.0088 0 0 0 0 0 0 0 0 0.00079992 0.989501 0.00969903 0 0 0 0 0 0 0 0 0.001 0.999 0 0 0 0 0 0 0 0 0 0.9997 0.0003 0 0 0 0 0 0 0 0 0.0016 0.9984 0 0 0 0 0 0 0 0 0 1 0 0.0011 0.9944 0.0045 0 0 0 0 0 0 0 0 0.0007 0.9932 0.0061 0 0 0 0 0 0 0 0 0.0011 0.9927 0.0062 0 0 0 0 0 0 0 0 0.00079992 0.990701 0.00849915 0 0 0 0 0 0 0 0 0.0011 0.9927 0.0062 0 0 0 0 0 0 0 0 0.00079992 0.989501 0.00969903 0 0 0 0 0 0 0 0 0.001 0.999 0 0 0 0 0 0 0 0 0 0.9994 0.0006 0 0 0 0 0 0 0 0 0 1 0 0 0 0 0 0 0 0 0.0001 0.9999 0 0 0 0 0 0 0 0 0 1</probabilities>
    </cpt>
    <cpt id="activ_ins_22">
      <state id="80mU_l" />
      <state id="56mU_l" />
      <state id="40mU_l" />
      <state id="28mU_l" />
      <state id="20mU_l" />
      <state id="14mU_l" />
      <state id="10mU_l" />
      <state id="7mU_l" />
      <state id="5mU_l" />
      <state id="2mU_l" />
      <parents>ins_abs_22 ins_sens</parents>
      <probabilities>1 0 0 0 0 0 0 0 0 0 1 0 0 0 0 0 0 0 0 0 0.9956 0.0044 0 0 0 0 0 0 0 0 0.00109989 0.992801 0.00609939 0 0 0 0 0 0 0 0 0.0016 0.9953 0.0031 0 0 0 0 0 0 0 0 0.0011 0.9946 0.0043 0 0 0 0 0 0 0 0 0.0022 0.9947 0.0031 0 0 0 0 0 0 0 0 0.00219978 0.994701 0.00309969 0 0 0 0 0 0 0 0 0.0043 0.9942 0.0015 0 0 0 0 0 0 0 0.00270027 0.050205 0.30443 0.620162 0.0225023 0 0 0 0 0 0 0 0.0022 0.0459 0.9519 1 0 0 0 0 0 0 0 0 0 0.9956 0.0044 0 0 0 0 0 0 0 0 0.00109989 0.992801 0.00609939 0 0 0 0 0 0 0 0 0.0011 0.9944 0.0045 0 0 0 0 0 0 0 0 0.0011 0.9946 0.0043 0 0 0 0 0 0 0 0 0.00159984 0.994001 0.00439956 0 0 0 0 0 0 0 0 0.0015 0.9942 0.0043 0 0 0 0 0 0 0 0 0.0022 0.9947 0.0031 0 0 0 0 0 0 0 0 0.0031 0.9944 0.0025 0 0 0 0 0 0 9.999e-05 0.00349965 0.0722928 0.484152 0.439956 0 0 0 0 0 0 0 0 0.0019 0.9981 0.9956 0.0044 0 0 0 0 0 0 0 0 0.00109989 0.992801 0.00609939 0 0 0 0 0 0 0 0 0.0011 0.9944 0.0045 0 0 0 0 0 0 0 0 0.0007 0.9932 0.0061 0 0 0 0 0 0 0 0 0.00159984 0.994001 0.00439956 0 0 0 0 0 0 0 0 0.00109989 0.992801 0.00609939 0 0 0 0 0 0 0 0 0.00159984 0.994001 0.00439956 0 0 0 0 0 0 0 0 0.00150015 0.993599 0.00490049 0 0 0 0 0 0 0 0 0.0027 0.9973 0 0 0 0 0 0 0 0 0.00190019 0.0420042 0.956096 0 0 0 0 0 0 0 0 0.0001 0.9999 0.00079992 0.990701 0.00849915 0 0 0 0 0 0 0 0 0.0008 0.9928 0.0064 0 0 0 0 0 0 0 0 0.0005 0.991 0.0085 0 0 0 0 0 0 0 0 0.0008 0.9904 0.0088 0 0 0 0 0 0 0 0 0.00079992 0.990701 0.00849915 0 0 0 0 0 0 0 0 0.0008 0.9904 0.0088 0 0 0 0 0 0 0 0 0.00079992 0.989501 0.00969903 0 0 0 0 0 0 0 0 0.001 0.999 0 0 0 0 0 0 0 0 0 0.9997 0.0003 0 0 0 0 0 0 0 0 0.0016 0.9984 0 0 0 0 0 0 0 0 0 1 0 0.0011 0.9944 0.0045 0 0 0 0 0 0 0 0 0.0007 0.9932 0.0061 0 0 0 0 0 0 0 0 0.0011 0.9927 0.0062 0 0 0 0 0 0 0 0 0.00079992 0.990701 0.00849915 0 0 0 0 0 0 0 0 0.0011 0.9927 0.0062 0 0 0 0 0 0 0 0 0.00079992 0.989501 0.00969903 0 0 0 0 0 0 0 0 0.001 0.999 0 0 0 0 0 0 0 0 0 0.9994 0.0006 0 0 0 0 0 0 0 0 0 1 0 0 0 0 0 0 0 0 0.0001 0.9999 0 0 0 0 0 0 0 0 0 1</probabilities>
    </cpt>
    <cpt id="activ_ins_20">
      <state id="80mU_l" />
      <state id="56mU_l" />
      <state id="40mU_l" />
      <state id="28mU_l" />
      <state id="20mU_l" />
      <state id="14mU_l" />
      <state id="10mU_l" />
      <state id="7mU_l" />
      <state id="5mU_l" />
      <state id="2mU_l" />
      <parents>ins_abs_20 ins_sens</parents>
      <probabilities>1 0 0 0 0 0 0 0 0 0 1 0 0 0 0 0 0 0 0 0 0.9956 0.0044 0 0 0 0 0 0 0 0 0.00109989 0.992801 0.00609939 0 0 0 0 0 0 0 0 0.0016 0.9953 0.0031 0 0 0 0 0 0 0 0 0.0011 0.9946 0.0043 0 0 0 0 0 0 0 0 0.0022 0.9947 0.0031 0 0 0 0 0 0 0 0 0.00219978 0.994701 0.00309969 0 0 0 0 0 0 0 0 0.0043 0.9942 0.0015 0 0 0 0 0 0 0 0.00270027 0.050205 0.30443 0.620162 0.0225023 0 0 0 0 0 0 0 0.0022 0.0459 0.9519 1 0 0 0 0 0 0 0 0 0 0.9956 0.0044 0 0 0 0 0 0 0 0 0.00109989 0.992801 0.00609939 0 0 0 0 0 0 0 0 0.0011 0.9944 0.0045 0 0 0 0 0 0 0 0 0.0011 0.9946 0.0043 0 0 0 0 0 0 0 0 0.00159984 0.994001 0.00439956 0 0 0 0 0 0 0 0 0.0015 0.9942 0.0043 0 0 0 0 0 0 0 0 0.0022 0.9947 0.0031 0 0 0 0 0 0 0 0 0.0031 0.9944 0.0025 0 0 0 0 0 0 9.999e-05 0.00349965 0.0722928 0.484152 0.439956 0 0 0 0 0 0 0 0 0.0019 0.9981 0.9956 0.0044 0 0 0 0 0 0 0 0 0.00109989 0.992801 0.00609939 0 0 0 0 0 0 0 0 0.0011 0.9944 0.0045 0 0 0 0 0 0 0 0 0.0007 0.9932 0.0061 0 0 0 0 0 0 0 0 0.00159984 0.994001 0.00439956 0 0 0 0 0 0 0 0 0.00109989 0.992801 0.00609939 0 0 0 0 0 0 0 0 0.00159984 0.994001 0.00439956 0 0 0 0 0 0 0 0 0.00150015 0.993599 0.00490049 0 0 0 0 0 0 0 0 0.0027 0.9973 0 0 0 0 0 0 0 0 0.00190019 0.0420042 0.956096 0 0 0 0 0 0 0 0 0.0001 0.9999 0.00079992 0.990701 0.00849915 0 0 0 0 0 0 0 0 0.0008 0.9928 0.0064 0 0 0 0 0 0 0 0 0.0005 0.991 0.0085 0 0 0 0 0 0 0 0 0.0008 0.9904 0.0088 0 0 0 0 0 0 0 0 0.00079992 0.990701 0.00849915 0 0 0 0 0 0 0 0 0.0008 0.9904 0.0088 0 0 0 0 0 0 0 0 0.00079992 0.989501 0.00969903 0 0 0 0 0 0 0 0 0.001 0.999 0 0 0 0 0 0 0 0 0 0.9997 0.0003 0 0 0 0 0 0 0 0 0.0016 0.9984 0 0 0 0 0 0 0 0 0 1 0 0.0011 0.9944 0.0045 0 0 0 0 0 0 0 0 0.0007 0.9932 0.0061 0 0 0 0 0 0 0 0 0.0011 0.9927 0.0062 0 0 0 0 0 0 0 0 0.00079992 0.990701 0.00849915 0 0 0 0 0 0 0 0 0.0011 0.9927 0.0062 0 0 0 0 0 0 0 0 0.00079992 0.989501 0.00969903 0 0 0 0 0 0 0 0 0.001 0.999 0 0 0 0 0 0 0 0 0 0.9994 0.0006 0 0 0 0 0 0 0 0 0 1 0 0 0 0 0 0 0 0 0.0001 0.9999 0 0 0 0 0 0 0 0 0 1</probabilities>
    </cpt>
    <cpt id="activ_ins_18">
      <state id="80mU_l" />
      <state id="56mU_l" />
      <state id="40mU_l" />
      <state id="28mU_l" />
      <state id="20mU_l" />
      <state id="14mU_l" />
      <state id="10mU_l" />
      <state id="7mU_l" />
      <state id="5mU_l" />
      <state id="2mU_l" />
      <parents>ins_abs_18 ins_sens</parents>
      <probabilities>1 0 0 0 0 0 0 0 0 0 1 0 0 0 0 0 0 0 0 0 0.9956 0.0044 0 0 0 0 0 0 0 0 0.00109989 0.992801 0.00609939 0 0 0 0 0 0 0 0 0.0016 0.9953 0.0031 0 0 0 0 0 0 0 0 0.0011 0.9946 0.0043 0 0 0 0 0 0 0 0 0.0022 0.9947 0.0031 0 0 0 0 0 0 0 0 0.00219978 0.994701 0.00309969 0 0 0 0 0 0 0 0 0.0043 0.9942 0.0015 0 0 0 0 0 0 0 0.00270027 0.050205 0.30443 0.620162 0.0225023 0 0 0 0 0 0 0 0.0022 0.0459 0.9519 1 0 0 0 0 0 0 0 0 0 0.9956 0.0044 0 0 0 0 0 0 0 0 0.00109989 0.992801 0.00609939 0 0 0 0 0 0 0 0 0.0011 0.9944 0.0045 0 0 0 0 0 0 0 0 0.0011 0.9946 0.0043 0 0 0 0 0 0 0 0 0.00159984 0.994001 0.00439956 0 0 0 0 0 0 0 0 0.0015 0.9942 0.0043 0 0 0 0 0 0 0 0 0.0022 0.9947 0.0031 0 0 0 0 0 0 0 0 0.0031 0.9944 0.0025 0 0 0 0 0 0 9.999e-05 0.00349965 0.0722928 0.484152 0.439956 0 0 0 0 0 0 0 0 0.0019 0.9981 0.9956 0.0044 0 0 0 0 0 0 0 0 0.00109989 0.992801 0.00609939 0 0 0 0 0 0 0 0 0.0011 0.9944 0.0045 0 0 0 0 0 0 0 0 0.0007 0.9932 0.0061 0 0 0 0 0 0 0 0 0.00159984 0.994001 0.00439956 0 0 0 0 0 0 0 0 0.00109989 0.992801 0.00609939 0 0 0 0 0 0 0 0 0.00159984 0.994001 0.00439956 0 0 0 0 0 0 0 0 0.00150015 0.993599 0.00490049 0 0 0 0 0 0 0 0 0.0027 0.9973 0 0 0 0 0 0 0 0 0.00190019 0.0420042 0.956096 0 0 0 0 0 0 0 0 0.0001 0.9999 0.00079992 0.990701 0.00849915 0 0 0 0 0 0 0 0 0.0008 0.9928 0.0064 0 0 0 0 0 0 0 0 0.0005 0.991 0.0085 0 0 0 0 0 0 0 0 0.0008 0.9904 0.0088 0 0 0 0 0 0 0 0 0.00079992 0.990701 0.00849915 0 0 0 0 0 0 0 0 0.0008 0.9904 0.0088 0 0 0 0 0 0 0 0 0.00079992 0.989501 0.00969903 0 0 0 0 0 0 0 0 0.001 0.999 0 0 0 0 0 0 0 0 0 0.9997 0.0003 0 0 0 0 0 0 0 0 0.0016 0.9984 0 0 0 0 0 0 0 0 0 1 0 0.0011 0.9944 0.0045 0 0 0 0 0 0 0 0 0.0007 0.9932 0.0061 0 0 0 0 0 0 0 0 0.0011 0.9927 0.0062 0 0 0 0 0 0 0 0 0.00079992 0.990701 0.00849915 0 0 0 0 0 0 0 0 0.0011 0.9927 0.0062 0 0 0 0 0 0 0 0 0.00079992 0.989501 0.00969903 0 0 0 0 0 0 0 0 0.001 0.999 0 0 0 0 0 0 0 0 0 0.9994 0.0006 0 0 0 0 0 0 0 0 0 1 0 0 0 0 0 0 0 0 0.0001 0.9999 0 0 0 0 0 0 0 0 0 1</probabilities>
    </cpt>
    <cpt id="activ_ins_16">
      <state id="80mU_l" />
      <state id="56mU_l" />
      <state id="40mU_l" />
      <state id="28mU_l" />
      <state id="20mU_l" />
      <state id="14mU_l" />
      <state id="10mU_l" />
      <state id="7mU_l" />
      <state id="5mU_l" />
      <state id="2mU_l" />
      <parents>ins_abs_16 ins_sens</parents>
      <probabilities>1 0 0 0 0 0 0 0 0 0 1 0 0 0 0 0 0 0 0 0 0.9956 0.0044 0 0 0 0 0 0 0 0 0.00109989 0.992801 0.00609939 0 0 0 0 0 0 0 0 0.0016 0.9953 0.0031 0 0 0 0 0 0 0 0 0.0011 0.9946 0.0043 0 0 0 0 0 0 0 0 0.0022 0.9947 0.0031 0 0 0 0 0 0 0 0 0.00219978 0.994701 0.00309969 0 0 0 0 0 0 0 0 0.0043 0.9942 0.0015 0 0 0 0 0 0 0 0.00270027 0.050205 0.30443 0.620162 0.0225023 0 0 0 0 0 0 0 0.0022 0.0459 0.9519 1 0 0 0 0 0 0 0 0 0 0.9956 0.0044 0 0 0 0 0 0 0 0 0.00109989 0.992801 0.00609939 0 0 0 0 0 0 0 0 0.0011 0.9944 0.0045 0 0 0 0 0 0 0 0 0.0011 0.9946 0.0043 0 0 0 0 0 0 0 0 0.00159984 0.994001 0.00439956 0 0 0 0 0 0 0 0 0.0015 0.9942 0.0043 0 0 0 0 0 0 0 0 0.0022 0.9947 0.0031 0 0 0 0 0 0 0 0 0.0031 0.9944 0.0025 0 0 0 0 0 0 9.999e-05 0.00349965 0.0722928 0.484152 0.439956 0 0 0 0 0 0 0 0 0.0019 0.9981 0.9956 0.0044 0 0 0 0 0 0 0 0 0.00109989 0.992801 0.00609939 0 0 0 0 0 0 0 0 0.0011 0.9944 0.0045 0 0 0 0 0 0 0 0 0.0007 0.9932 0.0061 0 0 0 0 0 0 0 0 0.00159984 0.994001 0.00439956 0 0 0 0 0 0 0 0 0.00109989 0.992801 0.00609939 0 0 0 0 0 0 0 0 0.00159984 0.994001 0.00439956 0 0 0 0 0 0 0 0 0.00150015 0.993599 0.00490049 0 0 0 0 0 0 0 0 0.0027 0.9973 0 0 0 0 0 0 0 0 0.00190019 0.0420042 0.956096 0 0 0 0 0 0 0 0 0.0001 0.9999 0.00079992 0.990701 0.00849915 0 0 0 0 0 0 0 0 0.0008 0.9928 0.0064 0 0 0 0 0 0 0 0 0.0005 0.991 0.0085 0 0 0 0 0 0 0 0 0.0008 0.9904 0.0088 0 0 0 0 0 0 0 0 0.00079992 0.990701 0.00849915 0 0 0 0 0 0 0 0 0.0008 0.9904 0.0088 0 0 0 0 0 0 0 0 0.00079992 0.989501 0.00969903 0 0 0 0 0 0 0 0 0.001 0.999 0 0 0 0 0 0 0 0 0 0.9997 0.0003 0 0 0 0 0 0 0 0 0.0016 0.9984 0 0 0 0 0 0 0 0 0 1 0 0.0011 0.9944 0.0045 0 0 0 0 0 0 0 0 0.0007 0.9932 0.0061 0 0 0 0 0 0 0 0 0.0011 0.9927 0.0062 0 0 0 0 0 0 0 0 0.00079992 0.990701 0.00849915 0 0 0 0 0 0 0 0 0.0011 0.9927 0.0062 0 0 0 0 0 0 0 0 0.00079992 0.989501 0.00969903 0 0 0 0 0 0 0 0 0.001 0.999 0 0 0 0 0 0 0 0 0 0.9994 0.0006 0 0 0 0 0 0 0 0 0 1 0 0 0 0 0 0 0 0 0.0001 0.9999 0 0 0 0 0 0 0 0 0 1</probabilities>
    </cpt>
    <cpt id="activ_ins_14">
      <state id="80mU_l" />
      <state id="56mU_l" />
      <state id="40mU_l" />
      <state id="28mU_l" />
      <state id="20mU_l" />
      <state id="14mU_l" />
      <state id="10mU_l" />
      <state id="7mU_l" />
      <state id="5mU_l" />
      <state id="2mU_l" />
      <parents>ins_abs_14 ins_sens</parents>
      <probabilities>1 0 0 0 0 0 0 0 0 0 1 0 0 0 0 0 0 0 0 0 0.9956 0.0044 0 0 0 0 0 0 0 0 0.00109989 0.992801 0.00609939 0 0 0 0 0 0 0 0 0.0016 0.9953 0.0031 0 0 0 0 0 0 0 0 0.0011 0.9946 0.0043 0 0 0 0 0 0 0 0 0.0022 0.9947 0.0031 0 0 0 0 0 0 0 0 0.00219978 0.994701 0.00309969 0 0 0 0 0 0 0 0 0.0043 0.9942 0.0015 0 0 0 0 0 0 0 0.00270027 0.050205 0.30443 0.620162 0.0225023 0 0 0 0 0 0 0 0.0022 0.0459 0.9519 1 0 0 0 0 0 0 0 0 0 0.9956 0.0044 0 0 0 0 0 0 0 0 0.00109989 0.992801 0.00609939 0 0 0 0 0 0 0 0 0.0011 0.9944 0.0045 0 0 0 0 0 0 0 0 0.0011 0.9946 0.0043 0 0 0 0 0 0 0 0 0.00159984 0.994001 0.00439956 0 0 0 0 0 0 0 0 0.0015 0.9942 0.0043 0 0 0 0 0 0 0 0 0.0022 0.9947 0.0031 0 0 0 0 0 0 0 0 0.0031 0.9944 0.0025 0 0 0 0 0 0 9.999e-05 0.00349965 0.0722928 0.484152 0.439956 0 0 0 0 0 0 0 0 0.0019 0.9981 0.9956 0.0044 0 0 0 0 0 0 0 0 0.00109989 0.992801 0.00609939 0 0 0 0 0 0 0 0 0.0011 0.9944 0.0045 0 0 0 0 0 0 0 0 0.0007 0.9932 0.0061 0 0 0 0 0 0 0 0 0.00159984 0.994001 0.00439956 0 0 0 0 0 0 0 0 0.00109989 0.992801 0.00609939 0 0 0 0 0 0 0 0 0.00159984 0.994001 0.00439956 0 0 0 0 0 0 0 0 0.00150015 0.993599 0.00490049 0 0 0 0 0 0 0 0 0.0027 0.9973 0 0 0 0 0 0 0 0 0.00190019 0.0420042 0.956096 0 0 0 0 0 0 0 0 0.0001 0.9999 0.00079992 0.990701 0.00849915 0 0 0 0 0 0 0 0 0.0008 0.9928 0.0064 0 0 0 0 0 0 0 0 0.0005 0.991 0.0085 0 0 0 0 0 0 0 0 0.0008 0.9904 0.0088 0 0 0 0 0 0 0 0 0.00079992 0.990701 0.00849915 0 0 0 0 0 0 0 0 0.0008 0.9904 0.0088 0 0 0 0 0 0 0 0 0.00079992 0.989501 0.00969903 0 0 0 0 0 0 0 0 0.001 0.999 0 0 0 0 0 0 0 0 0 0.9997 0.0003 0 0 0 0 0 0 0 0 0.0016 0.9984 0 0 0 0 0 0 0 0 0 1 0 0.0011 0.9944 0.0045 0 0 0 0 0 0 0 0 0.0007 0.9932 0.0061 0 0 0 0 0 0 0 0 0.0011 0.9927 0.0062 0 0 0 0 0 0 0 0 0.00079992 0.990701 0.00849915 0 0 0 0 0 0 0 0 0.0011 0.9927 0.0062 0 0 0 0 0 0 0 0 0.00079992 0.989501 0.00969903 0 0 0 0 0 0 0 0 0.001 0.999 0 0 0 0 0 0 0 0 0 0.9994 0.0006 0 0 0 0 0 0 0 0 0 1 0 0 0 0 0 0 0 0 0.0001 0.9999 0 0 0 0 0 0 0 0 0 1</probabilities>
    </cpt>
    <cpt id="activ_ins_12">
      <state id="80mU_l" />
      <state id="56mU_l" />
      <state id="40mU_l" />
      <state id="28mU_l" />
      <state id="20mU_l" />
      <state id="14mU_l" />
      <state id="10mU_l" />
      <state id="7mU_l" />
      <state id="5mU_l" />
      <state id="2mU_l" />
      <parents>ins_abs_12 ins_sens</parents>
      <probabilities>1 0 0 0 0 0 0 0 0 0 1 0 0 0 0 0 0 0 0 0 0.9956 0.0044 0 0 0 0 0 0 0 0 0.00109989 0.992801 0.00609939 0 0 0 0 0 0 0 0 0.0016 0.9953 0.0031 0 0 0 0 0 0 0 0 0.0011 0.9946 0.0043 0 0 0 0 0 0 0 0 0.0022 0.9947 0.0031 0 0 0 0 0 0 0 0 0.00219978 0.994701 0.00309969 0 0 0 0 0 0 0 0 0.0043 0.9942 0.0015 0 0 0 0 0 0 0 0.00270027 0.050205 0.30443 0.620162 0.0225023 0 0 0 0 0 0 0 0.0022 0.0459 0.9519 1 0 0 0 0 0 0 0 0 0 0.9956 0.0044 0 0 0 0 0 0 0 0 0.00109989 0.992801 0.00609939 0 0 0 0 0 0 0 0 0.0011 0.9944 0.0045 0 0 0 0 0 0 0 0 0.0011 0.9946 0.0043 0 0 0 0 0 0 0 0 0.00159984 0.994001 0.00439956 0 0 0 0 0 0 0 0 0.0015 0.9942 0.0043 0 0 0 0 0 0 0 0 0.0022 0.9947 0.0031 0 0 0 0 0 0 0 0 0.0031 0.9944 0.0025 0 0 0 0 0 0 9.999e-05 0.00349965 0.0722928 0.484152 0.439956 0 0 0 0 0 0 0 0 0.0019 0.9981 0.9956 0.0044 0 0 0 0 0 0 0 0 0.00109989 0.992801 0.00609939 0 0 0 0 0 0 0 0 0.0011 0.9944 0.0045 0 0 0 0 0 0 0 0 0.0007 0.9932 0.0061 0 0 0 0 0 0 0 0 0.00159984 0.994001 0.00439956 0 0 0 0 0 0 0 0 0.00109989 0.992801 0.00609939 0 0 0 0 0 0 0 0 0.00159984 0.994001 0.00439956 0 0 0 0 0 0 0 0 0.00150015 0.993599 0.00490049 0 0 0 0 0 0 0 0 0.0027 0.9973 0 0 0 0 0 0 0 0 0.00190019 0.0420042 0.956096 0 0 0 0 0 0 0 0 0.0001 0.9999 0.00079992 0.990701 0.00849915 0 0 0 0 0 0 0 0 0.0008 0.9928 0.0064 0 0 0 0 0 0 0 0 0.0005 0.991 0.0085 0 0 0 0 0 0 0 0 0.0008 0.9904 0.0088 0 0 0 0 0 0 0 0 0.00079992 0.990701 0.00849915 0 0 0 0 0 0 0 0 0.0008 0.9904 0.0088 0 0 0 0 0 0 0 0 0.00079992 0.989501 0.00969903 0 0 0 0 0 0 0 0 0.001 0.999 0 0 0 0 0 0 0 0 0 0.9997 0.0003 0 0 0 0 0 0 0 0 0.0016 0.9984 0 0 0 0 0 0 0 0 0 1 0 0.0011 0.9944 0.0045 0 0 0 0 0 0 0 0 0.0007 0.9932 0.0061 0 0 0 0 0 0 0 0 0.0011 0.9927 0.0062 0 0 0 0 0 0 0 0 0.00079992 0.990701 0.00849915 0 0 0 0 0 0 0 0 0.0011 0.9927 0.0062 0 0 0 0 0 0 0 0 0.00079992 0.989501 0.00969903 0 0 0 0 0 0 0 0 0.001 0.999 0 0 0 0 0 0 0 0 0 0.9994 0.0006 0 0 0 0 0 0 0 0 0 1 0 0 0 0 0 0 0 0 0.0001 0.9999 0 0 0 0 0 0 0 0 0 1</probabilities>
    </cpt>
    <cpt id="activ_ins_6">
      <state id="80mU_l" />
      <state id="56mU_l" />
      <state id="40mU_l" />
      <state id="28mU_l" />
      <state id="20mU_l" />
      <state id="14mU_l" />
      <state id="10mU_l" />
      <state id="7mU_l" />
      <state id="5mU_l" />
      <state id="2mU_l" />
      <parents>ins_abs_6 ins_sens</parents>
      <probabilities>1 0 0 0 0 0 0 0 0 0 1 0 0 0 0 0 0 0 0 0 0.9956 0.0044 0 0 0 0 0 0 0 0 0.00109989 0.992801 0.00609939 0 0 0 0 0 0 0 0 0.0016 0.9953 0.0031 0 0 0 0 0 0 0 0 0.0011 0.9946 0.0043 0 0 0 0 0 0 0 0 0.0022 0.9947 0.0031 0 0 0 0 0 0 0 0 0.00219978 0.994701 0.00309969 0 0 0 0 0 0 0 0 0.0043 0.9942 0.0015 0 0 0 0 0 0 0 0.00270027 0.050205 0.30443 0.620162 0.0225023 0 0 0 0 0 0 0 0.0022 0.0459 0.9519 1 0 0 0 0 0 0 0 0 0 0.9956 0.0044 0 0 0 0 0 0 0 0 0.00109989 0.992801 0.00609939 0 0 0 0 0 0 0 0 0.0011 0.9944 0.0045 0 0 0 0 0 0 0 0 0.0011 0.9946 0.0043 0 0 0 0 0 0 0 0 0.00159984 0.994001 0.00439956 0 0 0 0 0 0 0 0 0.0015 0.9942 0.0043 0 0 0 0 0 0 0 0 0.0022 0.9947 0.0031 0 0 0 0 0 0 0 0 0.0031 0.9944 0.0025 0 0 0 0 0 0 9.999e-05 0.00349965 0.0722928 0.484152 0.439956 0 0 0 0 0 0 0 0 0.0019 0.9981 0.9956 0.0044 0 0 0 0 0 0 0 0 0.00109989 0.992801 0.00609939 0 0 0 0 0 0 0 0 0.0011 0.9944 0.0045 0 0 0 0 0 0 0 0 0.0007 0.9932 0.0061 0 0 0 0 0 0 0 0 0.00159984 0.994001 0.00439956 0 0 0 0 0 0 0 0 0.00109989 0.992801 0.00609939 0 0 0 0 0 0 0 0 0.00159984 0.994001 0.00439956 0 0 0 0 0 0 0 0 0.00150015 0.993599 0.00490049 0 0 0 0 0 0 0 0 0.0027 0.9973 0 0 0 0 0 0 0 0 0.00190019 0.0420042 0.956096 0 0 0 0 0 0 0 0 0.0001 0.9999 0.00079992 0.990701 0.00849915 0 0 0 0 0 0 0 0 0.0008 0.9928 0.0064 0 0 0 0 0 0 0 0 0.0005 0.991 0.0085 0 0 0 0 0 0 0 0 0.0008 0.9904 0.0088 0 0 0 0 0 0 0 0 0.00079992 0.990701 0.00849915 0 0 0 0 0 0 0 0 0.0008 0.9904 0.0088 0 0 0 0 0 0 0 0 0.00079992 0.989501 0.00969903 0 0 0 0 0 0 0 0 0.001 0.999 0 0 0 0 0 0 0 0 0 0.9997 0.0003 0 0 0 0 0 0 0 0 0.0016 0.9984 0 0 0 0 0 0 0 0 0 1 0 0.0011 0.9944 0.0045 0 0 0 0 0 0 0 0 0.0007 0.9932 0.0061 0 0 0 0 0 0 0 0 0.0011 0.9927 0.0062 0 0 0 0 0 0 0 0 0.00079992 0.990701 0.00849915 0 0 0 0 0 0 0 0 0.0011 0.9927 0.0062 0 0 0 0 0 0 0 0 0.00079992 0.989501 0.00969903 0 0 0 0 0 0 0 0 0.001 0.999 0 0 0 0 0 0 0 0 0 0.9994 0.0006 0 0 0 0 0 0 0 0 0 1 0 0 0 0 0 0 0 0 0.0001 0.9999 0 0 0 0 0 0 0 0 0 1</probabilities>
    </cpt>
    <cpt id="activ_ins_8">
      <state id="80mU_l" />
      <state id="56mU_l" />
      <state id="40mU_l" />
      <state id="28mU_l" />
      <state id="20mU_l" />
      <state id="14mU_l" />
      <state id="10mU_l" />
      <state id="7mU_l" />
      <state id="5mU_l" />
      <state id="2mU_l" />
      <parents>ins_abs_8 ins_sens</parents>
      <probabilities>1 0 0 0 0 0 0 0 0 0 1 0 0 0 0 0 0 0 0 0 0.9956 0.0044 0 0 0 0 0 0 0 0 0.00109989 0.992801 0.00609939 0 0 0 0 0 0 0 0 0.0016 0.9953 0.0031 0 0 0 0 0 0 0 0 0.0011 0.9946 0.0043 0 0 0 0 0 0 0 0 0.0022 0.9947 0.0031 0 0 0 0 0 0 0 0 0.00219978 0.994701 0.00309969 0 0 0 0 0 0 0 0 0.0043 0.9942 0.0015 0 0 0 0 0 0 0 0.00270027 0.050205 0.30443 0.620162 0.0225023 0 0 0 0 0 0 0 0.0022 0.0459 0.9519 1 0 0 0 0 0 0 0 0 0 0.9956 0.0044 0 0 0 0 0 0 0 0 0.00109989 0.992801 0.00609939 0 0 0 0 0 0 0 0 0.0011 0.9944 0.0045 0 0 0 0 0 0 0 0 0.0011 0.9946 0.0043 0 0 0 0 0 0 0 0 0.00159984 0.994001 0.00439956 0 0 0 0 0 0 0 0 0.0015 0.9942 0.0043 0 0 0 0 0 0 0 0 0.0022 0.9947 0.0031 0 0 0 0 0 0 0 0 0.0031 0.9944 0.0025 0 0 0 0 0 0 9.999e-05 0.00349965 0.0722928 0.484152 0.439956 0 0 0 0 0 0 0 0 0.0019 0.9981 0.9956 0.0044 0 0 0 0 0 0 0 0 0.00109989 0.992801 0.00609939 0 0 0 0 0 0 0 0 0.0011 0.9944 0.0045 0 0 0 0 0 0 0 0 0.0007 0.9932 0.0061 0 0 0 0 0 0 0 0 0.00159984 0.994001 0.00439956 0 0 0 0 0 0 0 0 0.00109989 0.992801 0.00609939 0 0 0 0 0 0 0 0 0.00159984 0.994001 0.00439956 0 0 0 0 0 0 0 0 0.00150015 0.993599 0.00490049 0 0 0 0 0 0 0 0 0.0027 0.9973 0 0 0 0 0 0 0 0 0.00190019 0.0420042 0.956096 0 0 0 0 0 0 0 0 0.0001 0.9999 0.00079992 0.990701 0.00849915 0 0 0 0 0 0 0 0 0.0008 0.9928 0.0064 0 0 0 0 0 0 0 0 0.0005 0.991 0.0085 0 0 0 0 0 0 0 0 0.0008 0.9904 0.0088 0 0 0 0 0 0 0 0 0.00079992 0.990701 0.00849915 0 0 0 0 0 0 0 0 0.0008 0.9904 0.0088 0 0 0 0 0 0 0 0 0.00079992 0.989501 0.00969903 0 0 0 0 0 0 0 0 0.001 0.999 0 0 0 0 0 0 0 0 0 0.9997 0.0003 0 0 0 0 0 0 0 0 0.0016 0.9984 0 0 0 0 0 0 0 0 0 1 0 0.0011 0.9944 0.0045 0 0 0 0 0 0 0 0 0.0007 0.9932 0.0061 0 0 0 0 0 0 0 0 0.0011 0.9927 0.0062 0 0 0 0 0 0 0 0 0.00079992 0.990701 0.00849915 0 0 0 0 0 0 0 0 0.0011 0.9927 0.0062 0 0 0 0 0 0 0 0 0.00079992 0.989501 0.00969903 0 0 0 0 0 0 0 0 0.001 0.999 0 0 0 0 0 0 0 0 0 0.9994 0.0006 0 0 0 0 0 0 0 0 0 1 0 0 0 0 0 0 0 0 0.0001 0.9999 0 0 0 0 0 0 0 0 0 1</probabilities>
    </cpt>
    <cpt id="activ_ins_10">
      <state id="80mU_l" />
      <state id="56mU_l" />
      <state id="40mU_l" />
      <state id="28mU_l" />
      <state id="20mU_l" />
      <state id="14mU_l" />
      <state id="10mU_l" />
      <state id="7mU_l" />
      <state id="5mU_l" />
      <state id="2mU_l" />
      <parents>ins_abs_10 ins_sens</parents>
      <probabilities>1 0 0 0 0 0 0 0 0 0 1 0 0 0 0 0 0 0 0 0 0.9956 0.0044 0 0 0 0 0 0 0 0 0.00109989 0.992801 0.00609939 0 0 0 0 0 0 0 0 0.0016 0.9953 0.0031 0 0 0 0 0 0 0 0 0.0011 0.9946 0.0043 0 0 0 0 0 0 0 0 0.0022 0.9947 0.0031 0 0 0 0 0 0 0 0 0.00219978 0.994701 0.00309969 0 0 0 0 0 0 0 0 0.0043 0.9942 0.0015 0 0 0 0 0 0 0 0.00270027 0.050205 0.30443 0.620162 0.0225023 0 0 0 0 0 0 0 0.0022 0.0459 0.9519 1 0 0 0 0 0 0 0 0 0 0.9956 0.0044 0 0 0 0 0 0 0 0 0.00109989 0.992801 0.00609939 0 0 0 0 0 0 0 0 0.0011 0.9944 0.0045 0 0 0 0 0 0 0 0 0.0011 0.9946 0.0043 0 0 0 0 0 0 0 0 0.00159984 0.994001 0.00439956 0 0 0 0 0 0 0 0 0.0015 0.9942 0.0043 0 0 0 0 0 0 0 0 0.0022 0.9947 0.0031 0 0 0 0 0 0 0 0 0.0031 0.9944 0.0025 0 0 0 0 0 0 9.999e-05 0.00349965 0.0722928 0.484152 0.439956 0 0 0 0 0 0 0 0 0.0019 0.9981 0.9956 0.0044 0 0 0 0 0 0 0 0 0.00109989 0.992801 0.00609939 0 0 0 0 0 0 0 0 0.0011 0.9944 0.0045 0 0 0 0 0 0 0 0 0.0007 0.9932 0.0061 0 0 0 0 0 0 0 0 0.00159984 0.994001 0.00439956 0 0 0 0 0 0 0 0 0.00109989 0.992801 0.00609939 0 0 0 0 0 0 0 0 0.00159984 0.994001 0.00439956 0 0 0 0 0 0 0 0 0.00150015 0.993599 0.00490049 0 0 0 0 0 0 0 0 0.0027 0.9973 0 0 0 0 0 0 0 0 0.00190019 0.0420042 0.956096 0 0 0 0 0 0 0 0 0.0001 0.9999 0.00079992 0.990701 0.00849915 0 0 0 0 0 0 0 0 0.0008 0.9928 0.0064 0 0 0 0 0 0 0 0 0.0005 0.991 0.0085 0 0 0 0 0 0 0 0 0.0008 0.9904 0.0088 0 0 0 0 0 0 0 0 0.00079992 0.990701 0.00849915 0 0 0 0 0 0 0 0 0.0008 0.9904 0.0088 0 0 0 0 0 0 0 0 0.00079992 0.989501 0.00969903 0 0 0 0 0 0 0 0 0.001 0.999 0 0 0 0 0 0 0 0 0 0.9997 0.0003 0 0 0 0 0 0 0 0 0.0016 0.9984 0 0 0 0 0 0 0 0 0 1 0 0.0011 0.9944 0.0045 0 0 0 0 0 0 0 0 0.0007 0.9932 0.0061 0 0 0 0 0 0 0 0 0.0011 0.9927 0.0062 0 0 0 0 0 0 0 0 0.00079992 0.990701 0.00849915 0 0 0 0 0 0 0 0 0.0011 0.9927 0.0062 0 0 0 0 0 0 0 0 0.00079992 0.989501 0.00969903 0 0 0 0 0 0 0 0 0.001 0.999 0 0 0 0 0 0 0 0 0 0.9994 0.0006 0 0 0 0 0 0 0 0 0 1 0 0 0 0 0 0 0 0 0.0001 0.9999 0 0 0 0 0 0 0 0 0 1</probabilities>
    </cpt>
    <cpt id="activ_ins_1">
      <state id="80mU_l" />
      <state id="56mU_l" />
      <state id="40mU_l" />
      <state id="28mU_l" />
      <state id="20mU_l" />
      <state id="14mU_l" />
      <state id="10mU_l" />
      <state id="7mU_l" />
      <state id="5mU_l" />
      <state id="2mU_l" />
      <parents>ins_abs_1 ins_sens</parents>
      <probabilities>1 0 0 0 0 0 0 0 0 0 1 0 0 0 0 0 0 0 0 0 0.9956 0.0044 0 0 0 0 0 0 0 0 0.00109989 0.992801 0.00609939 0 0 0 0 0 0 0 0 0.0016 0.9953 0.0031 0 0 0 0 0 0 0 0 0.0011 0.9946 0.0043 0 0 0 0 0 0 0 0 0.0022 0.9947 0.0031 0 0 0 0 0 0 0 0 0.00219978 0.994701 0.00309969 0 0 0 0 0 0 0 0 0.0043 0.9942 0.0015 0 0 0 0 0 0 0 0.00270027 0.050205 0.30443 0.620162 0.0225023 0 0 0 0 0 0 0 0.0022 0.0459 0.9519 1 0 0 0 0 0 0 0 0 0 0.9956 0.0044 0 0 0 0 0 0 0 0 0.00109989 0.992801 0.00609939 0 0 0 0 0 0 0 0 0.0011 0.9944 0.0045 0 0 0 0 0 0 0 0 0.0011 0.9946 0.0043 0 0 0 0 0 0 0 0 0.00159984 0.994001 0.00439956 0 0 0 0 0 0 0 0 0.0015 0.9942 0.0043 0 0 0 0 0 0 0 0 0.0022 0.9947 0.0031 0 0 0 0 0 0 0 0 0.0031 0.9944 0.0025 0 0 0 0 0 0 9.999e-05 0.00349965 0.0722928 0.484152 0.439956 0 0 0 0 0 0 0 0 0.0019 0.9981 0.9956 0.0044 0 0 0 0 0 0 0 0 0.00109989 0.992801 0.00609939 0 0 0 0 0 0 0 0 0.0011 0.9944 0.0045 0 0 0 0 0 0 0 0 0.0007 0.9932 0.0061 0 0 0 0 0 0 0 0 0.00159984 0.994001 0.00439956 0 0 0 0 0 0 0 0 0.00109989 0.992801 0.00609939 0 0 0 0 0 0 0 0 0.00159984 0.994001 0.00439956 0 0 0 0 0 0 0 0 0.00150015 0.993599 0.00490049 0 0 0 0 0 0 0 0 0.0027 0.9973 0 0 0 0 0 0 0 0 0.00190019 0.0420042 0.956096 0 0 0 0 0 0 0 0 0.0001 0.9999 0.00079992 0.990701 0.00849915 0 0 0 0 0 0 0 0 0.0008 0.9928 0.0064 0 0 0 0 0 0 0 0 0.0005 0.991 0.0085 0 0 0 0 0 0 0 0 0.0008 0.9904 0.0088 0 0 0 0 0 0 0 0 0.00079992 0.990701 0.00849915 0 0 0 0 0 0 0 0 0.0008 0.9904 0.0088 0 0 0 0 0 0 0 0 0.00079992 0.989501 0.00969903 0 0 0 0 0 0 0 0 0.001 0.999 0 0 0 0 0 0 0 0 0 0.9997 0.0003 0 0 0 0 0 0 0 0 0.0016 0.9984 0 0 0 0 0 0 0 0 0 1 0 0.0011 0.9944 0.0045 0 0 0 0 0 0 0 0 0.0007 0.9932 0.0061 0 0 0 0 0 0 0 0 0.0011 0.9927 0.0062 0 0 0 0 0 0 0 0 0.00079992 0.990701 0.00849915 0 0 0 0 0 0 0 0 0.0011 0.9927 0.0062 0 0 0 0 0 0 0 0 0.00079992 0.989501 0.00969903 0 0 0 0 0 0 0 0 0.001 0.999 0 0 0 0 0 0 0 0 0 0.9994 0.0006 0 0 0 0 0 0 0 0 0 1 0 0 0 0 0 0 0 0 0.0001 0.9999 0 0 0 0 0 0 0 0 0 1</probabilities>
    </cpt>
    <cpt id="activ_ins_3">
      <state id="80mU_l" />
      <state id="56mU_l" />
      <state id="40mU_l" />
      <state id="28mU_l" />
      <state id="20mU_l" />
      <state id="14mU_l" />
      <state id="10mU_l" />
      <state id="7mU_l" />
      <state id="5mU_l" />
      <state id="2mU_l" />
      <parents>ins_abs_3 ins_sens</parents>
      <probabilities>1 0 0 0 0 0 0 0 0 0 1 0 0 0 0 0 0 0 0 0 0.9956 0.0044 0 0 0 0 0 0 0 0 0.00109989 0.992801 0.00609939 0 0 0 0 0 0 0 0 0.0016 0.9953 0.0031 0 0 0 0 0 0 0 0 0.0011 0.9946 0.0043 0 0 0 0 0 0 0 0 0.0022 0.9947 0.0031 0 0 0 0 0 0 0 0 0.00219978 0.994701 0.00309969 0 0 0 0 0 0 0 0 0.0043 0.9942 0.0015 0 0 0 0 0 0 0 0.00270027 0.050205 0.30443 0.620162 0.0225023 0 0 0 0 0 0 0 0.0022 0.0459 0.9519 1 0 0 0 0 0 0 0 0 0 0.9956 0.0044 0 0 0 0 0 0 0 0 0.00109989 0.992801 0.00609939 0 0 0 0 0 0 0 0 0.0011 0.9944 0.0045 0 0 0 0 0 0 0 0 0.0011 0.9946 0.0043 0 0 0 0 0 0 0 0 0.00159984 0.994001 0.00439956 0 0 0 0 0 0 0 0 0.0015 0.9942 0.0043 0 0 0 0 0 0 0 0 0.0022 0.9947 0.0031 0 0 0 0 0 0 0 0 0.0031 0.9944 0.0025 0 0 0 0 0 0 9.999e-05 0.00349965 0.0722928 0.484152 0.439956 0 0 0 0 0 0 0 0 0.0019 0.9981 0.9956 0.0044 0 0 0 0 0 0 0 0 0.00109989 0.992801 0.00609939 0 0 0 0 0 0 0 0 0.0011 0.9944 0.0045 0 0 0 0 0 0 0 0 0.0007 0.9932 0.0061 0 0 0 0 0 0 0 0 0.00159984 0.994001 0.00439956 0 0 0 0 0 0 0 0 0.00109989 0.992801 0.00609939 0 0 0 0 0 0 0 0 0.00159984 0.994001 0.00439956 0 0 0 0 0 0 0 0 0.00150015 0.993599 0.00490049 0 0 0 0 0 0 0 0 0.0027 0.9973 0 0 0 0 0 0 0 0 0.00190019 0.0420042 0.956096 0 0 0 0 0 0 0 0 0.0001 0.9999 0.00079992 0.990701 0.00849915 0 0 0 0 0 0 0 0 0.0008 0.9928 0.0064 0 0 0 0 0 0 0 0 0.0005 0.991 0.0085 0 0 0 0 0 0 0 0 0.0008 0.9904 0.0088 0 0 0 0 0 0 0 0 0.00079992 0.990701 0.00849915 0 0 0 0 0 0 0 0 0.0008 0.9904 0.0088 0 0 0 0 0 0 0 0 0.00079992 0.989501 0.00969903 0 0 0 0 0 0 0 0 0.001 0.999 0 0 0 0 0 0 0 0 0 0.9997 0.0003 0 0 0 0 0 0 0 0 0.0016 0.9984 0 0 0 0 0 0 0 0 0 1 0 0.0011 0.9944 0.0045 0 0 0 0 0 0 0 0 0.0007 0.9932 0.0061 0 0 0 0 0 0 0 0 0.0011 0.9927 0.0062 0 0 0 0 0 0 0 0 0.00079992 0.990701 0.00849915 0 0 0 0 0 0 0 0 0.0011 0.9927 0.0062 0 0 0 0 0 0 0 0 0.00079992 0.989501 0.00969903 0 0 0 0 0 0 0 0 0.001 0.999 0 0 0 0 0 0 0 0 0 0.9994 0.0006 0 0 0 0 0 0 0 0 0 1 0 0 0 0 0 0 0 0 0.0001 0.9999 0 0 0 0 0 0 0 0 0 1</probabilities>
    </cpt>
    <cpt id="activ_ins_5">
      <state id="80mU_l" />
      <state id="56mU_l" />
      <state id="40mU_l" />
      <state id="28mU_l" />
      <state id="20mU_l" />
      <state id="14mU_l" />
      <state id="10mU_l" />
      <state id="7mU_l" />
      <state id="5mU_l" />
      <state id="2mU_l" />
      <parents>ins_abs_5 ins_sens</parents>
      <probabilities>1 0 0 0 0 0 0 0 0 0 1 0 0 0 0 0 0 0 0 0 0.9956 0.0044 0 0 0 0 0 0 0 0 0.00109989 0.992801 0.00609939 0 0 0 0 0 0 0 0 0.0016 0.9953 0.0031 0 0 0 0 0 0 0 0 0.0011 0.9946 0.0043 0 0 0 0 0 0 0 0 0.0022 0.9947 0.0031 0 0 0 0 0 0 0 0 0.00219978 0.994701 0.00309969 0 0 0 0 0 0 0 0 0.0043 0.9942 0.0015 0 0 0 0 0 0 0 0.00270027 0.050205 0.30443 0.620162 0.0225023 0 0 0 0 0 0 0 0.0022 0.0459 0.9519 1 0 0 0 0 0 0 0 0 0 0.9956 0.0044 0 0 0 0 0 0 0 0 0.00109989 0.992801 0.00609939 0 0 0 0 0 0 0 0 0.0011 0.9944 0.0045 0 0 0 0 0 0 0 0 0.0011 0.9946 0.0043 0 0 0 0 0 0 0 0 0.00159984 0.994001 0.00439956 0 0 0 0 0 0 0 0 0.0015 0.9942 0.0043 0 0 0 0 0 0 0 0 0.0022 0.9947 0.0031 0 0 0 0 0 0 0 0 0.0031 0.9944 0.0025 0 0 0 0 0 0 9.999e-05 0.00349965 0.0722928 0.484152 0.439956 0 0 0 0 0 0 0 0 0.0019 0.9981 0.9956 0.0044 0 0 0 0 0 0 0 0 0.00109989 0.992801 0.00609939 0 0 0 0 0 0 0 0 0.0011 0.9944 0.0045 0 0 0 0 0 0 0 0 0.0007 0.9932 0.0061 0 0 0 0 0 0 0 0 0.00159984 0.994001 0.00439956 0 0 0 0 0 0 0 0 0.00109989 0.992801 0.00609939 0 0 0 0 0 0 0 0 0.00159984 0.994001 0.00439956 0 0 0 0 0 0 0 0 0.00150015 0.993599 0.00490049 0 0 0 0 0 0 0 0 0.0027 0.9973 0 0 0 0 0 0 0 0 0.00190019 0.0420042 0.956096 0 0 0 0 0 0 0 0 0.0001 0.9999 0.00079992 0.990701 0.00849915 0 0 0 0 0 0 0 0 0.0008 0.9928 0.0064 0 0 0 0 0 0 0 0 0.0005 0.991 0.0085 0 0 0 0 0 0 0 0 0.0008 0.9904 0.0088 0 0 0 0 0 0 0 0 0.00079992 0.990701 0.00849915 0 0 0 0 0 0 0 0 0.0008 0.9904 0.0088 0 0 0 0 0 0 0 0 0.00079992 0.989501 0.00969903 0 0 0 0 0 0 0 0 0.001 0.999 0 0 0 0 0 0 0 0 0 0.9997 0.0003 0 0 0 0 0 0 0 0 0.0016 0.9984 0 0 0 0 0 0 0 0 0 1 0 0.0011 0.9944 0.0045 0 0 0 0 0 0 0 0 0.0007 0.9932 0.0061 0 0 0 0 0 0 0 0 0.0011 0.9927 0.0062 0 0 0 0 0 0 0 0 0.00079992 0.990701 0.00849915 0 0 0 0 0 0 0 0 0.0011 0.9927 0.0062 0 0 0 0 0 0 0 0 0.00079992 0.989501 0.00969903 0 0 0 0 0 0 0 0 0.001 0.999 0 0 0 0 0 0 0 0 0 0.9994 0.0006 0 0 0 0 0 0 0 0 0 1 0 0 0 0 0 0 0 0 0.0001 0.9999 0 0 0 0 0 0 0 0 0 1</probabilities>
    </cpt>
    <cpt id="activ_ins_23">
      <state id="80mU_l" />
      <state id="56mU_l" />
      <state id="40mU_l" />
      <state id="28mU_l" />
      <state id="20mU_l" />
      <state id="14mU_l" />
      <state id="10mU_l" />
      <state id="7mU_l" />
      <state id="5mU_l" />
      <state id="2mU_l" />
      <parents>ins_abs_23 ins_sens</parents>
      <probabilities>1 0 0 0 0 0 0 0 0 0 1 0 0 0 0 0 0 0 0 0 0.9956 0.0044 0 0 0 0 0 0 0 0 0.00109989 0.992801 0.00609939 0 0 0 0 0 0 0 0 0.0016 0.9953 0.0031 0 0 0 0 0 0 0 0 0.0011 0.9946 0.0043 0 0 0 0 0 0 0 0 0.0022 0.9947 0.0031 0 0 0 0 0 0 0 0 0.00219978 0.994701 0.00309969 0 0 0 0 0 0 0 0 0.0043 0.9942 0.0015 0 0 0 0 0 0 0 0.00270027 0.050205 0.30443 0.620162 0.0225023 0 0 0 0 0 0 0 0.0022 0.0459 0.9519 1 0 0 0 0 0 0 0 0 0 0.9956 0.0044 0 0 0 0 0 0 0 0 0.00109989 0.992801 0.00609939 0 0 0 0 0 0 0 0 0.0011 0.9944 0.0045 0 0 0 0 0 0 0 0 0.0011 0.9946 0.0043 0 0 0 0 0 0 0 0 0.00159984 0.994001 0.00439956 0 0 0 0 0 0 0 0 0.0015 0.9942 0.0043 0 0 0 0 0 0 0 0 0.0022 0.9947 0.0031 0 0 0 0 0 0 0 0 0.0031 0.9944 0.0025 0 0 0 0 0 0 9.999e-05 0.00349965 0.0722928 0.484152 0.439956 0 0 0 0 0 0 0 0 0.0019 0.9981 0.9956 0.0044 0 0 0 0 0 0 0 0 0.00109989 0.992801 0.00609939 0 0 0 0 0 0 0 0 0.0011 0.9944 0.0045 0 0 0 0 0 0 0 0 0.0007 0.9932 0.0061 0 0 0 0 0 0 0 0 0.00159984 0.994001 0.00439956 0 0 0 0 0 0 0 0 0.00109989 0.992801 0.00609939 0 0 0 0 0 0 0 0 0.00159984 0.994001 0.00439956 0 0 0 0 0 0 0 0 0.00150015 0.993599 0.00490049 0 0 0 0 0 0 0 0 0.0027 0.9973 0 0 0 0 0 0 0 0 0.00190019 0.0420042 0.956096 0 0 0 0 0 0 0 0 0.0001 0.9999 0.00079992 0.990701 0.00849915 0 0 0 0 0 0 0 0 0.0008 0.9928 0.0064 0 0 0 0 0 0 0 0 0.0005 0.991 0.0085 0 0 0 0 0 0 0 0 0.0008 0.9904 0.0088 0 0 0 0 0 0 0 0 0.00079992 0.990701 0.00849915 0 0 0 0 0 0 0 0 0.0008 0.9904 0.0088 0 0 0 0 0 0 0 0 0.00079992 0.989501 0.00969903 0 0 0 0 0 0 0 0 0.001 0.999 0 0 0 0 0 0 0 0 0 0.9997 0.0003 0 0 0 0 0 0 0 0 0.0016 0.9984 0 0 0 0 0 0 0 0 0 1 0 0.0011 0.9944 0.0045 0 0 0 0 0 0 0 0 0.0007 0.9932 0.0061 0 0 0 0 0 0 0 0 0.0011 0.9927 0.0062 0 0 0 0 0 0 0 0 0.00079992 0.990701 0.00849915 0 0 0 0 0 0 0 0 0.0011 0.9927 0.0062 0 0 0 0 0 0 0 0 0.00079992 0.989501 0.00969903 0 0 0 0 0 0 0 0 0.001 0.999 0 0 0 0 0 0 0 0 0 0.9994 0.0006 0 0 0 0 0 0 0 0 0 1 0 0 0 0 0 0 0 0 0.0001 0.9999 0 0 0 0 0 0 0 0 0 1</probabilities>
    </cpt>
    <cpt id="activ_ins_21">
      <state id="80mU_l" />
      <state id="56mU_l" />
      <state id="40mU_l" />
      <state id="28mU_l" />
      <state id="20mU_l" />
      <state id="14mU_l" />
      <state id="10mU_l" />
      <state id="7mU_l" />
      <state id="5mU_l" />
      <state id="2mU_l" />
      <parents>ins_abs_21 ins_sens</parents>
      <probabilities>1 0 0 0 0 0 0 0 0 0 1 0 0 0 0 0 0 0 0 0 0.9956 0.0044 0 0 0 0 0 0 0 0 0.00109989 0.992801 0.00609939 0 0 0 0 0 0 0 0 0.0016 0.9953 0.0031 0 0 0 0 0 0 0 0 0.0011 0.9946 0.0043 0 0 0 0 0 0 0 0 0.0022 0.9947 0.0031 0 0 0 0 0 0 0 0 0.00219978 0.994701 0.00309969 0 0 0 0 0 0 0 0 0.0043 0.9942 0.0015 0 0 0 0 0 0 0 0.00270027 0.050205 0.30443 0.620162 0.0225023 0 0 0 0 0 0 0 0.0022 0.0459 0.9519 1 0 0 0 0 0 0 0 0 0 0.9956 0.0044 0 0 0 0 0 0 0 0 0.00109989 0.992801 0.00609939 0 0 0 0 0 0 0 0 0.0011 0.9944 0.0045 0 0 0 0 0 0 0 0 0.0011 0.9946 0.0043 0 0 0 0 0 0 0 0 0.00159984 0.994001 0.00439956 0 0 0 0 0 0 0 0 0.0015 0.9942 0.0043 0 0 0 0 0 0 0 0 0.0022 0.9947 0.0031 0 0 0 0 0 0 0 0 0.0031 0.9944 0.0025 0 0 0 0 0 0 9.999e-05 0.00349965 0.0722928 0.484152 0.439956 0 0 0 0 0 0 0 0 0.0019 0.9981 0.9956 0.0044 0 0 0 0 0 0 0 0 0.00109989 0.992801 0.00609939 0 0 0 0 0 0 0 0 0.0011 0.9944 0.0045 0 0 0 0 0 0 0 0 0.0007 0.9932 0.0061 0 0 0 0 0 0 0 0 0.00159984 0.994001 0.00439956 0 0 0 0 0 0 0 0 0.00109989 0.992801 0.00609939 0 0 0 0 0 0 0 0 0.00159984 0.994001 0.00439956 0 0 0 0 0 0 0 0 0.00150015 0.993599 0.00490049 0 0 0 0 0 0 0 0 0.0027 0.9973 0 0 0 0 0 0 0 0 0.00190019 0.0420042 0.956096 0 0 0 0 0 0 0 0 0.0001 0.9999 0.00079992 0.990701 0.00849915 0 0 0 0 0 0 0 0 0.0008 0.9928 0.0064 0 0 0 0 0 0 0 0 0.0005 0.991 0.0085 0 0 0 0 0 0 0 0 0.0008 0.9904 0.0088 0 0 0 0 0 0 0 0 0.00079992 0.990701 0.00849915 0 0 0 0 0 0 0 0 0.0008 0.9904 0.0088 0 0 0 0 0 0 0 0 0.00079992 0.989501 0.00969903 0 0 0 0 0 0 0 0 0.001 0.999 0 0 0 0 0 0 0 0 0 0.9997 0.0003 0 0 0 0 0 0 0 0 0.0016 0.9984 0 0 0 0 0 0 0 0 0 1 0 0.0011 0.9944 0.0045 0 0 0 0 0 0 0 0 0.0007 0.9932 0.0061 0 0 0 0 0 0 0 0 0.0011 0.9927 0.0062 0 0 0 0 0 0 0 0 0.00079992 0.990701 0.00849915 0 0 0 0 0 0 0 0 0.0011 0.9927 0.0062 0 0 0 0 0 0 0 0 0.00079992 0.989501 0.00969903 0 0 0 0 0 0 0 0 0.001 0.999 0 0 0 0 0 0 0 0 0 0.9994 0.0006 0 0 0 0 0 0 0 0 0 1 0 0 0 0 0 0 0 0 0.0001 0.9999 0 0 0 0 0 0 0 0 0 1</probabilities>
    </cpt>
    <cpt id="activ_ins_19">
      <state id="80mU_l" />
      <state id="56mU_l" />
      <state id="40mU_l" />
      <state id="28mU_l" />
      <state id="20mU_l" />
      <state id="14mU_l" />
      <state id="10mU_l" />
      <state id="7mU_l" />
      <state id="5mU_l" />
      <state id="2mU_l" />
      <parents>ins_abs_19 ins_sens</parents>
      <probabilities>1 0 0 0 0 0 0 0 0 0 1 0 0 0 0 0 0 0 0 0 0.9956 0.0044 0 0 0 0 0 0 0 0 0.00109989 0.992801 0.00609939 0 0 0 0 0 0 0 0 0.0016 0.9953 0.0031 0 0 0 0 0 0 0 0 0.0011 0.9946 0.0043 0 0 0 0 0 0 0 0 0.0022 0.9947 0.0031 0 0 0 0 0 0 0 0 0.00219978 0.994701 0.00309969 0 0 0 0 0 0 0 0 0.0043 0.9942 0.0015 0 0 0 0 0 0 0 0.00270027 0.050205 0.30443 0.620162 0.0225023 0 0 0 0 0 0 0 0.0022 0.0459 0.9519 1 0 0 0 0 0 0 0 0 0 0.9956 0.0044 0 0 0 0 0 0 0 0 0.00109989 0.992801 0.00609939 0 0 0 0 0 0 0 0 0.0011 0.9944 0.0045 0 0 0 0 0 0 0 0 0.0011 0.9946 0.0043 0 0 0 0 0 0 0 0 0.00159984 0.994001 0.00439956 0 0 0 0 0 0 0 0 0.0015 0.9942 0.0043 0 0 0 0 0 0 0 0 0.0022 0.9947 0.0031 0 0 0 0 0 0 0 0 0.0031 0.9944 0.0025 0 0 0 0 0 0 9.999e-05 0.00349965 0.0722928 0.484152 0.439956 0 0 0 0 0 0 0 0 0.0019 0.9981 0.9956 0.0044 0 0 0 0 0 0 0 0 0.00109989 0.992801 0.00609939 0 0 0 0 0 0 0 0 0.0011 0.9944 0.0045 0 0 0 0 0 0 0 0 0.0007 0.9932 0.0061 0 0 0 0 0 0 0 0 0.00159984 0.994001 0.00439956 0 0 0 0 0 0 0 0 0.00109989 0.992801 0.00609939 0 0 0 0 0 0 0 0 0.00159984 0.994001 0.00439956 0 0 0 0 0 0 0 0 0.00150015 0.993599 0.00490049 0 0 0 0 0 0 0 0 0.0027 0.9973 0 0 0 0 0 0 0 0 0.00190019 0.0420042 0.956096 0 0 0 0 0 0 0 0 0.0001 0.9999 0.00079992 0.990701 0.00849915 0 0 0 0 0 0 0 0 0.0008 0.9928 0.0064 0 0 0 0 0 0 0 0 0.0005 0.991 0.0085 0 0 0 0 0 0 0 0 0.0008 0.9904 0.0088 0 0 0 0 0 0 0 0 0.00079992 0.990701 0.00849915 0 0 0 0 0 0 0 0 0.0008 0.9904 0.0088 0 0 0 0 0 0 0 0 0.00079992 0.989501 0.00969903 0 0 0 0 0 0 0 0 0.001 0.999 0 0 0 0 0 0 0 0 0 0.9997 0.0003 0 0 0 0 0 0 0 0 0.0016 0.9984 0 0 0 0 0 0 0 0 0 1 0 0.0011 0.9944 0.0045 0 0 0 0 0 0 0 0 0.0007 0.9932 0.0061 0 0 0 0 0 0 0 0 0.0011 0.9927 0.0062 0 0 0 0 0 0 0 0 0.00079992 0.990701 0.00849915 0 0 0 0 0 0 0 0 0.0011 0.9927 0.0062 0 0 0 0 0 0 0 0 0.00079992 0.989501 0.00969903 0 0 0 0 0 0 0 0 0.001 0.999 0 0 0 0 0 0 0 0 0 0.9994 0.0006 0 0 0 0 0 0 0 0 0 1 0 0 0 0 0 0 0 0 0.0001 0.9999 0 0 0 0 0 0 0 0 0 1</probabilities>
    </cpt>
    <cpt id="activ_ins_17">
      <state id="80mU_l" />
      <state id="56mU_l" />
      <state id="40mU_l" />
      <state id="28mU_l" />
      <state id="20mU_l" />
      <state id="14mU_l" />
      <state id="10mU_l" />
      <state id="7mU_l" />
      <state id="5mU_l" />
      <state id="2mU_l" />
      <parents>ins_abs_17 ins_sens</parents>
      <probabilities>1 0 0 0 0 0 0 0 0 0 1 0 0 0 0 0 0 0 0 0 0.9956 0.0044 0 0 0 0 0 0 0 0 0.00109989 0.992801 0.00609939 0 0 0 0 0 0 0 0 0.0016 0.9953 0.0031 0 0 0 0 0 0 0 0 0.0011 0.9946 0.0043 0 0 0 0 0 0 0 0 0.0022 0.9947 0.0031 0 0 0 0 0 0 0 0 0.00219978 0.994701 0.00309969 0 0 0 0 0 0 0 0 0.0043 0.9942 0.0015 0 0 0 0 0 0 0 0.00270027 0.050205 0.30443 0.620162 0.0225023 0 0 0 0 0 0 0 0.0022 0.0459 0.9519 1 0 0 0 0 0 0 0 0 0 0.9956 0.0044 0 0 0 0 0 0 0 0 0.00109989 0.992801 0.00609939 0 0 0 0 0 0 0 0 0.0011 0.9944 0.0045 0 0 0 0 0 0 0 0 0.0011 0.9946 0.0043 0 0 0 0 0 0 0 0 0.00159984 0.994001 0.00439956 0 0 0 0 0 0 0 0 0.0015 0.9942 0.0043 0 0 0 0 0 0 0 0 0.0022 0.9947 0.0031 0 0 0 0 0 0 0 0 0.0031 0.9944 0.0025 0 0 0 0 0 0 9.999e-05 0.00349965 0.0722928 0.484152 0.439956 0 0 0 0 0 0 0 0 0.0019 0.9981 0.9956 0.0044 0 0 0 0 0 0 0 0 0.00109989 0.992801 0.00609939 0 0 0 0 0 0 0 0 0.0011 0.9944 0.0045 0 0 0 0 0 0 0 0 0.0007 0.9932 0.0061 0 0 0 0 0 0 0 0 0.00159984 0.994001 0.00439956 0 0 0 0 0 0 0 0 0.00109989 0.992801 0.00609939 0 0 0 0 0 0 0 0 0.00159984 0.994001 0.00439956 0 0 0 0 0 0 0 0 0.00150015 0.993599 0.00490049 0 0 0 0 0 0 0 0 0.0027 0.9973 0 0 0 0 0 0 0 0 0.00190019 0.0420042 0.956096 0 0 0 0 0 0 0 0 0.0001 0.9999 0.00079992 0.990701 0.00849915 0 0 0 0 0 0 0 0 0.0008 0.9928 0.0064 0 0 0 0 0 0 0 0 0.0005 0.991 0.0085 0 0 0 0 0 0 0 0 0.0008 0.9904 0.0088 0 0 0 0 0 0 0 0 0.00079992 0.990701 0.00849915 0 0 0 0 0 0 0 0 0.0008 0.9904 0.0088 0 0 0 0 0 0 0 0 0.00079992 0.989501 0.00969903 0 0 0 0 0 0 0 0 0.001 0.999 0 0 0 0 0 0 0 0 0 0.9997 0.0003 0 0 0 0 0 0 0 0 0.0016 0.9984 0 0 0 0 0 0 0 0 0 1 0 0.0011 0.9944 0.0045 0 0 0 0 0 0 0 0 0.0007 0.9932 0.0061 0 0 0 0 0 0 0 0 0.0011 0.9927 0.0062 0 0 0 0 0 0 0 0 0.00079992 0.990701 0.00849915 0 0 0 0 0 0 0 0 0.0011 0.9927 0.0062 0 0 0 0 0 0 0 0 0.00079992 0.989501 0.00969903 0 0 0 0 0 0 0 0 0.001 0.999 0 0 0 0 0 0 0 0 0 0.9994 0.0006 0 0 0 0 0 0 0 0 0 1 0 0 0 0 0 0 0 0 0.0001 0.9999 0 0 0 0 0 0 0 0 0 1</probabilities>
    </cpt>
    <cpt id="activ_ins_15">
      <state id="80mU_l" />
      <state id="56mU_l" />
      <state id="40mU_l" />
      <state id="28mU_l" />
      <state id="20mU_l" />
      <state id="14mU_l" />
      <state id="10mU_l" />
      <state id="7mU_l" />
      <state id="5mU_l" />
      <state id="2mU_l" />
      <parents>ins_abs_15 ins_sens</parents>
