<?xml version="1.0" ?>
<!-- This network was created by pyAgrum 1.9.0 for any purpose you want -->
<smile version="1.0" id="Munin">

  <nodes>
    <cpt id="L_OTHER_ISCH_DIFSLOW">
      <state id="NO" />
      <state id="MILD" />
      <state id="MOD" />
      <state id="SEV" />
      <probabilities>1 0 0 0</probabilities>
    </cpt>
    <cpt id="L_SUR_RD_CA">
      <state id="NO" />
      <state id="MOD" />
      <state id="SEV" />
      <probabilities>1 0 0</probabilities>
    </cpt>
    <cpt id="L_SUR_LD_CA">
      <state id="NO" />
      <state id="MILD" />
      <state id="MOD" />
      <state id="SEV" />
      <probabilities>1 0 0 0</probabilities>
    </cpt>
    <cpt id="L_SUR_LSLOW_CA">
      <state id="NO" />
      <state id="MILD" />
      <state id="MOD" />
      <state id="SEV" />
      <state id="V_SEV" />
      <parents>L_SUR_LD_CA L_SUR_RD_CA</parents>
      <probabilities>1 0 0 0 0 0.0185 0.9561 0.0254 0 0 0 0.0166 0.9834 0 0 0.0007 0.002 0.0219 0.9754 0 0.0021 0.0042 0.0295 0.9642 0 0.0012 0.0025 0.0194 0.9769 0 0.00069993 0.00149985 0.0119988 0.985801 0 0.00020002 0.00050005 0.00460046 0.994499 0.00020002 0.0001 0.0002 0.0014 0.083 0.9153 0.0001 0.0001 0.0008 0.0533 0.9457 0 0.0001 0.0004 0.0319 0.9676 0 0 0 0.00350035 0.9965</probabilities>
    </cpt>
    <cpt id="L_LNL_ISCH_PATHO">
      <state id="DEMY" />
      <state id="BLOCK" />
      <state id="AXONAL" />
      <state id="V_E_REIN" />
      <state id="E_REIN" />
      <probabilities>0.25 0.25 0.5 0 0</probabilities>
    </cpt>
    <cpt id="L_LNL_ISCH_SEV">
      <state id="NO" />
      <state id="MILD" />
      <state id="MOD" />
      <state id="SEV" />
      <state id="TOTAL" />
      <probabilities>0.96 0.02 0.01 0.005 0.005</probabilities>
    </cpt>
    <cpt id="L_LNL_ISCH_SALOSS_CA">
      <state id="NO" />
      <state id="MILD" />
      <state id="MOD" />
      <state id="SEV" />
      <state id="TOTAL" />
      <parents>L_LNL_ISCH_SEV L_LNL_ISCH_PATHO</parents>
      <probabilities>1 0 0 0 0 0.5 0.5 0 0 0 0 0.5 0.5 0 0 0 0 0.5 0.5 0 0 0 0 0.4 0.6 1 0 0 0 0 0.5 0.5 0 0 0 0.2 0.5 0.3 0 0 0 0.2 0.5 0.3 0 0 0.1 0.4 0.4 0.1 1 0 0 0 0 0 1 0 0 0 0 0 1 0 0 0 0 0 1 0 0 0 0 0 1 0 0 0 1 0 0 0 0 1 0 0 0 0 1 0 0 0 0 1 0 0 0 0 1 0 0 0 0.5 0.5 0 0 0 0.5 0.5 0 0 0 0.5 0.5 0 0 0 0.5 0.5 0 0 0 0.5 0.5 0</probabilities>
    </cpt>
    <cpt id="L_OTHER_ISCH_SALOSS">
      <state id="NO" />
      <state id="MILD" />
      <state id="MOD" />
      <state id="SEV" />
      <state id="TOTAL" />
      <probabilities>1 0 0 0 0</probabilities>
    </cpt>
    <cpt id="L_OTHER_ISCH_BLOCK">
      <state id="NO" />
      <state id="MILD" />
      <state id="MOD" />
      <state id="SEV" />
      <state id="TOTAL" />
      <probabilities>1 0 0 0 0</probabilities>
    </cpt>
    <cpt id="L_OTHER_ISCH_DISP">
      <state id="NO" />
      <state id="MILD" />
      <state id="MOD" />
      <state id="SEV" />
      <probabilities>1 0 0 0</probabilities>
    </cpt>
    <cpt id="L_OTHER_DELT_DENERV">
      <state id="NO" />
      <state id="MILD" />
      <state id="MOD" />
      <state id="SEV" />
      <probabilities>1 0 0 0</probabilities>
    </cpt>
    <cpt id="L_MYDY_DELT_DENERV">
      <state id="NO" />
      <state id="MILD" />
      <state id="MOD" />
      <state id="SEV" />
      <probabilities>1 0 0 0</probabilities>
    </cpt>
    <cpt id="L_MYOP_DELT_DENERV">
      <state id="NO" />
      <state id="MILD" />
      <state id="MOD" />
      <state id="SEV" />
      <probabilities>1 0 0 0</probabilities>
    </cpt>
    <cpt id="L_MYOP_MYDY_DELT_DENERV">
      <state id="NO" />
      <state id="MILD" />
      <state id="MOD" />
      <state id="SEV" />
      <parents>L_MYOP_DELT_DENERV L_MYDY_DELT_DENERV</parents>
      <probabilities>1 0 0 0 0 1 0 0 0 0 1 0 0 0 0 1 0 1 0 0 0 0 1 0 0 0 0 1 0 0 0 1 0 0 1 0 0 0 0 1 0 0 0 1 0 0 0 1 0 0 0 1 0 0 0 1 0 0 0 1 0 0 0 1</probabilities>
    </cpt>
    <cpt id="L_OTHER_DELT_NEUR_ACT">
      <state id="NO" />
      <state id="FASCIC" />
      <state id="NEUROMYO" />
      <state id="MYOKYMIA" />
      <state id="TETANUS" />
      <state id="OTHER" />
      <probabilities>1 0 0 0 0 0</probabilities>
    </cpt>
    <cpt id="L_OTHER_DELT_MUDENS">
      <state id="NORMAL" />
      <state id="INCR" />
      <state id="V_INCR" />
      <probabilities>1 0 0</probabilities>
    </cpt>
    <cpt id="L_MYAS_DELT_MUDENS">
      <state id="NORMAL" />
      <state id="INCR" />
      <state id="V_INCR" />
      <probabilities>1 0 0</probabilities>
    </cpt>
    <cpt id="L_MYAS_OTHER_DELT_MUDENS">
      <state id="NORMAL" />
      <state id="INCR" />
      <state id="V_INCR" />
      <parents>L_MYAS_DELT_MUDENS L_OTHER_DELT_MUDENS</parents>
      <probabilities>1 0 0 0 1 0 0 0 1 0 1 0 0 0 1 0 0 1 0 0 1 0 0 1 0 0 1</probabilities>
    </cpt>
    <cpt id="L_MYDY_DELT_MUDENS">
      <state id="NORMAL" />
      <state id="INCR" />
      <state id="V_INCR" />
      <probabilities>1 0 0</probabilities>
    </cpt>
    <cpt id="L_MYOP_DELT_MUDENS">
      <state id="NORMAL" />
      <state id="INCR" />
      <state id="V_INCR" />
      <probabilities>1 0 0</probabilities>
    </cpt>
    <cpt id="L_MYOP_MYDY_DELT_MUDENS">
      <state id="NORMAL" />
      <state id="INCR" />
      <state id="V_INCR" />
      <parents>L_MYOP_DELT_MUDENS L_MYDY_DELT_MUDENS</parents>
      <probabilities>1 0 0 0 1 0 0 0 1 0 1 0 0 0 1 0 0 1 0 0 1 0 0 1 0 0 1</probabilities>
    </cpt>
    <cpt id="L_MUSCLE_DELT_MUDENS">
      <state id="NORMAL" />
      <state id="INCR" />
      <state id="V_INCR" />
      <parents>L_MYOP_MYDY_DELT_MUDENS L_MYAS_OTHER_DELT_MUDENS</parents>
      <probabilities>1 0 0 0 1 0 0 0 1 0 1 0 0 0 1 0 0 1 0 0 1 0 0 1 0 0 1</probabilities>
    </cpt>
    <cpt id="L_DELT_VOL_ACT">
      <state id="NORMAL" />
      <state id="REDUCED" />
      <state id="V_RED" />
      <state id="ABSENT" />
      <probabilities>1 0 0 0</probabilities>
    </cpt>
    <cpt id="L_OTHER_DELT_MALOSS">
      <state id="NO" />
      <state id="MILD" />
      <state id="MOD" />
      <state id="SEV" />
      <state id="TOTAL" />
      <probabilities>1 0 0 0 0</probabilities>
    </cpt>
    <cpt id="L_OTHER_AXIL_BLOCK">
      <state id="NO" />
      <state id="MILD" />
      <state id="MOD" />
      <state id="SEV" />
      <state id="TOTAL" />
      <probabilities>1 0 0 0 0</probabilities>
    </cpt>
    <cpt id="L_MYOP_DELT_MUSIZE">
      <state id="V_SMALL" />
      <state id="SMALL" />
      <state id="NORMAL" />
      <state id="INCR" />
      <state id="LARGE" />
      <state id="V_LARGE" />
      <probabilities>0 0 1 0 0 0</probabilities>
    </cpt>
    <cpt id="L_MYDY_DELT_MUSIZE">
      <state id="V_SMALL" />
      <state id="SMALL" />
      <state id="NORMAL" />
      <state id="INCR" />
      <state id="LARGE" />
      <state id="V_LARGE" />
      <probabilities>0 0 1 0 0 0</probabilities>
    </cpt>
    <cpt id="L_MYOP_MYDY_DELT_MUSIZE">
      <state id="V_SMALL" />
      <state id="SMALL" />
      <state id="NORMAL" />
      <state id="INCR" />
      <state id="LARGE" />
      <state id="V_LARGE" />
      <parents>L_MYDY_DELT_MUSIZE L_MYOP_DELT_MUSIZE</parents>
      <probabilities>1 0 0 0 0 0 0.9983 0.0017 0 0 0 0 0.9857 0.0143 0 0 0 0 0.3673 0.6298 0.0029 0 0 0 0.0115012 0.861686 0.124912 0.00190019 0 0 0 0.1596 0.7368 0.1016 0.002 0 0.9983 0.0017 0 0 0 0 0.8667 0.1329 0.0004 0 0 0 0.0139014 0.963696 0.0224022 0 0 0 0.0003 0.3514 0.6035 0.0443 0.0005 0 0 0.0105 0.5726 0.3806 0.0359 0.0004 0 0 0.0792 0.4758 0.4066 0.0384 0.9857 0.0143 0 0 0 0 0.0139014 0.963696 0.0224022 0 0 0 0 0 1 0 0 0 0 0 0.0406041 0.927793 0.0316032 0 0 0 0 0.0319 0.9362 0.0319 0 0 0 0 0.0329 0.9671 0.3673 0.6298 0.0029 0 0 0 0.0003 0.3514 0.6035 0.0443 0.0005 0 0 0 0.0406041 0.927793 0.0316032 0 0 0 0.00039996 0.109889 0.779822 0.109889 0 0 0 0.00030003 0.123412 0.876288 0 0 0 0 0.0028 0.9972 0.0115012 0.861686 0.124912 0.00190019 0 0 0 0.0105 0.5726 0.3806 0.0359 0.0004 0 0 0 0.0319 0.9362 0.0319 0 0 0 0.00030003 0.123412 0.876288 0 0 0 0 0.0028 0.9972 0 0 0 0 0.0001 0.9999 0 0.1596 0.7368 0.1016 0.002 0 0 0 0.0792 0.4758 0.4066 0.0384 0 0 0 0 0.0329 0.9671 0 0 0 0 0.0028 0.9972 0 0 0 0 0.0001 0.9999 0 0 0 0 0 1</probabilities>
    </cpt>
    <cpt id="L_OTHER_DELT_MUSIZE">
      <state id="V_SMALL" />
      <state id="SMALL" />
      <state id="NORMAL" />
      <state id="INCR" />
      <state id="LARGE" />
      <state id="V_LARGE" />
      <probabilities>0 0 1 0 0 0</probabilities>
    </cpt>
    <cpt id="L_MUSCLE_DELT_MUSIZE">
      <state id="V_SMALL" />
      <state id="SMALL" />
      <state id="NORMAL" />
      <state id="INCR" />
      <state id="LARGE" />
      <state id="V_LARGE" />
      <parents>L_OTHER_DELT_MUSIZE L_MYOP_MYDY_DELT_MUSIZE</parents>
      <probabilities>1 0 0 0 0 0 0.9983 0.0017 0 0 0 0 0.9857 0.0143 0 0 0 0 0.3673 0.6298 0.0029 0 0 0 0.0115012 0.861686 0.124912 0.00190019 0 0 0 0.1596 0.7368 0.1016 0.002 0 0.9983 0.0017 0 0 0 0 0.8667 0.1329 0.0004 0 0 0 0.0139014 0.963696 0.0224022 0 0 0 0.0003 0.3514 0.6035 0.0443 0.0005 0 0 0.0105 0.5726 0.3806 0.0359 0.0004 0 0 0.0792 0.4758 0.4066 0.0384 0.9857 0.0143 0 0 0 0 0.0139014 0.963696 0.0224022 0 0 0 0 0 1 0 0 0 0 0 0.0406041 0.927793 0.0316032 0 0 0 0 0.0319 0.9362 0.0319 0 0 0 0 0.0329 0.9671 0.3673 0.6298 0.0029 0 0 0 0.0003 0.3514 0.6035 0.0443 0.0005 0 0 0 0.0406041 0.927793 0.0316032 0 0 0 0.00039996 0.109889 0.779822 0.109889 0 0 0 0.00030003 0.123412 0.876288 0 0 0 0 0.0028 0.9972 0.0115012 0.861686 0.124912 0.00190019 0 0 0 0.0105 0.5726 0.3806 0.0359 0.0004 0 0 0 0.0319 0.9362 0.0319 0 0 0 0.00030003 0.123412 0.876288 0 0 0 0 0.0028 0.9972 0 0 0 0 0.0001 0.9999 0 0.1596 0.7368 0.1016 0.002 0 0 0 0.0792 0.4758 0.4066 0.0384 0 0 0 0 0.0329 0.9671 0 0 0 0 0.0028 0.9972 0 0 0 0 0.0001 0.9999 0 0 0 0 0 1</probabilities>
    </cpt>
    <cpt id="L_MYAS_DELT_NMT">
      <state id="NO" />
      <state id="MOD_PRE" />
      <state id="SEV_PRE" />
      <state id="MLD_POST" />
      <state id="MOD_POST" />
      <state id="SEV_POST" />
      <state id="MIXED" />
      <probabilities>1 0 0 0 0 0 0</probabilities>
    </cpt>
    <cpt id="L_OTHER_DELT_DE_REGEN">
      <state id="NO" />
      <state id="YES" />
      <probabilities>1 0</probabilities>
    </cpt>
    <cpt id="L_MYDY_DELT_DE_REGEN">
      <state id="NO" />
      <state id="YES" />
      <probabilities>1 0</probabilities>
    </cpt>
    <cpt id="L_MYOP_DELT_DE_REGEN">
      <state id="NO" />
      <state id="YES" />
      <probabilities>1 0</probabilities>
    </cpt>
    <cpt id="L_MYOP_MYDY_DELT_DE_REGEN">
      <state id="NO" />
      <state id="YES" />
      <parents>L_MYOP_DELT_DE_REGEN L_MYDY_DELT_DE_REGEN</parents>
      <probabilities>1 0 0 1 0 1 0 1</probabilities>
    </cpt>
    <cpt id="L_MUSCLE_DELT_DE_REGEN">
      <state id="NO" />
      <state id="YES" />
      <parents>L_MYOP_MYDY_DELT_DE_REGEN L_OTHER_DELT_DE_REGEN</parents>
      <probabilities>1 0 0 1 0 1 0 1</probabilities>
    </cpt>
    <cpt id="L_LNLPC5_AXIL_PATHO">
      <state id="DEMY" />
      <state id="BLOCK" />
      <state id="AXONAL" />
      <state id="V_E_REIN" />
      <state id="E_REIN" />
      <probabilities>0.6 0.19 0.2 0.005 0.005</probabilities>
    </cpt>
    <cpt id="L_LNLPC5_AXIL_DIFSLOW">
      <state id="NO" />
      <state id="MILD" />
      <state id="MOD" />
      <state id="SEV" />
      <parents>L_LNLPC5_AXIL_PATHO</parents>
      <probabilities>1 0 0 0 1 0 0 0 1 0 0 0 0 0 0 1 0 0 1 0</probabilities>
    </cpt>
    <cpt id="L_AXIL_RD_ED">
      <state id="NO" />
      <state id="MOD" />
      <state id="SEV" />
      <parents>L_LNLPC5_AXIL_PATHO</parents>
      <probabilities>1 0 0 1 0 0 1 0 0 0 0 1 0 1 0</probabilities>
    </cpt>
    <cpt id="L_LNLPC5_AXIL_TIME">
      <state id="ACUTE" />
      <state id="SUBACUTE" />
      <state id="CHRONIC" />
      <state id="OLD" />
      <probabilities>0.05 0.6 0.3 0.05</probabilities>
    </cpt>
    <cpt id="L_LNLPC5_AXIL_SEV">
      <state id="NO" />
      <state id="MILD" />
      <state id="MOD" />
      <state id="SEV" />
      <state id="TOTAL" />
      <probabilities>0.980314 0.0106925 0.0049965 0.0029979 0.0009993</probabilities>
    </cpt>
    <cpt id="L_LNLPC5_DELT_MUDENS">
      <state id="NORMAL" />
      <state id="INCR" />
      <state id="V_INCR" />
      <parents>L_LNLPC5_AXIL_SEV L_LNLPC5_AXIL_TIME L_LNLPC5_AXIL_PATHO</parents>
      <probabilities>1 0 0 1 0 0 1 0 0 1 0 0 1 0 0 1 0 0 0.9 0.1 0 0.8 0.2 0 0.6 0.4 0 0.6 0.4 0 1 0 0 0.8 0.2 0 0.7 0.3 0 0.6 0.4 0 0.6 0.4 0 1 0 0 0.8 0.2 0 0.7 0.3 0 0.6 0.4 0 0.6 0.4 0 1 0 0 1 0 0 1 0 0 1 0 0 1 0 0 1 0 0 0.9 0.1 0 0.8 0.2 0 0.6 0.4 0 0.6 0.4 0 1 0 0 0.8 0.2 0 0.7 0.3 0 0.6 0.4 0 0.6 0.4 0 1 0 0 0.8 0.2 0 0.7 0.3 0 0.6 0.4 0 0.6 0.4 0 1 0 0 1 0 0 1 0 0 1 0 0 1 0 0 1 0 0 0.6 0.4 0 0.5 0.5 0 0.5 0.4 0.1 0.3 0.6 0.1 1 0 0 0.7 0.3 0 0.1 0.6 0.3 0 0.5 0.5 0 0.5 0.5 1 0 0 0.5 0.5 0 0.15 0.7 0.15 0 0.5 0.5 0 0.5 0.5 1 0 0 1 0 0 1 0 0 1 0 0 1 0 0 1 0 0 0.05 0.5 0.45 0.05 0.5 0.45 0.05 0.5 0.45 0.05 0.5 0.45 1 0 0 0.05 0.5 0.45 0.05 0.5 0.45 0.05 0.5 0.45 0.05 0.5 0.45 1 0 0 0.05 0.5 0.45 0.05 0.5 0.45 0.05 0.5 0.45 0.05 0.5 0.45 1 0 0 1 0 0 1 0 0 1 0 0 1 0 0 1 0 0 0.2 0.5 0.3 0.2 0.5 0.3 0.2 0.5 0.3 0.2 0.5 0.3 1 0 0 0.2 0.5 0.3 0.2 0.5 0.3 0.2 0.5 0.3 0.2 0.5 0.3 1 0 0 0.2 0.5 0.3 0.2 0.5 0.3 0.2 0.5 0.3 0.2 0.5 0.3</probabilities>
    </cpt>
    <cpt id="L_LNLPC5_DELT_DENERV">
      <state id="NO" />
      <state id="MILD" />
      <state id="MOD" />
      <state id="SEV" />
      <parents>L_LNLPC5_AXIL_SEV L_LNLPC5_AXIL_TIME L_LNLPC5_AXIL_PATHO</parents>
      <probabilities>1 0 0 0 0.8 0.2 0 0 0.8 0.2 0 0 0.8 0.2 0 0 0.8 0.2 0 0 1 0 0 0 0.8 0.2 0 0 0.3 0.5 0.2 0 0.1 0.5 0.4 0 0 0.4 0.4 0.2 1 0 0 0 0.8 0.2 0 0 0.3 0.5 0.2 0 0.1 0.5 0.4 0 0 0.4 0.4 0.2 1 0 0 0 1 0 0 0 1 0 0 0 0.5 0.4 0.1 0 0.1 0.6 0.25 0.05 1 0 0 0 0.8 0.2 0 0 0.8 0.2 0 0 0.8 0.2 0 0 0.8 0.2 0 0 1 0 0 0 0.8 0.2 0 0 0.6 0.4 0 0 0.4 0.5 0.1 0 0.3 0.4 0.3 0 1 0 0 0 0.9 0.1 0 0 0.6 0.4 0 0 0.4 0.5 0.1 0 0.3 0.4 0.3 0 1 0 0 0 1 0 0 0 1 0 0 0 0.5 0.5 0 0 0.5 0.5 0 0 1 0 0 0 0.8 0.2 0 0 0.8 0.2 0 0 0.8 0.2 0 0 0.8 0.2 0 0 1 0 0 0 0 1 0 0 0 0 1 0 0 0 0.5 0.5 0 0 0 1 1 0 0 0 0 1 0 0 0 0 1 0 0 0 0.5 0.5 0 0 0 1 1 0 0 0 1 0 0 0 0.9 0.1 0 0 0.6 0.3 0.1 0 0.45 0.45 0.1 0 1 0 0 0 0 0 0.5 0.5 0 0 0.5 0.5 0 0 0.5 0.5 0 0 0.5 0.5 1 0 0 0 0 0 0.5 0.5 0 0 0.5 0.5 0 0 0.5 0.5 0 0 0.5 0.5 1 0 0 0 0 0 0.5 0.5 0 0 0.5 0.5 0 0 0.5 0.5 0 0 0.5 0.5 1 0 0 0 0 0 0.5 0.5 0 0 0.5 0.5 0 0 0.5 0.5 0 0 0.5 0.5 1 0 0 0 0.05 0.4 0.5 0.05 0.05 0.4 0.5 0.05 0.05 0.4 0.5 0.05 0.05 0.4 0.5 0.05 1 0 0 0 0.05 0.4 0.5 0.05 0.05 0.4 0.5 0.05 0.05 0.4 0.5 0.05 0.05 0.4 0.5 0.05 1 0 0 0 0.05 0.4 0.5 0.05 0.05 0.4 0.5 0.05 0.05 0.4 0.5 0.05 0.05 0.4 0.5 0.05 1 0 0 0 0.05 0.4 0.5 0.05 0.05 0.4 0.5 0.05 0.05 0.4 0.5 0.05 0.05 0.4 0.5 0.05</probabilities>
    </cpt>
    <cpt id="L_LNLPC5_DELT_NEUR_ACT">
      <state id="NO" />
      <state id="FASCIC" />
      <state id="NEUROMYO" />
      <state id="MYOKYMIA" />
      <state id="TETANUS" />
      <state id="OTHER" />
      <parents>L_LNLPC5_AXIL_SEV L_LNLPC5_AXIL_TIME</parents>
      <probabilities>1 0 0 0 0 0 0.9 0.1 0 0 0 0 0.9 0.1 0 0 0 0 0.9 0.1 0 0 0 0 0.9 0.1 0 0 0 0 1 0 0 0 0 0 0.7 0.3 0 0 0 0 0.7 0.3 0 0 0 0 0.7 0.3 0 0 0 0 1 0 0 0 0 0 1 0 0 0 0 0 0.5 0.5 0 0 0 0 0.5 0.5 0 0 0 0 0.3 0.7 0 0 0 0 1 0 0 0 0 0 1 0 0 0 0 0 0.1 0.9 0 0 0 0 0.7 0.3 0 0 0 0 0.3 0.7 0 0 0 0 1 0 0 0 0 0</probabilities>
    </cpt>
    <cpt id="L_LNLPC5_DELT_MUSIZE">
      <state id="V_SMALL" />
      <state id="SMALL" />
      <state id="NORMAL" />
      <state id="INCR" />
      <state id="LARGE" />
      <state id="V_LARGE" />
      <parents>L_LNLPC5_AXIL_SEV L_LNLPC5_AXIL_TIME L_LNLPC5_AXIL_PATHO</parents>
      <probabilities>0 0 1 0 0 0 0 0 1 0 0 0 0 0 1 0 0 0 0 0 1 0 0 0 0 0 1 0 0 0 0 0 1 0 0 0 0 0 1 0 0 0 0 0 1 0 0 0 0 0 1 0 0 0 0 0 1 0 0 0 0 0 1 0 0 0 0 0 0.9 0.1 0 0 0 0 0.2 0.7 0.1 0 0 0 0 0.2 0.7 0.1 0 0 0 0.2 0.7 0.1 0 0 1 0 0 0 0 0 0.9 0.1 0 0 0 0 0.2 0.7 0.1 0 0 0 0 0.2 0.7 0.1 0 0 0 0.2 0.7 0.1 0 0 1 0 0 0 0 0 1 0 0 0 0 0 1 0 0 0 0 0 1 0 0 0 0 0 1 0 0 0 0 0 1 0 0 0 0 0 1 0 0 0 0 0 1 0 0 0 0 0 1 0 0 0 0 0 1 0 0 0 0 0 1 0 0 0 0 0 0.95 0.05 0 0 0 0 0.7 0.25 0.05 0 0 0 0 0.25 0.7 0.05 0 0 0 0.25 0.7 0.05 0 0 1 0 0 0 0 0 0.95 0.05 0 0 0 0 0.7 0.25 0.05 0 0 0 0 0.25 0.7 0.05 0 0 0 0.25 0.7 0.05 0 0 1 0 0 0 0 0 1 0 0 0 0 0 1 0 0 0 0 0 1 0 0 0 0 0 1 0 0 0 0 0 1 0 0 0 0 0 1 0 0 0 0 0 1 0 0 0 0 0 1 0 0 0 0 0 1 0 0 0 0 0 1 0 0 0 0 0 0.8 0.2 0 0 0 0 0 0.8 0.2 0 0 0 0 0.1 0.6 0.3 0 0 0 0.1 0.6 0.3 0 0 1 0 0 0 0 0 0.8 0.2 0 0 0 0 0 0.8 0.2 0 0 0 0 0.1 0.6 0.3 0 0 0 0.1 0.6 0.3 1 0 0 0 0 0 1 0 0 0 0 0 1 0 0 0 0 0 1 0 0 0 0 0 1 0 0 0 0 0 1 0 0 0 0 0 1 0 0 0 0 0 1 0 0 0 0 0 1 0 0 0 0 0 1 0 0 0 0 0 1 0 0 0 0 0 1 0 0 0 0 0 1 0 0 0 0 0 1 0 0 0 0 0 1 0 0 0 0 0 1 0 0 0 0 0 1 0 0 0 0 0 1 0 0 0 0 0 1 0 0 0 0 0 1 0 0 0 0 0 0 1 0 0 0 0 0 1 0 0 0 0 0 1 0 0 0 0 0 1 0 0 0 0 0 1 0 0 0 0 0 1 0 0 0 0 0 1 0 0 0 0 0 1 0 0 0 0 0 1 0 0 0 0 0 1 0 0 0 0 0 1 0 0 0 0 0 1 0 0 0 0 0 1 0 0 0 0 0 1 0 0 0 0 0 1 0 0 0 0 0 1 0 0 0 0 0 1 0 0 0 0 0 1 0 0 0 0 0 1 0 0 0 0 0 1 0 0 0 0</probabilities>
    </cpt>
    <cpt id="L_LNLPC5_DELT_MALOSS">
      <state id="NO" />
      <state id="MILD" />
      <state id="MOD" />
      <state id="SEV" />
      <state id="TOTAL" />
      <parents>L_LNLPC5_AXIL_SEV L_LNLPC5_AXIL_PATHO</parents>
      <probabilities>1 0 0 0 0 0.5 0.5 0 0 0 0 0.5 0.5 0 0 0 0 0.5 0.5 0 0 0 0 0.1 0.9 1 0 0 0 0 0.5 0.5 0 0 0 0.4 0.3 0.3 0 0 0 0 0.5 0.5 0 0.25 0.25 0.25 0.25 0 1 0 0 0 0 0 1 0 0 0 0 0 1 0 0 0 0 0 1 0 0 0 0 0 1 0 0 0 1 0 0 0 0 1 0 0 0 0 1 0 0 0 0 1 0 0 0 0 1 0 0 0 0.5 0.5 0 0 0 0.5 0.5 0 0 0 0.5 0.5 0 0 0 0.5 0.5 0 0 0 0.5 0.5 0</probabilities>
    </cpt>
    <cpt id="L_LNLPC5_DELT_DE_REGEN">
      <state id="NO" />
      <state id="YES" />
      <parents>L_LNLPC5_AXIL_SEV L_LNLPC5_AXIL_TIME L_LNLPC5_AXIL_PATHO</parents>
      <probabilities>1 0 1 0 1 0 1 0 1 0 1 0 0.8 0.2 0.2 0.8 0.4 0.6 1 0 1 0 0.8 0.2 0.2 0.8 0.4 0.6 1 0 1 0 1 0 0.8 0.2 0.4 0.6 1 0 1 0 1 0 1 0 1 0 1 0 1 0 0.8 0.2 0.2 0.8 0.4 0.6 1 0 1 0 0.8 0.2 0.2 0.8 0.4 0.6 1 0 1 0 1 0 0.8 0.2 0.4 0.6 1 0 1 0 1 0 1 0 1 0 1 0 1 0 0.5 0.5 0.2 0.8 0.1 0.9 1 0 1 0 0.5 0.5 0.2 0.8 0.1 0.9 1 0 1 0 1 0 0.8 0.2 0.4 0.6 1 0 0 1 0 1 0 1 0 1 0 1 0 1 0 1 0 1 0 1 0 1 0 1 0 1 0 1 0 1 0 1 0 1 0 1 0 1 0 1 0 1 0 1 0 1 0 1 0 1 0 1 0 1 0 1 0 1 0 1 0 1 0 1 0 1 0 1 0 1 0 1 0 1 0 1 0 1 0 1 0 1</probabilities>
    </cpt>
    <cpt id="L_OTHER_DELT_NMT">
      <state id="NO" />
      <state id="MOD_PRE" />
      <state id="SEV_PRE" />
      <state id="MLD_POST" />
      <state id="MOD_POST" />
      <state id="SEV_POST" />
      <state id="MIXED" />
      <probabilities>1 0 0 0 0 0 0</probabilities>
    </cpt>
    <cpt id="L_LNLW_ADM_DENERV">
      <state id="NO" />
      <state id="MILD" />
      <state id="MOD" />
      <state id="SEV" />
      <probabilities>1 0 0 0</probabilities>
    </cpt>
    <cpt id="L_LNLLP_ADM_DENERV">
      <state id="NO" />
      <state id="MILD" />
      <state id="MOD" />
      <state id="SEV" />
      <probabilities>1 0 0 0</probabilities>
    </cpt>
    <cpt id="L_LNLC8_ADM_DENERV">
      <state id="NO" />
      <state id="MILD" />
      <state id="MOD" />
      <state id="SEV" />
      <probabilities>1 0 0 0</probabilities>
    </cpt>
    <cpt id="L_LNLC8_LP_ADM_DENERV">
      <state id="NO" />
      <state id="MILD" />
      <state id="MOD" />
      <state id="SEV" />
      <parents>L_LNLC8_ADM_DENERV L_LNLLP_ADM_DENERV</parents>
      <probabilities>1 0 0 0 0 1 0 0 0 0 1 0 0 0 0 1 0 1 0 0 0 0 1 0 0 0 0 1 0 0 0 1 0 0 1 0 0 0 0 1 0 0 0 1 0 0 0 1 0 0 0 1 0 0 0 1 0 0 0 1 0 0 0 1</probabilities>
    </cpt>
    <cpt id="L_OTHER_ADM_DENERV">
      <state id="NO" />
      <state id="MILD" />
      <state id="MOD" />
      <state id="SEV" />
      <probabilities>1 0 0 0</probabilities>
    </cpt>
    <cpt id="L_MYDY_ADM_DENERV">
      <state id="NO" />
      <state id="MILD" />
      <state id="MOD" />
      <state id="SEV" />
      <probabilities>1 0 0 0</probabilities>
    </cpt>
    <cpt id="L_MYOP_ADM_DENERV">
      <state id="NO" />
      <state id="MILD" />
      <state id="MOD" />
      <state id="SEV" />
      <probabilities>1 0 0 0</probabilities>
    </cpt>
    <cpt id="L_MYOP_MYDY_ADM_DENERV">
      <state id="NO" />
      <state id="MILD" />
      <state id="MOD" />
      <state id="SEV" />
      <parents>L_MYOP_ADM_DENERV L_MYDY_ADM_DENERV</parents>
      <probabilities>1 0 0 0 0 1 0 0 0 0 1 0 0 0 0 1 0 1 0 0 0 0 1 0 0 0 0 1 0 0 0 1 0 0 1 0 0 0 0 1 0 0 0 1 0 0 0 1 0 0 0 1 0 0 0 1 0 0 0 1 0 0 0 1</probabilities>
    </cpt>
    <cpt id="L_OTHER_ADM_NEUR_ACT">
      <state id="NO" />
      <state id="FASCIC" />
      <state id="NEUROMYO" />
      <state id="MYOKYMIA" />
      <state id="TETANUS" />
      <state id="OTHER" />
      <probabilities>1 0 0 0 0 0</probabilities>
    </cpt>
    <cpt id="L_LNLW_ADM_NEUR_ACT">
      <state id="NO" />
      <state id="FASCIC" />
      <state id="NEUROMYO" />
      <state id="MYOKYMIA" />
      <state id="TETANUS" />
      <state id="OTHER" />
      <probabilities>1 0 0 0 0 0</probabilities>
    </cpt>
    <cpt id="L_LNLLP_ADM_NEUR_ACT">
      <state id="NO" />
      <state id="FASCIC" />
      <state id="NEUROMYO" />
      <state id="MYOKYMIA" />
      <state id="TETANUS" />
      <state id="OTHER" />
      <probabilities>1 0 0 0 0 0</probabilities>
    </cpt>
    <cpt id="L_LNLC8_ADM_NEUR_ACT">
      <state id="NO" />
      <state id="FASCIC" />
      <state id="NEUROMYO" />
      <state id="MYOKYMIA" />
      <state id="TETANUS" />
      <state id="OTHER" />
      <probabilities>1 0 0 0 0 0</probabilities>
    </cpt>
    <cpt id="L_LNLC8_LP_ADM_NEUR_ACT">
      <state id="NO" />
      <state id="FASCIC" />
      <state id="NEUROMYO" />
      <state id="MYOKYMIA" />
      <state id="TETANUS" />
      <state id="OTHER" />
      <parents>L_LNLC8_ADM_NEUR_ACT L_LNLLP_ADM_NEUR_ACT</parents>
      <probabilities>1 0 0 0 0 0 0 1 0 0 0 0 0 0 1 0 0 0 0 0 0 1 0 0 0 0 0 0 1 0 0 0 0 0 0 1 0 1 0 0 0 0 0 1 0 0 0 0 0 0 1 0 0 0 0 0 0 1 0 0 0 0 0 0 1 0 0 0 0 0 0 1 0 0 1 0 0 0 0 0 1 0 0 0 0 0 1 0 0 0 0 0 0 1 0 0 0 0 0 0 1 0 0 0 0 0 0 1 0 0 0 1 0 0 0 0 0 1 0 0 0 0 0 1 0 0 0 0 0 1 0 0 0 0 0 0 1 0 0 0 0 0 0 1 0 0 0 0 1 0 0 0 0 0 1 0 0 0 0 0 1 0 0 0 0 0 1 0 0 0 0 0 1 0 0 0 0 0 0 1 0 0 0 0 0 1 0 0 0 0 0 1 0 0 0 0 0 1 0 0 0 0 0 1 0 0 0 0 0 1 0 0 0 0 0 1</probabilities>
    </cpt>
    <cpt id="L_OTHER_ADM_MUDENS">
      <state id="NORMAL" />
      <state id="INCR" />
      <state id="V_INCR" />
      <probabilities>1 0 0</probabilities>
    </cpt>
    <cpt id="L_MYAS_ADM_MUDENS">
      <state id="NORMAL" />
      <state id="INCR" />
      <state id="V_INCR" />
      <probabilities>1 0 0</probabilities>
    </cpt>
    <cpt id="L_MYAS_OTHER_ADM_MUDENS">
      <state id="NORMAL" />
      <state id="INCR" />
      <state id="V_INCR" />
      <parents>L_MYAS_ADM_MUDENS L_OTHER_ADM_MUDENS</parents>
      <probabilities>1 0 0 0 1 0 0 0 1 0 1 0 0 0 1 0 0 1 0 0 1 0 0 1 0 0 1</probabilities>
    </cpt>
    <cpt id="L_MYDY_ADM_MUDENS">
      <state id="NORMAL" />
      <state id="INCR" />
      <state id="V_INCR" />
      <probabilities>1 0 0</probabilities>
    </cpt>
    <cpt id="L_MYOP_ADM_MUDENS">
      <state id="NORMAL" />
      <state id="INCR" />
      <state id="V_INCR" />
      <probabilities>1 0 0</probabilities>
    </cpt>
    <cpt id="L_MYOP_MYDY_ADM_MUDENS">
      <state id="NORMAL" />
      <state id="INCR" />
      <state id="V_INCR" />
      <parents>L_MYOP_ADM_MUDENS L_MYDY_ADM_MUDENS</parents>
      <probabilities>1 0 0 0 1 0 0 0 1 0 1 0 0 0 1 0 0 1 0 0 1 0 0 1 0 0 1</probabilities>
    </cpt>
    <cpt id="L_MUSCLE_ADM_MUDENS">
      <state id="NORMAL" />
      <state id="INCR" />
      <state id="V_INCR" />
      <parents>L_MYOP_MYDY_ADM_MUDENS L_MYAS_OTHER_ADM_MUDENS</parents>
      <probabilities>1 0 0 0 1 0 0 0 1 0 1 0 0 0 1 0 0 1 0 0 1 0 0 1 0 0 1</probabilities>
    </cpt>
    <cpt id="L_LNLW_ADM_MUDENS">
      <state id="NORMAL" />
      <state id="INCR" />
      <state id="V_INCR" />
      <probabilities>1 0 0</probabilities>
    </cpt>
    <cpt id="L_LNLLP_ADM_MUDENS">
      <state id="NORMAL" />
      <state id="INCR" />
      <state id="V_INCR" />
      <probabilities>1 0 0</probabilities>
    </cpt>
    <cpt id="L_LNLC8_ADM_MUDENS">
      <state id="NORMAL" />
      <state id="INCR" />
      <state id="V_INCR" />
      <probabilities>1 0 0</probabilities>
    </cpt>
    <cpt id="L_LNLC8_LP_ADM_MUDENS">
      <state id="NORMAL" />
      <state id="INCR" />
      <state id="V_INCR" />
      <parents>L_LNLC8_ADM_MUDENS L_LNLLP_ADM_MUDENS</parents>
      <probabilities>1 0 0 0 1 0 0 0 1 0 1 0 0 0 1 0 0 1 0 0 1 0 0 1 0 0 1</probabilities>
    </cpt>
    <cpt id="L_ADM_VOL_ACT">
      <state id="NORMAL" />
      <state id="REDUCED" />
      <state id="V_RED" />
      <state id="ABSENT" />
      <probabilities>1 0 0 0</probabilities>
    </cpt>
    <cpt id="L_ULN_RD_WA">
      <state id="NO" />
      <state id="MOD" />
      <state id="SEV" />
      <probabilities>1 0 0</probabilities>
    </cpt>
    <cpt id="L_ULN_LD_WA">
      <state id="NO" />
      <state id="MILD" />
      <state id="MOD" />
      <state id="SEV" />
      <probabilities>1 0 0 0</probabilities>
    </cpt>
    <cpt id="L_ULN_RDLDDEL">
      <state id="MS3_1" />
      <state id="MS3_9" />
      <state id="MS4_7" />
      <state id="MS10_1" />
      <state id="MS20_1" />
      <parents>L_ULN_LD_WA L_ULN_RD_WA</parents>
      <probabilities>1 0 0 0 0 0.0964 0.7981 0.1055 0 0 0.0032 0.127 0.8698 0 0 0.00090009 0.00280028 0.0147015 0.981598 0 0.0019 0.5257 0.4724 0 0 0.00019998 0.0414958 0.958304 0 0 0.0001 0.0144 0.9855 0 0 0.00019998 0.00059994 0.00369963 0.9955 0 0.0002 0.0304 0.9694 0 0 0.0001 0.0142 0.9857 0 0 0 0.009 0.9808 0.0102 0 0 0.0002 0.0012 0.9984 0.0002</probabilities>
    </cpt>
    <cpt id="L_LNLW_ULN_BLOCK">
      <state id="NO" />
      <state id="MILD" />
      <state id="MOD" />
      <state id="SEV" />
      <state id="TOTAL" />
      <probabilities>1 0 0 0 0</probabilities>
    </cpt>
    <cpt id="L_OTHER_ULN_BLOCK_WA">
      <state id="NO" />
      <state id="MILD" />
      <state id="MOD" />
      <state id="SEV" />
      <state id="TOTAL" />
      <probabilities>1 0 0 0 0</probabilities>
    </cpt>
    <cpt id="L_LNLC8_ADM_MUSIZE">
      <state id="V_SMALL" />
      <state id="SMALL" />
      <state id="NORMAL" />
      <state id="INCR" />
      <state id="LARGE" />
      <state id="V_LARGE" />
      <probabilities>0 0 1 0 0 0</probabilities>
    </cpt>
    <cpt id="L_LNLLP_ADM_MUSIZE">
      <state id="V_SMALL" />
      <state id="SMALL" />
      <state id="NORMAL" />
      <state id="INCR" />
      <state id="LARGE" />
      <state id="V_LARGE" />
      <probabilities>0 0 1 0 0 0</probabilities>
    </cpt>
    <cpt id="L_LNLC8_LP_ADM_MUSIZE">
      <state id="V_SMALL" />
      <state id="SMALL" />
      <state id="NORMAL" />
      <state id="INCR" />
      <state id="LARGE" />
      <state id="V_LARGE" />
      <parents>L_LNLLP_ADM_MUSIZE L_LNLC8_ADM_MUSIZE</parents>
      <probabilities>1 0 0 0 0 0 1 0 0 0 0 0 1 0 0 0 0 0 1 0 0 0 0 0 1 0 0 0 0 0 1 0 0 0 0 0 1 0 0 0 0 0 0 1 0 0 0 0 0 1 0 0 0 0 0 1 0 0 0 0 0 1 0 0 0 0 0 0.9994 0.00050005 0.00010001 0 0 1 0 0 0 0 0 0 1 0 0 0 0 0 0 1 0 0 0 0 0 0 1 0 0 0 0 0 0 1 0 0 0 0 0 0 1 1 0 0 0 0 0 0 1 0 0 0 0 0 0 0 1 0 0 0 0 0 1 0 0 0 0 0 0 1 0 0 0 0 0 0 1 1 0 0 0 0 0 0 1 0 0 0 0 0 0 0 0 1 0 0 0 0 0 1 0 0 0 0 0 1 0 0 0 0 0 0 1 1 0 0 0 0 0 0 0.9994 0.00050005 0.00010001 0 0 0 0 0 0 0 1 0 0 0 0 0 1 0 0 0 0 0 1 0 0 0 0 0 1</probabilities>
    </cpt>
    <cpt id="L_LNLW_ADM_MUSIZE">
      <state id="V_SMALL" />
      <state id="SMALL" />
      <state id="NORMAL" />
      <state id="INCR" />
      <state id="LARGE" />
      <state id="V_LARGE" />
      <probabilities>0 0 1 0 0 0</probabilities>
    </cpt>
    <cpt id="L_MYOP_ADM_MUSIZE">
      <state id="V_SMALL" />
      <state id="SMALL" />
      <state id="NORMAL" />
      <state id="INCR" />
      <state id="LARGE" />
      <state id="V_LARGE" />
      <probabilities>0 0 1 0 0 0</probabilities>
    </cpt>
    <cpt id="L_MYDY_ADM_MUSIZE">
      <state id="V_SMALL" />
      <state id="SMALL" />
      <state id="NORMAL" />
      <state id="INCR" />
      <state id="LARGE" />
      <state id="V_LARGE" />
      <probabilities>0 0 1 0 0 0</probabilities>
    </cpt>
    <cpt id="L_MYOP_MYDY_ADM_MUSIZE">
      <state id="V_SMALL" />
      <state id="SMALL" />
      <state id="NORMAL" />
      <state id="INCR" />
      <state id="LARGE" />
      <state id="V_LARGE" />
      <parents>L_MYDY_ADM_MUSIZE L_MYOP_ADM_MUSIZE</parents>
      <probabilities>1 0 0 0 0 0 0.9983 0.0017 0 0 0 0 0.9857 0.0143 0 0 0 0 0.3673 0.6298 0.0029 0 0 0 0.0115012 0.861686 0.124912 0.00190019 0 0 0 0.1596 0.7368 0.1016 0.002 0 0.9983 0.0017 0 0 0 0 0.8667 0.1329 0.0004 0 0 0 0.0139014 0.963696 0.0224022 0 0 0 0.0003 0.3514 0.6035 0.0443 0.0005 0 0 0.0105 0.5726 0.3806 0.0359 0.0004 0 0 0.0792 0.4758 0.4066 0.0384 0.9857 0.0143 0 0 0 0 0.0139014 0.963696 0.0224022 0 0 0 0 0 1 0 0 0 0 0 0.0406041 0.927793 0.0316032 0 0 0 0 0.0319 0.9362 0.0319 0 0 0 0 0.0329 0.9671 0.3673 0.6298 0.0029 0 0 0 0.0003 0.3514 0.6035 0.0443 0.0005 0 0 0 0.0406041 0.927793 0.0316032 0 0 0 0.00039996 0.109889 0.779822 0.109889 0 0 0 0.00030003 0.123412 0.876288 0 0 0 0 0.0028 0.9972 0.0115012 0.861686 0.124912 0.00190019 0 0 0 0.0105 0.5726 0.3806 0.0359 0.0004 0 0 0 0.0319 0.9362 0.0319 0 0 0 0.00030003 0.123412 0.876288 0 0 0 0 0.0028 0.9972 0 0 0 0 0.0001 0.9999 0 0.1596 0.7368 0.1016 0.002 0 0 0 0.0792 0.4758 0.4066 0.0384 0 0 0 0 0.0329 0.9671 0 0 0 0 0.0028 0.9972 0 0 0 0 0.0001 0.9999 0 0 0 0 0 1</probabilities>
    </cpt>
    <cpt id="L_OTHER_ADM_MUSIZE">
      <state id="V_SMALL" />
      <state id="SMALL" />
      <state id="NORMAL" />
      <state id="INCR" />
      <state id="LARGE" />
      <state id="V_LARGE" />
      <probabilities>0 0 1 0 0 0</probabilities>
    </cpt>
    <cpt id="L_MUSCLE_ADM_MUSIZE">
      <state id="V_SMALL" />
      <state id="SMALL" />
      <state id="NORMAL" />
      <state id="INCR" />
      <state id="LARGE" />
      <state id="V_LARGE" />
      <parents>L_OTHER_ADM_MUSIZE L_MYOP_MYDY_ADM_MUSIZE</parents>
      <probabilities>1 0 0 0 0 0 0.9983 0.0017 0 0 0 0 0.9857 0.0143 0 0 0 0 0.3673 0.6298 0.0029 0 0 0 0.0115012 0.861686 0.124912 0.00190019 0 0 0 0.1596 0.7368 0.1016 0.002 0 0.9983 0.0017 0 0 0 0 0.8667 0.1329 0.0004 0 0 0 0.0139014 0.963696 0.0224022 0 0 0 0.0003 0.3514 0.6035 0.0443 0.0005 0 0 0.0105 0.5726 0.3806 0.0359 0.0004 0 0 0.0792 0.4758 0.4066 0.0384 0.9857 0.0143 0 0 0 0 0.0139014 0.963696 0.0224022 0 0 0 0 0 1 0 0 0 0 0 0.0406041 0.927793 0.0316032 0 0 0 0 0.0319 0.9362 0.0319 0 0 0 0 0.0329 0.9671 0.3673 0.6298 0.0029 0 0 0 0.0003 0.3514 0.6035 0.0443 0.0005 0 0 0 0.0406041 0.927793 0.0316032 0 0 0 0.00039996 0.109889 0.779822 0.109889 0 0 0 0.00030003 0.123412 0.876288 0 0 0 0 0.0028 0.9972 0.0115012 0.861686 0.124912 0.00190019 0 0 0 0.0105 0.5726 0.3806 0.0359 0.0004 0 0 0 0.0319 0.9362 0.0319 0 0 0 0.00030003 0.123412 0.876288 0 0 0 0 0.0028 0.9972 0 0 0 0 0.0001 0.9999 0 0.1596 0.7368 0.1016 0.002 0 0 0 0.0792 0.4758 0.4066 0.0384 0 0 0 0 0.0329 0.9671 0 0 0 0 0.0028 0.9972 0 0 0 0 0.0001 0.9999 0 0 0 0 0 1</probabilities>
    </cpt>
    <cpt id="L_MYAS_ADM_NMT">
      <state id="NO" />
      <state id="MOD_PRE" />
      <state id="SEV_PRE" />
      <state id="MLD_POST" />
      <state id="MOD_POST" />
      <state id="SEV_POST" />
      <state id="MIXED" />
      <probabilities>1 0 0 0 0 0 0</probabilities>
    </cpt>
    <cpt id="L_OTHER_ADM_DE_REGEN">
      <state id="NO" />
      <state id="YES" />
      <probabilities>1 0</probabilities>
    </cpt>
    <cpt id="L_MYDY_ADM_DE_REGEN">
      <state id="NO" />
      <state id="YES" />
      <probabilities>1 0</probabilities>
    </cpt>
    <cpt id="L_MYOP_ADM_DE_REGEN">
      <state id="NO" />
      <state id="YES" />
      <probabilities>1 0</probabilities>
    </cpt>
    <cpt id="L_MYOP_MYDY_ADM_DE_REGEN">
      <state id="NO" />
      <state id="YES" />
      <parents>L_MYOP_ADM_DE_REGEN L_MYDY_ADM_DE_REGEN</parents>
      <probabilities>1 0 0 1 0 1 0 1</probabilities>
    </cpt>
    <cpt id="L_MUSCLE_ADM_DE_REGEN">
      <state id="NO" />
      <state id="YES" />
      <parents>L_MYOP_MYDY_ADM_DE_REGEN L_OTHER_ADM_DE_REGEN</parents>
      <probabilities>1 0 0 1 0 1 0 1</probabilities>
    </cpt>
    <cpt id="L_LNLW_ADM_DE_REGEN">
      <state id="NO" />
      <state id="YES" />
      <probabilities>1 0</probabilities>
    </cpt>
    <cpt id="L_LNLE_ULN_TIME">
      <state id="ACUTE" />
      <state id="SUBACUTE" />
      <state id="CHRONIC" />
      <state id="OLD" />
      <probabilities>0.05 0.6 0.3 0.05</probabilities>
    </cpt>
    <cpt id="L_LNLLP_ADM_DE_REGEN">
      <state id="NO" />
      <state id="YES" />
      <probabilities>1 0</probabilities>
    </cpt>
    <cpt id="L_LNLC8_ADM_DE_REGEN">
      <state id="NO" />
      <state id="YES" />
      <probabilities>1 0</probabilities>
    </cpt>
    <cpt id="L_LNLC8_LP_ADM_DE_REGEN">
      <state id="NO" />
      <state id="YES" />
      <parents>L_LNLC8_ADM_DE_REGEN L_LNLLP_ADM_DE_REGEN</parents>
      <probabilities>1 0 0 1 0 1 0 1</probabilities>
    </cpt>
    <cpt id="L_OTHER_ADM_NMT">
      <state id="NO" />
      <state id="MOD_PRE" />
      <state id="SEV_PRE" />
      <state id="MLD_POST" />
      <state id="MOD_POST" />
      <state id="SEV_POST" />
      <state id="MIXED" />
      <probabilities>1 0 0 0 0 0 0</probabilities>
    </cpt>
    <cpt id="L_LNLW_ADM_MALOSS">
      <state id="NO" />
      <state id="MILD" />
      <state id="MOD" />
      <state id="SEV" />
      <state id="TOTAL" />
      <probabilities>1 0 0 0 0</probabilities>
    </cpt>
    <cpt id="L_LNLLP_ADM_MALOSS">
      <state id="NO" />
      <state id="MILD" />
      <state id="MOD" />
      <state id="SEV" />
      <state id="TOTAL" />
      <probabilities>1 0 0 0 0</probabilities>
    </cpt>
    <cpt id="L_LNLC8_ADM_MALOSS">
      <state id="NO" />
      <state id="MILD" />
      <state id="MOD" />
      <state id="SEV" />
      <state id="TOTAL" />
      <probabilities>1 0 0 0 0</probabilities>
    </cpt>
    <cpt id="L_LNLC8_LP_ADM_MALOSS">
      <state id="NO" />
      <state id="MILD" />
      <state id="MOD" />
      <state id="SEV" />
      <state id="TOTAL" />
      <parents>L_LNLC8_ADM_MALOSS L_LNLLP_ADM_MALOSS</parents>
      <probabilities>1 0 0 0 0 0.0022 0.9977 0.0001 0 0 0.00019998 0.0368963 0.958804 0.00409959 0 0 0.0002 0.0329 0.9669 0 0 0 0 0 1 0.0022 0.9977 0.0001 0 0 0 0.0282 0.9718 0 0 0 0.0009 0.3409 0.6582 0 0 0 0.0038 0.9962 0 0 0 0 0 1 0.00019998 0.0368963 0.958804 0.00409959 0 0 0.0009 0.3409 0.6582 0 0 0 0.01 0.99 0 0 0 0.0011 0.9989 0 0 0 0 0 1 0 0.0002 0.0329 0.9669 0 0 0 0.0038 0.9962 0 0 0 0.0011 0.9989 0 0 0 0.0004 0.9996 0 0 0 0 0 1 0 0 0 0 1 0 0 0 0 1 0 0 0 0 1 0 0 0 0 1 0 0 0 0 1</probabilities>
    </cpt>
    <cpt id="L_OTHER_ADM_MALOSS">
      <state id="NO" />
      <state id="MILD" />
      <state id="MOD" />
      <state id="SEV" />
      <state id="TOTAL" />
      <probabilities>1 0 0 0 0</probabilities>
    </cpt>
    <cpt id="L_LNLW_ULND5_RD_WD">
      <state id="NO" />
      <state id="MOD" />
      <state id="SEV" />
      <probabilities>1 0 0</probabilities>
    </cpt>
    <cpt id="L_LNLW_ULND5_LD_WD">
      <state id="NO" />
      <state id="MILD" />
      <state id="MOD" />
      <state id="SEV" />
      <probabilities>1 0 0 0</probabilities>
    </cpt>
    <cpt id="L_LNLW_ULND5_BLOCK_WD">
      <state id="NO" />
      <state id="MILD" />
      <state id="MOD" />
      <state id="SEV" />
      <state id="TOTAL" />
      <probabilities>1 0 0 0 0</probabilities>
    </cpt>
    <cpt id="L_OTHER_ULND5_DIFSLOW">
      <state id="NO" />
      <state id="MILD" />
      <state id="MOD" />
      <state id="SEV" />
      <probabilities>1 0 0 0</probabilities>
    </cpt>
    <cpt id="L_LNLLP_ULND5_SALOSS">
      <state id="NO" />
      <state id="MILD" />
      <state id="MOD" />
      <state id="SEV" />
      <state id="TOTAL" />
      <probabilities>1 0 0 0 0</probabilities>
    </cpt>
    <cpt id="L_LNLW_ULND5_SALOSS">
      <state id="NO" />
      <state id="MILD" />
      <state id="MOD" />
      <state id="SEV" />
      <state id="TOTAL" />
      <probabilities>1 0 0 0 0</probabilities>
    </cpt>
    <cpt id="L_OTHER_ULND5_SALOSS">
      <state id="NO" />
      <state id="MILD" />
      <state id="MOD" />
      <state id="SEV" />
      <state id="TOTAL" />
      <probabilities>1 0 0 0 0</probabilities>
    </cpt>
    <cpt id="L_OTHER_ULND5_RD">
      <state id="NO" />
      <state id="MOD" />
      <state id="SEV" />
      <probabilities>1 0 0</probabilities>
    </cpt>
    <cpt id="L_ULND5_RD_WD">
      <state id="NO" />
      <state id="MOD" />
      <state id="SEV" />
      <parents>L_OTHER_ULND5_RD L_LNLW_ULND5_RD_WD</parents>
      <probabilities>1 0 0 0.0139 0.9821 0.004 0 0.0150015 0.984999 0.0139 0.9821 0.004 0.0002 0.1057 0.8941 0 0.0037 0.9963 0.00070007 0.0968097 0.90249 0 0.0155016 0.984498 0 0.003 0.997</probabilities>
    </cpt>
    <cpt id="L_OTHER_ULND5_LD">
      <state id="NO" />
      <state id="MILD" />
      <state id="MOD" />
      <state id="SEV" />
      <probabilities>1 0 0 0</probabilities>
    </cpt>
    <cpt id="L_ULND5_LD_WD">
      <state id="NO" />
      <state id="MILD" />
      <state id="MOD" />
      <state id="SEV" />
      <parents>L_OTHER_ULND5_LD L_LNLW_ULND5_LD_WD</parents>
      <probabilities>1 0 0 0 0.0186 0.9584 0.023 0 0 0.0184 0.9816 0 0.0010001 0.00310031 0.030203 0.965697 0.0186 0.9584 0.023 0 0 0.0304 0.9696 0 0 0.0013 0.9987 0 0.00039996 0.00129987 0.0140986 0.984202 0 0.0184 0.9816 0 0 0.0013 0.9987 0 0 0.00029997 0.9996 9.999e-05 0.0001 0.0005 0.006 0.9934 0.0010001 0.00310031 0.030203 0.965697 0.00039996 0.00129987 0.0140986 0.984202 0.0001 0.0005 0.006 0.9934 0.00010001 0.00030003 0.00380038 0.9958</probabilities>
    </cpt>
    <cpt id="L_ULND5_LSLOW_WD">
      <state id="NO" />
      <state id="MILD" />
      <state id="MOD" />
      <state id="SEV" />
      <state id="V_SEV" />
      <parents>L_ULND5_LD_WD L_ULND5_RD_WD</parents>
      <probabilities>1 0 0 0 0 0.0185 0.9561 0.0254 0 0 0 0.0166 0.9834 0 0 0.0007 0.002 0.0219 0.9754 0 0.0021 0.0042 0.0295 0.9642 0 0.0012 0.0025 0.0194 0.9769 0 0.00069993 0.00149985 0.0119988 0.985801 0 0.00020002 0.00050005 0.00460046 0.994499 0.00020002 0.0001 0.0002 0.0014 0.083 0.9153 0.0001 0.0001 0.0008 0.0533 0.9457 0 0.0001 0.0004 0.0319 0.9676 0 0 0 0.00350035 0.9965</probabilities>
    </cpt>
    <cpt id="L_OTHER_ULND5_BLOCK">
      <state id="NO" />
      <state id="MILD" />
      <state id="MOD" />
      <state id="SEV" />
      <state id="TOTAL" />
      <probabilities>1 0 0 0 0</probabilities>
    </cpt>
    <cpt id="L_LNLW_ULND5_DISP_WD">
      <state id="NO" />
      <state id="MILD" />
      <state id="MOD" />
      <state id="SEV" />
      <probabilities>1 0 0 0</probabilities>
    </cpt>
    <cpt id="L_LNLE_ULN_PATHO">
      <state id="DEMY" />
      <state id="BLOCK" />
      <state id="AXONAL" />
      <state id="V_E_REIN" />
      <state id="E_REIN" />
      <probabilities>0.6 0.19 0.2 0.005 0.005</probabilities>
    </cpt>
    <cpt id="L_LNLE_ULN_DIFSLOW">
      <state id="NO" />
      <state id="MILD" />
      <state id="MOD" />
      <state id="SEV" />
      <parents>L_LNLE_ULN_PATHO</parents>
      <probabilities>1 0 0 0 1 0 0 0 1 0 0 0 0 0 0 1 0 0 1 0</probabilities>
    </cpt>
    <cpt id="L_LNLE_ULND5_RD_E">
      <state id="NO" />
      <state id="MOD" />
      <state id="SEV" />
      <parents>L_LNLE_ULN_PATHO</parents>
      <probabilities>1 0 0 1 0 0 1 0 0 0 0 1 0 1 0</probabilities>
    </cpt>
    <cpt id="L_ULND5_RD_E">
      <state id="NO" />
      <state id="MOD" />
      <state id="SEV" />
      <parents>L_OTHER_ULND5_RD L_LNLE_ULND5_RD_E</parents>
      <probabilities>1 0 0 0.0941 0.9038 0.0021 0.0677 0.2563 0.676 0.0941 0.9038 0.0021 0.014 0.3525 0.6335 0.0324 0.1629 0.8047 0.0677 0.2563 0.676 0.0324 0.1629 0.8047 0.0351 0.1479 0.817</probabilities>
    </cpt>
    <cpt id="L_LNLE_ULND5_DIFSLOW">
      <state id="NO" />
      <state id="MILD" />
      <state id="MOD" />
      <state id="SEV" />
      <parents>L_LNLE_ULN_PATHO</parents>
      <probabilities>1 0 0 0 1 0 0 0 1 0 0 0 0 0 0 1 0 0 1 0</probabilities>
    </cpt>
    <cpt id="L_ULN_RD_EW">
      <state id="NO" />
      <state id="MOD" />
      <state id="SEV" />
      <parents>L_LNLE_ULN_PATHO</parents>
      <probabilities>1 0 0 1 0 0 1 0 0 0 0 1 0 1 0</probabilities>
    </cpt>
    <cpt id="L_LNLE_ULN_SEV">
      <state id="NO" />
      <state id="MILD" />
      <state id="MOD" />
      <state id="SEV" />
      <state id="TOTAL" />
      <probabilities>0.945 0.025 0.015 0.01 0.005</probabilities>
    </cpt>
    <cpt id="L_LNLE_ADM_DENERV">
      <state id="NO" />
      <state id="MILD" />
      <state id="MOD" />
      <state id="SEV" />
      <parents>L_LNLE_ULN_SEV L_LNLE_ULN_TIME L_LNLE_ULN_PATHO</parents>
      <probabilities>1 0 0 0 0.8 0.2 0 0 0.8 0.2 0 0 0.8 0.2 0 0 0.8 0.2 0 0 1 0 0 0 0.8 0.2 0 0 0.3 0.5 0.2 0 0.1 0.5 0.4 0 0 0.4 0.4 0.2 1 0 0 0 0.8 0.2 0 0 0.3 0.5 0.2 0 0.1 0.5 0.4 0 0 0.4 0.4 0.2 1 0 0 0 1 0 0 0 1 0 0 0 0.5 0.4 0.1 0 0.1 0.6 0.25 0.05 1 0 0 0 0.8 0.2 0 0 0.8 0.2 0 0 0.8 0.2 0 0 0.8 0.2 0 0 1 0 0 0 0.8 0.2 0 0 0.6 0.4 0 0 0.4 0.5 0.1 0 0.3 0.4 0.3 0 1 0 0 0 0.9 0.1 0 0 0.6 0.4 0 0 0.4 0.5 0.1 0 0.3 0.4 0.3 0 1 0 0 0 1 0 0 0 1 0 0 0 0.5 0.5 0 0 0.5 0.5 0 0 1 0 0 0 0.8 0.2 0 0 0.8 0.2 0 0 0.8 0.2 0 0 0.8 0.2 0 0 1 0 0 0 0 1 0 0 0 0 1 0 0 0 0.5 0.5 0 0 0 1 1 0 0 0 0 1 0 0 0 0 1 0 0 0 0.5 0.5 0 0 0 1 1 0 0 0 1 0 0 0 0.9 0.1 0 0 0.6 0.3 0.1 0 0.45 0.45 0.1 0 1 0 0 0 0 0 0.5 0.5 0 0 0.5 0.5 0 0 0.5 0.5 0 0 0.5 0.5 1 0 0 0 0 0 0.5 0.5 0 0 0.5 0.5 0 0 0.5 0.5 0 0 0.5 0.5 1 0 0 0 0 0 0.5 0.5 0 0 0.5 0.5 0 0 0.5 0.5 0 0 0.5 0.5 1 0 0 0 0 0 0.5 0.5 0 0 0.5 0.5 0 0 0.5 0.5 0 0 0.5 0.5 1 0 0 0 0.05 0.4 0.5 0.05 0.05 0.4 0.5 0.05 0.05 0.4 0.5 0.05 0.05 0.4 0.5 0.05 1 0 0 0 0.05 0.4 0.5 0.05 0.05 0.4 0.5 0.05 0.05 0.4 0.5 0.05 0.05 0.4 0.5 0.05 1 0 0 0 0.05 0.4 0.5 0.05 0.05 0.4 0.5 0.05 0.05 0.4 0.5 0.05 0.05 0.4 0.5 0.05 1 0 0 0 0.05 0.4 0.5 0.05 0.05 0.4 0.5 0.05 0.05 0.4 0.5 0.05 0.05 0.4 0.5 0.05</probabilities>
    </cpt>
    <cpt id="L_LNLC8_LP_E_ADM_DENERV">
      <state id="NO" />
      <state id="MILD" />
      <state id="MOD" />
      <state id="SEV" />
      <parents>L_LNLC8_LP_ADM_DENERV L_LNLE_ADM_DENERV</parents>
      <probabilities>1 0 0 0 0 1 0 0 0 0 1 0 0 0 0 1 0 1 0 0 0 0 1 0 0 0 0 1 0 0 0 1 0 0 1 0 0 0 0 1 0 0 0 1 0 0 0 1 0 0 0 1 0 0 0 1 0 0 0 1 0 0 0 1</probabilities>
    </cpt>
    <cpt id="L_LNLE_ADM_DE_REGEN">
      <state id="NO" />
      <state id="YES" />
      <parents>L_LNLE_ULN_SEV L_LNLE_ULN_TIME L_LNLE_ULN_PATHO</parents>
      <probabilities>1 0 1 0 1 0 1 0 1 0 1 0 0.8 0.2 0.2 0.8 0.4 0.6 1 0 1 0 0.8 0.2 0.2 0.8 0.4 0.6 1 0 1 0 1 0 0.8 0.2 0.4 0.6 1 0 1 0 1 0 1 0 1 0 1 0 1 0 0.8 0.2 0.2 0.8 0.4 0.6 1 0 1 0 0.8 0.2 0.2 0.8 0.4 0.6 1 0 1 0 1 0 0.8 0.2 0.4 0.6 1 0 1 0 1 0 1 0 1 0 1 0 1 0 0.5 0.5 0.2 0.8 0.1 0.9 1 0 1 0 0.5 0.5 0.2 0.8 0.1 0.9 1 0 1 0 1 0 0.8 0.2 0.4 0.6 1 0 0 1 0 1 0 1 0 1 0 1 0 1 0 1 0 1 0 1 0 1 0 1 0 1 0 1 0 1 0 1 0 1 0 1 0 1 0 1 0 1 0 1 0 1 0 1 0 1 0 1 0 1 0 1 0 1 0 1 0 1 0 1 0 1 0 1 0 1 0 1 0 1 0 1 0 1 0 1 0 1</probabilities>
    </cpt>
    <cpt id="L_LNLC8_LP_E_ADM_DE_REGEN">
      <state id="NO" />
      <state id="YES" />
      <parents>L_LNLC8_LP_ADM_DE_REGEN L_LNLE_ADM_DE_REGEN</parents>
      <probabilities>1 0 0 1 0 1 0 1</probabilities>
    </cpt>
    <cpt id="L_ULN_LD_EW">
      <state id="NO" />
      <state id="MILD" />
      <state id="MOD" />
      <state id="SEV" />
      <parents>L_LNLE_ULN_SEV L_LNLE_ULN_PATHO</parents>
      <probabilities>1 0 0 0 0 1 0 0 0 0 1 0 0 0 0 1 0.25 0.25 0.25 0.25 1 0 0 0 0.5 0.5 0 0 0.25 0.5 0.25 0 0.05 0.3 0.5 0.15 0.25 0.25 0.25 0.25 1 0 0 0 1 0 0 0 0.5 0.5 0 0 0 1 0 0 0.25 0.25 0.25 0.25 1 0 0 0 1 0 0 0 1 0 0 0 1 0 0 0 0.25 0.25 0.25 0.25 1 0 0 0 1 0 0 0 1 0 0 0 1 0 0 0 0.25 0.25 0.25 0.25</probabilities>
    </cpt>
    <cpt id="L_ULN_RDLDCV_E">
      <state id="M_S60" />
      <state id="M_S52" />
      <state id="M_S44" />
      <state id="M_S27" />
      <state id="M_S15" />
      <state id="M_S07" />
      <parents>L_ULN_LD_EW L_ULN_RD_EW</parents>
      <probabilities>0.90449 0.0953095 0.00020002 0 0 0 0.132 0.6039 0.2641 0 0 0 0.0139 0.1839 0.8022 0 0 0 0.00120012 0.00670067 0.0544054 0.860086 0.0776078 0 0.0115 0.0333 0.1509 0.7319 0.0724 0 0.00340034 0.0122012 0.0690069 0.719672 0.19532 0.00040004 0.0011 0.0045 0.0299 0.5742 0.3876 0.0027 0.0001 0.0002 0.0018 0.0914 0.6093 0.2972 0 9.999e-05 0.00109989 0.146185 0.807019 0.0455954 0 0 0.0002 0.0581 0.795 0.1467 0 0 0.0001 0.0228 0.6344 0.3427 0 0 0 0.0014 0.1063 0.8923</probabilities>
    </cpt>
    <cpt id="L_LNLE_ULN_BLOCK">
      <state id="NO" />
      <state id="MILD" />
      <state id="MOD" />
      <state id="SEV" />
      <state id="TOTAL" />
      <parents>L_LNLE_ULN_SEV L_LNLE_ULN_PATHO</parents>
      <probabilities>1 0 0 0 0 1 0 0 0 0 0.6 0.4 0 0 0 0.25 0.5 0.25 0 0 0.2 0.2 0.2 0.2 0.2 1 0 0 0 0 0 0.5 0.5 0 0 0 0.5 0.5 0 0 0 0 0.4 0.5 0.1 0 0 0 0 1 1 0 0 0 0 1 0 0 0 0 1 0 0 0 0 1 0 0 0 0 0.2 0.2 0.2 0.2 0.2 1 0 0 0 0 1 0 0 0 0 1 0 0 0 0 1 0 0 0 0 1 0 0 0 0 1 0 0 0 0 1 0 0 0 0 1 0 0 0 0 1 0 0 0 0 1 0 0 0 0</probabilities>
    </cpt>
    <cpt id="L_LNLE_ULND5_SALOSS">
      <state id="NO" />
      <state id="MILD" />
      <state id="MOD" />
      <state id="SEV" />
      <state id="TOTAL" />
      <parents>L_LNLE_ULN_SEV L_LNLE_ULN_PATHO</parents>
      <probabilities>1 0 0 0 0 0.5 0.5 0 0 0 0 0.5 0.5 0 0 0 0 0.5 0.5 0 0 0 0 0.4 0.6 1 0 0 0 0 0.5 0.5 0 0 0 0.2 0.5 0.3 0 0 0 0.2 0.5 0.3 0 0 0.1 0.4 0.4 0.1 1 0 0 0 0 0 1 0 0 0 0 0 1 0 0 0 0 0 1 0 0 0 0 0 1 0 0 0 1 0 0 0 0 1 0 0 0 0 1 0 0 0 0 1 0 0 0 0 1 0 0 0 0.5 0.5 0 0 0 0.5 0.5 0 0 0 0.5 0.5 0 0 0 0.5 0.5 0 0 0 0.5 0.5 0</probabilities>
    </cpt>
    <cpt id="L_LNLLP_E_ULND5_SALOSS">
      <state id="NO" />
      <state id="MILD" />
      <state id="MOD" />
      <state id="SEV" />
      <state id="TOTAL" />
      <parents>L_LNLE_ULND5_SALOSS L_LNLLP_ULND5_SALOSS</parents>
      <probabilities>1 0 0 0 0 0.0073 0.9812 0.0115 0 0 0.0017 0.1306 0.867 0.0007 0 0 0.0003 0.0212 0.9785 0 0 0 0 0 1 0.0073 0.9812 0.0115 0 0 0 0.0289 0.9711 0 0 0 0.0097 0.5989 0.3914 0 0 0 0.0017 0.9983 0 0 0 0 0 1 0.0017 0.1306 0.867 0.0007 0 0 0.0097 0.5989 0.3914 0 0 0.00049995 0.0330967 0.966403 0 0 0 0.0008 0.9992 0 0 0 0 0 1 0 0.0003 0.0212 0.9785 0 0 0 0.0017 0.9983 0 0 0 0.0008 0.9992 0 0 0 0.0001 0.9999 0 0 0 0 0 1 0 0 0 0 1 0 0 0 0 1 0 0 0 0 1 0 0 0 0 1 0 0 0 0 1</probabilities>
    </cpt>
    <cpt id="L_LNLE_ULND5_DISP_E">
      <state id="NO" />
      <state id="MILD" />
      <state id="MOD" />
      <state id="SEV" />
      <parents>L_LNLE_ULN_SEV L_LNLE_ULN_PATHO</parents>
      <probabilities>1 0 0 0 0 1 0 0 0 0 1 0 0 0 0 1 0 0 0 1 1 0 0 0 0.5 0.5 0 0 0 0.5 0.5 0 0 0.1 0.5 0.4 0 0 0.5 0.5 1 0 0 0 1 0 0 0 0.5 0.5 0 0 0.3 0.5 0.2 0 0 0.5 0.5 0 0 0 0 1 0 0 0 1 0 0 0 1 0 0 0 1 0 0 0 1 0 0 0 1 0 0 0 1 0 0 0 1 0 0 0 1 0 0 0 1</probabilities>
    </cpt>
    <cpt id="L_LNLE_ADM_NEUR_ACT">
      <state id="NO" />
      <state id="FASCIC" />
      <state id="NEUROMYO" />
      <state id="MYOKYMIA" />
      <state id="TETANUS" />
      <state id="OTHER" />
      <parents>L_LNLE_ULN_SEV L_LNLE_ULN_TIME</parents>
      <probabilities>1 0 0 0 0 0 0.9 0.1 0 0 0 0 0.9 0.1 0 0 0 0 0.9 0.1 0 0 0 0 0.9 0.1 0 0 0 0 1 0 0 0 0 0 0.7 0.3 0 0 0 0 0.7 0.3 0 0 0 0 0.7 0.3 0 0 0 0 1 0 0 0 0 0 1 0 0 0 0 0 0.5 0.5 0 0 0 0 0.5 0.5 0 0 0 0 0.3 0.7 0 0 0 0 1 0 0 0 0 0 1 0 0 0 0 0 0.1 0.9 0 0 0 0 0.7 0.3 0 0 0 0 0.3 0.7 0 0 0 0 1 0 0 0 0 0</probabilities>
    </cpt>
    <cpt id="L_LNLC8_LP_E_ADM_NEUR_ACT">
      <state id="NO" />
      <state id="FASCIC" />
      <state id="NEUROMYO" />
      <state id="MYOKYMIA" />
      <state id="TETANUS" />
      <state id="OTHER" />
      <parents>L_LNLC8_LP_ADM_NEUR_ACT L_LNLE_ADM_NEUR_ACT</parents>
      <probabilities>1 0 0 0 0 0 0 1 0 0 0 0 0 0 1 0 0 0 0 0 0 1 0 0 0 0 0 0 1 0 0 0 0 0 0 1 0 1 0 0 0 0 0 1 0 0 0 0 0 0 1 0 0 0 0 0 0 1 0 0 0 0 0 0 1 0 0 0 0 0 0 1 0 0 1 0 0 0 0 0 1 0 0 0 0 0 1 0 0 0 0 0 0 1 0 0 0 0 0 0 1 0 0 0 0 0 0 1 0 0 0 1 0 0 0 0 0 1 0 0 0 0 0 1 0 0 0 0 0 1 0 0 0 0 0 0 1 0 0 0 0 0 0 1 0 0 0 0 1 0 0 0 0 0 1 0 0 0 0 0 1 0 0 0 0 0 1 0 0 0 0 0 1 0 0 0 0 0 0 1 0 0 0 0 0 1 0 0 0 0 0 1 0 0 0 0 0 1 0 0 0 0 0 1 0 0 0 0 0 1 0 0 0 0 0 1</probabilities>
    </cpt>
    <cpt id="L_LNLE_ADM_MUDENS">
      <state id="NORMAL" />
      <state id="INCR" />
      <state id="V_INCR" />
      <parents>L_LNLE_ULN_SEV L_LNLE_ULN_TIME L_LNLE_ULN_PATHO</parents>
      <probabilities>1 0 0 1 0 0 1 0 0 1 0 0 1 0 0 1 0 0 0.9 0.1 0 0.8 0.2 0 0.6 0.4 0 0.6 0.4 0 1 0 0 0.8 0.2 0 0.7 0.3 0 0.6 0.4 0 0.6 0.4 0 1 0 0 0.8 0.2 0 0.7 0.3 0 0.6 0.4 0 0.6 0.4 0 1 0 0 1 0 0 1 0 0 1 0 0 1 0 0 1 0 0 0.9 0.1 0 0.8 0.2 0 0.6 0.4 0 0.6 0.4 0 1 0 0 0.8 0.2 0 0.7 0.3 0 0.6 0.4 0 0.6 0.4 0 1 0 0 0.8 0.2 0 0.7 0.3 0 0.6 0.4 0 0.6 0.4 0 1 0 0 1 0 0 1 0 0 1 0 0 1 0 0 1 0 0 0.6 0.4 0 0.5 0.5 0 0.5 0.4 0.1 0.3 0.6 0.1 1 0 0 0.7 0.3 0 0.1 0.6 0.3 0 0.5 0.5 0 0.5 0.5 1 0 0 0.5 0.5 0 0.15 0.7 0.15 0 0.5 0.5 0 0.5 0.5 1 0 0 1 0 0 1 0 0 1 0 0 1 0 0 1 0 0 0.05 0.5 0.45 0.05 0.5 0.45 0.05 0.5 0.45 0.05 0.5 0.45 1 0 0 0.05 0.5 0.45 0.05 0.5 0.45 0.05 0.5 0.45 0.05 0.5 0.45 1 0 0 0.05 0.5 0.45 0.05 0.5 0.45 0.05 0.5 0.45 0.05 0.5 0.45 1 0 0 1 0 0 1 0 0 1 0 0 1 0 0 1 0 0 0.2 0.5 0.3 0.2 0.5 0.3 0.2 0.5 0.3 0.2 0.5 0.3 1 0 0 0.2 0.5 0.3 0.2 0.5 0.3 0.2 0.5 0.3 0.2 0.5 0.3 1 0 0 0.2 0.5 0.3 0.2 0.5 0.3 0.2 0.5 0.3 0.2 0.5 0.3</probabilities>
    </cpt>
    <cpt id="L_LNLC8_LP_E_ADM_MUDENS">
      <state id="NORMAL" />
      <state id="INCR" />
      <state id="V_INCR" />
      <parents>L_LNLC8_LP_ADM_MUDENS L_LNLE_ADM_MUDENS</parents>
      <probabilities>1 0 0 0 1 0 0 0 1 0 1 0 0 0 1 0 0 1 0 0 1 0 0 1 0 0 1</probabilities>
    </cpt>
    <cpt id="L_LNLE_ADM_MALOSS">
      <state id="NO" />
      <state id="MILD" />
      <state id="MOD" />
      <state id="SEV" />
      <state id="TOTAL" />
      <parents>L_LNLE_ULN_SEV L_LNLE_ULN_PATHO</parents>
      <probabilities>1 0 0 0 0 0.5 0.5 0 0 0 0 0.5 0.5 0 0 0 0 0.5 0.5 0 0 0 0 0.1 0.9 1 0 0 0 0 0.5 0.5 0 0 0 0.4 0.3 0.3 0 0 0 0 0.5 0.5 0 0.25 0.25 0.25 0.25 0 1 0 0 0 0 0 1 0 0 0 0 0 1 0 0 0 0 0 1 0 0 0 0 0 1 0 0 0 1 0 0 0 0 1 0 0 0 0 1 0 0 0 0 1 0 0 0 0 1 0 0 0 0.5 0.5 0 0 0 0.5 0.5 0 0 0 0.5 0.5 0 0 0 0.5 0.5 0 0 0 0.5 0.5 0</probabilities>
    </cpt>
    <cpt id="L_LNLC8_LP_E_ADM_MALOSS">
      <state id="NO" />
      <state id="MILD" />
      <state id="MOD" />
      <state id="SEV" />
      <state id="TOTAL" />
      <parents>L_LNLC8_LP_ADM_MALOSS L_LNLE_ADM_MALOSS</parents>
      <probabilities>1 0 0 0 0 0.0022 0.9977 0.0001 0 0 0.00019998 0.0368963 0.958804 0.00409959 0 0 0.0002 0.0329 0.9669 0 0 0 0 0 1 0.0022 0.9977 0.0001 0 0 0 0.0282 0.9718 0 0 0 0.0009 0.3409 0.6582 0 0 0 0.0038 0.9962 0 0 0 0 0 1 0.00019998 0.0368963 0.958804 0.00409959 0 0 0.0009 0.3409 0.6582 0 0 0 0.01 0.99 0 0 0 0.0011 0.9989 0 0 0 0 0 1 0 0.0002 0.0329 0.9669 0 0 0 0.0038 0.9962 0 0 0 0.0011 0.9989 0 0 0 0.0004 0.9996 0 0 0 0 0 1 0 0 0 0 1 0 0 0 0 1 0 0 0 0 1 0 0 0 0 1 0 0 0 0 1</probabilities>
    </cpt>
    <cpt id="L_LNLE_ADM_MUSIZE">
      <state id="V_SMALL" />
      <state id="SMALL" />
      <state id="NORMAL" />
      <state id="INCR" />
      <state id="LARGE" />
      <state id="V_LARGE" />
      <parents>L_LNLE_ULN_SEV L_LNLE_ULN_TIME L_LNLE_ULN_PATHO</parents>
      <probabilities>0 0 1 0 0 0 0 0 1 0 0 0 0 0 1 0 0 0 0 0 1 0 0 0 0 0 1 0 0 0 0 0 1 0 0 0 0 0 1 0 0 0 0 0 1 0 0 0 0 0 1 0 0 0 0 0 1 0 0 0 0 0 1 0 0 0 0 0 0.9 0.1 0 0 0 0 0.2 0.7 0.1 0 0 0 0 0.2 0.7 0.1 0 0 0 0.2 0.7 0.1 0 0 1 0 0 0 0 0 0.9 0.1 0 0 0 0 0.2 0.7 0.1 0 0 0 0 0.2 0.7 0.1 0 0 0 0.2 0.7 0.1 0 0 1 0 0 0 0 0 1 0 0 0 0 0 1 0 0 0 0 0 1 0 0 0 0 0 1 0 0 0 0 0 1 0 0 0 0 0 1 0 0 0 0 0 1 0 0 0 0 0 1 0 0 0 0 0 1 0 0 0 0 0 1 0 0 0 0 0 0.95 0.05 0 0 0 0 0.7 0.25 0.05 0 0 0 0 0.25 0.7 0.05 0 0 0 0.25 0.7 0.05 0 0 1 0 0 0 0 0 0.95 0.05 0 0 0 0 0.7 0.25 0.05 0 0 0 0 0.25 0.7 0.05 0 0 0 0.25 0.7 0.05 0 0 1 0 0 0 0 0 1 0 0 0 0 0 1 0 0 0 0 0 1 0 0 0 0 0 1 0 0 0 0 0 1 0 0 0 0 0 1 0 0 0 0 0 1 0 0 0 0 0 1 0 0 0 0 0 1 0 0 0 0 0 1 0 0 0 0 0 0.8 0.2 0 0 0 0 0 0.8 0.2 0 0 0 0 0.1 0.6 0.3 0 0 0 0.1 0.6 0.3 0 0 1 0 0 0 0 0 0.8 0.2 0 0 0 0 0 0.8 0.2 0 0 0 0 0.1 0.6 0.3 0 0 0 0.1 0.6 0.3 1 0 0 0 0 0 1 0 0 0 0 0 1 0 0 0 0 0 1 0 0 0 0 0 1 0 0 0 0 0 1 0 0 0 0 0 1 0 0 0 0 0 1 0 0 0 0 0 1 0 0 0 0 0 1 0 0 0 0 0 1 0 0 0 0 0 1 0 0 0 0 0 1 0 0 0 0 0 1 0 0 0 0 0 1 0 0 0 0 0 1 0 0 0 0 0 1 0 0 0 0 0 1 0 0 0 0 0 1 0 0 0 0 0 1 0 0 0 0 0 0 1 0 0 0 0 0 1 0 0 0 0 0 1 0 0 0 0 0 1 0 0 0 0 0 1 0 0 0 0 0 1 0 0 0 0 0 1 0 0 0 0 0 1 0 0 0 0 0 1 0 0 0 0 0 1 0 0 0 0 0 1 0 0 0 0 0 1 0 0 0 0 0 1 0 0 0 0 0 1 0 0 0 0 0 1 0 0 0 0 0 1 0 0 0 0 0 1 0 0 0 0 0 1 0 0 0 0 0 1 0 0 0 0 0 1 0 0 0 0</probabilities>
    </cpt>
    <cpt id="L_LNLC8_LP_E_ADM_MUSIZE">
      <state id="V_SMALL" />
      <state id="SMALL" />
      <state id="NORMAL" />
      <state id="INCR" />
      <state id="LARGE" />
      <state id="V_LARGE" />
      <parents>L_LNLE_ADM_MUSIZE L_LNLC8_LP_ADM_MUSIZE</parents>
      <probabilities>1 0 0 0 0 0 1 0 0 0 0 0 1 0 0 0 0 0 1 0 0 0 0 0 1 0 0 0 0 0 1 0 0 0 0 0 1 0 0 0 0 0 0 1 0 0 0 0 0 1 0 0 0 0 0 1 0 0 0 0 0 1 0 0 0 0 0 0.9994 0.00050005 0.00010001 0 0 1 0 0 0 0 0 0 1 0 0 0 0 0 0 1 0 0 0 0 0 0 1 0 0 0 0 0 0 1 0 0 0 0 0 0 1 1 0 0 0 0 0 0 1 0 0 0 0 0 0 0 1 0 0 0 0 0 1 0 0 0 0 0 0 1 0 0 0 0 0 0 1 1 0 0 0 0 0 0 1 0 0 0 0 0 0 0 0 1 0 0 0 0 0 1 0 0 0 0 0 1 0 0 0 0 0 0 1 1 0 0 0 0 0 0 0.9994 0.00050005 0.00010001 0 0 0 0 0 0 0 1 0 0 0 0 0 1 0 0 0 0 0 1 0 0 0 0 0 1</probabilities>
    </cpt>
    <cpt id="L_LNLE_ULND5_LD_E">
      <state id="NO" />
      <state id="MILD" />
      <state id="MOD" />
      <state id="SEV" />
      <parents>L_LNLE_ULN_SEV L_LNLE_ULN_PATHO</parents>
      <probabilities>1 0 0 0 0 1 0 0 0 0 1 0 0 0 0 1 0 0 0 1 1 0 0 0 0.5 0.5 0 0 0.25 0.5 0.25 0 0.05 0.3 0.5 0.15 0.25 0.25 0.25 0.25 1 0 0 0 1 0 0 0 0.5 0.5 0 0 0 1 0 0 0 0.5 0.5 0 1 0 0 0 1 0 0 0 1 0 0 0 1 0 0 0 1 0 0 0 1 0 0 0 1 0 0 0 1 0 0 0 1 0 0 0 1 0 0 0</probabilities>
    </cpt>
    <cpt id="L_ULND5_LD_E">
      <state id="NO" />
      <state id="MILD" />
      <state id="MOD" />
      <state id="SEV" />
      <parents>L_OTHER_ULND5_LD L_LNLE_ULND5_LD_E</parents>
      <probabilities>1 0 0 0 0.0186 0.9584 0.023 0 0 0.0184 0.9816 0 0.0010001 0.00310031 0.030203 0.965697 0.0186 0.9584 0.023 0 0 0.0304 0.9696 0 0 0.0013 0.9987 0 0.00039996 0.00129987 0.0140986 0.984202 0 0.0184 0.9816 0 0 0.0013 0.9987 0 0 0.00029997 0.9996 9.999e-05 0.0001 0.0005 0.006 0.9934 0.0010001 0.00310031 0.030203 0.965697 0.00039996 0.00129987 0.0140986 0.984202 0.0001 0.0005 0.006 0.9934 0.00010001 0.00030003 0.00380038 0.9958</probabilities>
    </cpt>
    <cpt id="L_ULND5_LSLOW_E">
      <state id="NO" />
      <state id="MILD" />
      <state id="MOD" />
      <state id="SEV" />
      <state id="V_SEV" />
      <parents>L_ULND5_LD_E L_ULND5_RD_E</parents>
      <probabilities>1 0 0 0 0 0.0185 0.9561 0.0254 0 0 0 0.0166 0.9834 0 0 0.0007 0.002 0.0219 0.9754 0 0.00840084 0.0119012 0.0619062 0.917392 0.00040004 0.00690069 0.010001 0.0535053 0.928693 0.00090009 0.00559944 0.00829917 0.0451955 0.938906 0.0019998 0.0023 0.0036 0.0217 0.8326 0.1398 0.00529947 0.00619938 0.0263974 0.208179 0.753925 0.0049 0.0057 0.0244 0.1966 0.7684 0.00440044 0.00520052 0.0224022 0.183918 0.784078 0.0028 0.0033 0.0145 0.1304 0.849</probabilities>
    </cpt>
    <cpt id="L_LNLE_ULND5_BLOCK_E">
      <state id="NO" />
      <state id="MILD" />
      <state id="MOD" />
      <state id="SEV" />
      <state id="TOTAL" />
      <parents>L_LNLE_ULN_SEV L_LNLE_ULN_PATHO</parents>
      <probabilities>1 0 0 0 0 0.8 0.2 0 0 0 0.3 0.6 0.1 0 0 0.1 0.5 0.3 0.1 0 0 0.05 0.2 0.55 0.2 1 0 0 0 0 0 0.5 0.5 0 0 0 0 0.5 0.5 0 0 0 0.2 0.6 0.2 0 0 0 0 1 1 0 0 0 0 1 0 0 0 0 1 0 0 0 0 1 0 0 0 0 1 0 0 0 0 1 0 0 0 0 1 0 0 0 0 1 0 0 0 0 1 0 0 0 0 1 0 0 0 0 1 0 0 0 0 1 0 0 0 0 1 0 0 0 0 1 0 0 0 0 1 0 0 0 0</probabilities>
    </cpt>
    <cpt id="L_OTHER_ULND5_DISP">
      <state id="NO" />
      <state id="MILD" />
      <state id="MOD" />
      <state id="SEV" />
      <probabilities>1 0 0 0</probabilities>
    </cpt>
    <cpt id="L_LNLBE_APB_DENERV">
      <state id="NO" />
      <state id="MILD" />
      <state id="MOD" />
      <state id="SEV" />
      <probabilities>1 0 0 0</probabilities>
    </cpt>
    <cpt id="L_LNLLP_APB_DENERV">
      <state id="NO" />
      <state id="MILD" />
      <state id="MOD" />
      <state id="SEV" />
      <probabilities>1 0 0 0</probabilities>
    </cpt>
    <cpt id="L_LNLT1_APB_DENERV">
      <state id="NO" />
      <state id="MILD" />
      <state id="MOD" />
      <state id="SEV" />
      <probabilities>1 0 0 0</probabilities>
    </cpt>
    <cpt id="L_LNLT1_LP_APB_DENERV">
      <state id="NO" />
      <state id="MILD" />
      <state id="MOD" />
      <state id="SEV" />
      <parents>L_LNLT1_APB_DENERV L_LNLLP_APB_DENERV</parents>
      <probabilities>1 0 0 0 0 1 0 0 0 0 1 0 0 0 0 1 0 1 0 0 0 0 1 0 0 0 0 1 0 0 0 1 0 0 1 0 0 0 0 1 0 0 0 1 0 0 0 1 0 0 0 1 0 0 0 1 0 0 0 1 0 0 0 1</probabilities>
    </cpt>
    <cpt id="L_LNLT1_LP_BE_APB_DENERV">
      <state id="NO" />
      <state id="MILD" />
      <state id="MOD" />
      <state id="SEV" />
      <parents>L_LNLT1_LP_APB_DENERV L_LNLBE_APB_DENERV</parents>
      <probabilities>1 0 0 0 0 1 0 0 0 0 1 0 0 0 0 1 0 1 0 0 0 0 1 0 0 0 0 1 0 0 0 1 0 0 1 0 0 0 0 1 0 0 0 1 0 0 0 1 0 0 0 1 0 0 0 1 0 0 0 1 0 0 0 1</probabilities>
    </cpt>
    <cpt id="L_MYDY_APB_DENERV">
      <state id="NO" />
      <state id="MILD" />
      <state id="MOD" />
      <state id="SEV" />
      <probabilities>1 0 0 0</probabilities>
    </cpt>
    <cpt id="L_MYOP_APB_DENERV">
      <state id="NO" />
      <state id="MILD" />
      <state id="MOD" />
      <state id="SEV" />
      <probabilities>1 0 0 0</probabilities>
    </cpt>
    <cpt id="L_MYOP_MYDY_APB_DENERV">
      <state id="NO" />
      <state id="MILD" />
      <state id="MOD" />
      <state id="SEV" />
      <parents>L_MYOP_APB_DENERV L_MYDY_APB_DENERV</parents>
      <probabilities>1 0 0 0 0 1 0 0 0 0 1 0 0 0 0 1 0 1 0 0 0 0 1 0 0 0 0 1 0 0 0 1 0 0 1 0 0 0 0 1 0 0 0 1 0 0 0 1 0 0 0 1 0 0 0 1 0 0 0 1 0 0 0 1</probabilities>
    </cpt>
    <cpt id="L_LNLBE_APB_NEUR_ACT">
      <state id="NO" />
      <state id="FASCIC" />
      <state id="NEUROMYO" />
      <state id="MYOKYMIA" />
      <state id="TETANUS" />
      <state id="OTHER" />
      <probabilities>1 0 0 0 0 0</probabilities>
    </cpt>
    <cpt id="L_LNLLP_APB_NEUR_ACT">
      <state id="NO" />
      <state id="FASCIC" />
      <state id="NEUROMYO" />
      <state id="MYOKYMIA" />
      <state id="TETANUS" />
      <state id="OTHER" />
      <probabilities>1 0 0 0 0 0</probabilities>
    </cpt>
    <cpt id="L_LNLT1_APB_NEUR_ACT">
      <state id="NO" />
      <state id="FASCIC" />
      <state id="NEUROMYO" />
      <state id="MYOKYMIA" />
      <state id="TETANUS" />
      <state id="OTHER" />
      <probabilities>1 0 0 0 0 0</probabilities>
    </cpt>
    <cpt id="L_LNLT1_LP_APB_NEUR_ACT">
      <state id="NO" />
      <state id="FASCIC" />
      <state id="NEUROMYO" />
      <state id="MYOKYMIA" />
      <state id="TETANUS" />
      <state id="OTHER" />
      <parents>L_LNLT1_APB_NEUR_ACT L_LNLLP_APB_NEUR_ACT</parents>
      <probabilities>1 0 0 0 0 0 0 1 0 0 0 0 0 0 1 0 0 0 0 0 0 1 0 0 0 0 0 0 1 0 0 0 0 0 0 1 0 1 0 0 0 0 0 1 0 0 0 0 0 0 1 0 0 0 0 0 0 1 0 0 0 0 0 0 1 0 0 0 0 0 0 1 0 0 1 0 0 0 0 0 1 0 0 0 0 0 1 0 0 0 0 0 0 1 0 0 0 0 0 0 1 0 0 0 0 0 0 1 0 0 0 1 0 0 0 0 0 1 0 0 0 0 0 1 0 0 0 0 0 1 0 0 0 0 0 0 1 0 0 0 0 0 0 1 0 0 0 0 1 0 0 0 0 0 1 0 0 0 0 0 1 0 0 0 0 0 1 0 0 0 0 0 1 0 0 0 0 0 0 1 0 0 0 0 0 1 0 0 0 0 0 1 0 0 0 0 0 1 0 0 0 0 0 1 0 0 0 0 0 1 0 0 0 0 0 1</probabilities>
    </cpt>
    <cpt id="L_LNLT1_LP_BE_APB_NEUR_ACT">
      <state id="NO" />
      <state id="FASCIC" />
      <state id="NEUROMYO" />
      <state id="MYOKYMIA" />
      <state id="TETANUS" />
      <state id="OTHER" />
      <parents>L_LNLT1_LP_APB_NEUR_ACT L_LNLBE_APB_NEUR_ACT</parents>
      <probabilities>1 0 0 0 0 0 0 1 0 0 0 0 0 0 1 0 0 0 0 0 0 1 0 0 0 0 0 0 1 0 0 0 0 0 0 1 0 1 0 0 0 0 0 1 0 0 0 0 0 0 1 0 0 0 0 0 0 1 0 0 0 0 0 0 1 0 0 0 0 0 0 1 0 0 1 0 0 0 0 0 1 0 0 0 0 0 1 0 0 0 0 0 0 1 0 0 0 0 0 0 1 0 0 0 0 0 0 1 0 0 0 1 0 0 0 0 0 1 0 0 0 0 0 1 0 0 0 0 0 1 0 0 0 0 0 0 1 0 0 0 0 0 0 1 0 0 0 0 1 0 0 0 0 0 1 0 0 0 0 0 1 0 0 0 0 0 1 0 0 0 0 0 1 0 0 0 0 0 0 1 0 0 0 0 0 1 0 0 0 0 0 1 0 0 0 0 0 1 0 0 0 0 0 1 0 0 0 0 0 1 0 0 0 0 0 1</probabilities>
    </cpt>
    <cpt id="L_MYAS_APB_MUDENS">
      <state id="NORMAL" />
      <state id="INCR" />
      <state id="V_INCR" />
      <probabilities>1 0 0</probabilities>
    </cpt>
    <cpt id="L_MYDY_APB_MUDENS">
      <state id="NORMAL" />
      <state id="INCR" />
      <state id="V_INCR" />
      <probabilities>1 0 0</probabilities>
    </cpt>
    <cpt id="L_MYOP_APB_MUDENS">
      <state id="NORMAL" />
      <state id="INCR" />
      <state id="V_INCR" />
      <probabilities>1 0 0</probabilities>
    </cpt>
    <cpt id="L_MYOP_MYDY_APB_MUDENS">
      <state id="NORMAL" />
      <state id="INCR" />
      <state id="V_INCR" />
      <parents>L_MYOP_APB_MUDENS L_MYDY_APB_MUDENS</parents>
      <probabilities>1 0 0 0 1 0 0 0 1 0 1 0 0 0 1 0 0 1 0 0 1 0 0 1 0 0 1</probabilities>
    </cpt>
    <cpt id="L_MUSCLE_APB_MUDENS">
      <state id="NORMAL" />
      <state id="INCR" />
      <state id="V_INCR" />
      <parents>L_MYOP_MYDY_APB_MUDENS L_MYAS_APB_MUDENS</parents>
      <probabilities>1 0 0 0 1 0 0 0 1 0 1 0 0 0 1 0 0 1 0 0 1 0 0 1 0 0 1</probabilities>
    </cpt>
    <cpt id="L_LNLBE_APB_MUDENS">
      <state id="NORMAL" />
      <state id="INCR" />
      <state id="V_INCR" />
      <probabilities>1 0 0</probabilities>
    </cpt>
    <cpt id="L_LNLLP_APB_MUDENS">
      <state id="NORMAL" />
      <state id="INCR" />
      <state id="V_INCR" />
      <probabilities>1 0 0</probabilities>
    </cpt>
    <cpt id="L_LNLT1_APB_MUDENS">
      <state id="NORMAL" />
      <state id="INCR" />
      <state id="V_INCR" />
      <probabilities>1 0 0</probabilities>
    </cpt>
    <cpt id="L_LNLT1_LP_APB_MUDENS">
      <state id="NORMAL" />
      <state id="INCR" />
      <state id="V_INCR" />
      <parents>L_LNLT1_APB_MUDENS L_LNLLP_APB_MUDENS</parents>
      <probabilities>1 0 0 0 1 0 0 0 1 0 1 0 0 0 1 0 0 1 0 0 1 0 0 1 0 0 1</probabilities>
    </cpt>
    <cpt id="L_LNLT1_LP_BE_APB_MUDENS">
      <state id="NORMAL" />
      <state id="INCR" />
      <state id="V_INCR" />
      <parents>L_LNLT1_LP_APB_MUDENS L_LNLBE_APB_MUDENS</parents>
      <probabilities>1 0 0 0 1 0 0 0 1 0 1 0 0 0 1 0 0 1 0 0 1 0 0 1 0 0 1</probabilities>
    </cpt>
    <cpt id="L_APB_VOL_ACT">
      <state id="NORMAL" />
      <state id="REDUCED" />
      <state id="V_RED" />
      <state id="ABSENT" />
      <probabilities>1 0 0 0</probabilities>
    </cpt>
    <cpt id="L_LNLBE_MED_DIFSLOW">
      <state id="NO" />
      <state id="MILD" />
      <state id="MOD" />
      <state id="SEV" />
      <probabilities>1 0 0 0</probabilities>
    </cpt>
    <cpt id="L_LNLT1_APB_MUSIZE">
      <state id="V_SMALL" />
      <state id="SMALL" />
      <state id="NORMAL" />
      <state id="INCR" />
      <state id="LARGE" />
      <state id="V_LARGE" />
      <probabilities>0 0 1 0 0 0</probabilities>
    </cpt>
    <cpt id="L_LNLLP_APB_MUSIZE">
      <state id="V_SMALL" />
      <state id="SMALL" />
      <state id="NORMAL" />
      <state id="INCR" />
      <state id="LARGE" />
      <state id="V_LARGE" />
      <probabilities>0 0 1 0 0 0</probabilities>
    </cpt>
    <cpt id="L_LNLT1_LP_APB_MUSIZE">
      <state id="V_SMALL" />
      <state id="SMALL" />
      <state id="NORMAL" />
      <state id="INCR" />
      <state id="LARGE" />
      <state id="V_LARGE" />
      <parents>L_LNLLP_APB_MUSIZE L_LNLT1_APB_MUSIZE</parents>
      <probabilities>1 0 0 0 0 0 1 0 0 0 0 0 1 0 0 0 0 0 1 0 0 0 0 0 1 0 0 0 0 0 1 0 0 0 0 0 1 0 0 0 0 0 0 1 0 0 0 0 0 1 0 0 0 0 0 1 0 0 0 0 0 1 0 0 0 0 0 0.9994 0.00050005 0.00010001 0 0 1 0 0 0 0 0 0 1 0 0 0 0 0 0 1 0 0 0 0 0 0 1 0 0 0 0 0 0 1 0 0 0 0 0 0 1 1 0 0 0 0 0 0 1 0 0 0 0 0 0 0 1 0 0 0 0 0 1 0 0 0 0 0 0 1 0 0 0 0 0 0 1 1 0 0 0 0 0 0 1 0 0 0 0 0 0 0 0 1 0 0 0 0 0 1 0 0 0 0 0 1 0 0 0 0 0 0 1 1 0 0 0 0 0 0 0.9994 0.00050005 0.00010001 0 0 0 0 0 0 0 1 0 0 0 0 0 1 0 0 0 0 0 1 0 0 0 0 0 1</probabilities>
    </cpt>
    <cpt id="L_LNLBE_APB_MUSIZE">
      <state id="V_SMALL" />
      <state id="SMALL" />
      <state id="NORMAL" />
      <state id="INCR" />
      <state id="LARGE" />
      <state id="V_LARGE" />
      <probabilities>0 0 1 0 0 0</probabilities>
    </cpt>
    <cpt id="L_LNLT1_LP_BE_APB_MUSIZE">
      <state id="V_SMALL" />
      <state id="SMALL" />
      <state id="NORMAL" />
      <state id="INCR" />
      <state id="LARGE" />
      <state id="V_LARGE" />
      <parents>L_LNLBE_APB_MUSIZE L_LNLT1_LP_APB_MUSIZE</parents>
      <probabilities>1 0 0 0 0 0 1 0 0 0 0 0 1 0 0 0 0 0 1 0 0 0 0 0 1 0 0 0 0 0 1 0 0 0 0 0 1 0 0 0 0 0 0 1 0 0 0 0 0 1 0 0 0 0 0 1 0 0 0 0 0 1 0 0 0 0 0 0.9994 0.00050005 0.00010001 0 0 1 0 0 0 0 0 0 1 0 0 0 0 0 0 1 0 0 0 0 0 0 1 0 0 0 0 0 0 1 0 0 0 0 0 0 1 1 0 0 0 0 0 0 1 0 0 0 0 0 0 0 1 0 0 0 0 0 1 0 0 0 0 0 0 1 0 0 0 0 0 0 1 1 0 0 0 0 0 0 1 0 0 0 0 0 0 0 0 1 0 0 0 0 0 1 0 0 0 0 0 1 0 0 0 0 0 0 1 1 0 0 0 0 0 0 0.9994 0.00050005 0.00010001 0 0 0 0 0 0 0 1 0 0 0 0 0 1 0 0 0 0 0 1 0 0 0 0 0 1</probabilities>
    </cpt>
    <cpt id="L_MYOP_APB_MUSIZE">
      <state id="V_SMALL" />
      <state id="SMALL" />
      <state id="NORMAL" />
      <state id="INCR" />
      <state id="LARGE" />
      <state id="V_LARGE" />
      <probabilities>0 0 1 0 0 0</probabilities>
    </cpt>
    <cpt id="L_MYDY_APB_MUSIZE">
      <state id="V_SMALL" />
      <state id="SMALL" />
      <state id="NORMAL" />
      <state id="INCR" />
      <state id="LARGE" />
      <state id="V_LARGE" />
      <probabilities>0 0 1 0 0 0</probabilities>
    </cpt>
    <cpt id="L_MYOP_MYDY_APB_MUSIZE">
      <state id="V_SMALL" />
      <state id="SMALL" />
      <state id="NORMAL" />
      <state id="INCR" />
      <state id="LARGE" />
      <state id="V_LARGE" />
      <parents>L_MYDY_APB_MUSIZE L_MYOP_APB_MUSIZE</parents>
      <probabilities>1 0 0 0 0 0 0.9983 0.0017 0 0 0 0 0.9857 0.0143 0 0 0 0 0.3673 0.6298 0.0029 0 0 0 0.0115012 0.861686 0.124912 0.00190019 0 0 0 0.1596 0.7368 0.1016 0.002 0 0.9983 0.0017 0 0 0 0 0.8667 0.1329 0.0004 0 0 0 0.0139014 0.963696 0.0224022 0 0 0 0.0003 0.3514 0.6035 0.0443 0.0005 0 0 0.0105 0.5726 0.3806 0.0359 0.0004 0 0 0.0792 0.4758 0.4066 0.0384 0.9857 0.0143 0 0 0 0 0.0139014 0.963696 0.0224022 0 0 0 0 0 1 0 0 0 0 0 0.0406041 0.927793 0.0316032 0 0 0 0 0.0319 0.9362 0.0319 0 0 0 0 0.0329 0.9671 0.3673 0.6298 0.0029 0 0 0 0.0003 0.3514 0.6035 0.0443 0.0005 0 0 0 0.0406041 0.927793 0.0316032 0 0 0 0.00039996 0.109889 0.779822 0.109889 0 0 0 0.00030003 0.123412 0.876288 0 0 0 0 0.0028 0.9972 0.0115012 0.861686 0.124912 0.00190019 0 0 0 0.0105 0.5726 0.3806 0.0359 0.0004 0 0 0 0.0319 0.9362 0.0319 0 0 0 0.00030003 0.123412 0.876288 0 0 0 0 0.0028 0.9972 0 0 0 0 0.0001 0.9999 0 0.1596 0.7368 0.1016 0.002 0 0 0 0.0792 0.4758 0.4066 0.0384 0 0 0 0 0.0329 0.9671 0 0 0 0 0.0028 0.9972 0 0 0 0 0.0001 0.9999 0 0 0 0 0 1</probabilities>
    </cpt>
    <cpt id="L_MYAS_APB_NMT">
      <state id="NO" />
      <state id="MOD_PRE" />
      <state id="SEV_PRE" />
      <state id="MLD_POST" />
      <state id="MOD_POST" />
      <state id="SEV_POST" />
      <state id="MIXED" />
      <probabilities>1 0 0 0 0 0 0</probabilities>
    </cpt>
    <cpt id="L_MYDY_APB_DE_REGEN">
      <state id="NO" />
      <state id="YES" />
      <probabilities>1 0</probabilities>
    </cpt>
    <cpt id="L_MYOP_APB_DE_REGEN">
      <state id="NO" />
      <state id="YES" />
      <probabilities>1 0</probabilities>
    </cpt>
    <cpt id="L_MYOP_MYDY_APB_DE_REGEN">
      <state id="NO" />
      <state id="YES" />
      <parents>L_MYOP_APB_DE_REGEN L_MYDY_APB_DE_REGEN</parents>
      <probabilities>1 0 0 1 0 1 0 1</probabilities>
    </cpt>
    <cpt id="L_LNLW_MED_TIME">
      <state id="ACUTE" />
      <state id="SUBACUTE" />
      <state id="CHRONIC" />
      <state id="OLD" />
      <probabilities>0.05 0.33 0.6 0.02</probabilities>
    </cpt>
    <cpt id="L_LNLBE_APB_DE_REGEN">
      <state id="NO" />
      <state id="YES" />
      <probabilities>1 0</probabilities>
    </cpt>
    <cpt id="L_LNLLP_APB_DE_REGEN">
      <state id="NO" />
      <state id="YES" />
      <probabilities>1 0</probabilities>
    </cpt>
    <cpt id="L_LNLT1_APB_DE_REGEN">
      <state id="NO" />
      <state id="YES" />
      <probabilities>1 0</probabilities>
    </cpt>
    <cpt id="L_LNLT1_LP_APB_DE_REGEN">
      <state id="NO" />
      <state id="YES" />
      <parents>L_LNLT1_APB_DE_REGEN L_LNLLP_APB_DE_REGEN</parents>
      <probabilities>1 0 0 1 0 1 0 1</probabilities>
    </cpt>
    <cpt id="L_LNLT1_LP_BE_APB_DE_REGEN">
      <state id="NO" />
      <state id="YES" />
      <parents>L_LNLT1_LP_APB_DE_REGEN L_LNLBE_APB_DE_REGEN</parents>
      <probabilities>1 0 0 1 0 1 0 1</probabilities>
    </cpt>
    <cpt id="L_MED_RD_EW">
      <state id="NO" />
      <state id="MOD" />
      <state id="SEV" />
      <probabilities>1 0 0</probabilities>
    </cpt>
    <cpt id="L_MED_LD_EW">
      <state id="NO" />
      <state id="MILD" />
      <state id="MOD" />
      <state id="SEV" />
      <probabilities>1 0 0 0</probabilities>
    </cpt>
    <cpt id="L_MED_RDLDCV_EW">
      <state id="M_S60" />
      <state id="M_S52" />
      <state id="M_S44" />
      <state id="M_S27" />
      <state id="M_S15" />
      <state id="M_S07" />
      <parents>L_MED_LD_EW L_MED_RD_EW</parents>
      <probabilities>0.90449 0.0953095 0.00020002 0 0 0 0.132 0.6039 0.2641 0 0 0 0.0139 0.1839 0.8022 0 0 0 0.00120012 0.00670067 0.0544054 0.860086 0.0776078 0 0.0115 0.0333 0.1509 0.7319 0.0724 0 0.00340034 0.0122012 0.0690069 0.719672 0.19532 0.00040004 0.0011 0.0045 0.0299 0.5742 0.3876 0.0027 0.0001 0.0002 0.0018 0.0914 0.6093 0.2972 0 9.999e-05 0.00109989 0.146185 0.807019 0.0455954 0 0 0.0002 0.0581 0.795 0.1467 0 0 0.0001 0.0228 0.6344 0.3427 0 0 0 0.0014 0.1063 0.8923</probabilities>
    </cpt>
    <cpt id="L_LNLBE_APB_MALOSS">
      <state id="NO" />
      <state id="MILD" />
      <state id="MOD" />
      <state id="SEV" />
      <state id="TOTAL" />
      <probabilities>1 0 0 0 0</probabilities>
    </cpt>
    <cpt id="L_LNLLP_APB_MALOSS">
      <state id="NO" />
      <state id="MILD" />
      <state id="MOD" />
      <state id="SEV" />
      <state id="TOTAL" />
      <probabilities>1 0 0 0 0</probabilities>
    </cpt>
    <cpt id="L_LNLT1_APB_MALOSS">
      <state id="NO" />
      <state id="MILD" />
      <state id="MOD" />
      <state id="SEV" />
      <state id="TOTAL" />
      <probabilities>1 0 0 0 0</probabilities>
    </cpt>
    <cpt id="L_LNLT1_LP_APB_MALOSS">
      <state id="NO" />
      <state id="MILD" />
      <state id="MOD" />
      <state id="SEV" />
      <state id="TOTAL" />
      <parents>L_LNLT1_APB_MALOSS L_LNLLP_APB_MALOSS</parents>
      <probabilities>1 0 0 0 0 0.0022 0.9977 0.0001 0 0 0.00019998 0.0368963 0.958804 0.00409959 0 0 0.0002 0.0329 0.9669 0 0 0 0 0 1 0.0022 0.9977 0.0001 0 0 0 0.0282 0.9718 0 0 0 0.0009 0.3409 0.6582 0 0 0 0.0038 0.9962 0 0 0 0 0 1 0.00019998 0.0368963 0.958804 0.00409959 0 0 0.0009 0.3409 0.6582 0 0 0 0.01 0.99 0 0 0 0.0011 0.9989 0 0 0 0 0 1 0 0.0002 0.0329 0.9669 0 0 0 0.0038 0.9962 0 0 0 0.0011 0.9989 0 0 0 0.0004 0.9996 0 0 0 0 0 1 0 0 0 0 1 0 0 0 0 1 0 0 0 0 1 0 0 0 0 1 0 0 0 0 1</probabilities>
    </cpt>
    <cpt id="L_LNLT1_LP_BE_APB_MALOSS">
      <state id="NO" />
      <state id="MILD" />
      <state id="MOD" />
      <state id="SEV" />
      <state id="TOTAL" />
      <parents>L_LNLT1_LP_APB_MALOSS L_LNLBE_APB_MALOSS</parents>
      <probabilities>1 0 0 0 0 0.0022 0.9977 0.0001 0 0 0.00019998 0.0368963 0.958804 0.00409959 0 0 0.0002 0.0329 0.9669 0 0 0 0 0 1 0.0022 0.9977 0.0001 0 0 0 0.0282 0.9718 0 0 0 0.0009 0.3409 0.6582 0 0 0 0.0038 0.9962 0 0 0 0 0 1 0.00019998 0.0368963 0.958804 0.00409959 0 0 0.0009 0.3409 0.6582 0 0 0 0.01 0.99 0 0 0 0.0011 0.9989 0 0 0 0 0 1 0 0.0002 0.0329 0.9669 0 0 0 0.0038 0.9962 0 0 0 0.0011 0.9989 0 0 0 0.0004 0.9996 0 0 0 0 0 1 0 0 0 0 1 0 0 0 0 1 0 0 0 0 1 0 0 0 0 1 0 0 0 0 1</probabilities>
    </cpt>
    <cpt id="L_LNLBE_MED_BLOCK">
      <state id="NO" />
      <state id="MILD" />
      <state id="MOD" />
      <state id="SEV" />
      <state id="TOTAL" />
      <probabilities>1 0 0 0 0</probabilities>
    </cpt>
    <cpt id="L_LNLBE_MEDD2_DIFSLOW_WD">
      <state id="NO" />
      <state id="MILD" />
      <state id="MOD" />
      <state id="SEV" />
      <probabilities>1 0 0 0</probabilities>
    </cpt>
    <cpt id="L_LNLBE_MEDD2_SALOSS_EW">
      <state id="NO" />
      <state id="MILD" />
      <state id="MOD" />
      <state id="SEV" />
      <state id="TOTAL" />
      <probabilities>1 0 0 0 0</probabilities>
    </cpt>
    <cpt id="L_LNLBE_MEDD2_RD_EW">
      <state id="NO" />
      <state id="MOD" />
      <state id="SEV" />
      <probabilities>1 0 0</probabilities>
    </cpt>
    <cpt id="L_MEDD2_RD_EW">
      <state id="NO" />
      <state id="MOD" />
      <state id="SEV" />
      <parents>L_LNLBE_MEDD2_RD_EW</parents>
      <probabilities>1 0 0 0 1 0 0 0 1</probabilities>
    </cpt>
    <cpt id="L_LNLBE_MEDD2_LD_EW">
      <state id="NO" />
      <state id="MILD" />
      <state id="MOD" />
      <state id="SEV" />
      <probabilities>1 0 0 0</probabilities>
    </cpt>
    <cpt id="L_MEDD2_LD_EW">
      <state id="NO" />
      <state id="MILD" />
      <state id="MOD" />
      <state id="SEV" />
      <parents>L_LNLBE_MEDD2_LD_EW</parents>
      <probabilities>1 0 0 0 0 1 0 0 0 0 1 0 0 0 0 1</probabilities>
    </cpt>
    <cpt id="L_MEDD2_LSLOW_EW">
      <state id="NO" />
      <state id="MILD" />
      <state id="MOD" />
      <state id="SEV" />
      <state id="V_SEV" />
      <parents>L_MEDD2_LD_EW L_MEDD2_RD_EW</parents>
      <probabilities>1 0 0 0 0 0.0185 0.9561 0.0254 0 0 0 0.0166 0.9834 0 0 0.0007 0.002 0.0219 0.9754 0 0.00840084 0.0119012 0.0619062 0.917392 0.00040004 0.00690069 0.010001 0.0535053 0.928693 0.00090009 0.00559944 0.00829917 0.0451955 0.938906 0.0019998 0.0023 0.0036 0.0217 0.8326 0.1398 0.00529947 0.00619938 0.0263974 0.208179 0.753925 0.0049 0.0057 0.0244 0.1966 0.7684 0.00440044 0.00520052 0.0224022 0.183918 0.784078 0.0028 0.0033 0.0145 0.1304 0.849</probabilities>
    </cpt>
    <cpt id="L_LNLBE_MEDD2_BLOCK_EW">
      <state id="NO" />
      <state id="MILD" />
      <state id="MOD" />
      <state id="SEV" />
      <state id="TOTAL" />
      <probabilities>1 0 0 0 0</probabilities>
    </cpt>
    <cpt id="L_LNLBE_MEDD2_DISP_EW">
      <state id="NO" />
      <state id="MILD" />
      <state id="MOD" />
      <state id="SEV" />
      <probabilities>1 0 0 0</probabilities>
    </cpt>
    <cpt id="L_LNLW_MED_PATHO">
      <state id="DEMY" />
      <state id="BLOCK" />
      <state id="AXONAL" />
      <state id="V_E_REIN" />
      <state id="E_REIN" />
      <probabilities>0.8 0.12 0.07 0.005 0.005</probabilities>
    </cpt>
    <cpt id="L_MED_RD_WA">
      <state id="NO" />
      <state id="MOD" />
      <state id="SEV" />
      <parents>L_LNLW_MED_PATHO</parents>
      <probabilities>1 0 0 1 0 0 1 0 0 0 0 1 0 1 0</probabilities>
    </cpt>
    <cpt id="L_LNLW_MEDD2_RD_WD">
      <state id="NO" />
      <state id="MOD" />
      <state id="SEV" />
      <parents>L_LNLW_MED_PATHO</parents>
      <probabilities>1 0 0 1 0 0 1 0 0 0 0 1 0 1 0</probabilities>
    </cpt>
    <cpt id="L_MEDD2_RD_WD">
      <state id="NO" />
      <state id="MOD" />
      <state id="SEV" />
      <parents>L_LNLW_MEDD2_RD_WD</parents>
      <probabilities>1 0 0 0 1 0 0 0 1</probabilities>
    </cpt>
    <cpt id="L_LNLW_MED_SEV">
      <state id="NO" />
      <state id="MILD" />
      <state id="MOD" />
      <state id="SEV" />
      <state id="TOTAL" />
      <probabilities>0.895 0.06 0.03 0.01 0.005</probabilities>
    </cpt>
    <cpt id="L_LNLW_APB_NEUR_ACT">
      <state id="NO" />
      <state id="FASCIC" />
      <state id="NEUROMYO" />
      <state id="MYOKYMIA" />
      <state id="TETANUS" />
      <state id="OTHER" />
      <parents>L_LNLW_MED_SEV L_LNLW_MED_TIME</parents>
      <probabilities>1 0 0 0 0 0 0.9 0.1 0 0 0 0 0.9 0.1 0 0 0 0 0.9 0.1 0 0 0 0 0.9 0.1 0 0 0 0 1 0 0 0 0 0 0.7 0.3 0 0 0 0 0.7 0.3 0 0 0 0 0.7 0.3 0 0 0 0 1 0 0 0 0 0 1 0 0 0 0 0 0.5 0.5 0 0 0 0 0.5 0.5 0 0 0 0 0.3 0.7 0 0 0 0 1 0 0 0 0 0 1 0 0 0 0 0 0.1 0.9 0 0 0 0 0.7 0.3 0 0 0 0 0.3 0.7 0 0 0 0 1 0 0 0 0 0</probabilities>
    </cpt>
    <cpt id="L_LNLW_APB_MUDENS">
      <state id="NORMAL" />
      <state id="INCR" />
      <state id="V_INCR" />
      <parents>L_LNLW_MED_SEV L_LNLW_MED_TIME L_LNLW_MED_PATHO</parents>
      <probabilities>1 0 0 1 0 0 1 0 0 1 0 0 1 0 0 1 0 0 0.9 0.1 0 0.8 0.2 0 0.6 0.4 0 0.6 0.4 0 1 0 0 0.8 0.2 0 0.7 0.3 0 0.6 0.4 0 0.6 0.4 0 1 0 0 0.8 0.2 0 0.7 0.3 0 0.6 0.4 0 0.6 0.4 0 1 0 0 1 0 0 1 0 0 1 0 0 1 0 0 1 0 0 0.9 0.1 0 0.8 0.2 0 0.6 0.4 0 0.6 0.4 0 1 0 0 0.8 0.2 0 0.7 0.3 0 0.6 0.4 0 0.6 0.4 0 1 0 0 0.8 0.2 0 0.7 0.3 0 0.6 0.4 0 0.6 0.4 0 1 0 0 1 0 0 1 0 0 1 0 0 1 0 0 1 0 0 0.6 0.4 0 0.5 0.5 0 0.5 0.4 0.1 0.3 0.6 0.1 1 0 0 0.7 0.3 0 0.1 0.6 0.3 0 0.5 0.5 0 0.5 0.5 1 0 0 0.5 0.5 0 0.15 0.7 0.15 0 0.5 0.5 0 0.5 0.5 1 0 0 1 0 0 1 0 0 1 0 0 1 0 0 1 0 0 0.05 0.5 0.45 0.05 0.5 0.45 0.05 0.5 0.45 0.05 0.5 0.45 1 0 0 0.05 0.5 0.45 0.05 0.5 0.45 0.05 0.5 0.45 0.05 0.5 0.45 1 0 0 0.05 0.5 0.45 0.05 0.5 0.45 0.05 0.5 0.45 0.05 0.5 0.45 1 0 0 1 0 0 1 0 0 1 0 0 1 0 0 1 0 0 0.2 0.5 0.3 0.2 0.5 0.3 0.2 0.5 0.3 0.2 0.5 0.3 1 0 0 0.2 0.5 0.3 0.2 0.5 0.3 0.2 0.5 0.3 0.2 0.5 0.3 1 0 0 0.2 0.5 0.3 0.2 0.5 0.3 0.2 0.5 0.3 0.2 0.5 0.3</probabilities>
    </cpt>
    <cpt id="L_LNLW_MEDD2_LD_WD">
      <state id="NO" />
      <state id="MILD" />
      <state id="MOD" />
      <state id="SEV" />
      <parents>L_LNLW_MED_SEV L_LNLW_MED_PATHO</parents>
      <probabilities>1 0 0 0 0 1 0 0 0 0 1 0 0 0 0 1 0 0 0 1 1 0 0 0 0.5 0.5 0 0 0.25 0.5 0.25 0 0.05 0.3 0.5 0.15 0.25 0.25 0.25 0.25 1 0 0 0 1 0 0 0 0.5 0.5 0 0 0 1 0 0 0 0.5 0.5 0 1 0 0 0 1 0 0 0 1 0 0 0 1 0 0 0 1 0 0 0 1 0 0 0 1 0 0 0 1 0 0 0 1 0 0 0 1 0 0 0</probabilities>
    </cpt>
    <cpt id="L_MEDD2_LD_WD">
      <state id="NO" />
      <state id="MILD" />
      <state id="MOD" />
      <state id="SEV" />
      <parents>L_LNLW_MEDD2_LD_WD</parents>
      <probabilities>1 0 0 0 0 1 0 0 0 0 1 0 0 0 0 1</probabilities>
    </cpt>
    <cpt id="L_MEDD2_LSLOW_WD">
      <state id="NO" />
      <state id="MILD" />
      <state id="MOD" />
      <state id="SEV" />
      <state id="V_SEV" />
      <parents>L_MEDD2_LD_WD L_MEDD2_RD_WD</parents>
      <probabilities>1 0 0 0 0 0.0185 0.9561 0.0254 0 0 0 0.0166 0.9834 0 0 0.0007 0.002 0.0219 0.9754 0 0.0021 0.0042 0.0295 0.9642 0 0.0012 0.0025 0.0194 0.9769 0 0.00069993 0.00149985 0.0119988 0.985801 0 0.00020002 0.00050005 0.00460046 0.994499 0.00020002 0.0001 0.0002 0.0014 0.083 0.9153 0.0001 0.0001 0.0008 0.0533 0.9457 0 0.0001 0.0004 0.0319 0.9676 0 0 0 0.00350035 0.9965</probabilities>
    </cpt>
    <cpt id="L_LNLW_MEDD2_BLOCK_WD">
      <state id="NO" />
      <state id="MILD" />
      <state id="MOD" />
      <state id="SEV" />
      <state id="TOTAL" />
      <parents>L_LNLW_MED_SEV L_LNLW_MED_PATHO</parents>
      <probabilities>1 0 0 0 0 0.8 0.2 0 0 0 0.3 0.6 0.1 0 0 0.1 0.5 0.3 0.1 0 0 0.05 0.2 0.55 0.2 1 0 0 0 0 0 0.5 0.5 0 0 0 0 0.5 0.5 0 0 0 0.2 0.6 0.2 0 0 0 0 1 1 0 0 0 0 1 0 0 0 0 1 0 0 0 0 1 0 0 0 0 1 0 0 0 0 1 0 0 0 0 1 0 0 0 0 1 0 0 0 0 1 0 0 0 0 1 0 0 0 0 1 0 0 0 0 1 0 0 0 0 1 0 0 0 0 1 0 0 0 0 1 0 0 0 0</probabilities>
    </cpt>
    <cpt id="L_LNLW_APB_DENERV">
      <state id="NO" />
      <state id="MILD" />
      <state id="MOD" />
      <state id="SEV" />
      <parents>L_LNLW_MED_SEV L_LNLW_MED_TIME L_LNLW_MED_PATHO</parents>
      <probabilities>1 0 0 0 0.8 0.2 0 0 0.8 0.2 0 0 0.8 0.2 0 0 0.8 0.2 0 0 1 0 0 0 0.8 0.2 0 0 0.3 0.5 0.2 0 0.1 0.5 0.4 0 0 0.4 0.4 0.2 1 0 0 0 0.8 0.2 0 0 0.3 0.5 0.2 0 0.1 0.5 0.4 0 0 0.4 0.4 0.2 1 0 0 0 1 0 0 0 1 0 0 0 0.5 0.4 0.1 0 0.1 0.6 0.25 0.05 1 0 0 0 0.8 0.2 0 0 0.8 0.2 0 0 0.8 0.2 0 0 0.8 0.2 0 0 1 0 0 0 0.8 0.2 0 0 0.6 0.4 0 0 0.4 0.5 0.1 0 0.3 0.4 0.3 0 1 0 0 0 0.9 0.1 0 0 0.6 0.4 0 0 0.4 0.5 0.1 0 0.3 0.4 0.3 0 1 0 0 0 1 0 0 0 1 0 0 0 0.5 0.5 0 0 0.5 0.5 0 0 1 0 0 0 0.8 0.2 0 0 0.8 0.2 0 0 0.8 0.2 0 0 0.8 0.2 0 0 1 0 0 0 0 1 0 0 0 0 1 0 0 0 0.5 0.5 0 0 0 1 1 0 0 0 0 1 0 0 0 0 1 0 0 0 0.5 0.5 0 0 0 1 1 0 0 0 1 0 0 0 0.9 0.1 0 0 0.6 0.3 0.1 0 0.45 0.45 0.1 0 1 0 0 0 0 0 0.5 0.5 0 0 0.5 0.5 0 0 0.5 0.5 0 0 0.5 0.5 1 0 0 0 0 0 0.5 0.5 0 0 0.5 0.5 0 0 0.5 0.5 0 0 0.5 0.5 1 0 0 0 0 0 0.5 0.5 0 0 0.5 0.5 0 0 0.5 0.5 0 0 0.5 0.5 1 0 0 0 0 0 0.5 0.5 0 0 0.5 0.5 0 0 0.5 0.5 0 0 0.5 0.5 1 0 0 0 0.05 0.4 0.5 0.05 0.05 0.4 0.5 0.05 0.05 0.4 0.5 0.05 0.05 0.4 0.5 0.05 1 0 0 0 0.05 0.4 0.5 0.05 0.05 0.4 0.5 0.05 0.05 0.4 0.5 0.05 0.05 0.4 0.5 0.05 1 0 0 0 0.05 0.4 0.5 0.05 0.05 0.4 0.5 0.05 0.05 0.4 0.5 0.05 0.05 0.4 0.5 0.05 1 0 0 0 0.05 0.4 0.5 0.05 0.05 0.4 0.5 0.05 0.05 0.4 0.5 0.05 0.05 0.4 0.5 0.05</probabilities>
    </cpt>
    <cpt id="L_LNLW_MED_BLOCK">
      <state id="NO" />
      <state id="MILD" />
      <state id="MOD" />
      <state id="SEV" />
      <state id="TOTAL" />
      <parents>L_LNLW_MED_SEV L_LNLW_MED_PATHO</parents>
      <probabilities>1 0 0 0 0 1 0 0 0 0 0.6 0.4 0 0 0 0.25 0.5 0.25 0 0 0.2 0.2 0.2 0.2 0.2 1 0 0 0 0 0 0.5 0.5 0 0 0 0.5 0.5 0 0 0 0 0.4 0.5 0.1 0 0 0 0 1 1 0 0 0 0 1 0 0 0 0 1 0 0 0 0 1 0 0 0 0 0.2 0.2 0.2 0.2 0.2 1 0 0 0 0 1 0 0 0 0 1 0 0 0 0 1 0 0 0 0 1 0 0 0 0 1 0 0 0 0 1 0 0 0 0 1 0 0 0 0 1 0 0 0 0 1 0 0 0 0</probabilities>
    </cpt>
    <cpt id="L_MED_LD_WA">
      <state id="NO" />
      <state id="MILD" />
      <state id="MOD" />
      <state id="SEV" />
      <parents>L_LNLW_MED_SEV L_LNLW_MED_PATHO</parents>
      <probabilities>1 0 0 0 0 1 0 0 0 0 1 0 0 0 0 1 0.25 0.25 0.25 0.25 1 0 0 0 0.5 0.5 0 0 0.25 0.5 0.25 0 0.05 0.3 0.5 0.15 0.25 0.25 0.25 0.25 1 0 0 0 1 0 0 0 0.5 0.5 0 0 0 1 0 0 0.25 0.25 0.25 0.25 1 0 0 0 1 0 0 0 1 0 0 0 1 0 0 0 0.25 0.25 0.25 0.25 1 0 0 0 1 0 0 0 1 0 0 0 1 0 0 0 0.25 0.25 0.25 0.25</probabilities>
    </cpt>
    <cpt id="L_MED_RDLDDEL">
      <state id="MS3_1" />
      <state id="MS3_9" />
      <state id="MS4_7" />
      <state id="MS10_1" />
      <state id="MS20_1" />
      <parents>L_MED_LD_WA L_MED_RD_WA</parents>
      <probabilities>1 0 0 0 0 0.0964 0.7981 0.1055 0 0 0.0032 0.127 0.8698 0 0 0.00090009 0.00280028 0.0147015 0.981598 0 0.0019 0.5257 0.4724 0 0 0.00019998 0.0414958 0.958304 0 0 0.0001 0.0144 0.9855 0 0 0.00019998 0.00059994 0.00369963 0.9955 0 0.0002 0.0304 0.9694 0 0 0.0001 0.0142 0.9857 0 0 0 0.009 0.9808 0.0102 0 0 0.0002 0.0012 0.9984 0.0002</probabilities>
    </cpt>
    <cpt id="L_LNLW_APB_MUSIZE">
      <state id="V_SMALL" />
      <state id="SMALL" />
      <state id="NORMAL" />
      <state id="INCR" />
      <state id="LARGE" />
      <state id="V_LARGE" />
      <parents>L_LNLW_MED_SEV L_LNLW_MED_TIME L_LNLW_MED_PATHO</parents>
      <probabilities>0 0 1 0 0 0 0 0 1 0 0 0 0 0 1 0 0 0 0 0 1 0 0 0 0 0 1 0 0 0 0 0 1 0 0 0 0 0 1 0 0 0 0 0 1 0 0 0 0 0 1 0 0 0 0 0 1 0 0 0 0 0 1 0 0 0 0 0 0.9 0.1 0 0 0 0 0.2 0.7 0.1 0 0 0 0 0.2 0.7 0.1 0 0 0 0.2 0.7 0.1 0 0 1 0 0 0 0 0 0.9 0.1 0 0 0 0 0.2 0.7 0.1 0 0 0 0 0.2 0.7 0.1 0 0 0 0.2 0.7 0.1 0 0 1 0 0 0 0 0 1 0 0 0 0 0 1 0 0 0 0 0 1 0 0 0 0 0 1 0 0 0 0 0 1 0 0 0 0 0 1 0 0 0 0 0 1 0 0 0 0 0 1 0 0 0 0 0 1 0 0 0 0 0 1 0 0 0 0 0 0.95 0.05 0 0 0 0 0.7 0.25 0.05 0 0 0 0 0.25 0.7 0.05 0 0 0 0.25 0.7 0.05 0 0 1 0 0 0 0 0 0.95 0.05 0 0 0 0 0.7 0.25 0.05 0 0 0 0 0.25 0.7 0.05 0 0 0 0.25 0.7 0.05 0 0 1 0 0 0 0 0 1 0 0 0 0 0 1 0 0 0 0 0 1 0 0 0 0 0 1 0 0 0 0 0 1 0 0 0 0 0 1 0 0 0 0 0 1 0 0 0 0 0 1 0 0 0 0 0 1 0 0 0 0 0 1 0 0 0 0 0 0.8 0.2 0 0 0 0 0 0.8 0.2 0 0 0 0 0.1 0.6 0.3 0 0 0 0.1 0.6 0.3 0 0 1 0 0 0 0 0 0.8 0.2 0 0 0 0 0 0.8 0.2 0 0 0 0 0.1 0.6 0.3 0 0 0 0.1 0.6 0.3 1 0 0 0 0 0 1 0 0 0 0 0 1 0 0 0 0 0 1 0 0 0 0 0 1 0 0 0 0 0 1 0 0 0 0 0 1 0 0 0 0 0 1 0 0 0 0 0 1 0 0 0 0 0 1 0 0 0 0 0 1 0 0 0 0 0 1 0 0 0 0 0 1 0 0 0 0 0 1 0 0 0 0 0 1 0 0 0 0 0 1 0 0 0 0 0 1 0 0 0 0 0 1 0 0 0 0 0 1 0 0 0 0 0 1 0 0 0 0 0 0 1 0 0 0 0 0 1 0 0 0 0 0 1 0 0 0 0 0 1 0 0 0 0 0 1 0 0 0 0 0 1 0 0 0 0 0 1 0 0 0 0 0 1 0 0 0 0 0 1 0 0 0 0 0 1 0 0 0 0 0 1 0 0 0 0 0 1 0 0 0 0 0 1 0 0 0 0 0 1 0 0 0 0 0 1 0 0 0 0 0 1 0 0 0 0 0 1 0 0 0 0 0 1 0 0 0 0 0 1 0 0 0 0 0 1 0 0 0 0</probabilities>
    </cpt>
    <cpt id="L_LNLW_APB_DE_REGEN">
      <state id="NO" />
      <state id="YES" />
      <parents>L_LNLW_MED_SEV L_LNLW_MED_TIME L_LNLW_MED_PATHO</parents>
      <probabilities>1 0 1 0 1 0 1 0 1 0 1 0 0.8 0.2 0.2 0.8 0.4 0.6 1 0 1 0 0.8 0.2 0.2 0.8 0.4 0.6 1 0 1 0 1 0 0.8 0.2 0.4 0.6 1 0 1 0 1 0 1 0 1 0 1 0 1 0 0.8 0.2 0.2 0.8 0.4 0.6 1 0 1 0 0.8 0.2 0.2 0.8 0.4 0.6 1 0 1 0 1 0 0.8 0.2 0.4 0.6 1 0 1 0 1 0 1 0 1 0 1 0 1 0 0.5 0.5 0.2 0.8 0.1 0.9 1 0 1 0 0.5 0.5 0.2 0.8 0.1 0.9 1 0 1 0 1 0 0.8 0.2 0.4 0.6 1 0 0 1 0 1 0 1 0 1 0 1 0 1 0 1 0 1 0 1 0 1 0 1 0 1 0 1 0 1 0 1 0 1 0 1 0 1 0 1 0 1 0 1 0 1 0 1 0 1 0 1 0 1 0 1 0 1 0 1 0 1 0 1 0 1 0 1 0 1 0 1 0 1 0 1 0 1 0 1 0 1</probabilities>
    </cpt>
    <cpt id="L_LNLW_APB_MALOSS">
      <state id="NO" />
      <state id="MILD" />
      <state id="MOD" />
      <state id="SEV" />
      <state id="TOTAL" />
      <parents>L_LNLW_MED_SEV L_LNLW_MED_PATHO</parents>
      <probabilities>1 0 0 0 0 0.5 0.5 0 0 0 0 0.5 0.5 0 0 0 0 0.5 0.5 0 0 0 0 0.1 0.9 1 0 0 0 0 0.5 0.5 0 0 0 0.4 0.3 0.3 0 0 0 0 0.5 0.5 0 0.25 0.25 0.25 0.25 0 1 0 0 0 0 0 1 0 0 0 0 0 1 0 0 0 0 0 1 0 0 0 0 0 1 0 0 0 1 0 0 0 0 1 0 0 0 0 1 0 0 0 0 1 0 0 0 0 1 0 0 0 0.5 0.5 0 0 0 0.5 0.5 0 0 0 0.5 0.5 0 0 0 0.5 0.5 0 0 0 0.5 0.5 0</probabilities>
    </cpt>
    <cpt id="L_LNLW_MEDD2_SALOSS_WD">
      <state id="NO" />
      <state id="MILD" />
      <state id="MOD" />
      <state id="SEV" />
      <state id="TOTAL" />
      <parents>L_LNLW_MED_SEV L_LNLW_MED_PATHO</parents>
      <probabilities>1 0 0 0 0 0.5 0.5 0 0 0 0 0.5 0.5 0 0 0 0 0.5 0.5 0 0 0 0 0.4 0.6 1 0 0 0 0 0.5 0.5 0 0 0 0.2 0.5 0.3 0 0 0 0.2 0.5 0.3 0 0 0.1 0.4 0.4 0.1 1 0 0 0 0 0 1 0 0 0 0 0 1 0 0 0 0 0 1 0 0 0 0 0 1 0 0 0 1 0 0 0 0 1 0 0 0 0 1 0 0 0 0 1 0 0 0 0 1 0 0 0 0.5 0.5 0 0 0 0.5 0.5 0 0 0 0.5 0.5 0 0 0 0.5 0.5 0 0 0 0.5 0.5 0</probabilities>
    </cpt>
    <cpt id="L_LNLW_MEDD2_DISP_WD">
      <state id="NO" />
      <state id="MILD" />
      <state id="MOD" />
      <state id="SEV" />
      <parents>L_LNLW_MED_SEV L_LNLW_MED_PATHO</parents>
      <probabilities>1 0 0 0 0 1 0 0 0 0 1 0 0 0 0 1 0 0 0 1 1 0 0 0 0.5 0.5 0 0 0 0.5 0.5 0 0 0.1 0.5 0.4 0 0 0.5 0.5 1 0 0 0 1 0 0 0 0.5 0.5 0 0 0.3 0.5 0.2 0 0 0.5 0.5 0 0 0 0 1 0 0 0 1 0 0 0 1 0 0 0 1 0 0 0 1 0 0 0 1 0 0 0 1 0 0 0 1 0 0 0 1 0 0 0 1</probabilities>
    </cpt>
    <cpt id="R_OTHER_ISCH_DIFSLOW">
      <state id="NO" />
      <state id="MILD" />
      <state id="MOD" />
      <state id="SEV" />
      <probabilities>1 0 0 0</probabilities>
    </cpt>
    <cpt id="R_SUR_RD_CA">
      <state id="NO" />
      <state id="MOD" />
      <state id="SEV" />
      <probabilities>1 0 0</probabilities>
    </cpt>
    <cpt id="R_SUR_LD_CA">
      <state id="NO" />
      <state id="MILD" />
      <state id="MOD" />
      <state id="SEV" />
      <probabilities>1 0 0 0</probabilities>
    </cpt>
    <cpt id="R_SUR_LSLOW_CA">
      <state id="NO" />
      <state id="MILD" />
      <state id="MOD" />
      <state id="SEV" />
      <state id="V_SEV" />
      <parents>R_SUR_LD_CA R_SUR_RD_CA</parents>
      <probabilities>1 0 0 0 0 0.0185 0.9561 0.0254 0 0 0 0.0166 0.9834 0 0 0.0007 0.002 0.0219 0.9754 0 0.0021 0.0042 0.0295 0.9642 0 0.0012 0.0025 0.0194 0.9769 0 0.00069993 0.00149985 0.0119988 0.985801 0 0.00020002 0.00050005 0.00460046 0.994499 0.00020002 0.0001 0.0002 0.0014 0.083 0.9153 0.0001 0.0001 0.0008 0.0533 0.9457 0 0.0001 0.0004 0.0319 0.9676 0 0 0 0.00350035 0.9965</probabilities>
    </cpt>
    <cpt id="R_LNL_ISCH_PATHO">
      <state id="DEMY" />
      <state id="BLOCK" />
      <state id="AXONAL" />
      <state id="V_E_REIN" />
      <state id="E_REIN" />
      <probabilities>0.25 0.25 0.5 0 0</probabilities>
    </cpt>
    <cpt id="R_LNL_ISCH_SEV">
      <state id="NO" />
      <state id="MILD" />
      <state id="MOD" />
      <state id="SEV" />
      <state id="TOTAL" />
      <probabilities>0.96 0.02 0.01 0.005 0.005</probabilities>
    </cpt>
    <cpt id="R_LNL_ISCH_SALOSS_CA">
      <state id="NO" />
      <state id="MILD" />
      <state id="MOD" />
      <state id="SEV" />
      <state id="TOTAL" />
      <parents>R_LNL_ISCH_SEV R_LNL_ISCH_PATHO</parents>
      <probabilities>1 0 0 0 0 0.5 0.5 0 0 0 0 0.5 0.5 0 0 0 0 0.5 0.5 0 0 0 0 0.4 0.6 1 0 0 0 0 0.5 0.5 0 0 0 0.2 0.5 0.3 0 0 0 0.2 0.5 0.3 0 0 0.1 0.4 0.4 0.1 1 0 0 0 0 0 1 0 0 0 0 0 1 0 0 0 0 0 1 0 0 0 0 0 1 0 0 0 1 0 0 0 0 1 0 0 0 0 1 0 0 0 0 1 0 0 0 0 1 0 0 0 0.5 0.5 0 0 0 0.5 0.5 0 0 0 0.5 0.5 0 0 0 0.5 0.5 0 0 0 0.5 0.5 0</probabilities>
    </cpt>
    <cpt id="R_OTHER_ISCH_SALOSS">
      <state id="NO" />
      <state id="MILD" />
      <state id="MOD" />
      <state id="SEV" />
      <state id="TOTAL" />
      <probabilities>1 0 0 0 0</probabilities>
    </cpt>
    <cpt id="R_OTHER_ISCH_BLOCK">
      <state id="NO" />
      <state id="MILD" />
      <state id="MOD" />
      <state id="SEV" />
      <state id="TOTAL" />
      <probabilities>1 0 0 0 0</probabilities>
    </cpt>
    <cpt id="R_OTHER_ISCH_DISP">
      <state id="NO" />
      <state id="MILD" />
      <state id="MOD" />
      <state id="SEV" />
      <probabilities>1 0 0 0</probabilities>
    </cpt>
    <cpt id="R_OTHER_DELT_DENERV">
      <state id="NO" />
      <state id="MILD" />
      <state id="MOD" />
      <state id="SEV" />
      <probabilities>1 0 0 0</probabilities>
    </cpt>
    <cpt id="R_MYDY_DELT_DENERV">
      <state id="NO" />
      <state id="MILD" />
      <state id="MOD" />
      <state id="SEV" />
      <probabilities>1 0 0 0</probabilities>
    </cpt>
    <cpt id="R_MYOP_DELT_DENERV">
      <state id="NO" />
      <state id="MILD" />
      <state id="MOD" />
      <state id="SEV" />
      <probabilities>1 0 0 0</probabilities>
    </cpt>
    <cpt id="R_MYOP_MYDY_DELT_DENERV">
      <state id="NO" />
      <state id="MILD" />
      <state id="MOD" />
      <state id="SEV" />
      <parents>R_MYOP_DELT_DENERV R_MYDY_DELT_DENERV</parents>
      <probabilities>1 0 0 0 0 1 0 0 0 0 1 0 0 0 0 1 0 1 0 0 0 0 1 0 0 0 0 1 0 0 0 1 0 0 1 0 0 0 0 1 0 0 0 1 0 0 0 1 0 0 0 1 0 0 0 1 0 0 0 1 0 0 0 1</probabilities>
    </cpt>
    <cpt id="R_OTHER_DELT_NEUR_ACT">
      <state id="NO" />
      <state id="FASCIC" />
      <state id="NEUROMYO" />
      <state id="MYOKYMIA" />
      <state id="TETANUS" />
      <state id="OTHER" />
      <probabilities>1 0 0 0 0 0</probabilities>
    </cpt>
    <cpt id="R_OTHER_DELT_MUDENS">
      <state id="NORMAL" />
      <state id="INCR" />
      <state id="V_INCR" />
      <probabilities>1 0 0</probabilities>
    </cpt>
    <cpt id="R_MYAS_DELT_MUDENS">
      <state id="NORMAL" />
      <state id="INCR" />
      <state id="V_INCR" />
      <probabilities>1 0 0</probabilities>
    </cpt>
    <cpt id="R_MYAS_OTHER_DELT_MUDENS">
      <state id="NORMAL" />
      <state id="INCR" />
      <state id="V_INCR" />
      <parents>R_MYAS_DELT_MUDENS R_OTHER_DELT_MUDENS</parents>
      <probabilities>1 0 0 0 1 0 0 0 1 0 1 0 0 0 1 0 0 1 0 0 1 0 0 1 0 0 1</probabilities>
    </cpt>
    <cpt id="R_MYDY_DELT_MUDENS">
      <state id="NORMAL" />
      <state id="INCR" />
      <state id="V_INCR" />
      <probabilities>1 0 0</probabilities>
    </cpt>
    <cpt id="R_MYOP_DELT_MUDENS">
      <state id="NORMAL" />
      <state id="INCR" />
      <state id="V_INCR" />
      <probabilities>1 0 0</probabilities>
    </cpt>
    <cpt id="R_MYOP_MYDY_DELT_MUDENS">
      <state id="NORMAL" />
      <state id="INCR" />
      <state id="V_INCR" />
      <parents>R_MYOP_DELT_MUDENS R_MYDY_DELT_MUDENS</parents>
      <probabilities>1 0 0 0 1 0 0 0 1 0 1 0 0 0 1 0 0 1 0 0 1 0 0 1 0 0 1</probabilities>
    </cpt>
    <cpt id="R_MUSCLE_DELT_MUDENS">
      <state id="NORMAL" />
      <state id="INCR" />
      <state id="V_INCR" />
      <parents>R_MYOP_MYDY_DELT_MUDENS R_MYAS_OTHER_DELT_MUDENS</parents>
      <probabilities>1 0 0 0 1 0 0 0 1 0 1 0 0 0 1 0 0 1 0 0 1 0 0 1 0 0 1</probabilities>
    </cpt>
    <cpt id="R_DELT_VOL_ACT">
      <state id="NORMAL" />
      <state id="REDUCED" />
      <state id="V_RED" />
      <state id="ABSENT" />
      <probabilities>1 0 0 0</probabilities>
    </cpt>
    <cpt id="R_OTHER_DELT_MALOSS">
      <state id="NO" />
      <state id="MILD" />
      <state id="MOD" />
      <state id="SEV" />
      <state id="TOTAL" />
      <probabilities>1 0 0 0 0</probabilities>
    </cpt>
    <cpt id="R_OTHER_AXIL_BLOCK">
      <state id="NO" />
      <state id="MILD" />
      <state id="MOD" />
      <state id="SEV" />
      <state id="TOTAL" />
      <probabilities>1 0 0 0 0</probabilities>
    </cpt>
    <cpt id="R_MYOP_DELT_MUSIZE">
      <state id="V_SMALL" />
      <state id="SMALL" />
      <state id="NORMAL" />
      <state id="INCR" />
      <state id="LARGE" />
      <state id="V_LARGE" />
      <probabilities>0 0 1 0 0 0</probabilities>
    </cpt>
    <cpt id="R_MYDY_DELT_MUSIZE">
      <state id="V_SMALL" />
      <state id="SMALL" />
      <state id="NORMAL" />
      <state id="INCR" />
      <state id="LARGE" />
      <state id="V_LARGE" />
      <probabilities>0 0 1 0 0 0</probabilities>
    </cpt>
    <cpt id="R_MYOP_MYDY_DELT_MUSIZE">
      <state id="V_SMALL" />
      <state id="SMALL" />
      <state id="NORMAL" />
      <state id="INCR" />
      <state id="LARGE" />
      <state id="V_LARGE" />
      <parents>R_MYDY_DELT_MUSIZE R_MYOP_DELT_MUSIZE</parents>
      <probabilities>1 0 0 0 0 0 0.9983 0.0017 0 0 0 0 0.9857 0.0143 0 0 0 0 0.3673 0.6298 0.0029 0 0 0 0.0115012 0.861686 0.124912 0.00190019 0 0 0 0.1596 0.7368 0.1016 0.002 0 0.9983 0.0017 0 0 0 0 0.8667 0.1329 0.0004 0 0 0 0.0139014 0.963696 0.0224022 0 0 0 0.0003 0.3514 0.6035 0.0443 0.0005 0 0 0.0105 0.5726 0.3806 0.0359 0.0004 0 0 0.0792 0.4758 0.4066 0.0384 0.9857 0.0143 0 0 0 0 0.0139014 0.963696 0.0224022 0 0 0 0 0 1 0 0 0 0 0 0.0406041 0.927793 0.0316032 0 0 0 0 0.0319 0.9362 0.0319 0 0 0 0 0.0329 0.9671 0.3673 0.6298 0.0029 0 0 0 0.0003 0.3514 0.6035 0.0443 0.0005 0 0 0 0.0406041 0.927793 0.0316032 0 0 0 0.00039996 0.109889 0.779822 0.109889 0 0 0 0.00030003 0.123412 0.876288 0 0 0 0 0.0028 0.9972 0.0115012 0.861686 0.124912 0.00190019 0 0 0 0.0105 0.5726 0.3806 0.0359 0.0004 0 0 0 0.0319 0.9362 0.0319 0 0 0 0.00030003 0.123412 0.876288 0 0 0 0 0.0028 0.9972 0 0 0 0 0.0001 0.9999 0 0.1596 0.7368 0.1016 0.002 0 0 0 0.0792 0.4758 0.4066 0.0384 0 0 0 0 0.0329 0.9671 0 0 0 0 0.0028 0.9972 0 0 0 0 0.0001 0.9999 0 0 0 0 0 1</probabilities>
    </cpt>
    <cpt id="R_OTHER_DELT_MUSIZE">
      <state id="V_SMALL" />
      <state id="SMALL" />
      <state id="NORMAL" />
      <state id="INCR" />
      <state id="LARGE" />
      <state id="V_LARGE" />
      <probabilities>0 0 1 0 0 0</probabilities>
    </cpt>
    <cpt id="R_MUSCLE_DELT_MUSIZE">
      <state id="V_SMALL" />
      <state id="SMALL" />
      <state id="NORMAL" />
      <state id="INCR" />
      <state id="LARGE" />
      <state id="V_LARGE" />
      <parents>R_OTHER_DELT_MUSIZE R_MYOP_MYDY_DELT_MUSIZE</parents>
      <probabilities>1 0 0 0 0 0 0.9983 0.0017 0 0 0 0 0.9857 0.0143 0 0 0 0 0.3673 0.6298 0.0029 0 0 0 0.0115012 0.861686 0.124912 0.00190019 0 0 0 0.1596 0.7368 0.1016 0.002 0 0.9983 0.0017 0 0 0 0 0.8667 0.1329 0.0004 0 0 0 0.0139014 0.963696 0.0224022 0 0 0 0.0003 0.3514 0.6035 0.0443 0.0005 0 0 0.0105 0.5726 0.3806 0.0359 0.0004 0 0 0.0792 0.4758 0.4066 0.0384 0.9857 0.0143 0 0 0 0 0.0139014 0.963696 0.0224022 0 0 0 0 0 1 0 0 0 0 0 0.0406041 0.927793 0.0316032 0 0 0 0 0.0319 0.9362 0.0319 0 0 0 0 0.0329 0.9671 0.3673 0.6298 0.0029 0 0 0 0.0003 0.3514 0.6035 0.0443 0.0005 0 0 0 0.0406041 0.927793 0.0316032 0 0 0 0.00039996 0.109889 0.779822 0.109889 0 0 0 0.00030003 0.123412 0.876288 0 0 0 0 0.0028 0.9972 0.0115012 0.861686 0.124912 0.00190019 0 0 0 0.0105 0.5726 0.3806 0.0359 0.0004 0 0 0 0.0319 0.9362 0.0319 0 0 0 0.00030003 0.123412 0.876288 0 0 0 0 0.0028 0.9972 0 0 0 0 0.0001 0.9999 0 0.1596 0.7368 0.1016 0.002 0 0 0 0.0792 0.4758 0.4066 0.0384 0 0 0 0 0.0329 0.9671 0 0 0 0 0.0028 0.9972 0 0 0 0 0.0001 0.9999 0 0 0 0 0 1</probabilities>
    </cpt>
    <cpt id="R_MYAS_DELT_NMT">
      <state id="NO" />
      <state id="MOD_PRE" />
      <state id="SEV_PRE" />
      <state id="MLD_POST" />
      <state id="MOD_POST" />
      <state id="SEV_POST" />
      <state id="MIXED" />
      <probabilities>1 0 0 0 0 0 0</probabilities>
    </cpt>
    <cpt id="R_OTHER_DELT_DE_REGEN">
      <state id="NO" />
      <state id="YES" />
      <probabilities>1 0</probabilities>
    </cpt>
    <cpt id="R_MYDY_DELT_DE_REGEN">
      <state id="NO" />
      <state id="YES" />
      <probabilities>1 0</probabilities>
    </cpt>
    <cpt id="R_MYOP_DELT_DE_REGEN">
      <state id="NO" />
      <state id="YES" />
      <probabilities>1 0</probabilities>
    </cpt>
    <cpt id="R_MYOP_MYDY_DELT_DE_REGEN">
      <state id="NO" />
      <state id="YES" />
      <parents>R_MYOP_DELT_DE_REGEN R_MYDY_DELT_DE_REGEN</parents>
      <probabilities>1 0 0 1 0 1 0 1</probabilities>
    </cpt>
    <cpt id="R_MUSCLE_DELT_DE_REGEN">
      <state id="NO" />
      <state id="YES" />
      <parents>R_MYOP_MYDY_DELT_DE_REGEN R_OTHER_DELT_DE_REGEN</parents>
      <probabilities>1 0 0 1 0 1 0 1</probabilities>
    </cpt>
    <cpt id="R_LNLPC5_AXIL_PATHO">
      <state id="DEMY" />
      <state id="BLOCK" />
      <state id="AXONAL" />
      <state id="V_E_REIN" />
      <state id="E_REIN" />
      <probabilities>0.6 0.19 0.2 0.005 0.005</probabilities>
    </cpt>
    <cpt id="R_AXIL_RD_ED">
      <state id="NO" />
      <state id="MOD" />
      <state id="SEV" />
      <parents>R_LNLPC5_AXIL_PATHO</parents>
      <probabilities>1 0 0 1 0 0 1 0 0 0 0 1 0 1 0</probabilities>
    </cpt>
    <cpt id="R_LNLPC5_AXIL_DIFSLOW">
      <state id="NO" />
      <state id="MILD" />
      <state id="MOD" />
      <state id="SEV" />
      <parents>R_LNLPC5_AXIL_PATHO</parents>
      <probabilities>1 0 0 0 1 0 0 0 1 0 0 0 0 0 0 1 0 0 1 0</probabilities>
    </cpt>
    <cpt id="R_LNLPC5_AXIL_TIME">
      <state id="ACUTE" />
      <state id="SUBACUTE" />
      <state id="CHRONIC" />
      <state id="OLD" />
      <probabilities>0.05 0.6 0.3 0.05</probabilities>
    </cpt>
    <cpt id="R_LNLPC5_AXIL_SEV">
      <state id="NO" />
      <state id="MILD" />
      <state id="MOD" />
      <state id="SEV" />
      <state id="TOTAL" />
      <probabilities>0.980314 0.0106925 0.0049965 0.0029979 0.0009993</probabilities>
    </cpt>
    <cpt id="R_LNLPC5_DELT_MALOSS">
      <state id="NO" />
      <state id="MILD" />
      <state id="MOD" />
      <state id="SEV" />
      <state id="TOTAL" />
      <parents>R_LNLPC5_AXIL_SEV R_LNLPC5_AXIL_PATHO</parents>
      <probabilities>1 0 0 0 0 0.5 0.5 0 0 0 0 0.5 0.5 0 0 0 0 0.5 0.5 0 0 0 0 0.1 0.9 1 0 0 0 0 0.5 0.5 0 0 0 0.4 0.3 0.3 0 0 0 0 0.5 0.5 0 0.25 0.25 0.25 0.25 0 1 0 0 0 0 0 1 0 0 0 0 0 1 0 0 0 0 0 1 0 0 0 0 0 1 0 0 0 1 0 0 0 0 1 0 0 0 0 1 0 0 0 0 1 0 0 0 0 1 0 0 0 0.5 0.5 0 0 0 0.5 0.5 0 0 0 0.5 0.5 0 0 0 0.5 0.5 0 0 0 0.5 0.5 0</probabilities>
    </cpt>
    <cpt id="R_LNLPC5_DELT_DE_REGEN">
      <state id="NO" />
      <state id="YES" />
